%YAML:1.0
my_svm: !!opencv-ml-svm
   svm_type: C_SVC
   kernel: { type:RBF, gamma:5.0625000000000009e-01 }
   C: 2.5000000000000000e+00
   term_criteria: { epsilon:1.1920928955078125e-07, iterations:1000 }
   var_all: 101
   var_count: 101
   class_count: 2
   class_labels: !!opencv-matrix
      rows: 1
      cols: 2
      dt: i
      data: [ 0, 1 ]
   sv_total: 352
   support_vectors:
      - [ 9.37438846e-01, 9.96627450e-01, 9.96772408e-01, 9.97359991e-01,
          9.97979641e-01, 9.96756852e-01, 9.97269928e-01, 9.97693062e-01,
          9.96608257e-01, 9.92842376e-01, 9.91405189e-01, 9.95685101e-01,
          9.96662736e-01, 9.98448074e-01, 9.96941805e-01, 9.96979415e-01,
          9.96832132e-01, 9.97835100e-01, 9.97199535e-01, 9.95813489e-01,
          9.95724916e-01, 9.95530307e-01, 9.95961547e-01, 9.95811760e-01,
          9.95282888e-01, 9.95618880e-01, 9.96721148e-01, 9.97141182e-01,
          9.95681047e-01, 9.96726215e-01, 9.97541606e-01, 9.96787012e-01,
          9.96022165e-01, 9.96164620e-01, 9.95438278e-01, 9.95806873e-01,
          9.97778296e-01, 9.96493220e-01, 9.96103048e-01, 9.89661455e-01,
          9.95366156e-01, 9.97018814e-01, 9.96767640e-01, 9.96053994e-01,
          9.77184296e-01, 9.74529207e-01, 9.89894986e-01, 9.94213343e-01,
          9.86722350e-01, 9.92557704e-01, 9.95670080e-01, 9.91988957e-01,
          9.93784785e-01, 9.93666470e-01, 9.68175292e-01, 9.88445938e-01,
          9.76758838e-01, 9.72366571e-01, 9.19694841e-01, 9.41081762e-01,
          9.65434670e-01, 9.91972327e-01, 9.90678608e-01, 9.39500988e-01,
          9.87221837e-01, 9.90116358e-01, 9.89852369e-01, 9.52323198e-01,
          8.48057568e-01, 9.04079080e-01, 9.16901886e-01, 8.88963401e-01,
          8.89480889e-01, 8.86195421e-01, 8.75577152e-01, 8.62549067e-01,
          7.76075304e-01, 7.40248322e-01, 7.98596382e-01, 8.54796052e-01,
          8.58546019e-01, 8.14784110e-01, 8.13689709e-01, 8.03750873e-01,
          8.15682828e-01, 7.32302189e-01, 6.99761391e-01, 7.96738565e-01,
          8.07678640e-01, 8.08449805e-01, 8.00379872e-01, 8.42528820e-01,
          8.48469377e-01, 8.58142734e-01, 8.66419673e-01, 8.43589187e-01,
          8.51324439e-01, 8.61003041e-01, 8.56828570e-01, 8.61600876e-01,
          8.57086718e-01 ]
      - [ 9.54599023e-01, 9.80533063e-01, 9.78419483e-01, 9.46615815e-01,
          9.22451854e-01, 9.74994779e-01, 9.82094586e-01, 9.79599893e-01,
          9.59754944e-01, 9.44160640e-01, 9.63601589e-01, 9.41343784e-01,
          9.25214887e-01, 9.79196548e-01, 9.79437888e-01, 9.76814866e-01,
          9.83440399e-01, 9.83558774e-01, 9.60802436e-01, 9.63137925e-01,
          9.63877261e-01, 9.46646094e-01, 9.43708718e-01, 9.58609164e-01,
          9.71549869e-01, 9.80519116e-01, 9.68298733e-01, 8.83015335e-01,
          9.55545962e-01, 9.02406216e-01, 8.60502601e-01, 9.70126569e-01,
          9.74397779e-01, 9.21275496e-01, 9.74916220e-01, 9.72791970e-01,
          9.48816419e-01, 8.38070750e-01, 9.48761404e-01, 9.45273340e-01,
          9.67133343e-01, 9.85263050e-01, 9.68880713e-01, 9.35704172e-01,
          9.68295395e-01, 9.35900450e-01, 9.26279187e-01, 8.11111808e-01,
          9.57841277e-01, 9.53498423e-01, 9.61972654e-01, 9.81201410e-01,
          9.85649705e-01, 9.83230114e-01, 9.85527754e-01, 9.60585177e-01,
          9.18273985e-01, 8.05839241e-01, 9.67718661e-01, 9.58104432e-01,
          9.53839719e-01, 9.84377325e-01, 9.85103130e-01, 9.81513202e-01,
          9.85527277e-01, 9.53584194e-01, 9.02309120e-01, 7.93967724e-01,
          9.68753815e-01, 9.56634462e-01, 9.55627620e-01, 9.85092759e-01,
          9.88898277e-01, 9.83750403e-01, 9.82188761e-01, 8.72593343e-01,
          8.18292975e-01, 7.98574507e-01, 9.73066986e-01, 9.68712807e-01,
          9.65388298e-01, 9.82549787e-01, 9.84230876e-01, 9.81345892e-01,
          9.86643493e-01, 9.75490987e-01, 9.61268544e-01, 9.70818520e-01,
          9.80916798e-01, 9.76424754e-01, 9.70727980e-01, 9.83288348e-01,
          9.79381919e-01, 9.86236453e-01, 9.84383941e-01, 9.87968147e-01,
          9.88434911e-01, 9.85906899e-01, 9.85666752e-01, 9.80903149e-01,
          9.79496181e-01 ]
      - [ 7.97284961e-01, 9.99999583e-01, 9.99999583e-01, 9.99999583e-01,
          9.90615726e-01, 7.76402235e-01, 8.31722796e-01, 8.72794807e-01,
          8.82553041e-01, 8.85592937e-01, 9.22512233e-01, 9.99999583e-01,
          9.99999583e-01, 9.99408007e-01, 8.92888665e-01, 9.16608214e-01,
          9.56030011e-01, 9.83212352e-01, 9.82160926e-01, 9.81544673e-01,
          9.81240630e-01, 9.99999583e-01, 9.99999583e-01, 9.64957118e-01,
          8.20611119e-01, 9.00275052e-01, 9.88144398e-01, 9.78395104e-01,
          9.81149435e-01, 9.80119944e-01, 9.81827855e-01, 9.80900228e-01,
          9.71584260e-01, 9.58860457e-01, 9.15291309e-01, 8.60304356e-01,
          8.88170242e-01, 8.44242573e-01, 9.46973741e-01, 8.88893723e-01,
          9.52385306e-01, 8.41710985e-01, 8.94826055e-01, 8.43141913e-01,
          8.31429660e-01, 7.68818796e-01, 8.28046679e-01, 8.72214496e-01,
          8.73304367e-01, 8.86392593e-01, 9.18663144e-01, 6.94419384e-01,
          6.98327899e-01, 7.20995963e-01, 7.05953598e-01, 7.09268153e-01,
          6.49806857e-01, 7.22960234e-01, 7.50396311e-01, 7.95349717e-01,
          8.74495983e-01, 6.42244220e-01, 6.16123974e-01, 6.49116993e-01,
          6.14520311e-01, 7.27847636e-01, 6.35258734e-01, 6.57990098e-01,
          7.07054675e-01, 7.87254870e-01, 8.52052093e-01, 5.86619616e-01,
          5.98185420e-01, 5.66703200e-01, 5.92301667e-01, 7.27891684e-01,
          7.21823871e-01, 6.67701662e-01, 6.88505769e-01, 7.44595587e-01,
          8.25446904e-01, 5.67824602e-01, 5.95451593e-01, 5.33112645e-01,
          5.62624931e-01, 6.93488717e-01, 7.63060570e-01, 6.54390991e-01,
          6.79308832e-01, 7.51800179e-01, 7.93823242e-01, 5.85383058e-01,
          5.81807911e-01, 5.51070809e-01, 5.42738438e-01, 6.54030621e-01,
          7.74912894e-01, 6.43590271e-01, 5.19123137e-01, 6.54294431e-01,
          7.16772497e-01 ]
      - [ 8.34876776e-01, 9.69448507e-01, 9.64405656e-01, 9.68228161e-01,
          9.63887334e-01, 9.68369484e-01, 9.66336191e-01, 9.71386552e-01,
          9.66539204e-01, 9.64946389e-01, 9.63396013e-01, 9.74785686e-01,
          9.72072303e-01, 9.75259840e-01, 9.74969327e-01, 9.75210011e-01,
          9.74018812e-01, 9.75735128e-01, 9.75508928e-01, 9.76223290e-01,
          9.75299239e-01, 9.78309095e-01, 9.78930593e-01, 9.78961527e-01,
          9.79282677e-01, 9.79041934e-01, 9.76928830e-01, 9.75839734e-01,
          9.78538573e-01, 9.79601085e-01, 9.75953519e-01, 9.81892407e-01,
          9.81938779e-01, 9.82349575e-01, 8.64996731e-01, 8.21177125e-01,
          9.21635687e-01, 9.35188413e-01, 9.81217504e-01, 9.81777370e-01,
          9.80580926e-01, 9.87554491e-01, 9.86914873e-01, 9.86371458e-01,
          7.90644467e-01, 7.11394310e-01, 7.44379938e-01, 7.45117784e-01,
          9.13653314e-01, 9.88061607e-01, 9.84858215e-01, 9.93321180e-01,
          9.85443950e-01, 9.34602201e-01, 6.96263552e-01, 6.96015954e-01,
          7.41470516e-01, 7.73133934e-01, 7.51435459e-01, 8.96193206e-01,
          9.90208864e-01, 9.87468779e-01, 8.08121085e-01, 7.91957080e-01,
          7.02093244e-01, 6.91127896e-01, 7.06295431e-01, 7.11144030e-01,
          7.24018753e-01, 7.13852525e-01, 8.44810069e-01, 9.11761522e-01,
          7.31398880e-01, 6.73535883e-01, 7.12063193e-01, 6.75794661e-01,
          6.63766980e-01, 6.70810163e-01, 6.47521198e-01, 6.86801910e-01,
          7.48223782e-01, 7.97879517e-01, 6.72184467e-01, 6.60133839e-01,
          6.93578720e-01, 6.91475868e-01, 6.47464156e-01, 6.48041129e-01,
          6.12337470e-01, 6.20961130e-01, 6.61676645e-01, 6.57454789e-01,
          6.43542290e-01, 5.84653854e-01, 6.43270373e-01, 6.63379490e-01,
          6.66171312e-01, 6.22960269e-01, 6.00630403e-01, 6.01290822e-01,
          6.51792407e-01 ]
      - [ 8.73966694e-01, 9.73038554e-01, 9.58246589e-01, 9.57004845e-01,
          9.89901423e-01, 9.82652068e-01, 8.99163663e-01, 9.16109681e-01,
          8.95511448e-01, 9.92479265e-01, 9.92578864e-01, 9.73314822e-01,
          8.81674051e-01, 9.32383776e-01, 9.88805771e-01, 9.80994642e-01,
          8.89823318e-01, 9.08888757e-01, 8.74694943e-01, 9.85736191e-01,
          9.85188901e-01, 9.67961729e-01, 7.89946377e-01, 9.11522269e-01,
          9.86182213e-01, 9.72742856e-01, 8.81939173e-01, 8.72175992e-01,
          9.17420268e-01, 9.28307772e-01, 9.33050156e-01, 9.61588264e-01,
          5.76700866e-01, 8.73248398e-01, 9.40085948e-01, 9.24794614e-01,
          8.71756911e-01, 8.58869255e-01, 9.02462363e-01, 9.05701220e-01,
          9.30877626e-01, 9.54904079e-01, 5.81014216e-01, 7.71752238e-01,
          8.21359873e-01, 8.76519620e-01, 7.46094108e-01, 8.33678365e-01,
          8.66404593e-01, 8.89328957e-01, 9.21368778e-01, 9.56431925e-01,
          6.55492067e-01, 8.16003621e-01, 8.06160450e-01, 8.45896363e-01,
          7.47395933e-01, 8.34466457e-01, 8.73830736e-01, 8.90034676e-01,
          9.10452485e-01, 8.69647145e-01, 7.28961706e-01, 8.42414320e-01,
          8.06328237e-01, 8.56401503e-01, 7.51453936e-01, 8.37091744e-01,
          8.73977542e-01, 9.22892272e-01, 9.40097809e-01, 8.70401502e-01,
          6.29138410e-01, 8.71407032e-01, 8.11073244e-01, 8.51238787e-01,
          8.72001231e-01, 8.30820262e-01, 9.00606453e-01, 9.01333988e-01,
          9.30434823e-01, 8.63781989e-01, 6.16302550e-01, 8.66165578e-01,
          8.23292911e-01, 8.44529867e-01, 8.34970653e-01, 8.84291172e-01,
          8.98937941e-01, 9.01083767e-01, 9.34844136e-01, 8.57468426e-01,
          6.36233807e-01, 8.65112066e-01, 8.56047690e-01, 8.70388687e-01,
          8.71642053e-01, 8.75341058e-01, 9.04191315e-01, 9.16685700e-01,
          9.23421741e-01 ]
      - [ 8.66644919e-01, 8.86208177e-01, 7.14655995e-01, 7.57081091e-01,
          8.71615112e-01, 9.04301167e-01, 8.80066156e-01, 8.91280651e-01,
          8.44392180e-01, 8.72720778e-01, 9.00818408e-01, 8.77129972e-01,
          7.35940576e-01, 7.92116642e-01, 8.71225178e-01, 9.04116333e-01,
          8.62907469e-01, 8.92050743e-01, 8.89238894e-01, 9.32335317e-01,
          9.06546354e-01, 8.42888176e-01, 7.73289740e-01, 7.32647240e-01,
          7.95447290e-01, 8.83439243e-01, 8.44805777e-01, 8.79268110e-01,
          8.79486740e-01, 9.03894484e-01, 8.83376718e-01, 8.04327488e-01,
          8.28643322e-01, 7.84516037e-01, 8.41712296e-01, 8.87802422e-01,
          8.85031641e-01, 8.59264493e-01, 8.65355790e-01, 9.14036989e-01,
          8.58268023e-01, 8.18825066e-01, 8.26194763e-01, 8.58091295e-01,
          9.09551084e-01, 9.25660133e-01, 8.43604863e-01, 8.89737010e-01,
          8.43912005e-01, 9.20994341e-01, 8.81463766e-01, 7.85838008e-01,
          7.75345862e-01, 9.34036672e-01, 8.25386167e-01, 7.82906175e-01,
          8.26897562e-01, 8.76134038e-01, 8.06283236e-01, 9.16675031e-01,
          9.22249138e-01, 8.27014923e-01, 8.53033304e-01, 9.27044153e-01,
          8.63929152e-01, 8.68539453e-01, 8.51996720e-01, 9.11078870e-01,
          8.82257104e-01, 9.14099038e-01, 9.27734137e-01, 8.36099207e-01,
          8.62695694e-01, 8.41488898e-01, 9.82698202e-01, 9.71494198e-01,
          8.83611560e-01, 9.30236042e-01, 9.57952142e-01, 9.49940622e-01,
          9.57499504e-01, 8.33504915e-01, 8.21381986e-01, 8.05486143e-01,
          8.98692787e-01, 9.55249608e-01, 8.14833164e-01, 8.79779577e-01,
          9.06131864e-01, 9.19483542e-01, 9.19426799e-01, 8.51264954e-01,
          8.36720705e-01, 8.81399989e-01, 8.48363161e-01, 8.47031593e-01,
          8.49761844e-01, 8.62820625e-01, 8.65844369e-01, 8.71704519e-01,
          8.91939938e-01 ]
      - [ 7.18779862e-01, 9.91945148e-01, 9.91757274e-01, 9.92075086e-01,
          9.87445772e-01, 8.96064043e-01, 7.27571785e-01, 7.52042174e-01,
          8.67098749e-01, 9.41552758e-01, 9.70619619e-01, 9.24843013e-01,
          9.12318826e-01, 8.61536562e-01, 7.37083077e-01, 6.55004084e-01,
          6.28550589e-01, 6.22999191e-01, 6.53003097e-01, 6.62249386e-01,
          6.87639594e-01, 6.33112729e-01, 6.71541631e-01, 6.70358539e-01,
          6.67772114e-01, 6.53712332e-01, 6.16856992e-01, 6.01109862e-01,
          6.20919764e-01, 6.39355540e-01, 6.49342418e-01, 6.22024298e-01,
          6.23753011e-01, 6.43517971e-01, 6.09604180e-01, 6.30299509e-01,
          6.09817505e-01, 6.27900839e-01, 6.45829499e-01, 6.25934064e-01,
          6.84371829e-01, 7.04140186e-01, 7.46980309e-01, 7.37008035e-01,
          6.96675122e-01, 7.06267178e-01, 7.22608328e-01, 6.93569005e-01,
          6.89298987e-01, 7.15156198e-01, 7.17267632e-01, 6.72489226e-01,
          9.11670566e-01, 9.30204809e-01, 8.86607468e-01, 7.75801420e-01,
          7.45144367e-01, 7.75188148e-01, 7.39016175e-01, 7.33725488e-01,
          7.00191379e-01, 6.27527237e-01, 8.03116322e-01, 8.29946637e-01,
          7.73364663e-01, 7.47614324e-01, 7.43223369e-01, 7.24491060e-01,
          7.21094012e-01, 6.97639287e-01, 6.90309227e-01, 5.90744913e-01,
          7.09847629e-01, 7.90184438e-01, 7.11195946e-01, 7.16452777e-01,
          7.40867555e-01, 7.04677403e-01, 7.12170303e-01, 7.23663926e-01,
          6.48044467e-01, 5.75846553e-01, 6.31433785e-01, 7.64082909e-01,
          6.63084090e-01, 7.17910826e-01, 7.24270165e-01, 6.98771238e-01,
          6.93572521e-01, 6.59029424e-01, 6.30735338e-01, 5.85720658e-01,
          6.26387477e-01, 7.55982757e-01, 6.63501501e-01, 6.51116669e-01,
          7.09026277e-01, 6.82870448e-01, 6.62145257e-01, 6.36333823e-01,
          6.19019091e-01 ]
      - [ 7.46038556e-01, 5.30520499e-01, 5.60455859e-01, 5.72266281e-01,
          6.65034294e-01, 8.63202095e-01, 9.11658049e-01, 7.71079540e-01,
          7.71338880e-01, 8.02025139e-01, 8.40859592e-01, 5.36510229e-01,
          5.58500886e-01, 5.54357886e-01, 5.79423606e-01, 7.26448894e-01,
          9.18826699e-01, 7.73447990e-01, 7.80824542e-01, 7.98097074e-01,
          7.83994734e-01, 5.95702589e-01, 5.86748123e-01, 5.28333426e-01,
          6.05414033e-01, 5.58463335e-01, 8.86052728e-01, 8.92394900e-01,
          7.92991996e-01, 7.73847520e-01, 6.99496627e-01, 6.50912702e-01,
          6.86569750e-01, 4.97492969e-01, 6.22306943e-01, 5.59578121e-01,
          7.11843014e-01, 8.93703520e-01, 7.16752589e-01, 4.95119601e-01,
          4.32954341e-01, 7.70822108e-01, 7.48826683e-01, 7.38322258e-01,
          8.03071856e-01, 8.17291260e-01, 7.61236131e-01, 8.21473300e-01,
          8.47160637e-01, 9.31604266e-01, 9.36470151e-01, 6.93551183e-01,
          7.59159923e-01, 7.45674849e-01, 8.26922774e-01, 8.89302254e-01,
          7.03860641e-01, 7.79560626e-01, 7.69656241e-01, 9.07082498e-01,
          9.86852169e-01, 7.95493305e-01, 7.50468671e-01, 7.90416896e-01,
          8.87028873e-01, 8.59678209e-01, 7.42975533e-01, 7.09801197e-01,
          7.11208940e-01, 7.21390128e-01, 9.57387507e-01, 7.60164976e-01,
          8.02956879e-01, 9.58253086e-01, 8.96983922e-01, 8.00672889e-01,
          7.20788538e-01, 7.01999366e-01, 6.90761387e-01, 6.57339990e-01,
          7.68799126e-01, 8.69174540e-01, 9.69805598e-01, 9.76287603e-01,
          8.74949515e-01, 7.30121553e-01, 6.87070429e-01, 6.59235656e-01,
          6.63284302e-01, 6.10968113e-01, 5.90253711e-01, 9.80179965e-01,
          9.75312293e-01, 9.74744558e-01, 7.81750739e-01, 7.25852311e-01,
          6.55098200e-01, 6.72477245e-01, 6.19160056e-01, 5.91093421e-01,
          5.76662660e-01 ]
      - [ 9.11612034e-01, 9.68383133e-01, 9.64317977e-01, 9.68131363e-01,
          9.73623574e-01, 9.78386700e-01, 9.49460566e-01, 9.13872540e-01,
          9.63759661e-01, 8.90709043e-01, 8.24906826e-01, 9.52591658e-01,
          9.56677616e-01, 9.61952150e-01, 9.61823702e-01, 9.70534682e-01,
          9.55674469e-01, 9.55971658e-01, 9.68885660e-01, 8.63129020e-01,
          8.23055446e-01, 9.62936044e-01, 9.68073130e-01, 9.58653092e-01,
          9.65220094e-01, 9.58422720e-01, 9.59163845e-01, 9.59481359e-01,
          9.85345244e-01, 9.26341891e-01, 8.10342133e-01, 9.64663446e-01,
          9.73106444e-01, 9.49314356e-01, 9.72593248e-01, 9.47978854e-01,
          9.65515614e-01, 9.72890258e-01, 9.86945808e-01, 9.33478534e-01,
          8.71536076e-01, 9.77539301e-01, 9.27804530e-01, 7.98818350e-01,
          8.92528296e-01, 8.53837132e-01, 7.92794049e-01, 9.62522030e-01,
          9.62524951e-01, 9.23625946e-01, 9.16612685e-01, 9.10164654e-01,
          8.46449018e-01, 8.50358486e-01, 9.32855725e-01, 9.12005663e-01,
          8.83373201e-01, 8.29244614e-01, 9.57495034e-01, 9.31389451e-01,
          9.76503491e-01, 9.63397682e-01, 8.48857045e-01, 9.58208561e-01,
          9.86864984e-01, 9.92025018e-01, 9.24724221e-01, 8.68956089e-01,
          9.54415619e-01, 9.56246793e-01, 9.80306983e-01, 8.96895170e-01,
          8.81433606e-01, 9.90446687e-01, 9.80879605e-01, 9.90893304e-01,
          9.69035745e-01, 8.99115205e-01, 9.22708690e-01, 9.38433588e-01,
          9.29722011e-01, 8.59553397e-01, 7.58183777e-01, 7.81047761e-01,
          8.67890060e-01, 8.34572196e-01, 7.61262417e-01, 7.89985895e-01,
          8.61036897e-01, 8.58175755e-01, 8.45158398e-01, 8.49941850e-01,
          8.10648799e-01, 8.21084738e-01, 8.12403560e-01, 8.05176616e-01,
          8.33341837e-01, 8.06960940e-01, 8.72859776e-01, 8.70640516e-01,
          8.78824949e-01 ]
      - [ 9.21757460e-01, 9.75368202e-01, 9.78065252e-01, 9.74027157e-01,
          9.67589140e-01, 9.75266933e-01, 9.78740633e-01, 9.79584336e-01,
          9.81316626e-01, 9.87210214e-01, 9.90145326e-01, 9.72876847e-01,
          9.62125123e-01, 9.52670336e-01, 9.62735057e-01, 9.88526523e-01,
          9.92187738e-01, 9.92075622e-01, 9.95370030e-01, 9.97319341e-01,
          9.97077167e-01, 9.57683623e-01, 9.53147352e-01, 9.23146009e-01,
          9.81010258e-01, 9.81545508e-01, 9.88412917e-01, 9.96247172e-01,
          9.94484484e-01, 9.85185444e-01, 9.72500086e-01, 9.82890129e-01,
          9.85277295e-01, 9.89064574e-01, 9.95648384e-01, 9.86648917e-01,
          9.74800408e-01, 9.82629240e-01, 9.78776753e-01, 9.37787771e-01,
          9.60865259e-01, 9.63048577e-01, 9.68491673e-01, 9.76027966e-01,
          9.76336300e-01, 9.65418160e-01, 9.50165033e-01, 9.34233010e-01,
          9.62914944e-01, 9.68475759e-01, 9.58351910e-01, 9.52695012e-01,
          9.94654894e-01, 9.37067926e-01, 9.08483803e-01, 9.13788259e-01,
          9.65094984e-01, 9.23803091e-01, 9.11189079e-01, 9.25802648e-01,
          9.16694880e-01, 8.61398220e-01, 8.25173557e-01, 7.77451634e-01,
          8.20482790e-01, 8.89449060e-01, 8.22002769e-01, 7.70542145e-01,
          7.95480967e-01, 8.31478536e-01, 8.26283932e-01, 7.73163259e-01,
          7.84913838e-01, 7.96983302e-01, 7.98274755e-01, 8.80309939e-01,
          8.48899245e-01, 8.94563735e-01, 8.56364548e-01, 8.49050283e-01,
          8.36802781e-01, 8.18322182e-01, 7.88059115e-01, 9.15130258e-01,
          9.25036490e-01, 8.45683634e-01, 9.38937068e-01, 9.27998364e-01,
          8.83530259e-01, 8.44102383e-01, 7.82992661e-01, 8.38338494e-01,
          8.40784550e-01, 9.06837761e-01, 9.15852427e-01, 9.41540599e-01,
          9.84593928e-01, 9.72958028e-01, 9.55380261e-01, 8.52149427e-01,
          7.29530156e-01 ]
      - [ 9.28700507e-01, 9.95228708e-01, 9.96316612e-01, 9.96551633e-01,
          9.97973025e-01, 9.97874856e-01, 9.96544242e-01, 9.96879935e-01,
          8.91738653e-01, 7.79727101e-01, 7.62433767e-01, 9.96624291e-01,
          9.96732116e-01, 9.97049809e-01, 9.98728454e-01, 9.98020589e-01,
          9.91754055e-01, 8.37625861e-01, 7.53526509e-01, 7.79047787e-01,
          7.71609843e-01, 9.96519387e-01, 9.96918321e-01, 9.97585773e-01,
          9.70971882e-01, 9.02970970e-01, 8.33347738e-01, 8.19812775e-01,
          8.04476380e-01, 8.85793686e-01, 9.78447020e-01, 9.97096002e-01,
          9.97264922e-01, 9.81433392e-01, 8.71939063e-01, 8.13289344e-01,
          8.64533901e-01, 9.56284106e-01, 9.58942831e-01, 8.66447866e-01,
          9.38910961e-01, 8.91783595e-01, 8.91918480e-01, 8.87174010e-01,
          8.33592832e-01, 8.50786328e-01, 8.49718571e-01, 8.83131683e-01,
          8.07722270e-01, 8.57138276e-01, 8.85609269e-01, 9.94471669e-01,
          9.95423794e-01, 9.95154142e-01, 9.94254470e-01, 9.94449675e-01,
          9.95866895e-01, 9.95958328e-01, 9.95762408e-01, 9.95812237e-01,
          9.29090202e-01, 9.96172845e-01, 9.97686386e-01, 9.96236145e-01,
          9.96812403e-01, 9.93294895e-01, 9.92111504e-01, 9.95594561e-01,
          9.93489623e-01, 9.93078768e-01, 9.76397574e-01, 9.93273914e-01,
          9.94938076e-01, 9.93293166e-01, 9.93993104e-01, 9.95350838e-01,
          9.91922975e-01, 9.90235567e-01, 9.87121880e-01, 9.70106184e-01,
          8.76651347e-01, 9.90397573e-01, 9.91182923e-01, 9.32496488e-01,
          9.77729499e-01, 9.90473747e-01, 9.93474305e-01, 9.90227461e-01,
          8.92490506e-01, 7.37044096e-01, 7.22139418e-01, 8.72011840e-01,
          8.98724616e-01, 9.88422215e-01, 8.72563243e-01, 9.17007864e-01,
          9.92754400e-01, 8.99078608e-01, 6.84199572e-01, 6.84106112e-01,
          6.97061300e-01 ]
      - [ 6.79841101e-01, 5.65555811e-01, 5.60474157e-01, 5.65700114e-01,
          5.46079099e-01, 5.66844881e-01, 6.29628599e-01, 6.40148938e-01,
          6.62038565e-01, 5.98060369e-01, 5.65576196e-01, 5.64995527e-01,
          5.65092742e-01, 5.63610494e-01, 5.79769850e-01, 8.73310208e-01,
          8.70361447e-01, 8.22014153e-01, 7.03666568e-01, 6.02585435e-01,
          5.77716291e-01, 5.77294767e-01, 5.71855009e-01, 5.74800253e-01,
          7.60123074e-01, 8.65848124e-01, 8.18402112e-01, 7.52386272e-01,
          6.39326274e-01, 5.94085217e-01, 5.78804135e-01, 5.79532087e-01,
          5.88582397e-01, 7.02759147e-01, 8.09970438e-01, 7.43138313e-01,
          6.95543766e-01, 6.56595826e-01, 7.13764369e-01, 6.18923664e-01,
          6.26232028e-01, 5.99117219e-01, 6.54119015e-01, 7.72311747e-01,
          6.90824032e-01, 7.38798022e-01, 7.94169128e-01, 7.95308530e-01,
          7.46873081e-01, 6.81154311e-01, 6.70709729e-01, 5.91931462e-01,
          7.84724832e-01, 8.97681832e-01, 8.36205781e-01, 6.80661559e-01,
          6.65416479e-01, 6.78800404e-01, 7.12533593e-01, 6.94483995e-01,
          7.03559160e-01, 6.82318449e-01, 9.27445829e-01, 9.23579037e-01,
          6.59652233e-01, 7.05616713e-01, 6.72086418e-01, 6.77066863e-01,
          7.01741099e-01, 6.77974105e-01, 6.94142938e-01, 8.82592022e-01,
          9.32991624e-01, 7.82037854e-01, 5.75400233e-01, 6.76158488e-01,
          7.14016736e-01, 6.65969789e-01, 6.49225056e-01, 6.52175546e-01,
          7.06585407e-01, 9.26810145e-01, 8.94149840e-01, 6.03291571e-01,
          5.66961706e-01, 5.72451949e-01, 6.61391854e-01, 6.59502983e-01,
          6.03475511e-01, 5.97177565e-01, 6.09666824e-01, 9.10078883e-01,
          7.02242851e-01, 5.69039404e-01, 5.65504432e-01, 5.64431608e-01,
          5.94064295e-01, 6.43578827e-01, 6.00637913e-01, 5.61913610e-01,
          5.59171975e-01 ]
      - [ 8.88035953e-01, 9.88402724e-01, 9.82764184e-01, 9.86818135e-01,
          9.86772120e-01, 9.32789803e-01, 9.44629073e-01, 9.43617225e-01,
          9.39707816e-01, 9.75100279e-01, 9.89319861e-01, 9.87140179e-01,
          9.79964793e-01, 9.86930788e-01, 9.90325570e-01, 8.98314595e-01,
          9.83565509e-01, 9.50766563e-01, 9.77142692e-01, 9.84531343e-01,
          9.87699091e-01, 9.81881738e-01, 9.79278862e-01, 9.88972008e-01,
          9.92204905e-01, 9.06920671e-01, 9.31621432e-01, 7.86687970e-01,
          9.56899822e-01, 9.82862353e-01, 9.70518351e-01, 9.89072144e-01,
          9.87591982e-01, 9.80570614e-01, 9.79921639e-01, 9.21225548e-01,
          8.65798354e-01, 7.70149291e-01, 9.13192928e-01, 9.81970549e-01,
          9.87115502e-01, 9.85854566e-01, 9.82818425e-01, 9.81994271e-01,
          9.77155864e-01, 8.74540746e-01, 7.98966229e-01, 7.27168679e-01,
          8.57845664e-01, 9.93348122e-01, 9.91325736e-01, 9.91892159e-01,
          9.90155756e-01, 9.62435186e-01, 8.38934779e-01, 8.57295811e-01,
          7.61257827e-01, 7.18362153e-01, 7.57782757e-01, 9.68299031e-01,
          9.92881477e-01, 9.93155360e-01, 9.83904183e-01, 7.60500669e-01,
          7.73916006e-01, 8.22065234e-01, 8.53459597e-01, 7.24484801e-01,
          7.22981572e-01, 8.08527350e-01, 9.95362043e-01, 8.74460399e-01,
          7.94592679e-01, 6.87851369e-01, 7.30429113e-01, 8.52408171e-01,
          7.70237386e-01, 7.40796447e-01, 7.46712208e-01, 8.21781635e-01,
          8.58323455e-01, 8.89668763e-01, 7.81893671e-01, 7.25109637e-01,
          7.64887154e-01, 8.33452821e-01, 7.69222140e-01, 7.80965149e-01,
          7.58141518e-01, 8.08055580e-01, 8.69724989e-01, 8.86693239e-01,
          8.21593285e-01, 8.75428498e-01, 8.41729820e-01, 7.83799291e-01,
          7.80789793e-01, 8.02058935e-01, 7.91281104e-01, 8.19747686e-01,
          8.79839540e-01 ]
      - [ 9.57525909e-01, 9.86195982e-01, 9.88676846e-01, 9.83002484e-01,
          9.73014832e-01, 9.83485043e-01, 9.89332438e-01, 9.89870667e-01,
          9.83879924e-01, 9.86420512e-01, 9.89520669e-01, 9.87990320e-01,
          9.85315382e-01, 9.88104641e-01, 9.81552184e-01, 9.84449148e-01,
          9.86068189e-01, 9.86342192e-01, 9.88781273e-01, 9.86707747e-01,
          9.86243486e-01, 9.85843122e-01, 9.82232034e-01, 9.85008359e-01,
          8.69068921e-01, 9.31508601e-01, 9.83272254e-01, 9.85858560e-01,
          9.85838354e-01, 9.82894540e-01, 9.80143487e-01, 9.79989946e-01,
          9.68598723e-01, 8.83705020e-01, 6.70780659e-01, 8.83711457e-01,
          9.83459115e-01, 9.88034725e-01, 9.87226844e-01, 9.88561571e-01,
          9.89800453e-01, 9.83330667e-01, 9.85922098e-01, 9.78869617e-01,
          7.32872248e-01, 8.12503099e-01, 9.87560153e-01, 9.87231314e-01,
          9.89241242e-01, 9.86330271e-01, 9.83473182e-01, 9.82122064e-01,
          9.74265575e-01, 9.56560016e-01, 7.54505336e-01, 8.30641925e-01,
          9.90389228e-01, 9.85579848e-01, 9.87289310e-01, 9.88838553e-01,
          9.80570197e-01, 9.86093462e-01, 9.83589709e-01, 9.11563456e-01,
          8.01791370e-01, 8.72116089e-01, 9.82149065e-01, 9.84841704e-01,
          9.84586656e-01, 9.87729311e-01, 9.86082375e-01, 9.81824398e-01,
          9.88807738e-01, 9.14294243e-01, 8.18338573e-01, 8.93507421e-01,
          9.82614398e-01, 9.80594754e-01, 9.79853451e-01, 9.83480394e-01,
          9.82582867e-01, 9.83526528e-01, 9.82913852e-01, 9.80678320e-01,
          8.63700509e-01, 9.48684692e-01, 9.66902137e-01, 9.62688744e-01,
          9.71687973e-01, 9.78649616e-01, 9.84537184e-01, 9.79766011e-01,
          9.77452457e-01, 9.40534234e-01, 8.60395908e-01, 9.04372752e-01,
          9.82462585e-01, 9.81064737e-01, 9.83674765e-01, 9.80552614e-01,
          9.81949389e-01 ]
      - [ 9.25950646e-01, 9.83648002e-01, 9.84193742e-01, 9.82829034e-01,
          9.83437002e-01, 9.86961007e-01, 9.87800598e-01, 9.88332868e-01,
          9.87277210e-01, 9.86763656e-01, 9.84769404e-01, 9.84914899e-01,
          9.85997379e-01, 9.86784279e-01, 9.87309933e-01, 9.86980259e-01,
          9.88856971e-01, 9.88182783e-01, 9.86828983e-01, 9.86423492e-01,
          9.80781853e-01, 9.79663372e-01, 9.73935366e-01, 9.74665582e-01,
          9.84443605e-01, 9.81278479e-01, 9.84595060e-01, 9.84354556e-01,
          9.84075904e-01, 9.83580649e-01, 9.87366736e-01, 9.65749204e-01,
          9.67425168e-01, 9.74218965e-01, 9.81801510e-01, 9.82203782e-01,
          9.80038822e-01, 9.80563760e-01, 9.74357188e-01, 9.83335972e-01,
          9.75588679e-01, 9.69352722e-01, 9.74748194e-01, 9.77964818e-01,
          9.85442102e-01, 9.81153131e-01, 9.80672717e-01, 9.72825408e-01,
          9.65824544e-01, 9.75664198e-01, 9.78520334e-01, 9.83097017e-01,
          9.81482983e-01, 9.81536150e-01, 9.85465467e-01, 9.82974648e-01,
          9.77936685e-01, 9.75317478e-01, 9.70529675e-01, 9.70659316e-01,
          9.66506422e-01, 9.85328197e-01, 9.85470355e-01, 9.84714329e-01,
          9.86638665e-01, 9.85266328e-01, 9.51917529e-01, 8.46588969e-01,
          8.90920877e-01, 9.19486761e-01, 9.49050903e-01, 9.78696585e-01,
          9.75815713e-01, 9.50910449e-01, 8.81829858e-01, 9.30990636e-01,
          9.46370959e-01, 9.46698129e-01, 9.20797169e-01, 9.67307329e-01,
          9.39038098e-01, 8.26625288e-01, 8.14914823e-01, 8.20296645e-01,
          8.14874232e-01, 8.00079584e-01, 8.02649677e-01, 8.45581770e-01,
          8.34405303e-01, 8.69011760e-01, 8.68316650e-01, 6.25771463e-01,
          6.56666875e-01, 6.50084198e-01, 6.44421160e-01, 6.38284326e-01,
          6.67131543e-01, 6.69824064e-01, 6.61853790e-01, 6.61076844e-01,
          6.58192396e-01 ]
      - [ 9.83465075e-01, 9.89515543e-01, 9.91400421e-01, 9.91373420e-01,
          9.91890728e-01, 9.91928339e-01, 9.92433250e-01, 9.92368340e-01,
          9.92332578e-01, 9.90408421e-01, 9.89546061e-01, 9.90875244e-01,
          9.91879284e-01, 9.92680013e-01, 9.92669821e-01, 9.93177772e-01,
          9.94588375e-01, 9.94326055e-01, 9.92784381e-01, 9.92354929e-01,
          9.91576731e-01, 9.91949141e-01, 9.93321538e-01, 9.93909121e-01,
          9.94404674e-01, 9.94799376e-01, 9.96010482e-01, 9.95330095e-01,
          9.94655192e-01, 9.93713558e-01, 9.93133962e-01, 9.82771039e-01,
          9.94816780e-01, 9.94136453e-01, 9.94755924e-01, 9.95473325e-01,
          9.96470928e-01, 9.96117294e-01, 9.95672166e-01, 9.95149732e-01,
          9.94565904e-01, 9.25614834e-01, 9.39493656e-01, 9.57877398e-01,
          9.36779141e-01, 9.70854223e-01, 9.62472796e-01, 9.54779506e-01,
          9.64177966e-01, 9.43071783e-01, 8.96563411e-01, 9.64227319e-01,
          9.68241453e-01, 9.57471728e-01, 9.28724825e-01, 9.40079808e-01,
          9.71743047e-01, 9.62622583e-01, 9.61442113e-01, 9.60751116e-01,
          9.61268425e-01, 9.73826170e-01, 9.80913758e-01, 9.84349191e-01,
          9.77688611e-01, 9.87697184e-01, 9.79451478e-01, 9.79436457e-01,
          9.78336155e-01, 9.77242589e-01, 9.67438638e-01, 9.93545473e-01,
          9.95123744e-01, 9.94254112e-01, 9.94782150e-01, 9.95634496e-01,
          9.96097744e-01, 9.96027470e-01, 9.95685935e-01, 9.95965958e-01,
          9.94739294e-01, 9.93954182e-01, 9.94367063e-01, 9.93814707e-01,
          9.93943453e-01, 9.93909240e-01, 9.94281888e-01, 9.95328426e-01,
          9.94416296e-01, 9.94747221e-01, 9.94525552e-01, 9.89130676e-01,
          9.89674926e-01, 9.91105080e-01, 9.92242992e-01, 9.91196275e-01,
          9.92088437e-01, 9.91958439e-01, 9.91590858e-01, 9.93117213e-01,
          9.92250443e-01 ]
      - [ 8.99455190e-01, 8.63646388e-01, 8.61064613e-01, 9.16476429e-01,
          9.25691426e-01, 8.85256469e-01, 9.29301679e-01, 9.46182013e-01,
          9.41862106e-01, 9.42867100e-01, 9.39631224e-01, 9.45797861e-01,
          9.40442145e-01, 9.41559434e-01, 9.44683254e-01, 7.71658301e-01,
          8.51572096e-01, 9.33073699e-01, 9.43268716e-01, 9.41991806e-01,
          9.48132217e-01, 9.51053321e-01, 9.55524683e-01, 9.52363849e-01,
          9.59943056e-01, 9.48612511e-01, 7.05828965e-01, 9.17263806e-01,
          9.47430611e-01, 9.49473500e-01, 9.33719873e-01, 9.61580753e-01,
          9.66573715e-01, 9.66752589e-01, 9.64316428e-01, 9.76031721e-01,
          8.53624403e-01, 7.86915362e-01, 9.61062729e-01, 9.26659107e-01,
          8.06521773e-01, 9.47617292e-01, 9.38666046e-01, 9.46635604e-01,
          9.57531214e-01, 9.81871903e-01, 9.33702409e-01, 7.73266077e-01,
          7.72976458e-01, 8.31317306e-01, 7.34875858e-01, 9.58456039e-01,
          9.60245132e-01, 9.58482683e-01, 9.28342581e-01, 9.66896832e-01,
          8.95978212e-01, 7.40793765e-01, 5.88738620e-01, 6.64289594e-01,
          7.57249236e-01, 9.52374518e-01, 9.60093558e-01, 9.50192213e-01,
          9.06769156e-01, 9.40893054e-01, 8.70751441e-01, 7.93765426e-01,
          6.85576797e-01, 7.46701479e-01, 7.82692611e-01, 9.58573818e-01,
          9.54977751e-01, 9.40148413e-01, 9.10123289e-01, 8.73849630e-01,
          8.59248877e-01, 6.92188382e-01, 7.33950973e-01, 7.70025849e-01,
          8.40421081e-01, 9.52832758e-01, 9.58931804e-01, 9.75760698e-01,
          9.69996214e-01, 9.78375912e-01, 9.55281794e-01, 7.10949481e-01,
          8.50723922e-01, 9.71299112e-01, 9.62901473e-01, 9.65517998e-01,
          9.69940066e-01, 9.72571671e-01, 9.75930214e-01, 9.71769989e-01,
          9.38401580e-01, 8.65618706e-01, 8.99241388e-01, 9.74844038e-01,
          9.74164724e-01 ]
      - [ 9.62685049e-01, 9.89817619e-01, 9.88863885e-01, 9.87555861e-01,
          9.86549735e-01, 9.86842573e-01, 9.88761604e-01, 9.89559293e-01,
          9.88180101e-01, 9.86803949e-01, 9.88391697e-01, 9.86262381e-01,
          9.87216234e-01, 9.87768590e-01, 9.87630606e-01, 9.89147604e-01,
          9.90101397e-01, 9.90010917e-01, 9.89688039e-01, 9.86874282e-01,
          9.89679933e-01, 9.84991848e-01, 9.77414310e-01, 9.79882658e-01,
          9.86536443e-01, 9.91906166e-01, 9.92129147e-01, 9.91715431e-01,
          9.89421606e-01, 9.85943317e-01, 9.87398863e-01, 9.90878046e-01,
          9.81709182e-01, 9.82924163e-01, 9.85723376e-01, 9.85726595e-01,
          9.80931938e-01, 9.89630461e-01, 9.85435724e-01, 9.84904885e-01,
          9.84232485e-01, 9.82416451e-01, 9.91390169e-01, 9.84536827e-01,
          9.81932223e-01, 9.78278279e-01, 9.70956206e-01, 9.79990602e-01,
          9.85318959e-01, 9.81881857e-01, 9.78864014e-01, 9.75680590e-01,
          9.80199695e-01, 9.74292159e-01, 9.47631538e-01, 9.55156922e-01,
          9.62252080e-01, 9.83898401e-01, 9.79355872e-01, 9.77661967e-01,
          9.79465783e-01, 9.32095230e-01, 9.55596030e-01, 9.64743912e-01,
          9.69065011e-01, 9.71911252e-01, 9.70778644e-01, 9.67177272e-01,
          9.67530549e-01, 9.61856961e-01, 8.59845400e-01, 8.89173627e-01,
          8.78169417e-01, 8.63203466e-01, 8.35310698e-01, 8.42576027e-01,
          8.99800360e-01, 8.69101524e-01, 9.24410224e-01, 8.90351593e-01,
          9.08692300e-01, 9.39930201e-01, 9.39073801e-01, 9.51904416e-01,
          9.52288508e-01, 9.56545591e-01, 9.56383049e-01, 9.65307772e-01,
          9.64820862e-01, 9.29263055e-01, 9.24960494e-01, 9.30254698e-01,
          9.29205537e-01, 9.36350107e-01, 9.43142235e-01, 9.45807934e-01,
          9.41633582e-01, 9.54012752e-01, 9.56058502e-01, 9.64854479e-01,
          9.65102851e-01 ]
      - [ 9.28797543e-01, 9.79496181e-01, 9.34632540e-01, 8.67276192e-01,
          7.70010650e-01, 7.96827972e-01, 8.28783631e-01, 8.65055978e-01,
          8.73183548e-01, 8.57945919e-01, 9.03733432e-01, 8.62104595e-01,
          7.65725017e-01, 8.04405630e-01, 8.53444815e-01, 8.64593327e-01,
          8.48853469e-01, 9.42094266e-01, 9.55159426e-01, 9.45083618e-01,
          9.60052848e-01, 7.83093214e-01, 8.32439899e-01, 8.28330696e-01,
          8.98598909e-01, 9.67387617e-01, 9.03758943e-01, 9.67401981e-01,
          9.86383200e-01, 9.80036974e-01, 9.78473485e-01, 8.88933837e-01,
          8.65782320e-01, 8.84545922e-01, 9.03538764e-01, 9.81564224e-01,
          9.20267820e-01, 8.29814672e-01, 9.54633415e-01, 9.85674798e-01,
          9.77396071e-01, 9.30912793e-01, 9.51111257e-01, 9.83442068e-01,
          9.83597398e-01, 9.81507540e-01, 9.85617042e-01, 9.59348798e-01,
          8.16099048e-01, 8.67710233e-01, 9.68763471e-01, 9.37090993e-01,
          9.38839495e-01, 9.61816907e-01, 9.83275890e-01, 9.80982423e-01,
          9.84611988e-01, 9.83925521e-01, 9.72014666e-01, 8.22141051e-01,
          7.95033991e-01, 9.50116992e-01, 9.65370238e-01, 9.81910050e-01,
          9.73848164e-01, 9.87565815e-01, 9.87526596e-01, 9.81977522e-01,
          9.45303559e-01, 9.52430665e-01, 9.10020530e-01, 9.31276917e-01,
          9.41865444e-01, 9.17194963e-01, 9.49032247e-01, 9.83403206e-01,
          9.82332885e-01, 9.83324051e-01, 9.80763614e-01, 9.78851259e-01,
          9.74754751e-01, 9.18380976e-01, 8.76990914e-01, 9.27664936e-01,
          9.80983973e-01, 9.81484532e-01, 9.75732565e-01, 9.79938149e-01,
          9.76972580e-01, 9.73946571e-01, 9.64849412e-01, 9.34065938e-01,
          9.24763978e-01, 9.02029455e-01, 9.32353795e-01, 9.69563663e-01,
          9.13259983e-01, 9.76736188e-01, 9.75684762e-01, 9.74620879e-01,
          9.73190904e-01 ]
      - [ 8.35700154e-01, 9.82448637e-01, 9.71423030e-01, 9.82377946e-01,
          9.82664227e-01, 9.74541724e-01, 9.69133615e-01, 9.44186032e-01,
          9.18467343e-01, 9.58380938e-01, 9.63665009e-01, 9.59902823e-01,
          9.59135592e-01, 9.46426988e-01, 9.48145449e-01, 9.16357279e-01,
          9.15835083e-01, 9.04744923e-01, 9.14460659e-01, 9.32910204e-01,
          9.18386698e-01, 9.38877583e-01, 9.35372412e-01, 9.40619111e-01,
          9.39107120e-01, 9.34997320e-01, 9.22463894e-01, 9.34922278e-01,
          9.41121936e-01, 8.57174456e-01, 8.51217866e-01, 8.87411356e-01,
          8.75931799e-01, 8.53265226e-01, 8.39773297e-01, 8.59987617e-01,
          8.27090919e-01, 7.30889738e-01, 7.03676522e-01, 7.07228780e-01,
          7.05233335e-01, 8.78122330e-01, 8.93587530e-01, 8.73891175e-01,
          8.17387342e-01, 7.12078571e-01, 6.98493004e-01, 6.91329062e-01,
          6.63494289e-01, 7.69199431e-01, 8.13722789e-01, 7.27749884e-01,
          7.55721390e-01, 7.52505720e-01, 6.80763245e-01, 6.67954743e-01,
          6.17061675e-01, 6.21336997e-01, 7.70107090e-01, 9.02780950e-01,
          9.10430074e-01, 6.63454831e-01, 6.49349570e-01, 6.50390983e-01,
          7.00003445e-01, 8.14382255e-01, 7.77588308e-01, 8.58984470e-01,
          8.85245979e-01, 9.03708637e-01, 9.06948388e-01, 6.56254709e-01,
          6.66955471e-01, 6.64329588e-01, 7.12079644e-01, 9.52244759e-01,
          9.57372189e-01, 9.23934877e-01, 9.10666943e-01, 9.36089098e-01,
          9.42146957e-01, 6.82950795e-01, 6.79551005e-01, 6.70736909e-01,
          6.70944989e-01, 7.40536511e-01, 9.50070620e-01, 9.41083610e-01,
          9.17690456e-01, 9.13189113e-01, 9.45995808e-01, 7.36873865e-01,
          6.78600967e-01, 6.21376634e-01, 6.67083979e-01, 6.65926874e-01,
          7.77404904e-01, 9.16204691e-01, 9.34624672e-01, 9.43472385e-01,
          8.68658125e-01 ]
      - [ 9.03815567e-01, 9.74591970e-01, 9.75168884e-01, 9.64358330e-01,
          9.65066075e-01, 9.76255119e-01, 9.85840142e-01, 9.81843829e-01,
          9.79614198e-01, 9.79660213e-01, 9.79353249e-01, 9.67253983e-01,
          9.60568249e-01, 9.39415634e-01, 9.39156473e-01, 9.42187309e-01,
          9.62375700e-01, 9.57221210e-01, 9.62049961e-01, 9.67790484e-01,
          9.65513706e-01, 9.48712051e-01, 9.37706947e-01, 9.34200943e-01,
          9.04804587e-01, 9.53186810e-01, 9.46819842e-01, 9.15362537e-01,
          9.21026945e-01, 9.44735587e-01, 9.47694838e-01, 9.32947278e-01,
          9.27618384e-01, 9.45223570e-01, 9.35299754e-01, 9.18002427e-01,
          9.28935826e-01, 9.26957071e-01, 9.56087589e-01, 9.51772213e-01,
          9.50209141e-01, 9.56354022e-01, 9.46724236e-01, 9.33415651e-01,
          9.26827908e-01, 9.03983474e-01, 9.11430895e-01, 9.20021474e-01,
          9.10510063e-01, 9.00416672e-01, 9.30647016e-01, 9.48778331e-01,
          9.41535175e-01, 9.38898444e-01, 9.35010731e-01, 9.46056008e-01,
          9.59458888e-01, 9.45761561e-01, 9.33589697e-01, 9.47653711e-01,
          9.61469650e-01, 9.76739585e-01, 9.77168500e-01, 9.75941956e-01,
          9.77708280e-01, 9.79231119e-01, 9.74846423e-01, 9.67287481e-01,
          9.52719986e-01, 9.41590309e-01, 9.51640725e-01, 9.45700407e-01,
          9.68376279e-01, 9.61570799e-01, 9.66014266e-01, 9.77828026e-01,
          9.70841467e-01, 9.39666331e-01, 8.91150296e-01, 8.79256010e-01,
          8.65824282e-01, 7.00676560e-01, 8.96950781e-01, 9.14179921e-01,
          8.15104127e-01, 8.64268422e-01, 8.41478646e-01, 8.19098473e-01,
          7.21830845e-01, 7.24367797e-01, 7.22029626e-01, 6.73318326e-01,
          6.91282213e-01, 6.91944540e-01, 7.19826818e-01, 7.03801990e-01,
          6.62569940e-01, 6.66865766e-01, 6.47781789e-01, 6.97012842e-01,
          7.00490832e-01 ]
      - [ 9.14580047e-01, 8.82062793e-01, 8.90956819e-01, 9.06932354e-01,
          9.63262737e-01, 9.57066655e-01, 9.77544546e-01, 9.62218404e-01,
          9.18878138e-01, 9.36024964e-01, 9.37832594e-01, 9.52688515e-01,
          9.37475681e-01, 9.36817348e-01, 9.29719985e-01, 9.27659392e-01,
          9.72834229e-01, 9.68418658e-01, 9.10606503e-01, 8.99555206e-01,
          9.21978176e-01, 9.80102539e-01, 9.46689129e-01, 9.26703453e-01,
          9.31970716e-01, 8.63845646e-01, 9.71242726e-01, 9.63846505e-01,
          9.13799822e-01, 8.99454117e-01, 9.13207710e-01, 9.28533435e-01,
          9.26522613e-01, 9.56441581e-01, 9.33998525e-01, 8.17102015e-01,
          8.37318301e-01, 8.82084966e-01, 9.05139625e-01, 9.08854306e-01,
          9.11127627e-01, 9.59190309e-01, 9.29623961e-01, 9.64259803e-01,
          9.30404842e-01, 9.14152622e-01, 9.05543745e-01, 9.09741282e-01,
          8.99803340e-01, 8.99835467e-01, 9.33095872e-01, 9.49288726e-01,
          9.29149330e-01, 9.62764382e-01, 9.29858208e-01, 9.32656348e-01,
          9.43191290e-01, 9.64658737e-01, 9.67890084e-01, 9.62884784e-01,
          9.22878921e-01, 9.43254828e-01, 9.32853103e-01, 9.09066737e-01,
          8.49389374e-01, 9.16168571e-01, 9.56153333e-01, 9.74113762e-01,
          9.79936481e-01, 9.83572543e-01, 8.97360921e-01, 8.97051334e-01,
          9.05974090e-01, 8.98227811e-01, 9.39670861e-01, 7.77332902e-01,
          8.56602788e-01, 8.71138871e-01, 8.62431943e-01, 9.59575593e-01,
          9.17264402e-01, 8.68131518e-01, 7.52568901e-01, 9.29968774e-01,
          9.83546972e-01, 7.62745202e-01, 8.53027761e-01, 8.46341193e-01,
          8.67770195e-01, 9.07070041e-01, 9.14496899e-01, 8.81957948e-01,
          8.46587896e-01, 8.90625596e-01, 9.05508697e-01, 8.69708717e-01,
          8.79924774e-01, 8.87637079e-01, 9.11035299e-01, 9.30574059e-01,
          9.18567419e-01 ]
      - [ 9.02364075e-01, 8.74692440e-01, 8.82051289e-01, 7.80046642e-01,
          7.70860732e-01, 7.66294420e-01, 9.46847141e-01, 9.50962067e-01,
          9.63493824e-01, 9.68503416e-01, 9.69275653e-01, 8.75438333e-01,
          8.83269906e-01, 8.44550788e-01, 8.11016738e-01, 8.37312281e-01,
          9.26093221e-01, 9.42937553e-01, 9.52258587e-01, 9.54955280e-01,
          9.63276327e-01, 8.49030733e-01, 8.68454576e-01, 8.76167715e-01,
          8.80728841e-01, 8.92842710e-01, 9.21777725e-01, 9.24016356e-01,
          9.31118846e-01, 9.43329155e-01, 9.56067681e-01, 8.71208310e-01,
          9.39405680e-01, 9.11032379e-01, 9.21993613e-01, 8.37984443e-01,
          8.45566750e-01, 9.04998481e-01, 9.07774448e-01, 9.15974736e-01,
          9.44046557e-01, 8.66373241e-01, 9.63083804e-01, 9.59905386e-01,
          8.76592457e-01, 7.96292484e-01, 8.13441157e-01, 8.89999390e-01,
          8.66711199e-01, 8.69256198e-01, 9.21284080e-01, 8.46194029e-01,
          9.40801322e-01, 9.67181921e-01, 9.15694833e-01, 9.34831321e-01,
          9.25593495e-01, 8.50668967e-01, 8.71100903e-01, 8.61765087e-01,
          8.95302594e-01, 8.88792098e-01, 9.36140835e-01, 9.79664803e-01,
          9.22224283e-01, 9.03783560e-01, 9.42554116e-01, 8.71263027e-01,
          8.84497344e-01, 8.82196486e-01, 8.74261618e-01, 9.18063164e-01,
          9.67571139e-01, 9.70989585e-01, 8.86129439e-01, 9.03141916e-01,
          9.26973403e-01, 8.72192323e-01, 8.35978270e-01, 8.31129014e-01,
          8.18586290e-01, 9.31098878e-01, 9.25517857e-01, 9.15113688e-01,
          9.06263769e-01, 9.05254841e-01, 9.19431031e-01, 9.19093430e-01,
          8.88038695e-01, 8.39816928e-01, 8.60148787e-01, 9.46337521e-01,
          9.36635852e-01, 9.38387454e-01, 9.37100410e-01, 9.42090034e-01,
          9.37237203e-01, 9.43934560e-01, 9.45916891e-01, 9.40439701e-01,
          9.31170881e-01 ]
      - [ 4.64311123e-01, 0., 0., 0., 0., 0., 0., 0., 0., 0., 0.,
          1.93422183e-01, 1.95025459e-01, 1.92924976e-01, 1.94739714e-01,
          1.94182530e-01, 1.94251508e-01, 1.96654618e-01, 1.99091703e-01,
          1.97922051e-01, 1.91650122e-01, 8.05663466e-01, 7.72173703e-01,
          7.56023943e-01, 7.91387796e-01, 7.78378189e-01, 7.91368961e-01,
          7.87710249e-01, 8.10696840e-01, 8.29635739e-01, 7.67819583e-01,
          8.25749516e-01, 8.23759794e-01, 7.98164904e-01, 7.38518238e-01,
          7.36788034e-01, 7.48363435e-01, 7.59807229e-01, 7.51772702e-01,
          8.10982525e-01, 7.28437603e-01, 7.37334549e-01, 8.14354062e-01,
          7.55164444e-01, 7.21174896e-01, 6.84845507e-01, 6.70606315e-01,
          6.58262789e-01, 6.97519004e-01, 7.48073816e-01, 7.37603366e-01,
          7.90252149e-01, 7.17020690e-01, 6.12224877e-01, 6.61903203e-01,
          6.52633131e-01, 6.45949304e-01, 6.37751818e-01, 6.38221264e-01,
          7.68773556e-01, 7.20201671e-01, 7.70791531e-01, 7.66623437e-01,
          6.86051369e-01, 6.65377676e-01, 6.71666920e-01, 6.70997143e-01,
          6.50974154e-01, 6.30762696e-01, 7.21414566e-01, 6.65072203e-01,
          7.42765844e-01, 7.26894319e-01, 6.59680784e-01, 6.57654345e-01,
          6.79302037e-01, 6.89837217e-01, 6.58774793e-01, 6.91807449e-01,
          6.70248806e-01, 6.74314082e-01, 1.46900713e-01, 1.28793776e-01,
          9.80206579e-02, 1.31801784e-01, 1.31729588e-01, 1.35190770e-01,
          1.35406792e-01, 7.71767795e-02, 2.49511395e-02, 1.35356382e-01,
          0., 0., 0., 0., 0., 0., 0., 0., 0., 0. ]
      - [ 9.16206777e-01, 9.47812438e-01, 9.81183827e-01, 9.86196518e-01,
          9.89891052e-01, 9.86296058e-01, 9.85735297e-01, 9.74817693e-01,
          9.60594654e-01, 9.74052191e-01, 9.53236580e-01, 9.10540521e-01,
          9.80488420e-01, 9.88267303e-01, 9.91675258e-01, 9.68238294e-01,
          9.81887698e-01, 9.59564149e-01, 9.72307503e-01, 9.71316397e-01,
          9.46032107e-01, 9.24963057e-01, 8.81687880e-01, 9.76047456e-01,
          9.86884534e-01, 9.18052912e-01, 9.11857009e-01, 9.42081809e-01,
          9.78590548e-01, 9.48749363e-01, 9.42078292e-01, 9.79660213e-01,
          9.76689637e-01, 9.28547800e-01, 9.69976366e-01, 8.75124156e-01,
          8.66212189e-01, 9.18019414e-01, 9.59159255e-01, 9.78858829e-01,
          9.64257419e-01, 9.83696103e-01, 9.72105920e-01, 9.25574958e-01,
          9.48713422e-01, 8.96712363e-01, 7.94056892e-01, 8.67382765e-01,
          9.60354090e-01, 9.38662708e-01, 9.52989757e-01, 9.72959995e-01,
          9.57216799e-01, 8.87859643e-01, 9.15770173e-01, 8.79602373e-01,
          8.00972819e-01, 8.51530135e-01, 9.43540335e-01, 8.95893335e-01,
          9.54337835e-01, 9.03423011e-01, 8.97276938e-01, 8.38885069e-01,
          9.26042736e-01, 9.19016302e-01, 7.64320612e-01, 8.43942344e-01,
          9.23260272e-01, 9.85055923e-01, 9.68186021e-01, 7.90398657e-01,
          8.52308929e-01, 7.85435438e-01, 8.37161720e-01, 8.40365231e-01,
          7.69590855e-01, 8.63496959e-01, 9.01441634e-01, 9.84565258e-01,
          9.75112557e-01, 8.20060313e-01, 8.41766775e-01, 8.19019139e-01,
          8.08641434e-01, 9.05135691e-01, 8.81040096e-01, 8.21101904e-01,
          9.56492841e-01, 9.84721899e-01, 9.79405165e-01, 8.52648616e-01,
          8.01298082e-01, 8.34011793e-01, 8.46911430e-01, 8.65583062e-01,
          8.80909920e-01, 8.22815299e-01, 9.42861140e-01, 9.50860262e-01,
          9.31136370e-01 ]
      - [ 9.26842332e-01, 9.13465917e-01, 9.05813217e-01, 9.80670750e-01,
          9.85050738e-01, 9.85589206e-01, 9.81770456e-01, 9.79413748e-01,
          8.78707409e-01, 9.54648197e-01, 9.36371207e-01, 9.49205458e-01,
          9.37864661e-01, 9.10479426e-01, 9.84358251e-01, 9.84637022e-01,
          9.84790742e-01, 9.54006553e-01, 9.04989183e-01, 9.59580302e-01,
          9.50388551e-01, 9.53985631e-01, 9.60714102e-01, 9.39522564e-01,
          9.20086741e-01, 9.79542375e-01, 9.80016649e-01, 9.11579847e-01,
          9.17596519e-01, 9.62896466e-01, 9.35465217e-01, 9.66663897e-01,
          9.64725733e-01, 9.45409656e-01, 9.44876015e-01, 9.60338891e-01,
          9.67317879e-01, 9.43396211e-01, 9.54010963e-01, 9.61653411e-01,
          9.44014490e-01, 9.68443871e-01, 8.80098462e-01, 9.66925681e-01,
          9.03539538e-01, 9.10196960e-01, 9.03192520e-01, 9.52606320e-01,
          9.23805296e-01, 9.28762197e-01, 9.16518092e-01, 9.69320893e-01,
          9.71166551e-01, 9.74134922e-01, 9.35301363e-01, 8.90434563e-01,
          8.17395985e-01, 9.31723475e-01, 9.42165017e-01, 9.32099938e-01,
          9.52718377e-01, 9.51060593e-01, 9.44491267e-01, 9.17620420e-01,
          8.81584883e-01, 8.33849549e-01, 8.17268133e-01, 8.96500349e-01,
          8.96136165e-01, 9.55632508e-01, 9.58796978e-01, 9.40234900e-01,
          9.61468399e-01, 9.25813437e-01, 8.73835742e-01, 8.56169283e-01,
          8.99011612e-01, 9.18292761e-01, 8.62722337e-01, 9.39888120e-01,
          9.32934225e-01, 9.64879930e-01, 9.48811114e-01, 9.05416071e-01,
          9.29265738e-01, 8.71598542e-01, 8.30914736e-01, 9.06689703e-01,
          8.91845107e-01, 8.79862130e-01, 8.57898772e-01, 9.54375327e-01,
          8.53543162e-01, 9.25926328e-01, 9.20794368e-01, 9.18917716e-01,
          8.89521480e-01, 8.99792910e-01, 9.14839506e-01, 8.33692372e-01,
          8.70530725e-01 ]
      - [ 6.40182436e-01, 5.62296093e-01, 5.83114862e-01, 6.05936468e-01,
          6.37237132e-01, 6.57531500e-01, 6.16441786e-01, 6.47348285e-01,
          6.55594945e-01, 6.30528986e-01, 7.69763172e-01, 5.63698649e-01,
          5.75656354e-01, 5.81716418e-01, 5.81554234e-01, 5.72077215e-01,
          5.99245369e-01, 6.34506524e-01, 6.34428084e-01, 6.04393065e-01,
          7.44168162e-01, 5.73358715e-01, 5.74480653e-01, 5.60869038e-01,
          5.68330765e-01, 6.11550272e-01, 6.01554573e-01, 6.88048422e-01,
          6.36415124e-01, 6.22992277e-01, 6.50262713e-01, 5.66016376e-01,
          5.77533424e-01, 5.89656711e-01, 5.61460018e-01, 5.69465041e-01,
          6.07035697e-01, 6.50160015e-01, 6.66227758e-01, 6.19914711e-01,
          5.93640745e-01, 5.88208616e-01, 6.02033079e-01, 6.17530882e-01,
          5.86911500e-01, 5.98275959e-01, 6.15678251e-01, 6.08144999e-01,
          6.76284671e-01, 6.33591592e-01, 5.78544974e-01, 5.93543649e-01,
          6.04894876e-01, 6.20296836e-01, 6.04069114e-01, 5.94781339e-01,
          5.60497403e-01, 6.05531335e-01, 6.85572267e-01, 6.07709467e-01,
          6.03901625e-01, 8.91242743e-01, 6.58303201e-01, 6.11663997e-01,
          5.83047271e-01, 5.65145433e-01, 5.53236842e-01, 5.86237013e-01,
          6.15086317e-01, 6.03941202e-01, 6.51453376e-01, 9.81194913e-01,
          7.02980161e-01, 6.81329072e-01, 6.01127326e-01, 5.93011022e-01,
          5.50232232e-01, 5.92599511e-01, 6.47589505e-01, 6.50052845e-01,
          6.72375500e-01, 9.75000381e-01, 8.00514698e-01, 7.12970018e-01,
          6.33613467e-01, 5.91248512e-01, 5.45385242e-01, 5.81852674e-01,
          6.60514176e-01, 6.67283535e-01, 6.92010522e-01, 9.34509814e-01,
          8.85906577e-01, 8.68259609e-01, 8.40081096e-01, 6.84956670e-01,
          6.28188550e-01, 6.16885006e-01, 6.26543164e-01, 6.48019433e-01,
          6.74237609e-01 ]
      - [ 9.20156598e-01, 9.87952232e-01, 9.79902923e-01, 9.81475234e-01,
          9.83393133e-01, 9.52816963e-01, 8.85649979e-01, 9.20193374e-01,
          9.79422808e-01, 9.79249716e-01, 9.77375865e-01, 9.86199617e-01,
          9.78821337e-01, 9.80854332e-01, 9.82044041e-01, 9.06120896e-01,
          8.69531274e-01, 8.11349034e-01, 9.64405298e-01, 9.75208402e-01,
          9.74559069e-01, 9.84198332e-01, 9.77269828e-01, 9.80282843e-01,
          8.92299354e-01, 7.84029067e-01, 7.41427183e-01, 7.52918661e-01,
          8.01898599e-01, 9.70447838e-01, 9.70913231e-01, 9.83898103e-01,
          9.79240417e-01, 9.55159426e-01, 8.01032841e-01, 7.28146017e-01,
          7.29221106e-01, 8.20164859e-01, 8.42046142e-01, 9.66553092e-01,
          9.65313494e-01, 9.82014835e-01, 9.78902161e-01, 9.53261793e-01,
          7.98712254e-01, 7.85600841e-01, 8.01275194e-01, 7.63625324e-01,
          9.13586020e-01, 9.61971343e-01, 9.57111835e-01, 9.79026496e-01,
          9.77340817e-01, 9.73334789e-01, 8.23273838e-01, 9.49422121e-01,
          8.40510011e-01, 8.79854381e-01, 9.48890388e-01, 9.53526735e-01,
          9.48855221e-01, 9.78785574e-01, 9.73763108e-01, 9.68030751e-01,
          9.56011057e-01, 9.25733089e-01, 9.34552431e-01, 9.05014992e-01,
          9.38305855e-01, 9.45657432e-01, 9.42382514e-01, 9.75619674e-01,
          9.48378146e-01, 9.42726731e-01, 9.60424602e-01, 8.83139193e-01,
          9.00743425e-01, 8.74327183e-01, 9.28085983e-01, 9.36553597e-01,
          9.34350431e-01, 9.75066304e-01, 9.57211494e-01, 9.38226998e-01,
          9.42660928e-01, 8.94421577e-01, 8.26233745e-01, 9.12769020e-01,
          9.15942252e-01, 9.18907642e-01, 9.14235592e-01, 9.54573154e-01,
          9.28028584e-01, 8.90317142e-01, 8.47304940e-01, 9.14245129e-01,
          9.25892472e-01, 9.21543300e-01, 9.34403598e-01, 9.35988367e-01,
          9.22311306e-01 ]
      - [ 8.73362243e-01, 9.76573110e-01, 8.64309788e-01, 8.29881310e-01,
          7.77513683e-01, 8.86139631e-01, 9.49558735e-01, 9.59870040e-01,
          9.83435333e-01, 9.96175885e-01, 9.95994151e-01, 9.83683646e-01,
          8.74431193e-01, 6.72100008e-01, 7.57644773e-01, 7.63000250e-01,
          8.70008111e-01, 9.59509015e-01, 9.66853797e-01, 9.95504439e-01,
          9.96231616e-01, 9.83147681e-01, 8.41467619e-01, 7.31075943e-01,
          8.15231681e-01, 7.59322762e-01, 8.41054738e-01, 9.74318624e-01,
          9.47167993e-01, 9.93638933e-01, 9.96000111e-01, 9.87104297e-01,
          8.53288054e-01, 7.48484373e-01, 9.19106960e-01, 8.66344333e-01,
          7.24260807e-01, 9.08665001e-01, 9.72040236e-01, 9.94127452e-01,
          9.96173501e-01, 9.88906264e-01, 8.26144397e-01, 7.33487785e-01,
          7.79014468e-01, 8.47177148e-01, 7.41718113e-01, 8.76027763e-01,
          9.34593618e-01, 9.62293684e-01, 9.96359408e-01, 9.90516305e-01,
          8.35855663e-01, 7.60970652e-01, 7.14451611e-01, 7.99722672e-01,
          8.13268542e-01, 8.62506926e-01, 9.57793891e-01, 9.81118977e-01,
          9.96121168e-01, 9.90461767e-01, 7.96197414e-01, 7.50781178e-01,
          6.73846662e-01, 7.63508558e-01, 8.29562604e-01, 8.44007313e-01,
          9.64683652e-01, 9.95443761e-01, 9.96068358e-01, 9.92268503e-01,
          7.85383999e-01, 7.02699423e-01, 6.88636184e-01, 7.07294643e-01,
          7.68556297e-01, 8.25329363e-01, 9.44267392e-01, 9.92860138e-01,
          9.95516002e-01, 9.93198276e-01, 8.14754665e-01, 6.73500717e-01,
          6.35582507e-01, 6.80442572e-01, 7.28168309e-01, 9.03654218e-01,
          9.76747572e-01, 9.94869828e-01, 9.95158315e-01, 9.54998314e-01,
          9.22951043e-01, 7.82826543e-01, 6.31754518e-01, 6.79433227e-01,
          7.53049254e-01, 9.23637688e-01, 9.80966151e-01, 9.92802083e-01,
          9.92520034e-01 ]
      - [ 8.43748808e-01, 7.85772502e-01, 7.95382679e-01, 7.98287570e-01,
          8.03329885e-01, 7.88399279e-01, 7.81819046e-01, 7.85828650e-01,
          7.89271176e-01, 7.63840675e-01, 7.69308925e-01, 7.65972197e-01,
          7.91074038e-01, 8.06462049e-01, 7.96516538e-01, 8.04818153e-01,
          8.03125978e-01, 7.96517134e-01, 7.76449859e-01, 7.43184149e-01,
          7.59173691e-01, 7.54991114e-01, 7.54807949e-01, 7.60663629e-01,
          7.71142900e-01, 9.02656078e-01, 9.27653253e-01, 9.41429019e-01,
          9.47484612e-01, 9.41357374e-01, 9.35651839e-01, 8.61116946e-01,
          8.97127092e-01, 9.24343884e-01, 9.24873590e-01, 9.54713047e-01,
          9.64321613e-01, 9.61208582e-01, 9.59636271e-01, 9.56010044e-01,
          9.54224646e-01, 9.64464486e-01, 9.66290295e-01, 9.60058808e-01,
          9.58693504e-01, 9.59848285e-01, 9.61564958e-01, 9.62673306e-01,
          9.63299155e-01, 9.65142190e-01, 9.66410875e-01, 8.38647306e-01,
          8.74003947e-01, 9.52904940e-01, 9.56520915e-01, 9.53057051e-01,
          9.56596673e-01, 9.56036389e-01, 9.59220469e-01, 9.63689506e-01,
          9.64791894e-01, 7.02552199e-01, 7.58915603e-01, 8.17924559e-01,
          8.78473103e-01, 9.42594230e-01, 9.56897259e-01, 9.60249245e-01,
          9.65062976e-01, 9.64966476e-01, 9.59656060e-01, 6.81720078e-01,
          6.94331229e-01, 6.79428697e-01, 6.79692209e-01, 7.90108383e-01,
          8.67461979e-01, 9.21060622e-01, 9.57264245e-01, 9.60199237e-01,
          9.61649060e-01, 6.71798289e-01, 6.71746790e-01, 6.74255908e-01,
          6.84005797e-01, 7.11238742e-01, 7.40918815e-01, 7.81439960e-01,
          8.54439855e-01, 9.27178919e-01, 9.77374971e-01, 6.40624642e-01,
          6.68844163e-01, 6.70042574e-01, 6.83044851e-01, 6.85586989e-01,
          6.99964166e-01, 7.07409859e-01, 7.41672337e-01, 7.63249159e-01,
          8.06614459e-01 ]
      - [ 9.12115335e-01, 9.70695615e-01, 9.15627360e-01, 9.25616324e-01,
          9.43577766e-01, 9.96654510e-01, 9.97094154e-01, 9.96037543e-01,
          9.51573610e-01, 9.89041924e-01, 9.95648384e-01, 9.47747171e-01,
          9.02993917e-01, 9.33298230e-01, 9.51701343e-01, 9.86431599e-01,
          9.97051597e-01, 9.57785785e-01, 8.82714093e-01, 9.34646726e-01,
          9.87599492e-01, 9.60020304e-01, 9.59706843e-01, 9.64721620e-01,
          9.28849697e-01, 9.36467171e-01, 9.62730587e-01, 7.21663952e-01,
          7.10239708e-01, 6.63964570e-01, 8.35814297e-01, 9.96126294e-01,
          9.80137706e-01, 9.78306949e-01, 9.08354521e-01, 9.71838057e-01,
          9.82405782e-01, 8.96134555e-01, 8.49962711e-01, 8.47843647e-01,
          8.99497449e-01, 9.64780688e-01, 7.83995748e-01, 7.10590661e-01,
          8.02500665e-01, 8.29068780e-01, 9.15706933e-01, 9.94638026e-01,
          9.27638113e-01, 9.34932053e-01, 9.96719658e-01, 9.24231589e-01,
          7.47317731e-01, 6.54194951e-01, 7.75430620e-01, 6.88327074e-01,
          7.61339009e-01, 9.46366966e-01, 9.16598797e-01, 9.35020864e-01,
          9.93778944e-01, 9.85229313e-01, 8.77673209e-01, 7.95606971e-01,
          8.05736065e-01, 8.92929256e-01, 8.20833504e-01, 9.38463688e-01,
          9.18759227e-01, 9.41046000e-01, 9.43543851e-01, 9.96289253e-01,
          9.46375191e-01, 8.51587236e-01, 8.80540848e-01, 9.59879756e-01,
          9.60078180e-01, 9.30706918e-01, 8.41928899e-01, 9.48319435e-01,
          9.46098745e-01, 9.81441975e-01, 8.70176792e-01, 9.07678723e-01,
          9.44482684e-01, 9.96401906e-01, 9.90561008e-01, 9.24458206e-01,
          9.09402311e-01, 9.95934784e-01, 9.95877802e-01, 9.59182560e-01,
          9.16024506e-01, 8.82852554e-01, 9.95824873e-01, 9.92524505e-01,
          7.85544097e-01, 8.24842632e-01, 8.98678839e-01, 9.48196054e-01,
          9.91870046e-01 ]
      - [ 8.39459658e-01, 8.23710322e-01, 8.38688850e-01, 8.37078452e-01,
          8.66219699e-01, 8.48705232e-01, 8.60646844e-01, 8.79688919e-01,
          8.77366960e-01, 8.75774741e-01, 8.81766737e-01, 8.26873899e-01,
          8.11327398e-01, 8.00735116e-01, 8.06885242e-01, 7.96090484e-01,
          8.33306491e-01, 8.84798288e-01, 8.67758930e-01, 7.81745553e-01,
          8.50136161e-01, 8.57004404e-01, 8.95595014e-01, 8.24677289e-01,
          7.42213309e-01, 7.78021514e-01, 8.03713679e-01, 8.84124041e-01,
          9.17863727e-01, 9.00539458e-01, 9.21495438e-01, 8.92662704e-01,
          8.92563224e-01, 8.26317132e-01, 6.64533079e-01, 7.52980590e-01,
          8.80275548e-01, 8.86550784e-01, 9.03771341e-01, 8.13625991e-01,
          8.40500832e-01, 9.37589407e-01, 8.53781879e-01, 8.02016914e-01,
          7.04016745e-01, 7.45878339e-01, 8.64188135e-01, 8.65321219e-01,
          8.79368603e-01, 8.63650978e-01, 8.67700756e-01, 8.53485346e-01,
          8.63723516e-01, 7.59130895e-01, 7.85192370e-01, 7.36678958e-01,
          8.45553637e-01, 8.78048122e-01, 8.51744771e-01, 8.11913013e-01,
          8.60027850e-01, 8.60991597e-01, 8.59874785e-01, 7.64791250e-01,
          7.69901752e-01, 7.32949257e-01, 8.16612899e-01, 8.24115872e-01,
          7.69685924e-01, 7.68273354e-01, 8.40901256e-01, 8.73603344e-01,
          9.08203840e-01, 8.89329433e-01, 8.60456109e-01, 8.90990257e-01,
          7.52726912e-01, 7.81193793e-01, 8.05388570e-01, 7.50595629e-01,
          8.24635923e-01, 8.50954831e-01, 8.74224842e-01, 9.04247642e-01,
          9.14616644e-01, 8.77898991e-01, 8.27293217e-01, 8.54487956e-01,
          8.58052135e-01, 8.02894831e-01, 8.31905067e-01, 8.93332720e-01,
          9.05590236e-01, 8.69097948e-01, 9.20179486e-01, 9.18611526e-01,
          7.69303143e-01, 8.11518371e-01, 8.62788141e-01, 7.98133910e-01,
          8.32057893e-01 ]
      - [ 9.22573626e-01, 9.59400713e-01, 9.32857573e-01, 8.87316585e-01,
          8.52373838e-01, 8.63354683e-01, 9.18592155e-01, 9.11015034e-01,
          9.15990353e-01, 9.15267527e-01, 9.33777392e-01, 9.28147078e-01,
          9.32259977e-01, 9.11220133e-01, 8.66287887e-01, 8.79261255e-01,
          9.62761104e-01, 9.41937208e-01, 9.19729054e-01, 9.31976259e-01,
          9.32078958e-01, 9.39611018e-01, 9.67306852e-01, 8.79129171e-01,
          9.05921936e-01, 9.72920775e-01, 9.73743856e-01, 9.38024998e-01,
          9.32563305e-01, 9.05916750e-01, 9.15338874e-01, 9.60391641e-01,
          9.72818673e-01, 9.09948349e-01, 9.64414120e-01, 9.52229440e-01,
          9.23987031e-01, 8.60661268e-01, 9.31373954e-01, 8.23237777e-01,
          9.63337362e-01, 9.62937355e-01, 9.44734156e-01, 9.58885252e-01,
          9.78369176e-01, 9.40187871e-01, 8.83877695e-01, 9.10428762e-01,
          9.12077010e-01, 9.30199683e-01, 9.40651894e-01, 9.53755260e-01,
          9.27572668e-01, 9.70657706e-01, 9.68053818e-01, 9.44432080e-01,
          9.39129591e-01, 9.32863832e-01, 9.45913196e-01, 9.47668433e-01,
          9.56350446e-01, 9.52417672e-01, 9.20405865e-01, 9.74847972e-01,
          9.80005741e-01, 9.58448231e-01, 9.43056107e-01, 8.97367775e-01,
          8.87718439e-01, 9.54401612e-01, 9.54739034e-01, 9.28684831e-01,
          9.14261639e-01, 9.14712071e-01, 9.60105598e-01, 9.53930736e-01,
          9.13827062e-01, 8.52431417e-01, 8.84774268e-01, 9.47337449e-01,
          9.02550519e-01, 8.99837792e-01, 9.31765974e-01, 8.74451041e-01,
          8.94981086e-01, 9.54728961e-01, 9.50120330e-01, 9.28859830e-01,
          9.57817435e-01, 9.51976657e-01, 9.19494331e-01, 8.36699188e-01,
          8.31393957e-01, 8.41586888e-01, 8.16849947e-01, 8.85955930e-01,
          9.15032923e-01, 9.16667819e-01, 8.47902000e-01, 8.81220400e-01,
          8.88446450e-01 ]
      - [ 8.33964050e-01, 9.60427403e-01, 9.77401972e-01, 9.81879354e-01,
          9.85102534e-01, 9.86816704e-01, 9.89281774e-01, 9.87277865e-01,
          9.87231672e-01, 9.60348547e-01, 7.38453090e-01, 9.60669577e-01,
          9.75399673e-01, 9.82033968e-01, 9.86342371e-01, 9.87684250e-01,
          9.89163160e-01, 9.89001691e-01, 9.64362264e-01, 8.10624599e-01,
          8.14963758e-01, 9.74213421e-01, 9.83150661e-01, 9.83515978e-01,
          9.89416301e-01, 9.90761757e-01, 9.91399169e-01, 9.51118231e-01,
          8.06574464e-01, 7.20883727e-01, 8.59433234e-01, 9.86149967e-01,
          9.89463329e-01, 9.91182089e-01, 9.93868470e-01, 9.93577421e-01,
          9.81674731e-01, 8.50601912e-01, 7.57693052e-01, 8.79665792e-01,
          9.61843610e-01, 9.73215938e-01, 9.87260640e-01, 9.95798588e-01,
          8.62056613e-01, 8.00023258e-01, 9.59779859e-01, 7.31252193e-01,
          8.41500640e-01, 9.67946470e-01, 9.08716083e-01, 9.67824697e-01,
          9.74004626e-01, 9.85616088e-01, 6.69405639e-01, 6.31971896e-01,
          8.43821943e-01, 7.21614778e-01, 7.86740482e-01, 8.96234393e-01,
          9.83637750e-01, 7.67775834e-01, 8.20694447e-01, 8.55818808e-01,
          6.38530612e-01, 6.13108337e-01, 6.65907621e-01, 8.28684986e-01,
          8.63825917e-01, 9.44915116e-01, 9.88057137e-01, 6.49068475e-01,
          6.57671094e-01, 6.50993764e-01, 6.24462247e-01, 6.03035510e-01,
          7.25510120e-01, 7.77560830e-01, 7.71512687e-01, 8.07188392e-01,
          7.54122794e-01, 6.63332582e-01, 6.60566688e-01, 6.91326618e-01,
          7.09430695e-01, 6.86258733e-01, 6.93342566e-01, 6.96536005e-01,
          6.90121591e-01, 6.78255260e-01, 6.05031967e-01, 6.43532097e-01,
          6.32402360e-01, 6.35059536e-01, 7.36275792e-01, 7.15131581e-01,
          6.90866113e-01, 6.80376947e-01, 6.39936209e-01, 6.48947656e-01,
          6.50951922e-01 ]
      - [ 9.51158822e-01, 9.71854508e-01, 9.74981844e-01, 9.78802443e-01,
          9.77619171e-01, 9.57507372e-01, 9.42734599e-01, 9.02449131e-01,
          9.19057608e-01, 9.76453304e-01, 9.77381706e-01, 9.73371565e-01,
          9.85890388e-01, 9.86453891e-01, 9.85130787e-01, 9.84915197e-01,
          9.68895018e-01, 9.37293053e-01, 9.81953502e-01, 9.86558795e-01,
          9.84899163e-01, 9.65767562e-01, 9.80151832e-01, 9.78327394e-01,
          9.71791983e-01, 9.86842453e-01, 9.88940597e-01, 9.73798037e-01,
          9.50766921e-01, 9.80413437e-01, 9.57577288e-01, 9.68938589e-01,
          9.82570112e-01, 9.87641573e-01, 9.79214013e-01, 9.55771267e-01,
          9.59708750e-01, 9.58096921e-01, 9.67135668e-01, 9.78893220e-01,
          9.67617154e-01, 9.79845166e-01, 9.54672813e-01, 9.00259554e-01,
          9.59189832e-01, 9.70054448e-01, 9.77459788e-01, 9.77995336e-01,
          9.79835212e-01, 9.76457119e-01, 9.65237975e-01, 9.72646236e-01,
          8.53898704e-01, 7.77928293e-01, 9.10344422e-01, 9.58158433e-01,
          9.79369879e-01, 9.83652115e-01, 9.10275102e-01, 8.29181015e-01,
          7.86986589e-01, 9.89962280e-01, 9.43318367e-01, 9.27075386e-01,
          9.72572267e-01, 9.83366251e-01, 9.90146339e-01, 9.93587911e-01,
          9.65928912e-01, 8.99086416e-01, 8.89620125e-01, 9.93795812e-01,
          9.91312444e-01, 9.90195394e-01, 9.93620932e-01, 9.92504835e-01,
          9.91844177e-01, 9.93908763e-01, 9.94038820e-01, 9.90229189e-01,
          9.52619314e-01, 9.77984190e-01, 9.83957827e-01, 9.89714861e-01,
          9.87809479e-01, 9.87768650e-01, 9.88725781e-01, 9.88211870e-01,
          9.31217730e-01, 7.89914787e-01, 7.87809670e-01, 8.66769791e-01,
          9.02159274e-01, 9.81007457e-01, 9.81751680e-01, 9.82394457e-01,
          9.80454028e-01, 9.44974124e-01, 7.69146621e-01, 7.34508872e-01,
          7.34245420e-01 ]
      - [ 9.56358552e-01, 9.84642982e-01, 9.86935914e-01, 9.89800751e-01,
          9.89743352e-01, 9.90844190e-01, 9.91646051e-01, 9.92973387e-01,
          9.93116736e-01, 9.92898762e-01, 9.92934585e-01, 9.87731755e-01,
          9.89624798e-01, 9.90821600e-01, 9.92545426e-01, 9.92895484e-01,
          9.94101882e-01, 9.93684173e-01, 9.94044662e-01, 9.94625032e-01,
          9.95012105e-01, 9.89131868e-01, 9.91905332e-01, 9.93260920e-01,
          9.94047642e-01, 9.94389951e-01, 9.94533002e-01, 9.94713068e-01,
          9.95023787e-01, 9.95158911e-01, 9.94748652e-01, 9.86861944e-01,
          9.90882874e-01, 9.93422985e-01, 9.93352592e-01, 9.94678497e-01,
          9.94173527e-01, 9.95280564e-01, 9.95181262e-01, 9.94075537e-01,
          9.92627680e-01, 9.31374311e-01, 9.43751872e-01, 9.41807985e-01,
          9.51053083e-01, 9.52556729e-01, 9.55334663e-01, 9.48339283e-01,
          9.52745080e-01, 9.54248905e-01, 9.50196147e-01, 8.77103448e-01,
          8.74243855e-01, 8.95712495e-01, 8.74748707e-01, 8.78052711e-01,
          8.75447273e-01, 8.89350593e-01, 8.77398074e-01, 8.89337778e-01,
          8.73071551e-01, 9.12216902e-01, 9.09516990e-01, 9.23884213e-01,
          9.36970413e-01, 9.40177381e-01, 9.50437307e-01, 9.57687080e-01,
          9.51365948e-01, 9.51979637e-01, 9.49561834e-01, 9.01933849e-01,
          9.06270206e-01, 9.22555804e-01, 9.35755074e-01, 9.56071377e-01,
          9.58807528e-01, 9.64536905e-01, 9.66437042e-01, 9.73877728e-01,
          9.75229442e-01, 9.01957750e-01, 9.12612319e-01, 9.34808254e-01,
          9.50215220e-01, 9.57609892e-01, 9.67761576e-01, 9.66759682e-01,
          9.74159658e-01, 9.77877796e-01, 9.75374937e-01, 8.68573666e-01,
          8.87641132e-01, 9.13424909e-01, 9.31748450e-01, 9.43447649e-01,
          9.43728089e-01, 9.45165932e-01, 9.69311953e-01, 9.73023355e-01,
          9.68715966e-01 ]
      - [ 8.96331370e-01, 9.84663188e-01, 9.87407863e-01, 9.87583935e-01,
          9.38647687e-01, 8.95028234e-01, 9.11012411e-01, 9.86070454e-01,
          9.86531794e-01, 9.86901879e-01, 9.86092210e-01, 9.86095548e-01,
          9.86669600e-01, 9.84719813e-01, 9.86796379e-01, 9.67444062e-01,
          8.69248927e-01, 9.17491615e-01, 9.06518817e-01, 9.04920340e-01,
          9.19293165e-01, 9.84365463e-01, 9.73752379e-01, 9.82838690e-01,
          9.47983742e-01, 8.65082920e-01, 8.70088875e-01, 7.77975500e-01,
          8.41874957e-01, 9.11457300e-01, 9.55661833e-01, 9.83636677e-01,
          9.79744375e-01, 9.74641204e-01, 9.09304976e-01, 8.57962489e-01,
          8.76968920e-01, 8.13635826e-01, 9.14127052e-01, 9.76584494e-01,
          9.65336323e-01, 9.84419584e-01, 9.89788294e-01, 9.42942142e-01,
          9.40774083e-01, 9.35131788e-01, 8.55992436e-01, 8.59389484e-01,
          8.27749848e-01, 9.20765579e-01, 8.65256667e-01, 9.66895342e-01,
          9.92378175e-01, 9.68284488e-01, 9.24136341e-01, 9.45474863e-01,
          8.89847636e-01, 9.08595026e-01, 8.93740594e-01, 8.92835975e-01,
          9.04705048e-01, 9.02585328e-01, 8.15358520e-01, 8.59467924e-01,
          8.79562259e-01, 8.42345536e-01, 8.64968896e-01, 8.65636647e-01,
          8.54261220e-01, 9.01742995e-01, 8.92838240e-01, 8.08887362e-01,
          8.09213519e-01, 8.86254907e-01, 8.79367530e-01, 7.94302404e-01,
          7.73173392e-01, 7.52134323e-01, 7.30960488e-01, 7.85645664e-01,
          8.96762967e-01, 8.94172192e-01, 9.24363017e-01, 8.57153594e-01,
          8.16052616e-01, 7.98497915e-01, 8.37677419e-01, 8.13138366e-01,
          8.58071685e-01, 9.05642271e-01, 9.13309574e-01, 8.67000937e-01,
          8.35889101e-01, 8.22203279e-01, 8.39291394e-01, 8.50651801e-01,
          8.51779699e-01, 8.69147539e-01, 8.62782180e-01, 8.39427650e-01,
          8.42275321e-01 ]
      - [ 8.57005417e-01, 8.60142827e-01, 8.82592440e-01, 9.74748492e-01,
          9.56762314e-01, 7.76868224e-01, 7.69340932e-01, 8.80793035e-01,
          8.71941805e-01, 9.95185971e-01, 9.81526017e-01, 9.31824803e-01,
          8.51730347e-01, 8.81350994e-01, 8.82193089e-01, 8.56328607e-01,
          8.06928635e-01, 8.11535120e-01, 8.61196995e-01, 9.61219788e-01,
          9.35958385e-01, 9.03655827e-01, 8.31498504e-01, 7.73880959e-01,
          8.03063869e-01, 7.68365443e-01, 7.92911351e-01, 7.84414530e-01,
          7.42792010e-01, 9.43633020e-01, 9.54915583e-01, 8.32101405e-01,
          8.48488450e-01, 8.07949185e-01, 8.26963484e-01, 7.66198754e-01,
          7.86727369e-01, 7.60907948e-01, 8.08258951e-01, 9.58230555e-01,
          9.58396137e-01, 8.32845867e-01, 8.51175189e-01, 8.96680713e-01,
          9.64916050e-01, 8.89149427e-01, 8.99658382e-01, 8.47189546e-01,
          8.73815358e-01, 9.18199599e-01, 9.74975109e-01, 7.71370828e-01,
          8.10813010e-01, 8.67719233e-01, 9.15789247e-01, 8.23603511e-01,
          9.31647599e-01, 8.26081216e-01, 8.45328331e-01, 9.84208047e-01,
          9.46801364e-01, 7.85338104e-01, 9.01436746e-01, 8.85772169e-01,
          9.68937278e-01, 9.72635269e-01, 8.88198495e-01, 8.12687218e-01,
          8.03861499e-01, 9.43147600e-01, 8.09673667e-01, 7.87368655e-01,
          8.51734638e-01, 9.34634805e-01, 9.70140398e-01, 9.78504658e-01,
          9.33528781e-01, 8.17760766e-01, 8.09505761e-01, 9.13881361e-01,
          7.21708357e-01, 9.02870417e-01, 9.04919863e-01, 9.59115267e-01,
          9.53783870e-01, 9.70408976e-01, 9.69369113e-01, 8.34948897e-01,
          8.35582137e-01, 7.78798819e-01, 6.44344628e-01, 9.51835394e-01,
          9.33952570e-01, 9.14266109e-01, 9.32642877e-01, 9.62835014e-01,
          8.66536319e-01, 7.57335722e-01, 7.48839021e-01, 5.19539893e-01,
          7.84080997e-02 ]
      - [ 9.38586175e-01, 9.81092989e-01, 9.83045399e-01, 9.84064341e-01,
          9.82628107e-01, 9.81175423e-01, 9.90582824e-01, 9.87544119e-01,
          9.85642016e-01, 9.76933241e-01, 9.75291669e-01, 9.79695737e-01,
          9.75937009e-01, 9.67304468e-01, 9.83162701e-01, 9.82167959e-01,
          9.91427302e-01, 9.87215757e-01, 9.80356097e-01, 9.71944213e-01,
          9.82419968e-01, 9.81350124e-01, 9.60649133e-01, 9.00424719e-01,
          9.69857156e-01, 9.67483878e-01, 9.86466527e-01, 9.84970510e-01,
          9.59336936e-01, 9.31416273e-01, 9.28430259e-01, 9.45693076e-01,
          9.61528122e-01, 8.93477857e-01, 8.79546702e-01, 9.10036981e-01,
          9.53817964e-01, 9.53577638e-01, 8.96852314e-01, 8.55721712e-01,
          8.21384847e-01, 9.26657319e-01, 9.47243571e-01, 9.50540841e-01,
          8.88778031e-01, 9.43158209e-01, 9.67076004e-01, 9.76236939e-01,
          9.42442715e-01, 9.07688737e-01, 8.75690401e-01, 9.25108969e-01,
          9.35797334e-01, 9.37429190e-01, 9.20585334e-01, 9.44784164e-01,
          9.87419784e-01, 9.82130289e-01, 9.69222665e-01, 9.66837525e-01,
          9.53739285e-01, 9.26843226e-01, 9.57806647e-01, 9.29814875e-01,
          9.32726562e-01, 9.63777006e-01, 9.71078157e-01, 9.59665537e-01,
          9.29738343e-01, 9.56304193e-01, 9.72593009e-01, 8.93721342e-01,
          9.48038876e-01, 9.23050582e-01, 9.48439121e-01, 9.31913495e-01,
          9.71619546e-01, 9.77699757e-01, 9.31851149e-01, 9.01272655e-01,
          8.64825726e-01, 9.30038333e-01, 9.66967463e-01, 9.25174713e-01,
          9.38640535e-01, 8.77724230e-01, 9.20234382e-01, 9.56113517e-01,
          8.83534551e-01, 8.87971044e-01, 8.76715779e-01, 8.91199112e-01,
          9.42318678e-01, 9.28972840e-01, 8.97288680e-01, 8.71644914e-01,
          8.81912410e-01, 8.70192528e-01, 8.81953061e-01, 8.39162767e-01,
          8.15374970e-01 ]
      - [ 9.71718311e-01, 9.28733766e-01, 9.71694410e-01, 9.83747303e-01,
          9.84071255e-01, 9.87376869e-01, 9.82899427e-01, 9.66233552e-01,
          9.11175609e-01, 9.59675968e-01, 9.94557738e-01, 9.82683182e-01,
          9.85597253e-01, 9.82771933e-01, 9.86206889e-01, 9.80697572e-01,
          9.06759977e-01, 9.28129315e-01, 8.97525251e-01, 9.67092693e-01,
          9.96050179e-01, 9.90013659e-01, 9.89869475e-01, 9.89982128e-01,
          9.92239356e-01, 9.83503282e-01, 9.07660663e-01, 9.24183607e-01,
          9.20730770e-01, 9.74587142e-01, 9.96858239e-01, 9.90769446e-01,
          9.91471708e-01, 9.92519796e-01, 9.93462265e-01, 9.64364886e-01,
          9.29307818e-01, 9.26761270e-01, 9.20586348e-01, 9.77804542e-01,
          9.97056246e-01, 9.92732763e-01, 9.91485178e-01, 9.93331969e-01,
          9.94981885e-01, 9.69465196e-01, 9.46564496e-01, 9.51898396e-01,
          9.61841524e-01, 9.84603226e-01, 9.97063279e-01, 9.88253772e-01,
          9.92558897e-01, 9.92761075e-01, 9.91766155e-01, 9.78287518e-01,
          9.61009264e-01, 9.35324311e-01, 9.54530835e-01, 9.80978727e-01,
          9.94505763e-01, 9.92642939e-01, 9.93024766e-01, 9.93189871e-01,
          9.92375672e-01, 9.66752708e-01, 9.53765929e-01, 9.42705750e-01,
          9.45561826e-01, 9.76769984e-01, 9.93080080e-01, 9.90713477e-01,
          9.91119325e-01, 9.90184426e-01, 9.90396380e-01, 9.82590020e-01,
          9.69746053e-01, 9.52867091e-01, 9.47297752e-01, 9.67235088e-01,
          9.90480721e-01, 9.88662481e-01, 9.85787511e-01, 9.87433195e-01,
          9.87703204e-01, 9.84913111e-01, 9.78155851e-01, 9.53070045e-01,
          9.27728772e-01, 9.63380039e-01, 9.88861501e-01, 9.75469470e-01,
          9.64323103e-01, 9.79291081e-01, 9.84112859e-01, 9.84616458e-01,
          9.82683897e-01, 9.66459751e-01, 9.15679336e-01, 9.45117712e-01,
          9.82443810e-01 ]
      - [ 8.93688738e-01, 8.56877446e-01, 9.33522403e-01, 9.51782584e-01,
          9.49412942e-01, 9.61224914e-01, 9.62766528e-01, 9.72611427e-01,
          9.25891221e-01, 8.21575999e-01, 9.45433915e-01, 8.36123884e-01,
          8.98497283e-01, 9.21379149e-01, 9.17937577e-01, 9.46700692e-01,
          9.46082473e-01, 9.63225305e-01, 9.04743552e-01, 8.64397645e-01,
          9.32208002e-01, 8.74508917e-01, 8.72212827e-01, 8.81146371e-01,
          9.11182404e-01, 9.18360114e-01, 9.31945384e-01, 9.60830271e-01,
          8.77297342e-01, 9.17236090e-01, 9.08554673e-01, 8.48152399e-01,
          8.31405699e-01, 8.66203308e-01, 8.90103400e-01, 8.80796373e-01,
          9.07988191e-01, 9.24532771e-01, 8.67103755e-01, 9.47757363e-01,
          9.30335820e-01, 8.58973444e-01, 7.94905484e-01, 8.66036236e-01,
          8.89799237e-01, 8.85106206e-01, 8.71628702e-01, 8.46152902e-01,
          8.88425052e-01, 8.92827272e-01, 9.13998902e-01, 9.66004491e-01,
          7.67027795e-01, 8.98168564e-01, 8.96813571e-01, 9.05700445e-01,
          8.78052413e-01, 8.51171196e-01, 9.08065557e-01, 8.87233198e-01,
          9.31050420e-01, 8.63450766e-01, 8.37329507e-01, 8.60368490e-01,
          8.89727890e-01, 8.75716865e-01, 9.04121757e-01, 9.08670306e-01,
          9.50337052e-01, 9.42344189e-01, 8.78509164e-01, 9.22216594e-01,
          7.86785305e-01, 8.67125869e-01, 9.06413555e-01, 9.08127308e-01,
          9.20058787e-01, 8.68604243e-01, 8.42119515e-01, 8.50028157e-01,
          9.28670406e-01, 9.19046044e-01, 8.33318591e-01, 8.89779329e-01,
          9.08670008e-01, 9.21128631e-01, 9.19152021e-01, 9.30276692e-01,
          8.27305198e-01, 7.64773667e-01, 8.63021731e-01, 8.26749325e-01,
          8.39199603e-01, 9.25473213e-01, 9.27135050e-01, 9.28137422e-01,
          9.30906832e-01, 9.36775327e-01, 8.65765870e-01, 7.98852861e-01,
          9.17137504e-01 ]
      - [ 8.72543991e-01, 9.29531276e-01, 9.65514243e-01, 9.47647750e-01,
          9.71883774e-01, 9.67691541e-01, 9.74167287e-01, 9.78707552e-01,
          9.81765747e-01, 9.84934807e-01, 9.79328454e-01, 9.59619164e-01,
          9.49013829e-01, 9.45571423e-01, 9.47059393e-01, 8.38219702e-01,
          9.86337483e-01, 9.87887502e-01, 9.88881171e-01, 9.88900244e-01,
          9.91900623e-01, 8.95712912e-01, 9.33503747e-01, 9.31482971e-01,
          8.99737239e-01, 9.23428357e-01, 9.93331850e-01, 9.93672013e-01,
          9.93757188e-01, 9.93736088e-01, 9.91725087e-01, 9.11326349e-01,
          9.35522079e-01, 8.59634340e-01, 8.79016459e-01, 8.84938896e-01,
          9.81758058e-01, 9.92013216e-01, 9.90121961e-01, 9.85895753e-01,
          9.84880805e-01, 7.95455396e-01, 8.59499454e-01, 8.51595283e-01,
          9.05359805e-01, 9.15735722e-01, 9.75379825e-01, 9.84833360e-01,
          9.79965806e-01, 9.79368627e-01, 9.81325805e-01, 7.94023573e-01,
          7.86177337e-01, 8.34126711e-01, 8.74640703e-01, 8.83832395e-01,
          9.60867882e-01, 9.67768133e-01, 9.67209756e-01, 9.73507106e-01,
          9.65786576e-01, 7.21836984e-01, 6.81542516e-01, 7.31044292e-01,
          8.63642097e-01, 8.30753088e-01, 9.20945764e-01, 9.20016229e-01,
          8.97051036e-01, 9.02969778e-01, 8.67585897e-01, 8.02009284e-01,
          8.07318091e-01, 7.61181712e-01, 8.26086640e-01, 8.45684469e-01,
          8.52779567e-01, 8.86846960e-01, 8.96985710e-01, 8.87192130e-01,
          8.49149942e-01, 8.13844681e-01, 9.14084256e-01, 6.19267642e-01,
          8.59886289e-01, 8.43913198e-01, 8.41526210e-01, 8.75899971e-01,
          8.99601102e-01, 8.53649497e-01, 8.72149050e-01, 6.17019355e-01,
          8.68027925e-01, 2.35361069e-01, 6.23272538e-01, 2.28634730e-01,
          5.02467811e-01, 8.11963081e-01, 8.12825203e-01, 7.82112181e-01,
          7.96505034e-01 ]
      - [ 8.93862188e-01, 9.72016692e-01, 9.20433283e-01, 9.32307124e-01,
          9.74754333e-01, 9.38720822e-01, 9.35941279e-01, 9.42293346e-01,
          9.21094537e-01, 9.21012640e-01, 9.41159427e-01, 9.94729042e-01,
          9.84499693e-01, 9.47887897e-01, 8.78589749e-01, 9.13263917e-01,
          8.93647134e-01, 9.24049795e-01, 9.84111488e-01, 9.42063630e-01,
          9.42944169e-01, 9.16472256e-01, 8.96961629e-01, 9.44729209e-01,
          9.30004835e-01, 9.59008992e-01, 9.74602818e-01, 9.49273348e-01,
          9.85621333e-01, 9.52346385e-01, 9.53514993e-01, 8.29025924e-01,
          8.36524010e-01, 8.17369103e-01, 8.96945417e-01, 9.21731234e-01,
          9.73451018e-01, 9.56902564e-01, 9.85351324e-01, 9.71775532e-01,
          9.33103919e-01, 8.72718513e-01, 8.30348313e-01, 8.74507248e-01,
          8.66825759e-01, 9.27902818e-01, 9.08669353e-01, 8.49286616e-01,
          7.85924256e-01, 8.53057444e-01, 8.48170459e-01, 9.28342819e-01,
          8.76227379e-01, 8.33772361e-01, 8.18129897e-01, 8.68029892e-01,
          8.62500668e-01, 8.33029151e-01, 8.06196868e-01, 8.16707015e-01,
          8.05397809e-01, 9.08536971e-01, 8.44728291e-01, 8.14035118e-01,
          8.21240425e-01, 8.41459155e-01, 8.32815647e-01, 8.25212419e-01,
          8.13371062e-01, 8.12050760e-01, 7.69819558e-01, 9.58670080e-01,
          9.33700144e-01, 8.79067123e-01, 8.10640872e-01, 7.88848937e-01,
          7.90398955e-01, 7.80238092e-01, 7.91839421e-01, 7.81786442e-01,
          7.82547176e-01, 9.87656534e-01, 9.46179986e-01, 9.70996380e-01,
          9.74462092e-01, 8.92527580e-01, 8.31629217e-01, 7.92751193e-01,
          7.64982939e-01, 7.58873701e-01, 7.83035815e-01, 9.65795636e-01,
          9.66717839e-01, 9.59153175e-01, 9.79495645e-01, 9.92608368e-01,
          9.86341834e-01, 9.76422250e-01, 9.39489841e-01, 8.93581688e-01,
          8.16748083e-01 ]
      - [ 8.30240369e-01, 7.68494904e-01, 8.30310404e-01, 7.42557049e-01,
          7.29252875e-01, 6.52229011e-01, 6.16663039e-01, 6.56809092e-01,
          7.17787862e-01, 7.72527158e-01, 7.94005275e-01, 8.03405106e-01,
          7.89686620e-01, 6.56676412e-01, 6.01741374e-01, 5.73198080e-01,
          5.93027472e-01, 5.97916186e-01, 5.88930070e-01, 6.54280484e-01,
          7.97862470e-01, 8.36640000e-01, 8.45477879e-01, 7.26923525e-01,
          7.59140611e-01, 8.42571795e-01, 8.37985396e-01, 7.18235970e-01,
          6.56324089e-01, 6.60974026e-01, 7.98822343e-01, 8.33129227e-01,
          8.70249569e-01, 8.54459047e-01, 9.15075421e-01, 8.79164040e-01,
          9.24753189e-01, 8.67666602e-01, 8.09579670e-01, 8.88047874e-01,
          8.09296489e-01, 8.20802391e-01, 8.64254713e-01, 9.16434765e-01,
          9.16249216e-01, 8.83419216e-01, 8.67362499e-01, 8.55633378e-01,
          8.71637940e-01, 8.66534710e-01, 7.96069920e-01, 8.38859379e-01,
          8.28255653e-01, 8.60380888e-01, 9.37434316e-01, 9.43633258e-01,
          9.34029281e-01, 9.62538898e-01, 8.66839290e-01, 8.40118051e-01,
          7.49811828e-01, 8.73264074e-01, 8.62302899e-01, 8.26079905e-01,
          8.89792681e-01, 9.34373498e-01, 8.91108871e-01, 9.49873805e-01,
          8.35689604e-01, 9.03910816e-01, 7.50785589e-01, 9.19506013e-01,
          9.10190642e-01, 8.75732660e-01, 9.49826241e-01, 8.73751521e-01,
          8.59950244e-01, 9.12783742e-01, 9.12077844e-01, 8.65781426e-01,
          8.58337641e-01, 8.29320610e-01, 9.16945815e-01, 9.58455205e-01,
          9.06515062e-01, 9.19003904e-01, 9.22047734e-01, 8.36178660e-01,
          9.54884589e-01, 9.32936490e-01, 8.20596516e-01, 7.88216770e-01,
          8.96426380e-01, 9.17285621e-01, 8.92077565e-01, 9.27703738e-01,
          9.06861961e-01, 8.55406284e-01, 8.83281112e-01, 8.91776979e-01,
          7.69331753e-01 ]
      - [ 8.92202556e-01, 9.79529977e-01, 9.65044260e-01, 9.71379817e-01,
          9.70348895e-01, 9.78226662e-01, 9.76759374e-01, 9.68213618e-01,
          9.77615774e-01, 9.73846436e-01, 9.70003068e-01, 9.44650531e-01,
          9.50009286e-01, 9.66770351e-01, 9.66996193e-01, 9.70770478e-01,
          9.79004383e-01, 9.81787443e-01, 9.85330820e-01, 9.83232200e-01,
          9.80036259e-01, 9.41701651e-01, 9.53088462e-01, 9.56243813e-01,
          9.56528187e-01, 9.71162260e-01, 9.82357800e-01, 9.84419167e-01,
          9.86487806e-01, 9.85445738e-01, 9.83958721e-01, 8.84373248e-01,
          8.92983139e-01, 8.30042124e-01, 8.97919357e-01, 8.86508524e-01,
          8.70541930e-01, 8.95575047e-01, 9.57268238e-01, 9.86231327e-01,
          9.86897409e-01, 9.28447545e-01, 8.26961398e-01, 7.17794061e-01,
          8.87527466e-01, 9.07185078e-01, 9.10911679e-01, 8.95084679e-01,
          9.03457940e-01, 9.37157631e-01, 9.40212667e-01, 8.89559090e-01,
          8.02233100e-01, 6.97020650e-01, 8.58125806e-01, 8.69151413e-01,
          8.78980577e-01, 8.65337551e-01, 8.64767671e-01, 8.62148225e-01,
          8.69479954e-01, 9.16803539e-01, 8.12136650e-01, 7.36087084e-01,
          8.50468338e-01, 8.62083077e-01, 8.81835163e-01, 8.61601770e-01,
          8.49687457e-01, 8.43869448e-01, 8.53476763e-01, 8.26279700e-01,
          8.97060275e-01, 8.91141057e-01, 8.85937095e-01, 8.23323846e-01,
          8.45486879e-01, 8.44481945e-01, 8.50704789e-01, 8.63959312e-01,
          8.68907690e-01, 8.48499775e-01, 7.97998428e-01, 8.57224584e-01,
          8.43745530e-01, 8.03991854e-01, 8.04203510e-01, 8.91381264e-01,
          8.69755626e-01, 8.47913682e-01, 8.24976087e-01, 8.37323904e-01,
          8.06574285e-01, 8.16541135e-01, 7.73279369e-01, 7.61936605e-01,
          8.04272473e-01, 8.18605125e-01, 8.67058277e-01, 8.78121436e-01,
          8.94641817e-01 ]
      - [ 9.46807683e-01, 9.80978191e-01, 9.71982718e-01, 9.85421479e-01,
          9.91843462e-01, 9.95495737e-01, 9.92959738e-01, 9.89265740e-01,
          9.41283286e-01, 9.57925260e-01, 9.48655367e-01, 9.88876522e-01,
          9.75961804e-01, 9.76354420e-01, 9.70199943e-01, 9.83124018e-01,
          9.58478749e-01, 9.48495567e-01, 9.85555112e-01, 9.78106022e-01,
          9.82772112e-01, 9.94441271e-01, 9.92139161e-01, 9.90554094e-01,
          9.86794889e-01, 9.83265698e-01, 9.69738185e-01, 9.62481201e-01,
          9.67580438e-01, 9.60675776e-01, 9.71824169e-01, 9.94311571e-01,
          9.94773030e-01, 9.93592501e-01, 9.93160963e-01, 9.89563406e-01,
          9.89724576e-01, 9.87834215e-01, 9.86940384e-01, 9.73165274e-01,
          9.70835686e-01, 9.88462090e-01, 9.88584459e-01, 9.89641905e-01,
          9.89801526e-01, 9.89063144e-01, 9.89017606e-01, 9.85529840e-01,
          9.85381067e-01, 9.78953123e-01, 9.75704432e-01, 9.92326140e-01,
          9.90630507e-01, 9.89888608e-01, 9.86567140e-01, 9.82319415e-01,
          9.83383179e-01, 9.83450353e-01, 9.83784199e-01, 9.84241366e-01,
          9.88546669e-01, 8.71069551e-01, 8.68973732e-01, 8.75488937e-01,
          8.67501795e-01, 8.63675416e-01, 8.82269919e-01, 8.83547604e-01,
          8.75643492e-01, 8.78802121e-01, 8.79496276e-01, 8.63853276e-01,
          8.39230537e-01, 8.37784111e-01, 8.49961936e-01, 8.54885280e-01,
          8.55372250e-01, 8.78415585e-01, 8.72524738e-01, 8.69039774e-01,
          8.65136445e-01, 9.05145347e-01, 9.26113486e-01, 8.84834349e-01,
          9.01013017e-01, 9.00326252e-01, 8.90082896e-01, 8.93837094e-01,
          8.86581659e-01, 8.99166405e-01, 9.06542361e-01, 9.37312365e-01,
          9.28711295e-01, 9.25223827e-01, 9.36535597e-01, 9.29584980e-01,
          9.46797252e-01, 9.50123787e-01, 9.55537260e-01, 9.58874583e-01,
          9.54413354e-01 ]
      - [ 7.64800549e-01, 5.00426412e-01, 7.10143447e-01, 8.27505052e-01,
          9.51242447e-01, 9.24615264e-01, 9.06547785e-01, 9.12056684e-01,
          9.34053719e-01, 9.55154121e-01, 8.27904701e-01, 4.98622298e-01,
          7.52363741e-01, 7.10578978e-01, 7.85506904e-01, 9.21231747e-01,
          9.16992128e-01, 9.38399076e-01, 9.51277971e-01, 9.60637569e-01,
          8.45253289e-01, 4.88402337e-01, 7.80610681e-01, 7.43827105e-01,
          7.17893779e-01, 7.44080305e-01, 7.80693173e-01, 9.50464785e-01,
          9.59219456e-01, 9.56303418e-01, 8.59309137e-01, 4.86880273e-01,
          7.82525539e-01, 7.58353770e-01, 7.75451481e-01, 7.58913219e-01,
          7.39588261e-01, 7.88233519e-01, 9.07609820e-01, 9.79401469e-01,
          7.03012407e-01, 5.12898803e-01, 8.10131907e-01, 7.81354070e-01,
          7.75923848e-01, 7.40670323e-01, 8.00919652e-01, 8.01739812e-01,
          7.67392635e-01, 8.38915288e-01, 7.11983502e-01, 4.78819132e-01,
          8.20506752e-01, 8.38834941e-01, 8.11684787e-01, 7.84697115e-01,
          8.57406378e-01, 9.08025503e-01, 7.59241581e-01, 7.39034832e-01,
          6.20262086e-01, 4.88095552e-01, 7.47387528e-01, 7.85812020e-01,
          8.50806534e-01, 8.75907719e-01, 9.27777469e-01, 7.68720031e-01,
          7.97897100e-01, 7.76809216e-01, 7.03050494e-01, 4.71566290e-01,
          7.04057336e-01, 7.45602429e-01, 7.81208038e-01, 8.67095470e-01,
          8.08636487e-01, 7.43635833e-01, 7.19250560e-01, 7.23342121e-01,
          6.42954290e-01, 4.91389960e-01, 7.56524146e-01, 7.37335861e-01,
          7.36984491e-01, 7.91634679e-01, 8.08630645e-01, 8.00499797e-01,
          7.93265104e-01, 6.87492013e-01, 6.75929248e-01, 4.89373118e-01,
          7.83194721e-01, 7.91566789e-01, 8.08145583e-01, 8.48787010e-01,
          9.23975050e-01, 9.18031633e-01, 9.26762998e-01, 8.47911954e-01,
          8.15549850e-01 ]
      - [ 8.86715770e-01, 9.92693603e-01, 9.93418634e-01, 9.92129743e-01,
          9.91522431e-01, 9.80394065e-01, 9.40973282e-01, 9.25116181e-01,
          9.34247792e-01, 9.61777091e-01, 9.73220468e-01, 9.89813805e-01,
          9.89214361e-01, 9.82473016e-01, 9.58696365e-01, 9.37360227e-01,
          9.30980146e-01, 9.42963958e-01, 8.81991088e-01, 9.74133849e-01,
          9.76617038e-01, 9.84232306e-01, 9.85457301e-01, 9.32214141e-01,
          9.01552200e-01, 9.08315659e-01, 8.90600622e-01, 9.18940604e-01,
          8.55212688e-01, 9.79986608e-01, 9.86335039e-01, 9.81649935e-01,
          9.63816464e-01, 8.90929759e-01, 9.08780396e-01, 8.51659954e-01,
          7.28412807e-01, 8.79707336e-01, 9.40500975e-01, 9.82724905e-01,
          9.88499284e-01, 9.15179193e-01, 8.85267079e-01, 8.52204740e-01,
          8.29897940e-01, 8.45471084e-01, 8.16008031e-01, 9.04625714e-01,
          9.15657699e-01, 9.50368047e-01, 9.59606230e-01, 8.71356964e-01,
          9.58649158e-01, 8.80817294e-01, 8.59125376e-01, 8.63641441e-01,
          7.94668257e-01, 8.70937526e-01, 8.81150663e-01, 8.99277389e-01,
          9.29533064e-01, 9.29273903e-01, 9.38854992e-01, 9.04217482e-01,
          8.51182103e-01, 8.76705348e-01, 8.32120121e-01, 8.60806346e-01,
          8.85896802e-01, 9.11246836e-01, 9.08776462e-01, 8.58481169e-01,
          8.74801993e-01, 8.45752239e-01, 7.95864880e-01, 7.86999702e-01,
          8.23789895e-01, 8.72605801e-01, 8.92819166e-01, 8.83465648e-01,
          8.76427472e-01, 8.48179638e-01, 8.02228808e-01, 7.60002971e-01,
          7.22148418e-01, 7.31036603e-01, 8.36629212e-01, 7.37659812e-01,
          8.01434517e-01, 8.00299823e-01, 8.21686625e-01, 7.82833457e-01,
          7.80990720e-01, 7.65996337e-01, 7.60541618e-01, 8.04777503e-01,
          8.45812678e-01, 7.67770410e-01, 8.16256166e-01, 8.51685822e-01,
          8.42848659e-01 ]
      - [ 9.31586862e-01, 9.50828373e-01, 9.78794158e-01, 9.81568754e-01,
          9.83328879e-01, 9.83177066e-01, 9.84681427e-01, 9.80080664e-01,
          9.81400192e-01, 9.81136501e-01, 9.75209653e-01, 9.13936675e-01,
          9.67153251e-01, 9.81760561e-01, 9.82551813e-01, 9.82232153e-01,
          9.84073043e-01, 9.83826637e-01, 9.85218227e-01, 9.75148857e-01,
          9.70819950e-01, 9.53474641e-01, 8.85067105e-01, 9.35185492e-01,
          9.69101429e-01, 9.62486863e-01, 9.71300364e-01, 9.68342602e-01,
          9.79152858e-01, 9.74853098e-01, 9.69367445e-01, 9.10909176e-01,
          8.74864221e-01, 9.36014891e-01, 9.05197382e-01, 9.09957349e-01,
          8.84252727e-01, 9.54111457e-01, 9.54452634e-01, 9.56887841e-01,
          9.36954618e-01, 9.75278497e-01, 9.16288137e-01, 9.23876882e-01,
          8.66324663e-01, 8.32264781e-01, 8.45389962e-01, 9.85280812e-01,
          9.83051777e-01, 9.76665676e-01, 9.74554718e-01, 8.74879420e-01,
          8.63578260e-01, 8.84782910e-01, 8.17422807e-01, 8.34269047e-01,
          9.10812020e-01, 9.83537316e-01, 9.87372160e-01, 9.87565696e-01,
          9.85258996e-01, 8.01870883e-01, 8.18926752e-01, 8.33935380e-01,
          8.55238795e-01, 8.26603353e-01, 9.73497987e-01, 9.75696802e-01,
          9.82556880e-01, 9.76814508e-01, 9.71442342e-01, 7.97802746e-01,
          8.13991368e-01, 8.57660055e-01, 8.57164145e-01, 9.03719664e-01,
          9.62069750e-01, 9.55436349e-01, 9.62502360e-01, 9.71560478e-01,
          9.65409458e-01, 8.01274300e-01, 8.57715964e-01, 8.92501116e-01,
          8.70816648e-01, 9.48654652e-01, 9.53157246e-01, 9.57845509e-01,
          9.59663689e-01, 9.66985106e-01, 9.70453262e-01, 8.87637615e-01,
          8.52940738e-01, 8.90458047e-01, 9.14856255e-01, 9.26632524e-01,
          9.32667315e-01, 9.40058947e-01, 9.46434796e-01, 9.56570089e-01,
          9.71348822e-01 ]
      - [ 9.64520097e-01, 9.85062182e-01, 9.86230731e-01, 9.87645268e-01,
          9.89744663e-01, 9.90600169e-01, 9.90296662e-01, 9.89501178e-01,
          9.87645447e-01, 9.85801041e-01, 9.83511388e-01, 9.79290545e-01,
          9.83572364e-01, 9.85664129e-01, 9.88972366e-01, 9.91440177e-01,
          9.91230965e-01, 9.89019573e-01, 9.85509336e-01, 9.82404947e-01,
          9.81179535e-01, 9.71936882e-01, 9.77910399e-01, 9.83709812e-01,
          9.88411546e-01, 9.92256105e-01, 9.91535783e-01, 9.88736212e-01,
          9.83403683e-01, 9.78651941e-01, 9.72716749e-01, 9.57488656e-01,
          9.64893758e-01, 9.73291218e-01, 9.82284307e-01, 9.72741604e-01,
          9.72207189e-01, 9.78273332e-01, 9.72689927e-01, 9.66543317e-01,
          9.57601070e-01, 9.41206276e-01, 9.35596108e-01, 9.33771253e-01,
          9.33407128e-01, 9.21217322e-01, 9.25444365e-01, 9.34960663e-01,
          9.36216474e-01, 9.35167551e-01, 9.32261229e-01, 9.34099495e-01,
          9.14670944e-01, 9.57589984e-01, 9.74411428e-01, 9.23655629e-01,
          9.21395063e-01, 9.69416916e-01, 9.62368727e-01, 9.50536668e-01,
          9.47575152e-01, 9.58924711e-01, 9.62064147e-01, 9.71889913e-01,
          9.79024649e-01, 9.31996286e-01, 9.31754768e-01, 9.78699625e-01,
          9.72587109e-01, 9.64508832e-01, 9.58052814e-01, 9.57772315e-01,
          9.67464566e-01, 9.71993029e-01, 9.80366945e-01, 9.28571045e-01,
          9.30505872e-01, 9.79498684e-01, 9.75266039e-01, 9.64883506e-01,
          9.59275186e-01, 9.63698208e-01, 9.67501223e-01, 9.71922815e-01,
          9.80306029e-01, 9.31599617e-01, 9.37278569e-01, 9.76934075e-01,
          9.71063972e-01, 9.64586318e-01, 9.58570302e-01, 9.58150506e-01,
          9.63357210e-01, 9.66646433e-01, 9.72458661e-01, 9.18379545e-01,
          9.17976022e-01, 9.72613215e-01, 9.66464281e-01, 9.62974250e-01,
          9.58691776e-01 ]
      - [ 9.78744864e-01, 9.89497185e-01, 9.81737137e-01, 9.91091132e-01,
          9.88183737e-01, 9.86015797e-01, 9.83207226e-01, 9.94881690e-01,
          9.95632946e-01, 9.95053649e-01, 9.95386481e-01, 9.84791160e-01,
          9.75313842e-01, 9.82966602e-01, 9.82776284e-01, 9.77180362e-01,
          9.79357839e-01, 9.89836037e-01, 9.89746869e-01, 9.88528013e-01,
          9.88829851e-01, 9.78554249e-01, 9.79732454e-01, 9.77443457e-01,
          9.81303573e-01, 9.78799343e-01, 9.79821503e-01, 9.86074388e-01,
          9.90693271e-01, 9.89888549e-01, 9.88675535e-01, 9.75829184e-01,
          9.83161211e-01, 9.76527929e-01, 9.83280361e-01, 9.81184781e-01,
          9.76287782e-01, 9.80643690e-01, 9.89662707e-01, 9.89990413e-01,
          9.89030004e-01, 9.73459363e-01, 9.83504415e-01, 9.77773905e-01,
          9.78651941e-01, 9.82872725e-01, 9.73532259e-01, 9.79241669e-01,
          9.69273090e-01, 9.69885051e-01, 9.88195121e-01, 9.80210960e-01,
          9.77558970e-01, 9.77882743e-01, 9.73548651e-01, 9.81884480e-01,
          9.77474749e-01, 9.76518869e-01, 9.54070508e-01, 9.63688552e-01,
          9.67631817e-01, 9.85140383e-01, 9.78541493e-01, 9.70988512e-01,
          9.72585499e-01, 9.72933471e-01, 9.81857419e-01, 9.83893394e-01,
          9.67125773e-01, 9.56939518e-01, 9.72223818e-01, 9.88278985e-01,
          9.84853566e-01, 9.80833113e-01, 9.73071277e-01, 9.73644078e-01,
          9.78986561e-01, 9.88795757e-01, 9.75914657e-01, 9.54374254e-01,
          9.80274558e-01, 9.88649070e-01, 9.88662183e-01, 9.81388092e-01,
          9.86241281e-01, 9.74278212e-01, 9.72426653e-01, 9.86005187e-01,
          9.88581300e-01, 9.77158427e-01, 9.84542727e-01, 9.90266442e-01,
          9.88996327e-01, 9.88724172e-01, 9.50086951e-01, 9.11936700e-01,
          9.04508173e-01, 9.15086091e-01, 9.91447389e-01, 9.84716773e-01,
          9.86290395e-01 ]
      - [ 8.36271346e-01, 9.78778422e-01, 9.79011834e-01, 9.78618681e-01,
          9.79566395e-01, 9.79095876e-01, 9.76540327e-01, 9.75133181e-01,
          9.75116134e-01, 9.75682974e-01, 9.74815071e-01, 9.86790836e-01,
          9.88013625e-01, 9.87032592e-01, 9.83497143e-01, 9.54638898e-01,
          8.92039239e-01, 9.52982903e-01, 9.49961901e-01, 9.38807487e-01,
          9.75162148e-01, 9.89681363e-01, 9.88763809e-01, 9.88836706e-01,
          9.77775812e-01, 8.81640911e-01, 9.04312372e-01, 8.80611539e-01,
          8.73605490e-01, 8.73391628e-01, 9.04492617e-01, 9.76534128e-01,
          9.66728330e-01, 9.70441937e-01, 9.13082182e-01, 9.30929065e-01,
          9.35993075e-01, 9.38900173e-01, 9.35233593e-01, 9.31692779e-01,
          8.98951650e-01, 9.80207920e-01, 9.80446339e-01, 9.77279127e-01,
          9.50004637e-01, 9.25429940e-01, 9.56221759e-01, 9.57938254e-01,
          8.92170608e-01, 8.11803997e-01, 8.28412116e-01, 9.78464603e-01,
          9.80325103e-01, 9.75728631e-01, 9.20128405e-01, 9.59188402e-01,
          9.60636020e-01, 9.42454159e-01, 8.29381466e-01, 8.67712200e-01,
          8.52020264e-01, 9.09174263e-01, 9.20596242e-01, 9.35886025e-01,
          9.43253815e-01, 9.64925289e-01, 9.57059979e-01, 9.17722881e-01,
          8.57762814e-01, 8.35340500e-01, 8.31975818e-01, 9.71182823e-01,
          9.70090985e-01, 9.06593680e-01, 8.90265405e-01, 9.62634683e-01,
          9.56969142e-01, 9.23615754e-01, 8.90853524e-01, 8.63040686e-01,
          8.51886630e-01, 5.79935372e-01, 6.74106479e-01, 7.94285655e-01,
          9.19617534e-01, 9.31770504e-01, 8.78774464e-01, 8.15627873e-01,
          7.84023523e-01, 8.50012660e-01, 9.08660769e-01, 0., 0.,
          1.25032589e-02, 3.99689645e-01, 3.39415491e-01, 3.12726945e-01,
          3.89238834e-01, 2.84209758e-01, 3.65344197e-01, 3.87262404e-01 ]
      - [ 8.30236316e-01, 8.24490845e-01, 9.54293311e-01, 9.28402603e-01,
          9.45338786e-01, 9.37522769e-01, 9.75621700e-01, 9.77815688e-01,
          9.80387568e-01, 9.81130838e-01, 9.61411119e-01, 6.43474519e-01,
          8.75031412e-01, 9.82665956e-01, 9.82250750e-01, 9.20437634e-01,
          9.27717566e-01, 9.79182422e-01, 9.80580032e-01, 9.81586158e-01,
          9.82915401e-01, 6.10658705e-01, 8.33117485e-01, 8.48865688e-01,
          8.94872069e-01, 8.24883759e-01, 9.64361310e-01, 9.65442240e-01,
          8.47716033e-01, 8.32862258e-01, 9.81912792e-01, 6.95844233e-01,
          6.40897989e-01, 6.70608163e-01, 7.62322664e-01, 8.45807850e-01,
          9.52052355e-01, 8.77777398e-01, 6.56210661e-01, 7.47463763e-01,
          9.74579155e-01, 7.42568791e-01, 9.34444249e-01, 9.87058282e-01,
          9.11268115e-01, 7.47791052e-01, 9.29680169e-01, 8.61725807e-01,
          8.05596709e-01, 8.44134569e-01, 9.58708227e-01, 8.00511479e-01,
          7.27623880e-01, 8.12897444e-01, 9.45975900e-01, 8.96512628e-01,
          8.45871270e-01, 5.82087219e-01, 6.41073942e-01, 9.09333348e-01,
          9.86577272e-01, 7.06896365e-01, 6.17550135e-01, 6.24581277e-01,
          9.05234814e-01, 8.95734131e-01, 7.42087364e-01, 8.83794248e-01,
          8.17434728e-01, 7.84977973e-01, 9.78635073e-01, 7.12772608e-01,
          7.36344874e-01, 6.48043156e-01, 8.61061573e-01, 8.88889670e-01,
          7.96543539e-01, 7.19427168e-01, 8.36685419e-01, 9.04101729e-01,
          8.14269781e-01, 7.56326199e-01, 6.82266176e-01, 7.12175429e-01,
          7.97133386e-01, 8.62211645e-01, 7.57740557e-01, 7.36308157e-01,
          8.44969809e-01, 8.37296724e-01, 7.30875254e-01, 7.51709998e-01,
          7.04193175e-01, 7.35777676e-01, 7.64853299e-01, 7.70447254e-01,
          6.97454453e-01, 7.08000422e-01, 8.46018970e-01, 7.09153533e-01,
          7.22210467e-01 ]
      - [ 7.48887479e-01, 9.44387734e-01, 9.48491096e-01, 9.47466075e-01,
          9.49085295e-01, 9.54055667e-01, 9.56271112e-01, 9.52675939e-01,
          9.47670102e-01, 9.45089519e-01, 9.40939486e-01, 9.48771060e-01,
          9.50902939e-01, 9.52139437e-01, 9.56744194e-01, 9.61119533e-01,
          9.63508904e-01, 9.61108685e-01, 9.58954215e-01, 9.48002994e-01,
          9.42886651e-01, 9.50041711e-01, 9.52893734e-01, 9.59341347e-01,
