%YAML:1.0
my_svm: !!opencv-ml-svm
   svm_type: C_SVC
   kernel: { type:RBF, gamma:2.2500000000000003e-03 }
   C: 1.2500000000000000e+01
   term_criteria: { epsilon:1.1920928955078125e-07, iterations:1000 }
   var_all: 3
   var_count: 3
   class_count: 2
   class_labels: !!opencv-matrix
      rows: 1
      cols: 2
      dt: i
      data: [ 0, 1 ]
   sv_total: 318
   support_vectors:
      - [ 1.69660393e-02, 16., 4.80877075e+01 ]
      - [ 1.88388396e-02, 19., 2.98813190e+01 ]
      - [ 3.05099934e-02, 19., 4.57602692e+01 ]
      - [ .Nan, 7., 6.25293064e+00 ]
      - [ 1.83068234e-02, 22., 6.70013199e+01 ]
      - [ 3.48090455e-02, 13., 4.58598423e+00 ]
      - [ 2.50828229e-02, 14., 4.50008659e+01 ]
      - [ 3.29492688e-02, 12., 3.32125854e+01 ]
      - [ 2.45680548e-02, 20., 2.93908577e+01 ]
      - [ 1.81287788e-02, 19., 4.54865570e+01 ]
      - [ .Nan, 0., .Nan ]
      - [ 2.56217159e-02, 11., 6.38637352e+01 ]
      - [ 3.06701083e-02, 24., 5.74427147e+01 ]
      - [ .Nan, 0., .Nan ]
      - [ 2.09651515e-02, 24., 3.27604828e+01 ]
      - [ 3.28249075e-02, 21., 2.77112045e+01 ]
      - [ .Nan, 2., 8.94205475e+00 ]
      - [ .Nan, 7., 2.33003521e+01 ]
      - [ 1.93825942e-02, 18., 4.26988373e+01 ]
      - [ 4.57332358e-02, 16., 1.21419868e+01 ]
      - [ 1.88865252e-02, 14., 3.70081596e+01 ]
      - [ 1.57726482e-02, 16., 1.63699455e+01 ]
      - [ 2.78266668e-02, 19., 3.21651115e+01 ]
      - [ 7.19576795e-03, 8., 4.15546455e+01 ]
      - [ 2.28433572e-02, 12., 4.17293549e+01 ]
      - [ 3.33653539e-02, 16., 4.88035965e+01 ]
      - [ 1.90786887e-02, 19., 3.12815151e+01 ]
      - [ 4.15157825e-02, 16., 3.25531044e+01 ]
      - [ 1.25074200e-02, 19., 3.53100967e+01 ]
      - [ 2.89811082e-02, 14., 4.93004417e+01 ]
      - [ 1.60111580e-02, 22., 3.23315163e+01 ]
      - [ 1.15829473e-02, 27., 3.32614174e+01 ]
      - [ 3.08366679e-02, 22., 2.67905693e+01 ]
      - [ 7.09708780e-03, 22., 4.67147636e+01 ]
      - [ 1.95429716e-02, 16., 5.70273857e+01 ]
      - [ 3.91367897e-02, 14., 1.99846115e+01 ]
      - [ 3.65721285e-02, 10., 1.27547827e+01 ]
      - [ 1.73194427e-02, 14., 3.17376652e+01 ]
      - [ 1.32591501e-02, 14., 3.44656982e+01 ]
      - [ 1.16517320e-02, 18., 1.84733162e+01 ]
      - [ 1.29945800e-02, 13., 4.37928734e+01 ]
      - [ 1.38994679e-02, 13., 3.88060188e+01 ]
      - [ 1.47599149e-02, 15., 3.28541031e+01 ]
      - [ 2.73321141e-02, 13., 5.92693558e+01 ]
      - [ 6.28495812e-02, 35., 1.67598915e+01 ]
      - [ 2.40913816e-02, 24., 5.39879646e+01 ]
      - [ 2.24146675e-02, 14., 3.18820992e+01 ]
      - [ 1.41195171e-02, 15., 4.53630524e+01 ]
      - [ 2.72111185e-02, 18., 3.51000481e+01 ]
      - [ 1.38352104e-02, 22., 3.36988106e+01 ]
      - [ 2.29937285e-02, 14., 3.09984474e+01 ]
      - [ 1.88445784e-02, 21., 5.50930023e+01 ]
      - [ 9.28992499e-03, 10., 2.28555775e+01 ]
      - [ 1.14821410e-02, 7., 4.05826302e+01 ]
      - [ 4.23334576e-02, 24., 5.57081223e+01 ]
      - [ 1.53149907e-02, 22., 3.93736687e+01 ]
      - [ 1.30804628e-02, 17., 4.69622536e+01 ]
      - [ 2.88644172e-02, 13., 2.47988892e+01 ]
      - [ 7.08380761e-03, 15., 6.94982910e+01 ]
      - [ 2.11929455e-02, 17., 3.07016048e+01 ]
      - [ 1.66894067e-02, 17., 4.59411621e+01 ]
      - [ 1.44981807e-02, 21., 2.89203949e+01 ]
      - [ 2.26684473e-02, 20., 2.02253265e+01 ]
      - [ 1.08166216e-02, 20., 5.87464981e+01 ]
      - [ 1.46756154e-02, 12., 4.93619576e+01 ]
      - [ 3.35401036e-02, 17., 3.47093277e+01 ]
      - [ 5.16032502e-02, 17., 2.12498360e+01 ]
      - [ 1.92470942e-02, 28., 5.61506615e+01 ]
      - [ 2.06514038e-02, 16., 2.02776814e+01 ]
      - [ 1.46280825e-02, 16., 4.34599419e+01 ]
      - [ 6.38810731e-03, 17., 3.47863846e+01 ]
      - [ 1.74908619e-02, 20., 2.92314396e+01 ]
      - [ 1.58663653e-02, 14., 3.23158989e+01 ]
      - [ 1.02227386e-02, 15., 4.43398514e+01 ]
      - [ 9.88537166e-03, 25., 3.14280052e+01 ]
      - [ 2.07551084e-02, 9., 2.08204536e+01 ]
      - [ 1.70856416e-02, 14., 3.14073887e+01 ]
      - [ 5.13291955e-02, 22., 6.10628510e+01 ]
      - [ 1.09739555e-02, 6., 4.68726807e+01 ]
      - [ 2.30957288e-02, 16., 5.06675835e+01 ]
      - [ 2.90622003e-02, 7., 2.82839146e+01 ]
      - [ 2.24271081e-02, 15., 2.56993828e+01 ]
      - [ 1.67549010e-02, 18., 2.71999817e+01 ]
      - [ 2.19981410e-02, 11., 3.17598190e+01 ]
      - [ 1.65648721e-02, 22., 3.80264893e+01 ]
      - [ 1.46639850e-02, 15., 5.02313766e+01 ]
      - [ 7.81300664e-03, 17., 5.04603500e+01 ]
      - [ 2.29042396e-02, 8., 2.58246365e+01 ]
      - [ 2.11233553e-02, 19., 5.46470261e+01 ]
      - [ 2.13716887e-02, 12., 3.76772842e+01 ]
      - [ 2.08835304e-02, 22., 3.13496437e+01 ]
      - [ 2.47646011e-02, 20., 5.89822807e+01 ]
      - [ 2.41355784e-02, 13., 4.57306557e+01 ]
      - [ 2.44993549e-02, 22., 2.40271721e+01 ]
      - [ 2.08398178e-02, 18., 4.59807091e+01 ]
      - [ 1.46475257e-02, 23., 4.44458084e+01 ]
      - [ 2.05712914e-02, 18., 4.33833351e+01 ]
      - [ 2.48270184e-02, 19., 7.52558289e+01 ]
      - [ 1.04059745e-02, 14., 5.01316490e+01 ]
      - [ 1.51985306e-02, 17., 6.90995026e+01 ]
      - [ 1.69505347e-02, 10., 4.43225250e+01 ]
      - [ 2.05477402e-02, 20., 5.07858162e+01 ]
      - [ 1.78969875e-02, 16., 3.29920273e+01 ]
      - [ 4.46499651e-03, 8., 4.32081413e+01 ]
      - [ 2.87081935e-02, 22., 2.97596531e+01 ]
      - [ 4.72680628e-02, 12., 2.56552868e+01 ]
      - [ 1.87051222e-02, 19., 2.93801117e+01 ]
      - [ 3.00660245e-02, 23., 1.35614729e+01 ]
      - [ 1.67377703e-02, 19., 4.80367203e+01 ]
      - [ 1.15106404e-02, 27., 2.75519314e+01 ]
      - [ 1.12077706e-02, 19., 2.50057983e+01 ]
      - [ 1.67436618e-02, 33., 5.37184372e+01 ]
      - [ 9.59563069e-03, 14., 4.30009651e+01 ]
      - [ 1.35554150e-02, 14., 2.77414303e+01 ]
      - [ 4.08713520e-02, 19., 4.12754173e+01 ]
      - [ 1.85447149e-02, 12., 3.94764366e+01 ]
      - [ 7.61256926e-03, 21., 3.43260307e+01 ]
      - [ 1.23338774e-02, 28., 4.35626793e+01 ]
      - [ 1.97831839e-02, 17., 4.52218399e+01 ]
      - [ 2.99341790e-02, 16., 3.08703632e+01 ]
      - [ 1.41838808e-02, 19., 4.64481354e+01 ]
      - [ 1.65547375e-02, 19., 5.36753120e+01 ]
      - [ 8.92004464e-03, 14., 4.73113632e+01 ]
      - [ 1.35170549e-01, 28., 2.19841633e+01 ]
      - [ 1.69313289e-02, 17., 4.98015747e+01 ]
      - [ 1.57519802e-02, 16., 2.60227013e+01 ]
      - [ 1.39354784e-02, 22., 4.26217728e+01 ]
      - [ 1.45474123e-02, 24., 5.32882957e+01 ]
      - [ 3.85960415e-02, 10., 2.68656235e+01 ]
      - [ 1.11487303e-02, 16., 6.87903900e+01 ]
      - [ 1.76778995e-02, 19., 2.49572639e+01 ]
      - [ 6.16756752e-02, 15., 2.95115471e+01 ]
      - [ 2.83951089e-02, 25., 2.03134651e+01 ]
      - [ 4.47675027e-02, 20., 3.21854324e+01 ]
      - [ 2.52732579e-02, 12., 4.98515968e+01 ]
      - [ 1.22582484e-02, 10., 1.90778275e+01 ]
      - [ 2.16859952e-02, 22., 2.50764236e+01 ]
      - [ 2.29412988e-02, 18., 5.48811035e+01 ]
      - [ 1.69321671e-02, 22., 4.31936188e+01 ]
      - [ 2.98290513e-02, 21., 2.77384491e+01 ]
      - [ 2.33575255e-02, 16., 1.86633816e+01 ]
      - [ 2.88699493e-02, 10., 1.88163757e+01 ]
      - [ 2.00637616e-02, 12., 4.41302185e+01 ]
      - [ 2.48379633e-02, 15., 1.79115105e+01 ]
      - [ 2.26111785e-02, 13., 4.22055931e+01 ]
      - [ 1.78469140e-02, 19., 4.24379616e+01 ]
      - [ 1.28463935e-02, 29., 5.60701103e+01 ]
      - [ 1.96731221e-02, 15., 4.85733490e+01 ]
      - [ 1.87664255e-02, 16., 4.67341423e+01 ]
      - [ 3.47650722e-02, 11., 1.77936401e+01 ]
      - [ 2.62566656e-02, 10., 3.17694721e+01 ]
      - [ 1.64634697e-02, 12., 1.48434258e+01 ]
      - [ 1.20778503e-02, 18., 1.48654194e+01 ]
      - [ 1.01496875e-02, 14., 3.83912468e+01 ]
      - [ 3.02158929e-02, 15., 2.32512302e+01 ]
      - [ 5.51253557e-03, 17., 3.52004471e+01 ]
      - [ 1.86311267e-02, 13., 4.85353622e+01 ]
      - [ 2.22665574e-02, 17., 3.94627419e+01 ]
      - [ 2.38938630e-02, 8., 4.59102669e+01 ]
      - [ 1.49408709e-02, 25., 3.75259590e+01 ]
      - [ 1.47424089e-02, 18., 2.68505230e+01 ]
      - [ 1.13599729e-02, 20., 2.17816162e+01 ]
      - [ 7.51294103e-03, 30., 3.03445072e+01 ]
      - [ 8.98209773e-03, 32., 5.49954185e+01 ]
      - [ 1.64041668e-02, 12., 3.02053413e+01 ]
      - [ 5.08538112e-02, 18., 2.05747261e+01 ]
      - [ 1.92844421e-02, 25., 4.68128204e+01 ]
      - [ 3.03265750e-02, 13., 5.39061928e+01 ]
      - [ 1.13786999e-02, 7., 5.00227470e+01 ]
      - [ 1.45822521e-02, 17., 2.56140575e+01 ]
      - [ 2.51011364e-02, 8., 2.77815666e+01 ]
      - [ 1.46379080e-02, 21., 4.41147194e+01 ]
      - [ 1.83252972e-02, 18., 4.61502876e+01 ]
      - [ 3.57157961e-02, 24., 3.27468987e+01 ]
      - [ 5.98537996e-02, 18., 1.51584787e+01 ]
      - [ 1.96262728e-02, 22., 5.27539444e+01 ]
      - [ 1.58889573e-02, 25., 5.07756271e+01 ]
      - [ 3.19465734e-02, 10., 3.88689232e+01 ]
      - [ 2.19593830e-02, 11., 1.65706520e+01 ]
      - [ 1.34273283e-02, 31., 5.00158577e+01 ]
      - [ 8.85432214e-03, 18., 4.93232155e+01 ]
      - [ 3.11912410e-02, 27., 6.28626747e+01 ]
      - [ 2.16902699e-02, 15., 5.13807297e+01 ]
      - [ 1.79347247e-02, 19., 5.82465935e+01 ]
      - [ 8.67598597e-03, 15., 2.72506657e+01 ]
      - [ 1.95580553e-02, 21., 4.41616631e+01 ]
      - [ 3.36594805e-02, 10., 2.77399693e+01 ]
      - [ 6.19846955e-02, 19., 2.78401432e+01 ]
      - [ 2.52382681e-02, 26., 2.67038002e+01 ]
      - [ 3.95334028e-02, 20., 2.98877316e+01 ]
      - [ 1.78099312e-02, 23., 2.28758278e+01 ]
      - [ 1.99589431e-02, 29., 5.48214111e+01 ]
      - [ 3.34367678e-02, 11., 1.23827505e+01 ]
      - [ 2.74603087e-02, 11., 3.29354248e+01 ]
      - [ 1.91717800e-02, 15., 4.63533745e+01 ]
      - [ 2.68560685e-02, 22., 2.08826218e+01 ]
      - [ 1.71599332e-02, 12., 2.97904320e+01 ]
      - [ 2.01506987e-02, 21., 2.52663460e+01 ]
      - [ 1.80513263e-02, 14., 3.26531792e+01 ]
      - [ 1.81568041e-02, 23., 3.10449295e+01 ]
      - [ 2.11418420e-02, 15., 5.96368980e+01 ]
      - [ 2.61517521e-02, 13., 3.63656960e+01 ]
      - [ 1.80816948e-02, 19., 2.78396873e+01 ]
      - [ .Nan, 10., 1.57996368e+01 ]
      - [ 7.97105115e-03, 15., 3.20185280e+01 ]
      - [ 6.98802546e-02, 7., 2.15564461e+01 ]
      - [ 8.14488716e-03, 13., 5.73051338e+01 ]
      - [ 2.12062113e-02, 11., 4.71434784e+01 ]
      - [ 1.96159948e-02, 15., 2.24621239e+01 ]
      - [ 2.12273486e-02, 20., 2.45728207e+01 ]
      - [ 4.89088660e-03, 18., 4.47020416e+01 ]
      - [ 2.67949551e-02, 13., 3.60615616e+01 ]
      - [ 2.64717732e-02, 24., 2.35809898e+01 ]
      - [ 7.26464111e-03, 18., 6.71491318e+01 ]
      - [ 2.45574415e-02, 15., 2.80876713e+01 ]
      - [ 2.86976285e-02, 18., 2.54937935e+01 ]
      - [ 1.34027516e-02, 13., 2.02247200e+01 ]
      - [ 1.59941688e-02, 30., 4.32549210e+01 ]
      - [ 1.95077192e-02, 10., 3.66988258e+01 ]
      - [ 5.61058745e-02, 13., 5.04634705e+01 ]
      - [ 1.75193921e-02, 13., 2.66852169e+01 ]
      - [ 3.94393429e-02, 9., 3.64791031e+01 ]
      - [ 3.03413551e-02, 16., 3.89256630e+01 ]
      - [ 6.73542544e-03, 13., 4.45953217e+01 ]
      - [ 1.82222016e-02, 17., 3.15360603e+01 ]
      - [ 2.97482163e-02, 11., 3.64907799e+01 ]
      - [ 1.18740723e-01, 12., 4.60979271e+00 ]
      - [ 1.01038590e-02, 14., 3.35473976e+01 ]
      - [ 8.76447186e-02, 9., 9.68919277e+00 ]
      - [ 3.35320532e-02, 11., 4.21849823e+01 ]
      - [ 2.17189752e-02, 16., 4.81742325e+01 ]
      - [ 1.09274145e-02, 13., 2.96977501e+01 ]
      - [ 3.42327617e-02, 10., 2.76465454e+01 ]
      - [ 1.76616609e-02, 14., 4.27516708e+01 ]
      - [ 1.52923465e-02, 20., 5.69509544e+01 ]
      - [ 1.11189876e-02, 23., 4.32321892e+01 ]
      - [ 1.91802550e-02, 17., 4.68514023e+01 ]
      - [ 1.16702849e-02, 16., 3.46581421e+01 ]
      - [ 1.83126628e-02, 13., 4.76601219e+01 ]
      - [ 2.32681297e-02, 20., 2.72069740e+01 ]
      - [ 2.36437190e-02, 9., 1.15032253e+01 ]
      - [ 1.42160626e-02, 29., 1.64338226e+01 ]
      - [ 9.13347676e-03, 12., 7.35226746e+01 ]
      - [ 1.34161487e-02, 23., 4.10862427e+01 ]
      - [ 4.58992496e-02, 22., 6.90562010e+00 ]
      - [ 4.27530631e-02, 18., 2.13184376e+01 ]
      - [ 2.12665014e-02, 18., 3.45250702e+01 ]
      - [ 3.77937816e-02, 11., 1.81595497e+01 ]
      - [ 2.48794332e-02, 27., 1.79753742e+01 ]
      - [ 1.77605189e-02, 12., 5.00064697e+01 ]
      - [ 1.93172488e-02, 16., 2.29773140e+01 ]
      - [ 1.73476841e-02, 12., 4.01869659e+01 ]
      - [ 2.03959085e-02, 25., 2.17301102e+01 ]
      - [ 2.39325836e-02, 19., 3.65386658e+01 ]
      - [ 1.53770382e-02, 17., 5.05417480e+01 ]
      - [ 2.48453915e-02, 19., 2.45278358e+01 ]
      - [ 2.37039514e-02, 22., 2.73640175e+01 ]
      - [ 8.95148795e-03, 28., 6.59517975e+01 ]
      - [ 3.19607183e-02, 14., 1.94800110e+01 ]
      - [ 9.28657036e-03, 18., 3.53205719e+01 ]
      - [ 5.12684137e-02, 12., 1.95822601e+01 ]
      - [ 1.84038207e-02, 13., 1.65710335e+01 ]
      - [ 2.11498104e-02, 15., 4.00369453e+01 ]
      - [ 2.11567692e-02, 20., 2.34553909e+01 ]
      - [ 1.66029911e-02, 14., 1.64439640e+01 ]
      - [ 3.18833776e-02, 18., 3.15694962e+01 ]
      - [ 1.26184598e-02, 11., 2.28993053e+01 ]
      - [ 2.03893036e-02, 17., 3.66269112e+01 ]
      - [ 1.38681699e-02, 16., 2.71140900e+01 ]
      - [ 1.44653786e-02, 20., 2.35010834e+01 ]
      - [ 2.49795169e-02, 19., 3.23044739e+01 ]
      - [ 1.20135862e-02, 14., 3.76115837e+01 ]
      - [ 4.26997989e-02, 14., 2.24663448e+01 ]
      - [ 2.26602182e-02, 26., 4.35111656e+01 ]
      - [ 4.12373468e-02, 15., 4.58668404e+01 ]
      - [ 1.98831055e-02, 16., 2.08432388e+01 ]
      - [ 9.15192626e-03, 14., 2.22410717e+01 ]
      - [ 1.29272901e-02, 18., 2.26906319e+01 ]
      - [ 3.69625390e-02, 11., 5.43002853e+01 ]
      - [ 2.68449876e-02, 16., 3.19527473e+01 ]
      - [ 1.50165753e-02, 27., 5.69893494e+01 ]
      - [ 1.82262808e-02, 17., 4.75799217e+01 ]
      - [ 9.56723280e-03, 20., 2.40879707e+01 ]
      - [ 3.02293897e-02, 15., 7.73839645e+01 ]
      - [ 2.42467877e-02, 21., 2.14619141e+01 ]
      - [ 2.63328962e-02, 18., 2.88321857e+01 ]
      - [ 1.76418647e-02, 18., 5.62222214e+01 ]
      - [ 3.07112057e-02, 19., 5.93599014e+01 ]
      - [ 5.89515530e-02, 15., 7.05685616e+00 ]
      - [ 9.71257165e-02, 9., 1.98950138e+01 ]
      - [ 2.24818122e-02, 15., 4.95762711e+01 ]
      - [ 1.19384667e-02, 18., 3.19634247e+01 ]
      - [ 4.90656734e-01, 10., 4.43296928e+01 ]
      - [ .Nan, 18., 2.01539536e+01 ]
      - [ 3.02690417e-02, 14., 5.59280815e+01 ]
      - [ 1.15788169e-02, 20., 3.71045113e+01 ]
      - [ .Nan, 26., 2.01301041e+01 ]
      - [ 2.18753703e-02, 15., 1.85068741e+01 ]
      - [ 1.28059480e-02, 28., 3.39584808e+01 ]
      - [ .Nan, 11., 6.53004122e+00 ]
      - [ 7.00252596e-03, 23., 2.84034004e+01 ]
      - [ 2.99533494e-02, 27., 8.34250832e+00 ]
      - [ 2.67232619e-02, 12., 1.06615229e+01 ]
      - [ 1.38216242e-02, 24., 3.10844364e+01 ]
      - [ 1.28901526e-02, 22., 2.72603359e+01 ]
      - [ 1.98957231e-02, 9., 3.01912842e+01 ]
      - [ 2.22219974e-02, 22., 2.90537338e+01 ]
      - [ 2.30101869e-02, 18., 3.06082077e+01 ]
      - [ 1.25047676e-02, 18., 4.37342606e+01 ]
      - [ 9.95405950e-03, 21., 6.08024368e+01 ]
      - [ 3.80586609e-02, 19., 4.36102409e+01 ]
      - [ 7.23375287e-03, 15., 2.54872112e+01 ]
      - [ 1.49717163e-02, 10., 1.72792244e+01 ]
      - [ 2.70399321e-02, 11., 4.06298218e+01 ]
      - [ 5.93134668e-03, 20., 6.39324493e+01 ]
      - [ 1.13924984e-02, 17., 2.30554562e+01 ]
      - [ 1.88136920e-02, 20., 2.17860203e+01 ]
      - [ 2.42598522e-02, 14., 2.66267586e+01 ]
   decision_functions:
      -
         sv_count: 318
         rho: -1.0202912065554393e+00
         alpha: [ 6.5636575288280721e+00, 1.2500000000000000e+01,
             7.5046755745895517e+00, 1.2146498554967325e+01,
             3.6412201562181146e+00, 1.2500000000000000e+01,
             9.1167943294262273e+00, 1.2500000000000000e+01,
             1.2500000000000000e+01, 1.2500000000000000e+01,
             1.2500000000000000e+01, 1.1401959732221389e+01,
             9.0821654206107150e-01, 1.2500000000000000e+01,
             1.2500000000000000e+01, 1.2500000000000000e+01,
             1.2500000000000000e+01, 2.9440186464463842e+00,
             1.8764661081585996e+00, 1.2500000000000000e+01,
             1.2500000000000000e+01, 1.2500000000000000e+01,
             1.2500000000000000e+01, 7.5789514514568701e-01,
             1.2500000000000000e+01, 7.9932417458261105e+00,
             1.2500000000000000e+01, 1.2500000000000000e+01,
             5.3591491658494972e+00, 2.3194049435380761e+00,
             1.2500000000000000e+01, 5.0400902564849936e-01,
             1.2500000000000000e+01, 2.8872295454422341e+00,
             1.2366080792409310e+01, 1.2500000000000000e+01,
             1.2500000000000000e+01, 1.2500000000000000e+01,
             5.1429794081364690e+00, 1.2500000000000000e+01,
             4.0611733258723071e+00, 1.2500000000000000e+01,
             1.2500000000000000e+01, 6.1360312100330692e+00,
             1.2500000000000000e+01, 1.3118697372189383e+00,
             1.2500000000000000e+01, 6.5602245569662667e+00,
             1.2500000000000000e+01, 1.2500000000000000e+01,
             1.2500000000000000e+01, 1.2500000000000000e+01,
             1.2500000000000000e+01, 1.3516196115853072e+00,
             7.4373933196935091e+00, 8.7835475969294952e-01,
             7.4581414017842604e+00, 1.2500000000000000e+01,
             1.2500000000000000e+01, 1.2500000000000000e+01,
             5.6791550762214627e+00, 1.2500000000000000e+01,
             1.2500000000000000e+01, 2.0693138373135924e+00,
             1.2500000000000000e+01, 1.2500000000000000e+01,
             1.2500000000000000e+01, 2.0621210619594450e+00,
             1.2500000000000000e+01, 2.0113348403164015e+00,
             1.2500000000000000e+01, 1.2500000000000000e+01,
             1.2500000000000000e+01, 1.9114561391774099e+00,
             1.2500000000000000e+01, 1.2500000000000000e+01,
             1.2500000000000000e+01, 5.9846141512676598e-01,
             2.4056213269806497e+00, 9.0520050876986531e+00,
             1.2500000000000000e+01, 1.2500000000000000e+01,
             1.2500000000000000e+01, 1.2500000000000000e+01,
             2.2879403735657080e+00, 4.2123957436008546e+00,
             2.2441821280972336e+00, 1.2500000000000000e+01,
             2.0067343585311357e+00, 5.0429839976560098e+00,
             1.2500000000000000e+01, 3.8827497508068380e+00,
             1.2500000000000000e+01, 1.2500000000000000e+01,
             2.0117181043676018e+00, 2.4558425842314859e+00,
             7.0159300336079200e+00, 1.2500000000000000e+01,
             1.1594813357307583e+01, 1.2500000000000000e+01,
             1.2500000000000000e+01, 6.9857644228527880e+00,
             1.2500000000000000e+01, 2.3254898275712383e+00,
             1.2500000000000000e+01, 1.2500000000000000e+01,
             1.2500000000000000e+01, 1.2500000000000000e+01,
             1.0898828363323219e+00, 1.2500000000000000e+01,
             1.2500000000000000e+01, 5.2419326277378497e-01,
             3.8710189551933802e+00, 1.2500000000000000e+01,
             1.0529434857716491e+00, 1.2500000000000000e+01,
             1.2500000000000000e+01, 2.7569943869837381e+00,
             4.1387030639950941e+00, 1.2500000000000000e+01,
             2.8082011787981287e+00, 2.2178590853882008e+00,
             1.2500000000000000e+01, 1.2500000000000000e+01,
             7.3924618192272309e+00, 1.2500000000000000e+01,
             8.2646398575186597e-01, 4.0828913136972034e-01,
             1.2500000000000000e+01, 1.0811784635374098e+01,
             1.2500000000000000e+01, 1.2500000000000000e+01,
             1.2500000000000000e+01, 1.2500000000000000e+01,
             7.9150197925474091e+00, 1.2500000000000000e+01,
             1.2500000000000000e+01, 2.0729375903785421e+00,
             2.9609672667282014e+00, 1.2500000000000000e+01,
             1.2500000000000000e+01, 1.2500000000000000e+01,
             1.2500000000000000e+01, 1.2500000000000000e+01,
             6.7735959224603937e+00, 3.2930804462594976e+00,
             1.2500000000000000e+01, 4.6720842484035643e+00,
             1.0527319159357299e+01, 1.2500000000000000e+01,
             6.5490120888709571e+00, 1.2500000000000000e+01,
             1.2500000000000000e+01, 1.2500000000000000e+01,
             1.2500000000000000e+01, 9.6360746123436924e-01,
             1.2500000000000000e+01, 1.3334156056194142e+00,
             2.3425854812950049e+00, 9.6767693560093648e-01,
             1.2500000000000000e+01, 1.2500000000000000e+01,
             6.5121303297277908e+00, 7.9365901206968008e+00,
             1.2500000000000000e+01, 1.2500000000000000e+01,
             4.6946464782366313e+00, 1.0321878154509552e+01,
             3.0619464635207794e+00, 1.2500000000000000e+01,
             1.2500000000000000e+01, 4.0484424782765682e+00,
             2.5009742986128560e+00, 1.2500000000000000e+01,
             1.2500000000000000e+01, 3.3178253886479664e-01,
             3.1379343744377128e+00, 3.0206628540806397e+00,
             1.2500000000000000e+01, 3.8054668519069517e+00,
             2.1694692110238218e+00, 1.0257486585551160e+01,
             2.2768092693761859e+00, 1.2500000000000000e+01,
             -1.2500000000000000e+01, -1.2500000000000000e+01,
             -1.2500000000000000e+01, -1.2500000000000000e+01,
             -1.2500000000000000e+01, -1.2500000000000000e+01,
             -1.2500000000000000e+01, -1.2500000000000000e+01,
             -1.1700151493199272e+01, -1.2500000000000000e+01,
             -1.2500000000000000e+01, -7.2494342542212706e+00,
             -1.2500000000000000e+01, -1.2500000000000000e+01,
             -1.2500000000000000e+01, -1.2500000000000000e+01,
             -1.2500000000000000e+01, -1.2500000000000000e+01,
             -1.2500000000000000e+01, -1.2500000000000000e+01,
             -1.2500000000000000e+01, -1.2500000000000000e+01,
             -1.2500000000000000e+01, -1.2500000000000000e+01,
             -1.2500000000000000e+01, -1.2500000000000000e+01,
             -1.2500000000000000e+01, -1.2500000000000000e+01,
             -1.2500000000000000e+01, -1.2500000000000000e+01,
             -1.2500000000000000e+01, -1.2500000000000000e+01,
             -1.2500000000000000e+01, -1.2500000000000000e+01,
             -1.2500000000000000e+01, -1.2500000000000000e+01,
             -1.2500000000000000e+01, -1.2500000000000000e+01,
             -1.2500000000000000e+01, -1.2500000000000000e+01,
             -1.2500000000000000e+01, -1.2500000000000000e+01,
             -1.1338279679300388e+01, -1.2500000000000000e+01,
             -2.7594082831434402e-01, -1.2500000000000000e+01,
             -1.2500000000000000e+01, -1.2500000000000000e+01,
             -1.2500000000000000e+01, -1.2500000000000000e+01,
             -1.2500000000000000e+01, -1.2500000000000000e+01,
             -1.2500000000000000e+01, -1.2500000000000000e+01,
             -1.2500000000000000e+01, -1.2500000000000000e+01,
             -1.2500000000000000e+01, -1.2500000000000000e+01,
             -1.2500000000000000e+01, -1.2500000000000000e+01,
             -5.2150890393251856e+00, -1.2500000000000000e+01,
             -1.2500000000000000e+01, -1.2500000000000000e+01,
             -1.2500000000000000e+01, -1.2500000000000000e+01,
             -1.2500000000000000e+01, -1.2500000000000000e+01,
             -1.2500000000000000e+01, -1.2500000000000000e+01,
             -1.2500000000000000e+01, -1.2500000000000000e+01,
             -1.2500000000000000e+01, -1.2500000000000000e+01,
             -1.2500000000000000e+01, -1.2500000000000000e+01,
             -1.2500000000000000e+01, -1.2500000000000000e+01,
             -1.2500000000000000e+01, -1.2500000000000000e+01,
             -1.0252983387514433e+01, -1.2500000000000000e+01,
             -1.2500000000000000e+01, -1.2500000000000000e+01,
             -1.2500000000000000e+01, -1.2500000000000000e+01,
             -1.2500000000000000e+01, -1.2500000000000000e+01,
             -1.2500000000000000e+01, -1.2500000000000000e+01,
             -1.2500000000000000e+01, -1.2500000000000000e+01,
             -1.2500000000000000e+01, -1.2500000000000000e+01,
             -1.2500000000000000e+01, -1.2500000000000000e+01,
             -1.2500000000000000e+01, -1.2500000000000000e+01,
             -1.2500000000000000e+01, -1.2500000000000000e+01,
             -1.0092740123971318e+01, -1.2500000000000000e+01,
             -1.2500000000000000e+01, -1.2500000000000000e+01,
             -2.0025163588307424e+00, -1.2500000000000000e+01,
             -1.2500000000000000e+01, -1.2500000000000000e+01,
             -1.2500000000000000e+01, -1.2500000000000000e+01,
             -1.2500000000000000e+01, -1.2500000000000000e+01,
             -1.2500000000000000e+01, -7.8285587233018257e+00,
             -1.2500000000000000e+01, -1.2500000000000000e+01,
             -1.2500000000000000e+01, -7.6047078609072445e+00,
             -1.0270234420401001e+01, -1.2500000000000000e+01,
             -1.2500000000000000e+01, -1.2500000000000000e+01,
             -1.2500000000000000e+01, -1.2500000000000000e+01,
             -1.2500000000000000e+01, -1.2500000000000000e+01,
             -1.2500000000000000e+01, -1.2500000000000000e+01,
             -1.2500000000000000e+01, -1.2500000000000000e+01,
             -1.2500000000000000e+01, -1.2500000000000000e+01,
             -1.2500000000000000e+01, -1.2500000000000000e+01 ]
         index: [ 0, 1, 2, 3, 4, 5, 6, 7, 8, 9, 10, 11, 12, 13, 14, 15,
             16, 17, 18, 19, 20, 21, 22, 23, 24, 25, 26, 27, 28, 29, 30,
             31, 32, 33, 34, 35, 36, 37, 38, 39, 40, 41, 42, 43, 44, 45,
             46, 47, 48, 49, 50, 51, 52, 53, 54, 55, 56, 57, 58, 59, 60,
             61, 62, 63, 64, 65, 66, 67, 68, 69, 70, 71, 72, 73, 74, 75,
             76, 77, 78, 79, 80, 81, 82, 83, 84, 85, 86, 87, 88, 89, 90,
             91, 92, 93, 94, 95, 96, 97, 98, 99, 100, 101, 102, 103, 104,
             105, 106, 107, 108, 109, 110, 111, 112, 113, 114, 115, 116,
             117, 118, 119, 120, 121, 122, 123, 124, 125, 126, 127, 128,
             129, 130, 131, 132, 133, 134, 135, 136, 137, 138, 139, 140,
             141, 142, 143, 144, 145, 146, 147, 148, 149, 150, 151, 152,
             153, 154, 155, 156, 157, 158, 159, 160, 161, 162, 163, 164,
             165, 166, 167, 168, 169, 170, 171, 172, 173, 174, 175, 176,
             177, 178, 179, 180, 181, 182, 183, 184, 185, 186, 187, 188,
             189, 190, 191, 192, 193, 194, 195, 196, 197, 198, 199, 200,
             201, 202, 203, 204, 205, 206, 207, 208, 209, 210, 211, 212,
             213, 214, 215, 216, 217, 218, 219, 220, 221, 222, 223, 224,
             225, 226, 227, 228, 229, 230, 231, 232, 233, 234, 235, 236,
             237, 238, 239, 240, 241, 242, 243, 244, 245, 246, 247, 248,
             249, 250, 251, 252, 253, 254, 255, 256, 257, 258, 259, 260,
             261, 262, 263, 264, 265, 266, 267, 268, 269, 270, 271, 272,
             273, 274, 275, 276, 277, 278, 279, 280, 281, 282, 283, 284,
             285, 286, 287, 288, 289, 290, 291, 292, 293, 294, 295, 296,
             297, 298, 299, 300, 301, 302, 303, 304, 305, 306, 307, 308,
             309, 310, 311, 312, 313, 314, 315, 316, 317 ]
