%YAML:1.0
my_svm: !!opencv-ml-svm
   svm_type: C_SVC
   kernel: { type:RBF, gamma:2.2500000000000003e-003 }
   C: 5.0000000000000000e-001
   term_criteria: { epsilon:1.1920928955078125e-007, iterations:1000 }
   var_all: 6
   var_count: 6
   class_count: 2
   class_labels: !!opencv-matrix
      rows: 1
      cols: 2
      dt: i
      data: [ 0, 1 ]
   sv_total: 258
   support_vectors:
      - [ 8.51063803e-003, 4.79139404e+001, 4.44809227e+001,
          9.72644411e-005, 5.69725533e+001, 5.30649529e+001 ]
      - [ 5.39099090e-002, 8.78416748e+001, 8.29218826e+001,
          6.48648653e-004, 6.24634781e+001, 1.13099365e+002 ]
      - [ 6.82239980e-002, 1.41387283e+002, 8.65220413e+001,
          6.87466655e-003, 7.58129349e+001, 7.07431641e+001 ]
      - [ 3.52372378e-002, 7.17947235e+001, 6.78586731e+001,
          1.24684684e-002, 7.77622757e+001, 1.19315269e+002 ]
      - [ 5.01866685e-003, 9.68253784e+001, 4.42093124e+001,
          5.32426685e-002, 6.56387329e+001, 1.31751816e+002 ]
      - [ 1.60000000e-005, 2.15453815e+001, 3.00970097e+001,
          9.37866643e-002, 6.15845757e+001, 1.23468994e+002 ]
      - [ 1.95199996e-003, 5.78000946e+001, 4.87054749e+001,
          1.78133335e-003, 5.87588959e+001, 1.17085907e+002 ]
      - [ 0., 4.80042763e+001, 3.61968842e+001, 1.19760480e-005,
          3.14107304e+001, 1.57828293e+002 ]
      - [ 8.69333372e-003, 1.27181305e+002, 6.48522110e+001,
          1.29226670e-002, 6.85779648e+001, 1.11820862e+002 ]
      - [ 5.28000016e-003, 1.02464119e+002, 6.45358429e+001,
          3.71466652e-002, 6.38942757e+001, 1.36119064e+002 ]
      - [ 0., 2.36915264e+001, 2.55965958e+001, 8.26946124e-002,
          3.42074165e+001, 1.77870987e+002 ]
      - [ 1.91616768e-004, 6.59853668e+001, 4.89655533e+001,
          1.79041910e-003, 3.93026199e+001, 1.66257278e+002 ]
      - [ 5.33333332e-006, 5.59973450e+001, 3.52020073e+001,
          5.38666674e-004, 5.74715881e+001, 1.29932495e+002 ]
      - [ 9.97866690e-003, 1.04354744e+002, 5.10510292e+001,
          8.53333331e-005, 5.67143097e+001, 8.26960678e+001 ]
      - [ 1.16414413e-001, 1.08264748e+002, 7.45570450e+001,
          2.58258253e-004, 6.97439880e+001, 9.21573792e+001 ]
      - [ 3.00300308e-004, 8.33876038e+001, 5.23349075e+001,
          1.98198191e-004, 4.14687119e+001, 1.04593704e+002 ]
      - [ 1.11297294e-001, 1.60508728e+002, 5.61692238e+001,
          8.84684641e-003, 8.34713287e+001, 6.68800430e+001 ]
      - [ 0., 6.26929474e+001, 4.11191292e+001, 0., 1.63290234e+001,
          1.79378937e+002 ]
      - [ 1.33333335e-004, 1.02251991e+002, 4.65991325e+001,
          1.14773335e-002, 6.23619537e+001, 1.21520554e+002 ]
      - [ 2.47466657e-003, 2.27917652e+001, 2.94623299e+001,
          1.50773330e-002, 9.67639923e+001, 1.33450150e+002 ]
      - [ 9.76480022e-002, 1.37854126e+002, 6.22455521e+001,
          4.90400009e-003, 4.61559372e+001, 9.60334702e+001 ]
      - [ 1.25866663e-003, 2.48605061e+001, 4.32165833e+001,
          8.42666661e-004, 6.61380920e+001, 1.27504532e+002 ]
      - [ 1.45411417e-001, 1.48154663e+002, 6.51917877e+001,
          2.36636633e-003, 4.51528893e+001, 1.15370346e+002 ]
      - [ 9.28000023e-004, 1.17141899e+002, 4.87906189e+001,
          9.33333300e-003, 7.81148453e+001, 1.13160233e+002 ]
      - [ 5.85066667e-003, 1.17276695e+002, 6.71888351e+001,
          3.63413319e-002, 6.44950256e+001, 1.23043732e+002 ]
      - [ 3.25759985e-002, 8.02134476e+001, 6.42203903e+001,
          1.00693330e-002, 3.76127548e+001, 2.36913700e+001 ]
      - [ 1.25493333e-002, 8.09381638e+001, 5.25654564e+001,
          6.60053343e-002, 7.61767349e+001, 1.06528458e+002 ]
      - [ 0., 2.30931625e+001, 2.84114914e+001, 1.29520953e-001,
          2.95526924e+001, 2.00367767e+002 ]
      - [ 1.45279998e-002, 1.16403000e+002, 7.49544067e+001,
          1.35840001e-002, 5.71839066e+001, 1.31862961e+002 ]
      - [ 9.97333322e-003, 9.71532135e+001, 5.74928513e+001,
          3.40800011e-003, 3.52344513e+001, 3.13610611e+001 ]
      - [ 3.88586670e-002, 1.09517204e+002, 6.03782196e+001,
          3.08906659e-002, 7.19910736e+001, 9.03851700e+001 ]
      - [ 6.45945966e-002, 1.16478081e+002, 7.49594498e+001,
          9.15915892e-003, 8.31877899e+001, 1.08203423e+002 ]
      - [ 5.86666683e-005, 6.05266304e+001, 3.80357666e+001,
          2.20800005e-003, 4.26967888e+001, 1.27870270e+002 ]
      - [ 6.02822825e-002, 6.75398941e+001, 7.30667191e+001,
          8.13813787e-003, 8.31064835e+001, 1.24018166e+002 ]
      - [ 4.51651635e-003, 8.82767181e+001, 4.29167671e+001,
          8.37237202e-003, 4.87383385e+001, 1.15841896e+002 ]
      - [ 2.44800001e-003, 3.77449608e+001, 4.15161362e+001,
          7.35466648e-003, 9.06025696e+001, 1.32745163e+002 ]
      - [ 2.83733336e-003, 7.87620010e+001, 4.54471130e+001,
          1.60000000e-005, 6.88700485e+001, 9.17714462e+001 ]
      - [ 1.24504501e-002, 7.46747131e+001, 5.33899574e+001,
          3.29789780e-002, 6.37344627e+001, 1.04518044e+002 ]
      - [ 8.13866686e-003, 1.25927826e+002, 5.96162796e+001,
          4.00746651e-002, 7.34923172e+001, 9.23645554e+001 ]
      - [ 5.28533338e-003, 1.21410454e+002, 5.39002457e+001,
          4.15093340e-002, 7.24686127e+001, 7.07550125e+001 ]
      - [ 8.53333331e-004, 9.88192444e+001, 3.81160736e+001, 0.,
          5.85334740e+001, 1.00129089e+002 ]
      - [ 0., 3.93190460e+001, 3.33562584e+001, 0., 6.79657593e+001,
          1.47293335e+002 ]
      - [ 1.38415303e-002, 6.66954346e+001, 5.51806412e+001,
          1.17868856e-002, 6.21067886e+001, 1.04873970e+002 ]
      - [ 1.98924929e-001, 7.54072189e+001, 9.55351486e+001,
          1.56156151e-004, 5.10896683e+001, 1.43685760e+002 ]
      - [ 1.44000005e-004, 6.08263206e+001, 2.72695694e+001,
          5.86666683e-005, 5.98826294e+001, 1.45119202e+002 ]
      - [ 1.00900896e-003, 1.38475754e+002, 7.84242249e+001,
          1.12312310e-003, 3.66247826e+001, 7.79496613e+001 ]
      - [ 0., 2.93836937e+001, 1.93463631e+001, 7.54491019e-004,
          3.88586235e+001, 1.06219521e+002 ]
      - [ 4.64150961e-003, 1.32754990e+002, 4.09258652e+001,
          1.38364776e-004, 7.55830994e+001, 9.83011169e+001 ]
      - [ 7.72252232e-002, 1.30884155e+002, 6.97301559e+001,
          8.74474458e-003, 5.24641991e+001, 1.13246727e+002 ]
      - [ 3.60360369e-003, 6.78862686e+001, 5.75385704e+001,
          1.24324323e-003, 6.56171875e+001, 1.15510345e+002 ]
      - [ 2.93694615e-001, 1.74008255e+002, 7.84323807e+001,
          1.09640723e-002, 5.59015198e+001, 8.22180328e+001 ]
      - [ 2.25288138e-001, 1.69115021e+002, 5.52276039e+001,
          6.28248602e-003, 5.40295944e+001, 1.04196838e+002 ]
      - [ 7.12869540e-002, 1.64347946e+002, 4.00329361e+001,
          4.63768120e-005, 3.68952522e+001, 1.06436058e+002 ]
      - [ 2.43733334e-003, 8.76754684e+001, 4.13221283e+001,
          5.77866659e-002, 5.80229530e+001, 1.47545105e+002 ]
      - [ 3.46133336e-002, 1.07938805e+002, 5.35097351e+001,
          1.54666661e-004, 4.92394867e+001, 1.24330215e+002 ]
      - [ 1.05066667e-003, 8.82491302e+001, 2.06572533e+001,
          8.90666677e-004, 4.59717064e+001, 1.49566437e+002 ]
      - [ 1.40161731e-003, 6.21096878e+001, 4.80936394e+001,
          2.15633427e-005, 6.40618744e+001, 1.02019043e+002 ]
      - [ 3.52533325e-003, 4.80751343e+001, 5.40606918e+001,
          3.59999994e-003, 5.96975479e+001, 1.45829041e+002 ]
      - [ 2.06826665e-002, 1.28574554e+002, 6.72563171e+001,
          1.61599996e-003, 5.19648895e+001, 6.71494522e+001 ]
      - [ 1.12510510e-001, 1.10615517e+002, 7.49058456e+001,
          8.90690647e-003, 7.86090469e+001, 8.02233353e+001 ]
      - [ 1.70666666e-003, 3.10185127e+001, 3.64651375e+001,
          1.01866666e-003, 5.63558655e+001, 1.41553406e+002 ]
      - [ 2.46399990e-003, 1.09546722e+002, 5.25532951e+001,
          7.64266681e-003, 5.00769806e+001, 7.14418106e+001 ]
      - [ 1.60972968e-001, 1.41456497e+002, 8.46238251e+001,
          6.30630646e-004, 6.47033615e+001, 9.20496063e+001 ]
      - [ 3.49554885e-003, 5.86370506e+001, 4.11344719e+001,
          1.26409496e-003, 8.02361374e+001, 7.16292801e+001 ]
      - [ 7.21276598e-003, 7.80018845e+001, 4.30186043e+001,
          2.91489367e-003, 3.87006378e+001, 1.39368362e+002 ]
      - [ 0., 4.72321548e+001, 3.30146599e+001, 3.02491104e-003,
          5.48335609e+001, 1.37055145e+002 ]
      - [ 9.20241699e-003, 1.03805702e+002, 7.43468018e+001,
          1.99395770e-004, 6.24499741e+001, 8.35655975e+001 ]
      - [ 8.12800042e-003, 6.29790115e+001, 6.80593796e+001,
          2.46933335e-003, 5.85883865e+001, 1.32800262e+002 ]
      - [ 5.76000020e-004, 7.21917419e+001, 5.10166092e+001,
          5.33333332e-006, 6.59999084e+001, 1.03087837e+002 ]
      - [ 4.87123281e-002, 7.21638107e+001, 7.66209412e+001, 0.,
          4.03617897e+001, 3.04310741e+001 ]
      - [ 1.55688627e-004, 9.71498642e+001, 3.66459999e+001,
          5.25748497e-003, 4.67457733e+001, 1.47942612e+002 ]
      - [ 5.73866675e-003, 5.55159378e+001, 4.36333847e+001,
          1.44533336e-003, 4.48198395e+001, 5.64158020e+001 ]
      - [ 4.19928838e-004, 8.22412033e+001, 4.98545914e+001,
          6.19217055e-004, 5.20317307e+001, 1.19949066e+002 ]
      - [ 5.40540532e-005, 1.31760818e+002, 6.39859467e+001,
          6.67507499e-002, 4.60422134e+001, 1.32758011e+002 ]
      - [ 7.21081048e-002, 1.02643089e+002, 6.72568436e+001,
          1.19339339e-002, 7.33105850e+001, 8.17300339e+001 ]
      - [ 2.41992879e-004, 7.35186005e+001, 4.09147491e+001,
          7.11743778e-005, 4.27317390e+001, 1.25489677e+002 ]
      - [ 3.05546671e-002, 6.32325745e+001, 6.67570267e+001,
          1.14666671e-003, 3.95743370e+001, 9.08927994e+001 ]
      - [ 5.15200011e-003, 1.17697426e+002, 6.72971497e+001,
          2.32746676e-002, 6.15267601e+001, 1.18731049e+002 ]
      - [ 0., 7.89191971e+001, 5.13558769e+001, 1.57866662e-003,
          5.77140579e+001, 1.38231232e+002 ]
      - [ 3.70579697e-002, 8.96812744e+001, 6.30068207e+001,
          2.82270536e-002, 7.38705597e+001, 1.12955864e+002 ]
      - [ 4.75733355e-003, 8.36210938e+001, 4.97449608e+001,
          5.93386665e-002, 7.16656113e+001, 7.36347809e+001 ]
      - [ 1.39095813e-001, 1.52306015e+002, 6.34908562e+001,
          5.74850303e-004, 4.71896286e+001, 7.57444916e+001 ]
      - [ 9.80266649e-003, 6.08032761e+001, 6.55306320e+001,
          4.73919995e-002, 7.11804199e+001, 1.44366440e+002 ]
      - [ 4.68468468e-004, 3.20587692e+001, 2.06061287e+001, 0.,
          4.37001343e+001, 1.02213211e+002 ]
      - [ 0., 4.06001663e+001, 3.38325806e+001, 4.66047898e-002,
          4.60420647e+001, 1.64084335e+002 ]
      - [ 8.05611536e-002, 9.13541107e+001, 7.98232193e+001,
          1.13669061e-003, 5.20842361e+001, 1.20853409e+002 ]
      - [ 1.38018019e-002, 6.36651115e+001, 5.16815109e+001,
          2.64264271e-003, 6.32306328e+001, 8.95657120e+001 ]
      - [ 3.41866678e-003, 7.91007614e+001, 5.41175575e+001,
          5.35520017e-002, 5.93353806e+001, 1.20178154e+002 ]
      - [ 1.65010422e-001, 1.28394119e+002, 8.39854202e+001,
          1.11458329e-002, 8.34979095e+001, 9.41446838e+001 ]
      - [ 1.16906904e-001, 1.21878159e+002, 7.49535751e+001,
          4.52252245e-003, 7.35273209e+001, 6.98396454e+001 ]
      - [ 3.24213319e-002, 1.33712463e+002, 7.67351379e+001,
          1.57173332e-002, 6.61556396e+001, 1.06261665e+002 ]
      - [ 1.74400001e-003, 1.10872147e+002, 3.46422882e+001,
          2.28746664e-002, 7.22963333e+001, 1.21711571e+002 ]
      - [ 8.56342316e-001, 2.36128311e+002, 4.92127914e+001, 0.,
          1.84272556e+001, 9.11896820e+001 ]
      - [ 5.33333328e-003, 1.02881599e+002, 5.46401863e+001,
          3.31733329e-003, 5.08116150e+001, 8.40091705e+001 ]
      - [ 2.29009017e-002, 5.68853569e+001, 5.56761971e+001,
          9.10510495e-003, 6.60421219e+001, 1.30478455e+002 ]
      - [ 6.67200005e-003, 7.25722122e+001, 5.75088158e+001,
          3.85973342e-002, 6.63445358e+001, 1.47815460e+002 ]
      - [ 5.57333324e-003, 7.26492844e+001, 5.85515366e+001,
          3.65439989e-002, 5.84959869e+001, 1.41655960e+002 ]
      - [ 1.05525525e-002, 1.04716110e+002, 5.16122818e+001,
          4.49249242e-003, 6.50547104e+001, 8.71395798e+001 ]
      - [ 2.24000003e-004, 5.82846832e+001, 5.33733253e+001,
          4.03200015e-002, 6.24816093e+001, 1.28398331e+002 ]
      - [ 2.85333325e-003, 5.72659912e+001, 4.69073830e+001,
          2.54346672e-002, 5.85787354e+001, 1.17108437e+002 ]
      - [ 3.58933327e-003, 1.10126068e+002, 5.14828415e+001,
          9.88266710e-003, 5.35279922e+001, 6.84161301e+001 ]
      - [ 9.01333347e-004, 1.40666399e+001, 1.93584614e+001,
          1.58399995e-003, 5.04488029e+001, 1.45124710e+002 ]
      - [ 0., 3.06243362e+001, 3.42301636e+001, 7.68503025e-002,
          3.38211670e+001, 1.75812225e+002 ]
      - [ 0., 0., 0., 3.49549553e-003, 8.66556396e+001, 7.32611694e+001 ]
      - [ 0., 8.26531448e+001, 5.61731606e+001, 5.47733344e-003,
          5.44484940e+001, 1.36761551e+002 ]
      - [ 1.56266661e-003, 2.29309540e+001, 2.14391956e+001,
          1.15733338e-003, 7.24505615e+001, 1.22251190e+002 ]
      - [ 2.52799992e-003, 8.02519226e+001, 6.14438057e+001,
          1.04394667e-001, 6.54061890e+001, 1.23243904e+002 ]
      - [ 1.03201203e-001, 1.22196831e+002, 6.79001541e+001,
          1.47867864e-002, 7.31552658e+001, 5.95382652e+001 ]
      - [ 3.02933343e-003, 3.90577774e+001, 3.56897736e+001,
          1.27999997e-003, 6.12999229e+001, 9.64791336e+001 ]
      - [ 3.63694765e-002, 1.19813934e+002, 5.66835480e+001,
          2.97188759e-004, 4.84721222e+001, 6.47469788e+001 ]
      - [ 7.60846972e-001, 2.30655258e+002, 4.68542252e+001,
          3.08896787e-003, 5.50586052e+001, 4.28100700e+001 ]
      - [ 1.49333337e-003, 6.75148239e+001, 3.74165688e+001,
          2.98666675e-002, 7.37270279e+001, 8.55558014e+001 ]
      - [ 2.12809667e-002, 7.86364136e+001, 6.13183327e+001,
          1.81268886e-004, 6.24912033e+001, 4.75253220e+001 ]
      - [ 1.92533329e-003, 3.97726440e+001, 2.69748020e+001,
          8.61333311e-003, 8.80198593e+001, 1.01463211e+002 ]
      - [ 3.35615613e-002, 8.14852982e+001, 6.06788292e+001,
          2.79879873e-003, 7.98227692e+001, 1.06805069e+002 ]
      - [ 2.46006008e-002, 4.47457962e+001, 5.51754684e+001,
          5.20120142e-003, 7.92782440e+001, 1.27307556e+002 ]
      - [ 1.99999996e-002, 9.57583237e+001, 5.81642838e+001,
          1.87927932e-002, 7.98997650e+001, 5.97722168e+001 ]
      - [ 6.05866686e-003, 1.29744843e+002, 4.63225937e+001,
          2.03584000e-001, 6.49636917e+001, 1.38325745e+002 ]
      - [ 9.36396420e-002, 1.25443375e+002, 7.08179703e+001,
          1.67567562e-003, 6.37926865e+001, 7.61194382e+001 ]
      - [ 0., 6.99738770e+001, 2.71657448e+001, 5.76512481e-004,
          4.47290154e+001, 1.45312531e+002 ]
      - [ 2.67200009e-003, 6.18536949e+001, 4.71938477e+001,
          4.38933354e-003, 4.97917404e+001, 1.06203796e+002 ]
      - [ 2.03603599e-003, 8.43772736e+001, 3.81677361e+001,
          1.56936944e-002, 8.25842209e+001, 1.30020081e+002 ]
      - [ 6.58000037e-002, 9.55091400e+001, 6.18603477e+001,
          1.45500004e-002, 5.05177917e+001, 5.64010849e+001 ]
      - [ 8.70870892e-003, 1.37012558e+002, 4.36120071e+001,
          6.00600606e-006, 3.73529091e+001, 7.90088806e+001 ]
      - [ 2.19039042e-002, 5.83354492e+001, 5.48201218e+001,
          4.15615598e-003, 6.75429611e+001, 1.41451141e+002 ]
      - [ 1.68168172e-003, 1.00112663e+002, 4.91171837e+001,
          4.57057077e-003, 4.98603745e+001, 1.22343567e+002 ]
      - [ 1.88800006e-003, 1.21098824e+002, 2.80848179e+001,
          1.13600004e-003, 5.70965233e+001, 1.08366165e+002 ]
      - [ 1.50400004e-003, 3.90328941e+001, 4.83874130e+001,
          2.82133324e-003, 5.93793144e+001, 1.23514496e+002 ]
      - [ 1.49333337e-003, 1.16741924e+001, 2.99182110e+001,
          1.20000006e-003, 6.12950363e+001, 1.62954285e+002 ]
      - [ 9.30991024e-002, 1.33140472e+002, 7.06965027e+001,
          2.38438440e-003, 5.58481293e+001, 9.64480515e+001 ]
      - [ 1.97866675e-003, 5.56434364e+001, 5.76324272e+001,
          1.58079993e-002, 7.82995834e+001, 1.07439873e+002 ]
      - [ 0., 4.32965546e+001, 3.45277252e+001, 7.38986656e-002,
          6.35914574e+001, 1.17406311e+002 ]
      - [ 3.62633467e-002, 9.85675201e+001, 6.36232452e+001,
          6.63985759e-002, 8.49669800e+001, 1.12272064e+002 ]
      - [ 1.04350457e-002, 8.88738251e+001, 5.92869530e+001,
          1.20845925e-005, 5.67877998e+001, 7.31106796e+001 ]
      - [ 6.37237215e-003, 1.28239166e+002, 3.15094090e+001,
          5.46546560e-003, 5.30480309e+001, 1.42245407e+002 ]
      - [ 7.38678649e-002, 1.29624573e+002, 6.20859413e+001,
          3.18318314e-004, 4.38228798e+001, 8.85295715e+001 ]
      - [ 2.38862280e-002, 1.05950539e+002, 5.62576065e+001,
          4.61197607e-002, 6.85117264e+001, 1.09968193e+002 ]
      - [ 2.12312303e-002, 1.13338615e+002, 5.49715805e+001,
          2.33033043e-003, 5.07996178e+001, 1.11031059e+002 ]
      - [ 4.32190746e-002, 7.81350021e+001, 6.90729446e+001,
          1.84798811e-003, 5.62329521e+001, 1.15445229e+002 ]
      - [ 1.43637016e-001, 1.30872147e+002, 7.74902344e+001,
          7.25978659e-003, 6.24302254e+001, 9.37354889e+001 ]
      - [ 3.05538457e-002, 1.18481972e+002, 6.19174843e+001,
          5.16307680e-003, 6.26851349e+001, 7.75754547e+001 ]
      - [ 1.15157543e-002, 1.07870819e+002, 5.24575691e+001,
          1.66567173e-002, 6.40390015e+001, 1.46809494e+002 ]
      - [ 3.23045045e-001, 1.90213120e+002, 6.67698288e+001,
          5.72612621e-002, 7.67966309e+001, 1.00547615e+002 ]
      - [ 7.09603429e-002, 1.05992851e+002, 8.56324539e+001,
          1.38970825e-003, 4.40645294e+001, 1.04843163e+002 ]
      - [ 6.87025934e-002, 1.90507645e+002, 2.70233555e+001, 0.,
          4.70016823e+001, 5.71423302e+001 ]
      - [ 2.90866405e-001, 2.00396057e+002, 5.18737259e+001,
          6.11772481e-003, 6.16614494e+001, 6.86486053e+001 ]
      - [ 5.03158662e-003, 7.74434509e+001, 4.52833328e+001,
          5.22482349e-003, 5.50552788e+001, 9.92825241e+001 ]
      - [ 1.29042730e-001, 1.26748444e+002, 7.89917297e+001,
          4.63247858e-003, 7.37101669e+001, 7.93874435e+001 ]
      - [ 6.19819807e-003, 6.57226639e+001, 4.18690987e+001,
          5.38138160e-003, 3.85578575e+001, 1.49872940e+002 ]
      - [ 1.51626505e-002, 8.75668182e+001, 5.50998955e+001,
          3.79518082e-004, 4.88687820e+001, 6.73740692e+001 ]
      - [ 1.58433728e-002, 8.12463837e+001, 5.31108932e+001,
          1.11746984e-002, 6.43765488e+001, 1.10067230e+002 ]
      - [ 1.95195191e-002, 1.05225319e+002, 6.41310425e+001,
          3.86186168e-002, 6.62055588e+001, 9.54256134e+001 ]
      - [ 8.69157314e-002, 1.41919601e+002, 6.64854355e+001,
          2.27528089e-003, 6.48483200e+001, 8.10948105e+001 ]
      - [ 3.40769216e-002, 1.17600410e+002, 6.32782936e+001,
          9.08333343e-003, 6.00946732e+001, 7.43014374e+001 ]
      - [ 6.44230749e-003, 4.24563026e+001, 3.99682732e+001,
          7.67948711e-003, 5.68315353e+001, 1.29919891e+002 ]
      - [ 1.67006031e-001, 1.58204681e+002, 7.22280960e+001,
          8.00602417e-003, 5.97477074e+001, 1.19603928e+002 ]
      - [ 3.00900894e-003, 4.32630806e+001, 4.44838028e+001,
          6.30630646e-004, 5.53137398e+001, 1.43184937e+002 ]
      - [ 1.11929432e-001, 1.48911560e+002, 7.12721100e+001,
          2.95795803e-003, 4.91347656e+001, 4.92615623e+001 ]
      - [ 2.85195202e-001, 1.67880173e+002, 8.13555756e+001,
          5.11951968e-002, 7.41576614e+001, 9.53276825e+001 ]
      - [ 3.74545455e-002, 1.18060318e+002, 5.87970047e+001,
          1.04117645e-002, 5.87430573e+001, 7.88223495e+001 ]
      - [ 3.16396393e-002, 4.81403885e+001, 5.34195061e+001,
          1.30810812e-002, 5.94654884e+001, 1.26623978e+002 ]
      - [ 2.82506663e-002, 9.49037781e+001, 5.85667610e+001,
          1.66773330e-002, 6.88311691e+001, 1.09935135e+002 ]
      - [ 4.64864867e-003, 6.38296585e+001, 3.31448441e+001,
          1.03303301e-003, 3.99881973e+001, 1.01451004e+002 ]
      - [ 1.15111107e-002, 7.83059845e+001, 5.86277428e+001,
          2.35555554e-003, 4.93929062e+001, 1.33557587e+002 ]
      - [ 4.70870873e-003, 6.17840652e+001, 4.90865402e+001,
          1.28528534e-003, 3.52393265e+001, 6.69844971e+001 ]
      - [ 4.33979146e-002, 1.10353264e+002, 5.27356148e+001,
          3.02235465e-002, 5.85496559e+001, 1.11598511e+002 ]
      - [ 2.02027678e-001, 1.89969894e+002, 4.62370796e+001,
          6.82603791e-002, 6.72183990e+001, 1.26824196e+002 ]
      - [ 3.89135122e-001, 1.95826477e+002, 6.69836044e+001,
          4.04684693e-002, 6.61961899e+001, 1.09590485e+002 ]
      - [ 1.46153849e-003, 7.20764923e+001, 4.97157478e+001,
          1.09615382e-002, 5.61095390e+001, 1.09277588e+002 ]
      - [ 9.38738696e-003, 6.59326401e+001, 6.63730698e+001,
          1.44744746e-003, 4.60959167e+001, 1.04945778e+002 ]
      - [ 5.27756400e-002, 6.68804626e+001, 7.67400513e+001,
          1.99935902e-002, 7.19786453e+001, 1.03858658e+002 ]
      - [ 5.37037058e-003, 4.63249283e+001, 5.55330887e+001,
          1.81216933e-003, 5.06186295e+001, 1.17205292e+002 ]
      - [ 7.04194279e-003, 4.90802650e+001, 5.33493576e+001,
          4.85651224e-004, 4.45137367e+001, 1.02247978e+002 ]
      - [ 3.33333330e-004, 8.34600906e+001, 6.20253143e+001,
          7.31272697e-002, 6.43983917e+001, 1.25390778e+002 ]
      - [ 2.52121221e-003, 7.73622284e+001, 4.77158546e+001,
          5.87878795e-003, 6.23767204e+001, 9.01846390e+001 ]
      - [ 6.54608069e-004, 9.93218079e+001, 5.08939514e+001,
          6.66666683e-003, 5.10846786e+001, 1.10369095e+002 ]
      - [ 1.53251579e-002, 1.07216461e+002, 5.40265236e+001,
          3.67744341e-002, 5.85233498e+001, 1.37559525e+002 ]
      - [ 2.48142347e-001, 1.77465561e+002, 7.81185150e+001,
          1.65836308e-002, 6.70722122e+001, 1.16633667e+002 ]
      - [ 2.09609605e-003, 6.49173508e+001, 6.60625992e+001,
          1.43303303e-002, 6.10332985e+001, 1.32926865e+002 ]
      - [ 1.29668619e-002, 1.06860886e+002, 5.28178177e+001,
          4.00779722e-003, 3.43666687e+001, 1.13566322e+002 ]
      - [ 6.34615421e-002, 8.86422195e+001, 8.48381042e+001,
          3.35897435e-003, 5.54626541e+001, 7.02601318e+001 ]
      - [ 2.93365330e-001, 1.79670868e+002, 7.86859207e+001,
          8.70933291e-003, 5.70568428e+001, 9.18830414e+001 ]
      - [ 1.12126982e-002, 9.03954697e+001, 5.72974968e+001,
          6.45714300e-003, 5.69375687e+001, 7.86559982e+001 ]
      - [ 2.17175521e-002, 1.13922043e+002, 4.53759918e+001,
          1.55238817e-002, 5.54584465e+001, 1.09606606e+002 ]
      - [ 1.63746215e-002, 1.12578903e+002, 4.96041145e+001,
          1.93836857e-002, 6.15540276e+001, 1.47080887e+002 ]
      - [ 1.00205436e-001, 1.17607422e+002, 7.80087357e+001,
          8.88217520e-003, 5.02894516e+001, 1.14897537e+002 ]
      - [ 1.57572284e-001, 1.72454285e+002, 6.12046890e+001,
          2.29939763e-002, 7.40335312e+001, 1.05729424e+002 ]
      - [ 1.14474120e-002, 8.65141373e+001, 5.05887489e+001,
          6.26442488e-003, 5.58788795e+001, 9.86811447e+001 ]
      - [ 4.68987320e-003, 4.88908539e+001, 4.99819298e+001,
          1.22784812e-003, 6.24065399e+001, 1.41056625e+002 ]
      - [ 4.18147258e-002, 8.88439713e+001, 6.27560844e+001,
          7.95979332e-003, 6.13549805e+001, 1.20368584e+002 ]
      - [ 1.75667647e-002, 1.32468597e+002, 4.92966957e+001,
          2.38048146e-003, 3.91485977e+001, 9.31797104e+001 ]
      - [ 1.52426669e-002, 9.49063873e+001, 4.97724571e+001,
          5.13066677e-003, 6.47927322e+001, 6.35627365e+001 ]
      - [ 1.33890882e-002, 1.18742523e+002, 4.84533501e+001,
          1.28235761e-003, 5.73246994e+001, 8.28866882e+001 ]
      - [ 4.42992023e-004, 3.67888298e+001, 2.55683937e+001,
          8.56935338e-004, 4.31079140e+001, 1.19302399e+002 ]
      - [ 4.15476188e-002, 8.89081726e+001, 6.62974930e+001,
          1.10317459e-002, 5.75094261e+001, 1.19818649e+002 ]
      - [ 5.90623869e-003, 6.30536880e+001, 4.92885475e+001,
          1.16205243e-002, 5.60729713e+001, 1.29713852e+002 ]
      - [ 1.85225233e-002, 5.08901329e+001, 4.67057953e+001,
          6.76876865e-003, 4.94077110e+001, 1.26638557e+002 ]
      - [ 5.76576567e-004, 4.29743347e+001, 2.33318634e+001,
          6.66666660e-004, 4.01864586e+001, 1.04407799e+002 ]
      - [ 1.63703710e-002, 1.05625565e+002, 5.43174629e+001,
          2.20814813e-002, 7.15350418e+001, 7.87115326e+001 ]
      - [ 3.27090293e-001, 1.84037048e+002, 6.95962067e+001,
          1.10219251e-002, 7.03330383e+001, 4.67801247e+001 ]
      - [ 1.22194968e-001, 1.10201080e+002, 6.90364380e+001,
          2.43522003e-002, 5.74957581e+001, 1.27667015e+002 ]
      - [ 2.07878761e-002, 4.18662071e+001, 4.77911606e+001,
          6.18875725e-003, 5.69863892e+001, 9.67029190e+001 ]
      - [ 1.46826923e-001, 1.31903427e+002, 7.18525085e+001,
          4.34871800e-002, 6.68944550e+001, 9.16688461e+001 ]
      - [ 5.29557280e-002, 1.04686691e+002, 6.38375397e+001,
          8.32031295e-003, 5.06821213e+001, 9.15331650e+001 ]
      - [ 2.04504505e-002, 1.53734695e+002, 5.32268677e+001,
          7.36336317e-003, 4.22219734e+001, 1.27899445e+002 ]
      - [ 8.39879154e-004, 5.23920479e+001, 1.69361401e+001,
          5.05861044e-002, 5.26387253e+001, 1.91015244e+002 ]
      - [ 4.44597006e-002, 4.99336586e+001, 6.36486702e+001,
          4.25014943e-002, 8.52459946e+001, 1.10116966e+002 ]
      - [ 8.64000022e-002, 1.28252365e+002, 8.06607742e+001,
          9.72266681e-003, 4.88143654e+001, 1.37857254e+002 ]
      - [ 3.68734933e-002, 1.30550644e+002, 5.75320244e+001,
          1.13795176e-002, 6.09660835e+001, 1.10533615e+002 ]
      - [ 2.14937329e-002, 1.06870346e+002, 6.53052979e+001,
          5.52149070e-003, 6.97520828e+001, 8.73213654e+001 ]
      - [ 1.42491106e-002, 1.32898956e+002, 7.01820145e+001,
          6.46263361e-003, 6.17760239e+001, 1.23211472e+002 ]
      - [ 2.90999264e-001, 1.94528442e+002, 5.86065063e+001,
          6.83072349e-003, 7.11425247e+001, 8.23245010e+001 ]
      - [ 1.27520235e-002, 7.44891663e+001, 5.59550667e+001,
          1.09639438e-003, 4.24936829e+001, 9.32774506e+001 ]
      - [ 1.11892216e-001, 1.51633881e+002, 6.32071381e+001,
          4.71257493e-002, 7.37590866e+001, 1.18744934e+002 ]
      - [ 1.81286559e-002, 1.51011114e+001, 5.11691971e+001,
          1.42021722e-003, 4.82047844e+001, 1.21700089e+002 ]
      - [ 3.90574001e-002, 1.12909851e+002, 5.34145355e+001,
          5.86706959e-003, 6.52983093e+001, 1.32391037e+002 ]
      - [ 4.46318835e-002, 9.07887497e+001, 6.60088425e+001,
          7.51884049e-003, 6.26905365e+001, 8.94093170e+001 ]
      - [ 4.23525631e-001, 1.73797760e+002, 8.98019562e+001,
          3.98076931e-003, 4.96148605e+001, 1.11422447e+002 ]
      - [ 2.25585587e-002, 4.87702103e+001, 4.89945602e+001,
          9.08108149e-003, 5.74502182e+001, 1.21902206e+002 ]
      - [ 4.31165379e-003, 7.74869843e+001, 4.91524353e+001,
          6.97151897e-003, 5.69420433e+001, 9.02850342e+001 ]
      - [ 6.16314181e-004, 6.06025543e+001, 3.65015907e+001,
          7.24471314e-003, 3.98555069e+001, 1.31354645e+002 ]
      - [ 6.58165962e-002, 9.17976074e+001, 7.61634445e+001,
          3.99598386e-003, 5.15632286e+001, 2.52013378e+001 ]
      - [ 3.44564579e-002, 1.02097008e+002, 6.36040077e+001,
          3.80180171e-003, 7.31764832e+001, 9.81745605e+001 ]
      - [ 2.26504505e-001, 1.69820679e+002, 7.07151108e+001,
          1.04984986e-002, 4.42603149e+001, 7.75787201e+001 ]
      - [ 1.01304814e-001, 1.27409477e+002, 8.58313370e+001,
          2.27807485e-003, 4.87044945e+001, 1.21008286e+002 ]
      - [ 2.35649548e-003, 2.84254742e+001, 3.35871964e+001,
          4.53172193e-004, 4.33681145e+001, 1.74051880e+002 ]
      - [ 5.16516506e-004, 6.02888451e+001, 3.58957596e+001,
          5.28528541e-003, 4.22073936e+001, 1.65929321e+002 ]
      - [ 6.93629608e-002, 1.12970589e+002, 6.89298477e+001,
          5.40000014e-003, 5.42513084e+001, 7.67550507e+001 ]
      - [ 4.29549553e-002, 1.07513107e+002, 7.07737045e+001,
          2.12012022e-003, 6.61823959e+001, 1.10579651e+002 ]
      - [ 2.30303034e-002, 8.64495773e+001, 6.26069298e+001,
          4.62990580e-003, 3.89591255e+001, 1.28521713e+002 ]
      - [ 5.89411594e-002, 7.72539978e+001, 7.58735580e+001,
          1.00974098e-003, 4.15662651e+001, 7.26314850e+001 ]
      - [ 3.49609591e-002, 7.11978760e+001, 5.81487389e+001,
          4.83363345e-002, 8.04292221e+001, 1.51905029e+002 ]
      - [ 9.63963941e-003, 8.03480530e+001, 5.45058365e+001,
          2.27927919e-002, 5.36745491e+001, 1.64572556e+002 ]
      - [ 1.14241995e-001, 1.16181046e+002, 7.63133774e+001,
          1.64483991e-002, 8.26514359e+001, 1.01626373e+002 ]
      - [ 5.91051057e-002, 1.37785950e+002, 6.93245544e+001,
          8.37237202e-003, 7.16605530e+001, 1.18422028e+002 ]
      - [ 1.29129132e-003, 6.32877045e+001, 2.92406902e+001,
          6.00600606e-006, 4.17724037e+001, 7.29108734e+001 ]
      - [ 1.86283477e-002, 8.28097534e+001, 5.86630592e+001,
          4.96158898e-002, 6.64127350e+001, 1.13718246e+002 ]
      - [ 1.75857414e-002, 6.14877853e+001, 5.24568634e+001,
          5.57014428e-004, 4.56433601e+001, 1.07414894e+002 ]
      - [ 2.14561999e-001, 2.10294754e+002, 3.31476822e+001,
          1.15434201e-002, 5.51799240e+001, 1.06158051e+002 ]
      - [ 5.58220632e-002, 9.86871872e+001, 7.41268158e+001,
          9.55160148e-003, 6.25985909e+001, 8.89375916e+001 ]
      - [ 2.64864857e-003, 4.14489861e+001, 2.55388241e+001,
          5.28528530e-004, 4.23030472e+001, 6.03914337e+001 ]
      - [ 2.08564565e-001, 1.18696877e+002, 8.96219559e+001,
          5.82582597e-003, 6.65148010e+001, 5.47738457e+001 ]
      - [ 2.12972076e-003, 4.15872421e+001, 3.40944824e+001,
          1.18317816e-003, 4.53137207e+001, 9.87478714e+001 ]
      - [ 1.33367702e-001, 1.98451248e+002, 4.52381706e+001,
          3.97709049e-002, 6.36219749e+001, 7.20507278e+001 ]
      - [ 4.68348339e-002, 1.06989487e+002, 6.94933243e+001,
          1.08888885e-002, 7.52632828e+001, 7.37071915e+001 ]
      - [ 2.66666670e-004, 5.96769981e+001, 4.76841011e+001,
          5.00000024e-004, 4.45337029e+001, 1.48921265e+002 ]
      - [ 1.39429435e-001, 1.22883217e+002, 7.77032089e+001,
          4.77477489e-003, 6.03917961e+001, 1.06870872e+002 ]
      - [ 4.06006025e-003, 6.40603867e+001, 3.70586586e+001,
          1.13513519e-003, 4.26759071e+001, 1.01740265e+002 ]
      - [ 1.05514154e-002, 9.28312759e+001, 5.31623840e+001,
          4.19274718e-003, 4.20252190e+001, 7.98861237e+001 ]
      - [ 1.72683641e-001, 1.26920547e+002, 8.24371719e+001,
          2.93983016e-002, 7.35515671e+001, 8.46693115e+001 ]
      - [ 1.60413444e-001, 1.48127228e+002, 7.03721771e+001,
          1.98006649e-002, 6.71605148e+001, 1.09212189e+002 ]
      - [ 8.84266663e-003, 6.90675354e+001, 4.85370102e+001,
          7.99999980e-005, 4.70699348e+001, 7.44300995e+001 ]
      - [ 1.48633877e-002, 7.47916718e+001, 5.39564018e+001,
          3.77545953e-002, 6.36174698e+001, 1.20105255e+002 ]
      - [ 2.02087988e-003, 5.43482475e+001, 3.88039207e+001,
          2.91573443e-003, 4.61285973e+001, 1.10493301e+002 ]
      - [ 1.25045041e-002, 8.00355759e+001, 5.89208527e+001,
          1.46006010e-002, 6.28728638e+001, 1.29175583e+002 ]
      - [ 1.03847876e-001, 1.49377029e+002, 6.33507500e+001,
          8.20283371e-004, 5.73040047e+001, 7.48553467e+001 ]
      - [ 2.70887583e-001, 1.65527939e+002, 7.71937180e+001,
          7.76462862e-003, 7.86557083e+001, 9.29439468e+001 ]
      - [ 4.10210202e-003, 6.58279800e+001, 3.96397324e+001,
          1.54354358e-002, 5.12110558e+001, 1.36768692e+002 ]
   decision_functions:
      -
         sv_count: 258
         rho: -3.8051610511141265e-001
         alpha: [ 5.0000000000000000e-001, 5.0000000000000000e-001,
             5.0000000000000000e-001, 1.9678373580463843e-002,
             5.0000000000000000e-001, 9.5660267171740615e-002,
             5.0000000000000000e-001, 5.0000000000000000e-001,
             5.0000000000000000e-001, 5.0000000000000000e-001,
             4.0725393135734422e-001, 5.0000000000000000e-001,
             5.0000000000000000e-001, 5.0000000000000000e-001,
             5.0000000000000000e-001, 5.0000000000000000e-001,
             5.0000000000000000e-001, 5.0000000000000000e-001,
             5.0000000000000000e-001, 4.6418648360437431e-001,
             4.8350641456879923e-001, 3.7799116525980492e-001,
             5.0000000000000000e-001, 5.0000000000000000e-001,
             5.0000000000000000e-001, 2.7557136808770299e-001,
             2.6417169581277744e-001, 5.0000000000000000e-001,
             5.0000000000000000e-001, 4.8152588281401187e-001,
             5.0000000000000000e-001, 5.0000000000000000e-001,
             5.0000000000000000e-001, 5.0000000000000000e-001,
             5.0000000000000000e-001, 1.3523498188197833e-001,
             5.0000000000000000e-001, 5.0000000000000000e-001,
             5.0000000000000000e-001, 5.0000000000000000e-001,
             5.0000000000000000e-001, 6.2468026890608229e-002,
             5.0000000000000000e-001, 5.0000000000000000e-001,
             2.9055707272578690e-001, 3.0683713393797024e-001,
             5.0000000000000000e-001, 4.8589839023491882e-001,
             5.0000000000000000e-001, 5.0000000000000000e-001,
             5.0000000000000000e-001, 5.0000000000000000e-001,
             5.0000000000000000e-001, 7.8553360972177771e-002,
             5.0000000000000000e-001, 1.6637366611070983e-001,
             5.9576756798345350e-002, 5.0000000000000000e-001,
             5.0000000000000000e-001, 5.0000000000000000e-001,
             4.9361858022479943e-001, 5.0000000000000000e-001,
             5.0000000000000000e-001, 3.4215290328086029e-001,
             5.0000000000000000e-001, 5.0000000000000000e-001,
             5.0000000000000000e-001, 5.0000000000000000e-001,
             5.0000000000000000e-001, 5.0000000000000000e-001,
             3.2871304496334641e-001, 5.0000000000000000e-001,
             5.0000000000000000e-001, 5.0000000000000000e-001,
             5.0000000000000000e-001, 5.0000000000000000e-001,
             5.0000000000000000e-001, 5.0000000000000000e-001,
             5.4466717597526165e-002, 5.0000000000000000e-001,
             5.0000000000000000e-001, 5.0000000000000000e-001,
             6.6413546630773854e-002, 5.0000000000000000e-001,
             5.0000000000000000e-001, 5.0000000000000000e-001,
             5.0000000000000000e-001, 5.0000000000000000e-001,
             5.0000000000000000e-001, 5.0000000000000000e-001,
             5.0000000000000000e-001, 1.6563334909078947e-001,
             5.0000000000000000e-001, 5.0000000000000000e-001,
             2.3018498900262488e-001, 5.0000000000000000e-001,
             5.0000000000000000e-001, 5.0000000000000000e-001,
             5.0000000000000000e-001, 5.0000000000000000e-001,
             5.0000000000000000e-001, 3.2195792501278875e-001,
             2.9200980014669026e-001, 5.0000000000000000e-001,
             5.0000000000000000e-001, 1.0941043688318811e-001,
             5.0000000000000000e-001, 4.3064841966662465e-001,
             5.0000000000000000e-001, 1.0180645087116187e-001,
             5.0000000000000000e-001, 9.9004831622424155e-002,
             4.8543127599598102e-001, 4.0729076311691215e-001,
             5.0000000000000000e-001, 2.9386946472434256e-001,
             5.0000000000000000e-001, 5.0000000000000000e-001,
             5.0000000000000000e-001, 5.0000000000000000e-001,
             5.0000000000000000e-001, 2.5831579103690477e-001,
             5.0000000000000000e-001, 5.0000000000000000e-001,
             3.0901895160843923e-001, 5.0000000000000000e-001,
             5.0000000000000000e-001, 5.0000000000000000e-001,
             4.5139329060932798e-001, 5.0000000000000000e-001,
             5.3923127990046851e-002, 5.0000000000000000e-001,
             5.0000000000000000e-001, 5.0000000000000000e-001,
             5.0000000000000000e-001, 5.0000000000000000e-001,
             -5.0000000000000000e-001, -5.0000000000000000e-001,
             -5.0000000000000000e-001, -5.0000000000000000e-001,
             -5.0000000000000000e-001, -5.0000000000000000e-001,
             -3.5180850649891715e-001, -5.0000000000000000e-001,
             -5.0000000000000000e-001, -5.0000000000000000e-001,
             -5.0000000000000000e-001, -5.0000000000000000e-001,
             -5.0000000000000000e-001, -5.0000000000000000e-001,
             -5.0000000000000000e-001, -2.8648994513953491e-001,
             -5.0000000000000000e-001, -5.0000000000000000e-001,
             -5.0000000000000000e-001, -5.0000000000000000e-001,
             -5.0000000000000000e-001, -5.0000000000000000e-001,
             -4.1174259813983516e-001, -5.0000000000000000e-001,
             -5.0000000000000000e-001, -5.0000000000000000e-001,
             -5.0000000000000000e-001, -5.0000000000000000e-001,
             -5.0000000000000000e-001, -5.0000000000000000e-001,
             -5.0000000000000000e-001, -5.0000000000000000e-001,
             -5.0000000000000000e-001, -5.0000000000000000e-001,
             -5.0000000000000000e-001, -5.0000000000000000e-001,
             -3.8734207691686079e-001, -5.0000000000000000e-001,
             -5.0000000000000000e-001, -5.0000000000000000e-001,
             -5.0000000000000000e-001, -3.1423986484863997e-001,
             -5.0000000000000000e-001, -5.0000000000000000e-001,
             -5.0000000000000000e-001, -5.0000000000000000e-001,
             -5.0000000000000000e-001, -5.0000000000000000e-001,
             -5.0000000000000000e-001, -5.0000000000000000e-001,
             -4.1959776698722934e-001, -5.0000000000000000e-001,
             -5.0000000000000000e-001, -5.0000000000000000e-001,
             -5.0000000000000000e-001, -5.0000000000000000e-001,
             -5.0000000000000000e-001, -5.0000000000000000e-001,
             -5.0000000000000000e-001, -5.0000000000000000e-001,
             -5.0000000000000000e-001, -5.0000000000000000e-001,
             -5.0000000000000000e-001, -5.0000000000000000e-001,
             -5.0000000000000000e-001, -5.0000000000000000e-001,
             -5.0000000000000000e-001, -1.2679561280844753e-001,
             -5.0000000000000000e-001, -5.0000000000000000e-001,
             -5.0000000000000000e-001, -5.0000000000000000e-001,
             -5.0000000000000000e-001, -5.0000000000000000e-001,
             -5.0000000000000000e-001, -5.0000000000000000e-001,
             -2.7699114769813915e-001, -5.0000000000000000e-001,
             -5.0000000000000000e-001, -5.0000000000000000e-001,
             -4.6077339434211378e-001, -5.0000000000000000e-001,
             -5.0000000000000000e-001, -5.0000000000000000e-001,
             -5.0000000000000000e-001, -5.0000000000000000e-001,
             -5.0000000000000000e-001, -5.0000000000000000e-001,
             -5.0000000000000000e-001, -5.0000000000000000e-001,
             -5.0000000000000000e-001, -5.0000000000000000e-001,
             -5.0000000000000000e-001, -5.0000000000000000e-001,
             -5.0000000000000000e-001, -5.0000000000000000e-001,
             -5.0000000000000000e-001, -5.0000000000000000e-001,
             -5.0000000000000000e-001, -5.0000000000000000e-001,
             -5.0000000000000000e-001, -5.0000000000000000e-001,
             -5.0000000000000000e-001, -5.0000000000000000e-001,
             -5.0000000000000000e-001, -5.0000000000000000e-001,
             -5.0000000000000000e-001, -5.0000000000000000e-001,
             -5.0000000000000000e-001, -5.0000000000000000e-001,
             -5.0000000000000000e-001, -2.1452771850535002e-001,
             -5.0000000000000000e-001, -5.0000000000000000e-001,
             -5.0000000000000000e-001, -5.0000000000000000e-001,
             -5.0000000000000000e-001, -5.0000000000000000e-001,
             -5.0000000000000000e-001, -5.0000000000000000e-001,
             -5.0000000000000000e-001, -5.0000000000000000e-001 ]
         index: [ 0, 1, 2, 3, 4, 5, 6, 7, 8, 9, 10, 11, 12, 13, 14, 15,
             16, 17, 18, 19, 20, 21, 22, 23, 24, 25, 26, 27, 28, 29, 30,
             31, 32, 33, 34, 35, 36, 37, 38, 39, 40, 41, 42, 43, 44, 45,
             46, 47, 48, 49, 50, 51, 52, 53, 54, 55, 56, 57, 58, 59, 60,
             61, 62, 63, 64, 65, 66, 67, 68, 69, 70, 71, 72, 73, 74, 75,
             76, 77, 78, 79, 80, 81, 82, 83, 84, 85, 86, 87, 88, 89, 90,
             91, 92, 93, 94, 95, 96, 97, 98, 99, 100, 101, 102, 103, 104,
             105, 106, 107, 108, 109, 110, 111, 112, 113, 114, 115, 116,
             117, 118, 119, 120, 121, 122, 123, 124, 125, 126, 127, 128,
             129, 130, 131, 132, 133, 134, 135, 136, 137, 138, 139, 140,
             141, 142, 143, 144, 145, 146, 147, 148, 149, 150, 151, 152,
             153, 154, 155, 156, 157, 158, 159, 160, 161, 162, 163, 164,
             165, 166, 167, 168, 169, 170, 171, 172, 173, 174, 175, 176,
             177, 178, 179, 180, 181, 182, 183, 184, 185, 186, 187, 188,
             189, 190, 191, 192, 193, 194, 195, 196, 197, 198, 199, 200,
             201, 202, 203, 204, 205, 206, 207, 208, 209, 210, 211, 212,
             213, 214, 215, 216, 217, 218, 219, 220, 221, 222, 223, 224,
             225, 226, 227, 228, 229, 230, 231, 232, 233, 234, 235, 236,
             237, 238, 239, 240, 241, 242, 243, 244, 245, 246, 247, 248,
             249, 250, 251, 252, 253, 254, 255, 256, 257 ]
