%YAML:1.0
my_svm: !!opencv-ml-svm
   svm_type: C_SVC
   kernel: { type:RBF, gamma:5.0625000000000009e-001 }
   C: 5.0000000000000000e-001
   term_criteria: { epsilon:1.1920928955078125e-007, iterations:1000 }
   var_all: 1
   var_count: 1
   class_count: 2
   class_labels: !!opencv-matrix
      rows: 1
      cols: 2
      dt: i
      data: [ -1, 1 ]
   sv_total: 298
   support_vectors:
      - [ 7.41023421e-001 ]
      - [ 5.64244390e-001 ]
      - [ 8.88464868e-001 ]
      - [ 5.64244390e-001 ]
      - [ 6.75779581e-001 ]
      - [ 5.64244390e-001 ]
      - [ 5.64244390e-001 ]
      - [ 6.75779581e-001 ]
      - [ 6.90366864e-001 ]
      - [ 8.73128414e-001 ]
      - [ 5.64244390e-001 ]
      - [ 5.64244390e-001 ]
      - [ 5.63976467e-001 ]
      - [ 5.53357363e-001 ]
      - [ 5.93581975e-001 ]
      - [ 5.64244390e-001 ]
      - [ 5.64244390e-001 ]
      - [ 8.88464868e-001 ]
      - [ 6.75779581e-001 ]
      - [ 7.87314713e-001 ]
      - [ 7.05117106e-001 ]
      - [ 5.64244390e-001 ]
      - [ 8.69512260e-001 ]
      - [ 1. ]
      - [ 5.64244390e-001 ]
      - [ 7.41023421e-001 ]
      - [ 8.52558553e-001 ]
      - [ 6.75779581e-001 ]
      - [ 5.64244390e-001 ]
      - [ 5.64244390e-001 ]
      - [ 6.92733228e-001 ]
      - [ 6.75779581e-001 ]
      - [ 6.75779581e-001 ]
      - [ 5.64244390e-001 ]
      - [ 6.75779581e-001 ]
      - [ 5.64244390e-001 ]
      - [ 5.56393504e-001 ]
      - [ 5.64244390e-001 ]
      - [ 5.64244390e-001 ]
      - [ 7.41023421e-001 ]
      - [ 5.64244390e-001 ]
      - [ 6.75779581e-001 ]
      - [ 7.05117106e-001 ]
      - [ 6.75779581e-001 ]
      - [ 5.64244390e-001 ]
      - [ 5.62113106e-001 ]
      - [ 5.64781666e-001 ]
      - [ 6.75779581e-001 ]
      - [ 6.75779581e-001 ]
      - [ 5.64244390e-001 ]
      - [ 5.64244390e-001 ]
      - [ 6.29488289e-001 ]
      - [ 9.34756100e-001 ]
      - [ 6.75779581e-001 ]
      - [ 5.64244390e-001 ]
      - [ 5.64244390e-001 ]
      - [ 5.64244390e-001 ]
      - [ 5.64244390e-001 ]
      - [ 6.75779581e-001 ]
      - [ 6.75779581e-001 ]
      - [ 5.64244390e-001 ]
      - [ 6.29488289e-001 ]
      - [ 5.64244390e-001 ]
      - [ 6.29488289e-001 ]
      - [ 6.75779581e-001 ]
      - [ 5.62643290e-001 ]
      - [ 6.75779581e-001 ]
      - [ 5.55883527e-001 ]
      - [ 5.65050960e-001 ]
      - [ 7.30890095e-001 ]
      - [ 7.05117106e-001 ]
      - [ 5.64244390e-001 ]
      - [ 5.64244390e-001 ]
      - [ 6.75779581e-001 ]
      - [ 7.32408106e-001 ]
      - [ 6.75779581e-001 ]
      - [ 5.64781666e-001 ]
      - [ 5.75059056e-001 ]
      - [ 8.73128414e-001 ]
      - [ 8.00731719e-001 ]
      - [ 6.25514984e-001 ]
      - [ 8.88464868e-001 ]
      - [ 7.18534172e-001 ]
      - [ 6.75779581e-001 ]
      - [ 6.75779581e-001 ]
      - [ 5.64244390e-001 ]
      - [ 6.75779581e-001 ]
      - [ 7.05117106e-001 ]
      - [ 6.75779581e-001 ]
      - [ 5.93581975e-001 ]
      - [ 7.41023421e-001 ]
      - [ 5.64244390e-001 ]
      - [ 6.75779581e-001 ]
      - [ 5.95850646e-001 ]
      - [ 5.64244390e-001 ]
      - [ 5.66948891e-001 ]
      - [ 5.64244390e-001 ]
      - [ 5.64244390e-001 ]
      - [ 5.69699526e-001 ]
      - [ 8.88464868e-001 ]
      - [ 6.75779581e-001 ]
      - [ 5.57933390e-001 ]
      - [ 5.64244390e-001 ]
      - [ 6.75779581e-001 ]
      - [ 6.75779581e-001 ]
      - [ 5.69699526e-001 ]
      - [ 8.10341239e-001 ]
      - [ 5.64244390e-001 ]
      - [ 5.57161629e-001 ]
      - [ 6.75779581e-001 ]
      - [ 5.67769170e-001 ]
      - [ 5.70813119e-001 ]
      - [ 1. ]
      - [ 5.64244390e-001 ]
      - [ 5.64244390e-001 ]
      - [ 9.64093685e-001 ]
      - [ 6.75779581e-001 ]
      - [ 5.64244390e-001 ]
      - [ 6.75779581e-001 ]
      - [ 5.64244390e-001 ]
      - [ 6.29488289e-001 ]
      - [ 1. ]
      - [ 5.64244390e-001 ]
      - [ 5.64244390e-001 ]
      - [ 5.64244390e-001 ]
      - [ 5.64244390e-001 ]
      - [ 5.64244390e-001 ]
      - [ 9.34756100e-001 ]
      - [ 7.41023421e-001 ]
      - [ 7.41023421e-001 ]
      - [ 5.56138337e-001 ]
      - [ 5.64244390e-001 ]
      - [ 5.64244390e-001 ]
      - [ 5.64244390e-001 ]
      - [ 6.75779581e-001 ]
      - [ 7.05117106e-001 ]
      - [ 5.64244390e-001 ]
      - [ 7.05117106e-001 ]
      - [ 6.54225826e-001 ]
      - [ 6.10535681e-001 ]
      - [ 8.52558553e-001 ]
      - [ 5.64244390e-001 ]
      - [ 8.88464868e-001 ]
      - [ 7.05117106e-001 ]
      - [ 5.64244390e-001 ]
      - [ 5.93581975e-001 ]
      - [ 7.41023421e-001 ]
      - [ 5.70533991e-001 ]
      - [ 5.58449924e-001 ]
      - [ 5.17953157e-001 ]
      - [ 8.52558553e-001 ]
      - [ 4.82046843e-001 ]
      - [ 8.86465967e-001 ]
      - [ 8.88464868e-001 ]
      - [ 8.88464868e-001 ]
      - [ 5.64244390e-001 ]
      - [ 5.17953157e-001 ]
      - [ 8.88464868e-001 ]
      - [ 9.24371183e-001 ]
      - [ 7.05117106e-001 ]
      - [ 5.93581975e-001 ]
      - [ 4.82046843e-001 ]
      - [ 9.34756100e-001 ]
      - [ 5.17953157e-001 ]
      - [ 8.73128414e-001 ]
      - [ 8.88464868e-001 ]
      - [ 8.52558553e-001 ]
      - [ 6.29488289e-001 ]
      - [ 6.29488289e-001 ]
      - [ 6.52360141e-001 ]
      - [ 6.75779581e-001 ]
      - [ 8.73128414e-001 ]
      - [ 8.52558553e-001 ]
      - [ 6.75779581e-001 ]
      - [ 8.88464868e-001 ]
      - [ 8.73128414e-001 ]
      - [ 8.90488923e-001 ]
      - [ 8.88464868e-001 ]
      - [ 8.84491563e-001 ]
      - [ 8.10341239e-001 ]
      - [ 8.73128414e-001 ]
      - [ 8.90488923e-001 ]
      - [ 1.55272201e-001 ]
      - [ 6.75779581e-001 ]
      - [ 8.88464868e-001 ]
      - [ 5.64244390e-001 ]
      - [ 6.75779581e-001 ]
      - [ 6.75779581e-001 ]
      - [ 8.88464868e-001 ]
      - [ 2.58976579e-001 ]
      - [ 4.73279089e-001 ]
      - [ 8.73128414e-001 ]
      - [ 8.84491563e-001 ]
      - [ 6.75779581e-001 ]
      - [ 8.94615054e-001 ]
      - [ 8.88464868e-001 ]
      - [ 7.41023421e-001 ]
      - [ 8.73128414e-001 ]
      - [ 6.75779581e-001 ]
      - [ 8.73128414e-001 ]
      - [ 6.29488289e-001 ]
      - [ 8.73128414e-001 ]
      - [ 5.37611306e-001 ]
      - [ 8.90488923e-001 ]
      - [ 3.70511711e-001 ]
      - [ 4.37370650e-002 ]
      - [ 8.73128414e-001 ]
      - [ 3.34605426e-001 ]
      - [ 9.34756100e-001 ]
      - [ 8.69512260e-001 ]
      - [ 9.34756100e-001 ]
      - [ 8.52558553e-001 ]
      - [ 4.06417996e-001 ]
      - [ 6.75779581e-001 ]
      - [ 4.46140558e-001 ]
      - [ 9.26905215e-001 ]
      - [ 8.69512260e-001 ]
      - [ 8.37222099e-001 ]
      - [ 8.52558553e-001 ]
      - [ 7.41023421e-001 ]
      - [ 5.17953157e-001 ]
      - [ 8.10341239e-001 ]
      - [ 8.57459784e-001 ]
      - [ 6.75779581e-001 ]
      - [ 6.75779581e-001 ]
      - [ 5.17953157e-001 ]
      - [ 7.87314713e-001 ]
      - [ 5.64244390e-001 ]
      - [ 6.75779581e-001 ]
      - [ 8.73128414e-001 ]
      - [ 8.10341239e-001 ]
      - [ 5.64244390e-001 ]
      - [ 8.27294886e-001 ]
      - [ 2.23070279e-001 ]
      - [ 5.05197227e-001 ]
      - [ 8.52558553e-001 ]
      - [ 8.88464868e-001 ]
      - [ 7.87314713e-001 ]
      - [ 8.88464868e-001 ]
      - [ 5.17953157e-001 ]
      - [ 7.76929736e-001 ]
      - [ 9.34756100e-001 ]
      - [ 5.17953157e-001 ]
      - [ 2.94882864e-001 ]
      - [ 8.73128414e-001 ]
      - [ 8.52558553e-001 ]
      - [ 9.26905215e-001 ]
      - [ 7.41023421e-001 ]
      - [ 9.34756100e-001 ]
      - [ 8.88464868e-001 ]
      - [ 8.43182445e-001 ]
      - [ 2.94882864e-001 ]
      - [ 8.88464868e-001 ]
      - [ 9.40211236e-001 ]
      - [ 8.09108198e-001 ]
      - [ 5.58968186e-001 ]
      - [ 4.46140558e-001 ]
      - [ 8.73128414e-001 ]
      - [ 3.59062962e-002 ]
      - [ 5.64244390e-001 ]
      - [ 9.05418575e-001 ]
      - [ 5.56393504e-001 ]
      - [ 7.87314713e-001 ]
      - [ 8.73128414e-001 ]
      - [ 5.17953157e-001 ]
      - [ 2.23070279e-001 ]
      - [ 8.10341239e-001 ]
      - [ 5.00437260e-001 ]
      - [ 7.05117106e-001 ]
      - [ 8.88464868e-001 ]
      - [ 6.75779581e-001 ]
      - [ 4.46140558e-001 ]
      - [ 8.88464868e-001 ]
      - [ 8.10341239e-001 ]
      - [ 8.84491563e-001 ]
      - [ 8.88464868e-001 ]
      - [ 8.88464868e-001 ]
      - [ 8.88464868e-001 ]
      - [ 2.23070279e-001 ]
      - [ 7.87314713e-001 ]
      - [ 8.73128414e-001 ]
      - [ 8.88464868e-001 ]
      - [ 1.47441432e-001 ]
      - [ 6.75779581e-001 ]
      - [ 8.73128414e-001 ]
      - [ 8.10341239e-001 ]
      - [ 6.64391994e-001 ]
      - [ 5.93581975e-001 ]
      - [ 8.88464868e-001 ]
      - [ 6.75779581e-001 ]
      - [ 8.86465967e-001 ]
      - [ 3.78765374e-001 ]
      - [ 6.29488289e-001 ]
      - [ 8.88464868e-001 ]
      - [ 3.70511711e-001 ]
      - [ 8.71310174e-001 ]
      - [ 8.88464868e-001 ]
      - [ 8.88464868e-001 ]
   decision_functions:
      -
         sv_count: 298
         rho: 7.8184863924980164e-001
         alpha: [ 5.0000000000000000e-001, 5.0000000000000000e-001,
             5.0000000000000000e-001, 5.0000000000000000e-001,
             5.0000000000000000e-001, 5.0000000000000000e-001,
             5.0000000000000000e-001, 5.0000000000000000e-001,
             5.0000000000000000e-001, 5.0000000000000000e-001,
             5.0000000000000000e-001, 5.0000000000000000e-001,
             5.0000000000000000e-001, 5.0000000000000000e-001,
             5.0000000000000000e-001, 5.0000000000000000e-001,
             5.0000000000000000e-001, 5.0000000000000000e-001,
             5.0000000000000000e-001, 5.0000000000000000e-001,
             5.0000000000000000e-001, 5.0000000000000000e-001,
             5.0000000000000000e-001, 5.0000000000000000e-001,
             5.0000000000000000e-001, 5.0000000000000000e-001,
             5.0000000000000000e-001, 5.0000000000000000e-001,
             5.0000000000000000e-001, 5.0000000000000000e-001,
             5.0000000000000000e-001, 5.0000000000000000e-001,
             5.0000000000000000e-001, 5.0000000000000000e-001,
             5.0000000000000000e-001, 5.0000000000000000e-001,
             5.0000000000000000e-001, 5.0000000000000000e-001,
             5.0000000000000000e-001, 5.0000000000000000e-001,
             5.0000000000000000e-001, 5.0000000000000000e-001,
             5.0000000000000000e-001, 5.0000000000000000e-001,
             5.0000000000000000e-001, 5.0000000000000000e-001,
             5.0000000000000000e-001, 5.0000000000000000e-001,
             5.0000000000000000e-001, 5.0000000000000000e-001,
             5.0000000000000000e-001, 5.0000000000000000e-001,
             5.0000000000000000e-001, 5.0000000000000000e-001,
             5.0000000000000000e-001, 5.0000000000000000e-001,
             5.0000000000000000e-001, 5.0000000000000000e-001,
             5.0000000000000000e-001, 5.0000000000000000e-001,
             5.0000000000000000e-001, 5.0000000000000000e-001,
             5.0000000000000000e-001, 5.0000000000000000e-001,
             5.0000000000000000e-001, 5.0000000000000000e-001,
             5.0000000000000000e-001, 5.0000000000000000e-001,
             5.0000000000000000e-001, 5.0000000000000000e-001,
             5.0000000000000000e-001, 5.0000000000000000e-001,
             5.0000000000000000e-001, 5.0000000000000000e-001,
             5.0000000000000000e-001, 5.0000000000000000e-001,
             5.0000000000000000e-001, 5.0000000000000000e-001,
             5.0000000000000000e-001, 5.0000000000000000e-001,
             5.0000000000000000e-001, 5.0000000000000000e-001,
             5.0000000000000000e-001, 5.0000000000000000e-001,
             5.0000000000000000e-001, 5.0000000000000000e-001,
             5.0000000000000000e-001, 5.0000000000000000e-001,
             5.0000000000000000e-001, 5.0000000000000000e-001,
             5.0000000000000000e-001, 5.0000000000000000e-001,
             5.0000000000000000e-001, 5.0000000000000000e-001,
             5.0000000000000000e-001, 5.0000000000000000e-001,
             5.0000000000000000e-001, 5.0000000000000000e-001,
             5.0000000000000000e-001, 5.0000000000000000e-001,
             5.0000000000000000e-001, 5.0000000000000000e-001,
             5.0000000000000000e-001, 5.0000000000000000e-001,
             5.0000000000000000e-001, 5.0000000000000000e-001,
             5.0000000000000000e-001, 5.0000000000000000e-001,
             5.0000000000000000e-001, 5.0000000000000000e-001,
             5.0000000000000000e-001, 5.0000000000000000e-001,
             5.0000000000000000e-001, 5.0000000000000000e-001,
             5.0000000000000000e-001, 5.0000000000000000e-001,
             5.0000000000000000e-001, 5.0000000000000000e-001,
             5.0000000000000000e-001, 5.0000000000000000e-001,
             5.0000000000000000e-001, 5.0000000000000000e-001,
             5.0000000000000000e-001, 5.0000000000000000e-001,
             5.0000000000000000e-001, 5.0000000000000000e-001,
             5.0000000000000000e-001, 5.0000000000000000e-001,
             5.0000000000000000e-001, 5.0000000000000000e-001,
             5.0000000000000000e-001, 5.0000000000000000e-001,
             5.0000000000000000e-001, 5.0000000000000000e-001,
             5.0000000000000000e-001, 5.0000000000000000e-001,
             5.0000000000000000e-001, 5.0000000000000000e-001,
             5.0000000000000000e-001, 5.0000000000000000e-001,
             5.0000000000000000e-001, 5.0000000000000000e-001,
             5.0000000000000000e-001, 5.0000000000000000e-001,
             5.0000000000000000e-001, 5.0000000000000000e-001,
             5.0000000000000000e-001, 5.0000000000000000e-001,
             5.0000000000000000e-001, -5.0000000000000000e-001,
             -5.0000000000000000e-001, -5.0000000000000000e-001,
             -5.0000000000000000e-001, -5.0000000000000000e-001,
             -5.0000000000000000e-001, -5.0000000000000000e-001,
             -5.0000000000000000e-001, -5.0000000000000000e-001,
             -5.0000000000000000e-001, -5.0000000000000000e-001,
             -5.0000000000000000e-001, -5.0000000000000000e-001,
             -5.0000000000000000e-001, -5.0000000000000000e-001,
             -5.0000000000000000e-001, -5.0000000000000000e-001,
             -5.0000000000000000e-001, -5.0000000000000000e-001,
             -5.0000000000000000e-001, -5.0000000000000000e-001,
             -5.0000000000000000e-001, -5.0000000000000000e-001,
             -5.0000000000000000e-001, -5.0000000000000000e-001,
             -5.0000000000000000e-001, -5.0000000000000000e-001,
             -5.0000000000000000e-001, -5.0000000000000000e-001,
             -5.0000000000000000e-001, -5.0000000000000000e-001,
             -5.0000000000000000e-001, -5.0000000000000000e-001,
             -5.0000000000000000e-001, -5.0000000000000000e-001,
             -5.0000000000000000e-001, -5.0000000000000000e-001,
             -5.0000000000000000e-001, -5.0000000000000000e-001,
             -5.0000000000000000e-001, -5.0000000000000000e-001,
             -5.0000000000000000e-001, -5.0000000000000000e-001,
             -5.0000000000000000e-001, -5.0000000000000000e-001,
             -5.0000000000000000e-001, -5.0000000000000000e-001,
             -5.0000000000000000e-001, -5.0000000000000000e-001,
             -5.0000000000000000e-001, -5.0000000000000000e-001,
             -5.0000000000000000e-001, -5.0000000000000000e-001,
             -5.0000000000000000e-001, -5.0000000000000000e-001,
             -5.0000000000000000e-001, -5.0000000000000000e-001,
             -5.0000000000000000e-001, -5.0000000000000000e-001,
             -5.0000000000000000e-001, -5.0000000000000000e-001,
             -5.0000000000000000e-001, -5.0000000000000000e-001,
             -5.0000000000000000e-001, -5.0000000000000000e-001,
             -5.0000000000000000e-001, -5.0000000000000000e-001,
             -5.0000000000000000e-001, -5.0000000000000000e-001,
             -5.0000000000000000e-001, -5.0000000000000000e-001,
             -5.0000000000000000e-001, -5.0000000000000000e-001,
             -5.0000000000000000e-001, -5.0000000000000000e-001,
             -5.0000000000000000e-001, -5.0000000000000000e-001,
             -5.0000000000000000e-001, -5.0000000000000000e-001,
             -5.0000000000000000e-001, -5.0000000000000000e-001,
             -5.0000000000000000e-001, -5.0000000000000000e-001,
             -5.0000000000000000e-001, -5.0000000000000000e-001,
             -5.0000000000000000e-001, -5.0000000000000000e-001,
             -5.0000000000000000e-001, -5.0000000000000000e-001,
             -5.0000000000000000e-001, -5.0000000000000000e-001,
             -5.0000000000000000e-001, -5.0000000000000000e-001,
             -5.0000000000000000e-001, -5.0000000000000000e-001,
             -5.0000000000000000e-001, -5.0000000000000000e-001,
             -5.0000000000000000e-001, -5.0000000000000000e-001,
             -5.0000000000000000e-001, -5.0000000000000000e-001,
             -5.0000000000000000e-001, -5.0000000000000000e-001,
             -5.0000000000000000e-001, -5.0000000000000000e-001,
             -5.0000000000000000e-001, -5.0000000000000000e-001,
             -5.0000000000000000e-001, -5.0000000000000000e-001,
             -5.0000000000000000e-001, -5.0000000000000000e-001,
             -5.0000000000000000e-001, -5.0000000000000000e-001,
             -5.0000000000000000e-001, -5.0000000000000000e-001,
             -5.0000000000000000e-001, -5.0000000000000000e-001,
             -5.0000000000000000e-001, -5.0000000000000000e-001,
             -5.0000000000000000e-001, -5.0000000000000000e-001,
             -5.0000000000000000e-001, -5.0000000000000000e-001,
             -5.0000000000000000e-001, -5.0000000000000000e-001,
             -5.0000000000000000e-001, -5.0000000000000000e-001,
             -5.0000000000000000e-001, -5.0000000000000000e-001,
             -5.0000000000000000e-001, -5.0000000000000000e-001,
             -5.0000000000000000e-001, -5.0000000000000000e-001,
             -5.0000000000000000e-001, -5.0000000000000000e-001,
             -5.0000000000000000e-001, -5.0000000000000000e-001,
             -5.0000000000000000e-001, -5.0000000000000000e-001,
             -5.0000000000000000e-001, -5.0000000000000000e-001,
             -5.0000000000000000e-001, -5.0000000000000000e-001,
             -5.0000000000000000e-001, -5.0000000000000000e-001,
             -5.0000000000000000e-001, -5.0000000000000000e-001,
             -5.0000000000000000e-001, -5.0000000000000000e-001 ]
         index: [ 0, 1, 2, 3, 4, 5, 6, 7, 8, 9, 10, 11, 12, 13, 14, 15,
             16, 17, 18, 19, 20, 21, 22, 23, 24, 25, 26, 27, 28, 29, 30,
             31, 32, 33, 34, 35, 36, 37, 38, 39, 40, 41, 42, 43, 44, 45,
             46, 47, 48, 49, 50, 51, 52, 53, 54, 55, 56, 57, 58, 59, 60,
             61, 62, 63, 64, 65, 66, 67, 68, 69, 70, 71, 72, 73, 74, 75,
             76, 77, 78, 79, 80, 81, 82, 83, 84, 85, 86, 87, 88, 89, 90,
             91, 92, 93, 94, 95, 96, 97, 98, 99, 100, 101, 102, 103, 104,
             105, 106, 107, 108, 109, 110, 111, 112, 113, 114, 115, 116,
             117, 118, 119, 120, 121, 122, 123, 124, 125, 126, 127, 128,
             129, 130, 131, 132, 133, 134, 135, 136, 137, 138, 139, 140,
             141, 142, 143, 144, 145, 146, 147, 148, 149, 150, 151, 152,
             153, 154, 155, 156, 157, 158, 159, 160, 161, 162, 163, 164,
             165, 166, 167, 168, 169, 170, 171, 172, 173, 174, 175, 176,
             177, 178, 179, 180, 181, 182, 183, 184, 185, 186, 187, 188,
             189, 190, 191, 192, 193, 194, 195, 196, 197, 198, 199, 200,
             201, 202, 203, 204, 205, 206, 207, 208, 209, 210, 211, 212,
             213, 214, 215, 216, 217, 218, 219, 220, 221, 222, 223, 224,
             225, 226, 227, 228, 229, 230, 231, 232, 233, 234, 235, 236,
             237, 238, 239, 240, 241, 242, 243, 244, 245, 246, 247, 248,
             249, 250, 251, 252, 253, 254, 255, 256, 257, 258, 259, 260,
             261, 262, 263, 264, 265, 266, 267, 268, 269, 270, 271, 272,
             273, 274, 275, 276, 277, 278, 279, 280, 281, 282, 283, 284,
             285, 286, 287, 288, 289, 290, 291, 292, 293, 294, 295, 296,
             297 ]
