%YAML:1.0
my_svm: !!opencv-ml-svm
   svm_type: C_SVC
   kernel: { type:RBF, gamma:5.0625000000000009e-001 }
   C: 6.2500000000000000e+001
   term_criteria: { epsilon:1.1920928955078125e-007, iterations:1000 }
   var_all: 1
   var_count: 1
   class_count: 2
   class_labels: !!opencv-matrix
      rows: 1
      cols: 2
      dt: i
      data: [ -1, 1 ]
   sv_total: 114
   support_vectors:
      - [ 1.20479995e-002 ]
      - [ 2.28799996e-003 ]
      - [ 1.03439996e-002 ]
      - [ 8.81200004e-003 ]
      - [ 1.43599999e-003 ]
      - [ 2.95599992e-003 ]
      - [ 2.79680006e-002 ]
      - [ 1.39600004e-003 ]
      - [ 1.52000005e-003 ]
      - [ 1.56000000e-003 ]
      - [ 1.58559997e-002 ]
      - [ 1.57866662e-003 ]
      - [ 1.88800006e-003 ]
      - [ 3.11199995e-003 ]
      - [ 3.15600005e-003 ]
      - [ 6.45599980e-003 ]
      - [ 1.46704223e-002 ]
      - [ 1.51680000e-002 ]
      - [ 2.05600006e-003 ]
      - [ 6.48400001e-003 ]
      - [ 1.58558553e-003 ]
      - [ 2.00600596e-003 ]
      - [ 2.37237243e-003 ]
      - [ 9.40399989e-003 ]
      - [ 1.76160000e-002 ]
      - [ 1.39200001e-003 ]
      - [ 2.78200004e-002 ]
      - [ 2.79440004e-002 ]
      - [ 2.11759992e-002 ]
      - [ 1.34480000e-002 ]
      - [ 1.31034479e-003 ]
      - [ 7.17200013e-003 ]
      - [ 1.63119994e-002 ]
      - [ 3.25679756e-003 ]
      - [ 1.66800001e-003 ]
      - [ 1.15599995e-002 ]
      - [ 4.61999979e-003 ]
      - [ 3.85600002e-003 ]
      - [ 1.33600004e-003 ]
      - [ 6.29199995e-003 ]
      - [ 4.33880016e-002 ]
      - [ 4.56399983e-003 ]
      - [ 3.94578325e-003 ]
      - [ 6.94000022e-003 ]
      - [ 4.04400006e-003 ]
      - [ 5.00200018e-002 ]
      - [ 3.85498488e-003 ]
      - [ 4.83200001e-003 ]
      - [ 4.22222214e-003 ]
      - [ 5.70400013e-003 ]
      - [ 4.54800017e-003 ]
      - [ 1.56400003e-003 ]
      - [ 1.55199994e-003 ]
      - [ 1.22999996e-002 ]
      - [ 2.39680000e-002 ]
      - [ 2.21480001e-002 ]
      - [ 1.14519997e-002 ]
      - [ 5.78915654e-003 ]
      - [ 5.44144167e-003 ]
      - [ 1.47093600e-002 ]
      - [ 1.71626676e-002 ]
      - [ 2.64839865e-002 ]
      - [ 1.43152708e-002 ]
      - [ 9.42574255e-003 ]
      - [ 3.50634456e-002 ]
      - [ 1.65333338e-002 ]
      - [ 2.14114115e-002 ]
      - [ 2.66223568e-002 ]
      - [ 3.08528524e-002 ]
      - [ 1.38226599e-002 ]
      - [ 7.41871912e-003 ]
      - [ 2.84444448e-002 ]
      - [ 4.31686752e-002 ]
      - [ 1.71771774e-003 ]
      - [ 1.00098522e-002 ]
      - [ 3.78421061e-002 ]
      - [ 1.96480006e-002 ]
      - [ 4.86546531e-002 ]
      - [ 3.78016196e-002 ]
      - [ 1.32930509e-004 ]
      - [ 4.88039218e-002 ]
      - [ 1.22542372e-002 ]
      - [ 4.95240018e-002 ]
      - [ 4.06930689e-003 ]
      - [ 2.53172196e-003 ]
      - [ 1.80394091e-002 ]
      - [ 1.02102102e-004 ]
      - [ 1.62702706e-002 ]
      - [ 2.15675682e-002 ]
      - [ 4.93933931e-002 ]
      - [ 5.46372533e-002 ]
      - [ 2.99919993e-002 ]
      - [ 4.67687696e-002 ]
      - [ 3.13386656e-002 ]
      - [ 4.41447720e-002 ]
      - [ 1.30320853e-002 ]
      - [ 1.57657657e-002 ]
      - [ 1.79310341e-003 ]
      - [ 1.06306304e-003 ]
      - [ 6.61631441e-003 ]
      - [ 1.01951221e-002 ]
      - [ 3.37623758e-003 ]
      - [ 5.07722758e-002 ]
      - [ 3.98773327e-002 ]
      - [ 0. ]
      - [ 4.35327645e-003 ]
      - [ 1.00846905e-002 ]
      - [ 4.11051065e-002 ]
      - [ 4.26133350e-003 ]
      - [ 5.76237636e-003 ]
      - [ 8.26666690e-003 ]
      - [ 0. ]
      - [ 1.71925128e-002 ]
      - [ 2.51941755e-003 ]
   decision_functions:
      -
         sv_count: 114
         rho: -2.0926445722579601e-001
         alpha: [ 6.2500000000000000e+001, 6.2500000000000000e+001,
             6.2500000000000000e+001, 6.2500000000000000e+001,
             6.2500000000000000e+001, 6.2500000000000000e+001,
             6.2500000000000000e+001, 6.2500000000000000e+001,
             6.2500000000000000e+001, 6.2500000000000000e+001,
             6.2500000000000000e+001, 6.2500000000000000e+001,
             6.2500000000000000e+001, 6.2500000000000000e+001,
             6.2500000000000000e+001, 6.2500000000000000e+001,
             6.2500000000000000e+001, 6.2500000000000000e+001,
             6.2500000000000000e+001, 6.2500000000000000e+001,
             6.2500000000000000e+001, 6.2500000000000000e+001,
             6.2500000000000000e+001, 6.2500000000000000e+001,
             6.2500000000000000e+001, 6.2500000000000000e+001,
             6.2500000000000000e+001, 6.2500000000000000e+001,
             6.2500000000000000e+001, 6.2500000000000000e+001,
             4.7306036625781488e+001, 6.2500000000000000e+001,
             6.2500000000000000e+001, 6.2500000000000000e+001,
             6.2500000000000000e+001, 6.2500000000000000e+001,
             6.2500000000000000e+001, 6.2500000000000000e+001,
             6.2500000000000000e+001, 6.2500000000000000e+001,
             6.2500000000000000e+001, 6.2500000000000000e+001,
             6.2500000000000000e+001, 6.2500000000000000e+001,
             6.2500000000000000e+001, 6.2500000000000000e+001,
             6.2500000000000000e+001, 6.2500000000000000e+001,
             6.2500000000000000e+001, 6.2500000000000000e+001,
             6.2500000000000000e+001, 6.2500000000000000e+001,
             6.2500000000000000e+001, 6.2500000000000000e+001,
             6.2500000000000000e+001, 6.2500000000000000e+001,
             6.2500000000000000e+001, -6.2500000000000000e+001,
             -6.2500000000000000e+001, -6.2500000000000000e+001,
             -6.2500000000000000e+001, -6.2500000000000000e+001,
             -6.2500000000000000e+001, -6.2500000000000000e+001,
             -6.2500000000000000e+001, -6.2500000000000000e+001,
             -6.2500000000000000e+001, -6.2500000000000000e+001,
             -6.2500000000000000e+001, -6.2500000000000000e+001,
             -6.2500000000000000e+001, -6.2500000000000000e+001,
             -6.2500000000000000e+001, -6.2500000000000000e+001,
             -6.2500000000000000e+001, -6.2500000000000000e+001,
             -6.2500000000000000e+001, -6.2500000000000000e+001,
             -6.2500000000000000e+001, -6.2500000000000000e+001,
             -6.2500000000000000e+001, -6.2500000000000000e+001,
             -6.2500000000000000e+001, -6.2500000000000000e+001,
             -6.2500000000000000e+001, -6.2500000000000000e+001,
             -6.2500000000000000e+001, -6.2500000000000000e+001,
             -6.2500000000000000e+001, -6.2500000000000000e+001,
             -4.7306036625781488e+001, -6.2500000000000000e+001,
             -6.2500000000000000e+001, -6.2500000000000000e+001,
             -6.2500000000000000e+001, -6.2500000000000000e+001,
             -6.2500000000000000e+001, -6.2500000000000000e+001,
             -6.2500000000000000e+001, -6.2500000000000000e+001,
             -6.2500000000000000e+001, -6.2500000000000000e+001,
             -6.2500000000000000e+001, -6.2500000000000000e+001,
             -6.2500000000000000e+001, -6.2500000000000000e+001,
             -6.2500000000000000e+001, -6.2500000000000000e+001,
             -6.2500000000000000e+001, -6.2500000000000000e+001,
             -6.2500000000000000e+001, -6.2500000000000000e+001,
             -6.2500000000000000e+001, -6.2500000000000000e+001 ]
         index: [ 0, 1, 2, 3, 4, 5, 6, 7, 8, 9, 10, 11, 12, 13, 14, 15,
             16, 17, 18, 19, 20, 21, 22, 23, 24, 25, 26, 27, 28, 29, 30,
             31, 32, 33, 34, 35, 36, 37, 38, 39, 40, 41, 42, 43, 44, 45,
             46, 47, 48, 49, 50, 51, 52, 53, 54, 55, 56, 57, 58, 59, 60,
             61, 62, 63, 64, 65, 66, 67, 68, 69, 70, 71, 72, 73, 74, 75,
             76, 77, 78, 79, 80, 81, 82, 83, 84, 85, 86, 87, 88, 89, 90,
             91, 92, 93, 94, 95, 96, 97, 98, 99, 100, 101, 102, 103, 104,
             105, 106, 107, 108, 109, 110, 111, 112, 113 ]
