%YAML:1.0
my_svm: !!opencv-ml-svm
   svm_type: C_SVC
   kernel: { type:RBF, gamma:1.0000000000000001e-05 }
   C: 2.5000000000000000e+00
   term_criteria: { epsilon:1.1920928955078125e-07, iterations:1000 }
   var_all: 2
   var_count: 2
   class_count: 2
   class_labels: !!opencv-matrix
      rows: 1
      cols: 2
      dt: i
      data: [ 0, 1 ]
   sv_total: 755
   support_vectors:
      - [ 5.50666695e+01, 55. ]
      - [ 3.98352966e+01, 52. ]
      - [ 4.45294151e+01, 60. ]
      - [ 7.24862823e+01, 47. ]
      - [ 7.49058838e+01, 60. ]
      - [ 1.40462753e+02, 66. ]
      - [ 4.37921600e+01, 60. ]
      - [ 8.17803955e+01, 57. ]
      - [ 5.19647102e+01, 51. ]
      - [ 4.61254921e+01, 61. ]
      - [ 4.10156898e+01, 64. ]
      - [ 6.07568665e+01, 63. ]
      - [ 3.46352959e+01, 66. ]
      - [ 4.36588249e+01, 58. ]
      - [ 3.43607864e+01, 58. ]
      - [ 3.69921608e+01, 56. ]
      - [ 6.68156891e+01, 59. ]
      - [ 4.31607857e+01, 65. ]
      - [ 1.01796082e+02, 60. ]
      - [ 3.14627476e+01, 60. ]
      - [ 3.84941216e+01, 57. ]
      - [ 3.38588257e+01, 65. ]
      - [ 4.03607864e+01, 46. ]
      - [ 3.81529427e+01, 46. ]
      - [ 3.20549049e+01, 60. ]
      - [ 5.93333359e+01, 66. ]
      - [ 3.67254906e+01, 59. ]
      - [ 5.80823555e+01, 63. ]
      - [ 1.26027458e+02, 60. ]
      - [ 4.24196091e+01, 61. ]
      - [ 5.95372581e+01, 57. ]
      - [ 3.54235306e+01, 53. ]
      - [ 6.32470627e+01, 62. ]
      - [ 8.68352966e+01, 62. ]
      - [ 6.53568649e+01, 65. ]
      - [ 8.75921631e+01, 61. ]
      - [ 5.98862762e+01, 61. ]
      - [ 4.78705902e+01, 59. ]
      - [ 6.06588287e+01, 52. ]
      - [ 3.41921577e+01, 68. ]
      - [ 4.38941193e+01, 53. ]
      - [ 7.72784348e+01, 63. ]
      - [ 5.05019646e+01, 67. ]
      - [ 5.74823570e+01, 67. ]
      - [ 4.15254936e+01, 65. ]
      - [ 2.84745121e+01, 64. ]
      - [ 4.16901970e+01, 61. ]
      - [ 4.99176483e+01, 53. ]
      - [ 3.33058853e+01, 67. ]
      - [ 8.60549088e+01, 65. ]
      - [ 7.26235352e+01, 69. ]
      - [ 3.93023560e+02, 69. ]
      - [ 3.55858856e+02, 62. ]
      - [ 1.02486282e+02, 65. ]
      - [ 1.08541183e+02, 52. ]
      - [ 1.36270599e+02, 63. ]
      - [ 5.01490211e+01, 65. ]
      - [ 4.95098076e+01, 58. ]
      - [ 5.33215714e+01, 42. ]
      - [ 7.51019669e+01, 56. ]
      - [ 3.00039234e+01, 58. ]
      - [ 2.10262756e+02, 68. ]
      - [ 7.04431381e+01, 52. ]
      - [ 4.79137268e+01, 68. ]
      - [ 8.92941208e+01, 49. ]
      - [ 4.19960823e+01, 69. ]
      - [ 4.04980431e+01, 67. ]
      - [ 3.28325500e+02, 63. ]
      - [ 5.90156898e+01, 52. ]
      - [ 2.84352951e+01, 70. ]
      - [ 5.77019653e+01, 62. ]
      - [ 3.64196091e+01, 53. ]
      - [ 4.50196114e+01, 59. ]
      - [ 5.47019653e+01, 61. ]
      - [ 4.80666695e+01, 62. ]
      - [ 2.40313740e+01, 53. ]
      - [ 3.28588257e+01, 65. ]
      - [ 1.18858833e+02, 68. ]
      - [ 2.74415710e+02, 70. ]
      - [ 1.28105896e+02, 62. ]
      - [ 4.50627480e+01, 44. ]
      - [ 3.85176506e+01, 60. ]
      - [ 1.02262749e+02, 61. ]
      - [ 6.84039230e+01, 63. ]
      - [ 5.90117683e+01, 59. ]
      - [ 3.90352974e+01, 50. ]
      - [ 3.56000023e+01, 45. ]
      - [ 1.20521576e+02, 66. ]
      - [ 4.31411781e+01, 59. ]
      - [ 2.59482361e+02, 63. ]
      - [ 3.98627472e+01, 57. ]
      - [ 2.88431396e+01, 60. ]
      - [ 8.51803970e+01, 57. ]
      - [ 4.54000015e+01, 57. ]
      - [ 4.99372597e+01, 58. ]
      - [ 3.41490211e+01, 64. ]
      - [ 2.81960793e+01, 63. ]
      - [ 5.06117668e+01, 50. ]
      - [ 4.28509827e+01, 61. ]
      - [ 5.50039253e+01, 53. ]
      - [ 3.93647079e+01, 67. ]
      - [ 9.71294174e+01, 65. ]
      - [ 3.69019623e+01, 69. ]
      - [ 7.36588287e+01, 63. ]
      - [ 5.13490219e+01, 55. ]
      - [ 3.05254917e+01, 63. ]
      - [ 9.25882416e+01, 30. ]
      - [ 5.00000038e+01, 53. ]
      - [ 8.26274567e+01, 63. ]
      - [ 1.34701965e+02, 58. ]
      - [ 2.42086288e+02, 60. ]
      - [ 5.86431389e+01, 66. ]
      - [ 4.65372581e+01, 52. ]
      - [ 5.54078445e+01, 60. ]
      - [ 7.64705963e+01, 59. ]
      - [ 7.51333389e+01, 63. ]
      - [ 3.85372581e+01, 67. ]
      - [ 1.21176476e+02, 68. ]
      - [ 4.60901985e+01, 67. ]
      - [ 3.75372581e+01, 63. ]
      - [ 5.06549034e+01, 65. ]
      - [ 1.38203934e+02, 64. ]
      - [ 3.36933350e+02, 69. ]
      - [ 7.16823578e+01, 41. ]
      - [ 4.99176483e+01, 67. ]
      - [ 7.03921585e+01, 68. ]
      - [ 5.63058853e+01, 64. ]
      - [ 9.09215775e+01, 63. ]
      - [ 2.89647083e+01, 63. ]
      - [ 4.94352966e+02, 71. ]
      - [ 1.23568634e+02, 55. ]
      - [ 2.58666687e+01, 42. ]
      - [ 3.53372574e+01, 63. ]
      - [ 5.70980415e+01, 57. ]
      - [ 6.92862778e+01, 56. ]
      - [ 1.47827454e+02, 68. ]
      - [ 4.48470612e+01, 67. ]
      - [ 8.71568680e+01, 69. ]
      - [ 3.02392178e+01, 62. ]
      - [ 1.41078445e+02, 62. ]
      - [ 2.79764729e+01, 65. ]
      - [ 3.45058861e+01, 69. ]
      - [ 7.87529449e+01, 61. ]
      - [ 4.19294128e+01, 62. ]
      - [ 6.68784332e+01, 66. ]
      - [ 5.55921593e+01, 52. ]
      - [ 3.50431404e+01, 62. ]
      - [ 4.05372581e+01, 62. ]
      - [ 6.97921600e+01, 66. ]
      - [ 6.65254974e+01, 66. ]
      - [ 5.15686302e+01, 55. ]
      - [ 5.55294151e+01, 56. ]
      - [ 1.57145111e+02, 44. ]
      - [ 6.21607895e+01, 57. ]
      - [ 5.94666710e+01, 53. ]
      - [ 5.48784332e+01, 60. ]
      - [ 6.90117722e+01, 58. ]
      - [ 4.17058830e+01, 60. ]
      - [ 2.03439224e+02, 55. ]
      - [ 3.21490204e+02, 69. ]
      - [ 1.79486282e+02, 64. ]
      - [ 4.85215721e+01, 65. ]
      - [ 5.16470604e+01, 68. ]
      - [ 5.43019638e+01, 62. ]
      - [ 5.47372589e+01, 66. ]
      - [ 3.97294159e+01, 58. ]
      - [ 6.03372574e+01, 53. ]
      - [ 3.97725525e+01, 52. ]
      - [ 7.68745117e+01, 64. ]
      - [ 6.78666687e+01, 67. ]
      - [ 6.84431381e+01, 68. ]
      - [ 5.95058861e+01, 48. ]
      - [ 4.50431404e+01, 47. ]
      - [ 7.20392227e+01, 54. ]
      - [ 3.44274521e+01, 68. ]
      - [ 1.65439224e+02, 64. ]
      - [ 4.11725502e+01, 69. ]
      - [ 5.14313774e+01, 64. ]
      - [ 4.35058861e+01, 53. ]
      - [ 8.22901993e+01, 54. ]
      - [ 3.15058842e+01, 54. ]
      - [ 4.73254929e+01, 62. ]
      - [ 4.42509842e+01, 60. ]
      - [ 2.98078442e+01, 67. ]
      - [ 3.39764709e+01, 65. ]
      - [ 3.46035309e+02, 63. ]
      - [ 5.31764755e+01, 65. ]
      - [ 5.93803940e+01, 61. ]
      - [ 3.15333347e+01, 63. ]
      - [ 4.11254921e+01, 61. ]
      - [ 6.16392212e+01, 53. ]
      - [ 2.93411789e+01, 62. ]
      - [ 4.35803947e+01, 57. ]
      - [ 1.16643143e+02, 66. ]
      - [ 3.17607861e+01, 69. ]
      - [ 1.36360794e+02, 60. ]
      - [ 3.85960808e+01, 46. ]
      - [ 3.88313751e+01, 66. ]
      - [ 4.87490234e+01, 69. ]
      - [ 2.99764729e+01, 52. ]
      - [ 5.41450996e+01, 50. ]
      - [ 3.57411804e+01, 59. ]
      - [ 3.83843155e+01, 53. ]
      - [ 6.42588272e+01, 44. ]
      - [ 6.70078506e+01, 59. ]
      - [ 3.83411789e+01, 62. ]
      - [ 3.39227478e+02, 73. ]
      - [ 6.75882416e+01, 63. ]
      - [ 8.86431427e+01, 48. ]
      - [ 7.19882431e+01, 66. ]
      - [ 5.17647095e+01, 53. ]
      - [ 3.51019630e+01, 61. ]
      - [ 9.36666718e+01, 67. ]
      - [ 4.67607880e+01, 53. ]
      - [ 3.20392189e+01, 59. ]
      - [ 5.33215714e+01, 59. ]
      - [ 5.50980415e+01, 52. ]
      - [ 4.00235329e+01, 66. ]
      - [ 3.83137268e+02, 65. ]
      - [ 5.21333351e+01, 51. ]
      - [ 9.00823593e+01, 56. ]
      - [ 9.98078461e+01, 56. ]
      - [ 3.92196083e+01, 64. ]
      - [ 1.22309814e+02, 62. ]
      - [ 3.49960823e+01, 64. ]
      - [ 1.01462753e+02, 58. ]
      - [ 1.98505890e+02, 64. ]
      - [ 5.09686317e+01, 56. ]
      - [ 1.56509809e+01, 68. ]
      - [ 1.43211777e+02, 58. ]
      - [ 4.34823570e+01, 41. ]
      - [ 6.32313766e+01, 59. ]
      - [ 3.58196106e+01, 57. ]
      - [ 8.85568695e+01, 59. ]
      - [ 7.32901993e+01, 31. ]
      - [ 5.14902000e+01, 64. ]
      - [ 3.78196106e+01, 57. ]
      - [ 2.03862762e+02, 59. ]
      - [ 4.47019653e+01, 60. ]
      - [ 4.83921585e+01, 67. ]
      - [ 3.51647072e+01, 59. ]
      - [ 7.00549088e+01, 52. ]
      - [ 1.03376480e+02, 65. ]
      - [ 5.32941208e+01, 64. ]
      - [ 4.31294136e+01, 61. ]
      - [ 5.70588264e+01, 69. ]
      - [ 3.75529442e+01, 63. ]
      - [ 4.59568672e+01, 63. ]
      - [ 4.50368652e+02, 61. ]
      - [ 4.89294128e+01, 58. ]
      - [ 3.28156891e+01, 65. ]
      - [ 7.03176498e+01, 63. ]
      - [ 4.72274551e+01, 64. ]
      - [ 3.83019638e+01, 55. ]
      - [ 3.95215721e+01, 68. ]
      - [ 3.59882393e+01, 63. ]
      - [ 5.58509827e+01, 61. ]
      - [ 3.72078438e+01, 58. ]
      - [ 9.54470673e+01, 62. ]
      - [ 3.61490211e+01, 59. ]
      - [ 2.84000015e+01, 60. ]
      - [ 5.00509834e+01, 65. ]
      - [ 6.40705948e+01, 55. ]
      - [ 6.35725517e+01, 52. ]
      - [ 8.11607895e+01, 67. ]
      - [ 2.51533356e+02, 68. ]
      - [ 4.61411781e+01, 58. ]
      - [ 3.38156891e+02, 67. ]
      - [ 5.20627480e+01, 60. ]
      - [ 9.14000092e+01, 60. ]
      - [ 2.57960796e+01, 66. ]
      - [ 1.26725494e+02, 68. ]
      - [ 3.62901993e+01, 68. ]
      - [ 6.20509834e+01, 65. ]
      - [ 7.62823563e+01, 67. ]
      - [ 4.98274536e+01, 51. ]
      - [ 9.50705948e+01, 66. ]
      - [ 3.81450996e+01, 57. ]
      - [ 6.54784317e+01, 64. ]
      - [ 4.57725525e+01, 58. ]
      - [ 4.17058830e+01, 41. ]
      - [ 3.27058830e+01, 68. ]
      - [ 8.36039276e+01, 67. ]
      - [ 4.52627487e+01, 59. ]
      - [ 8.42980423e+01, 65. ]
      - [ 5.25137291e+01, 61. ]
      - [ 5.99647102e+01, 32. ]
      - [ 1.18125496e+02, 59. ]
      - [ 8.04313736e+01, 50. ]
      - [ 3.95019646e+01, 58. ]
      - [ 3.17215710e+01, 68. ]
      - [ 1.40862751e+01, 70. ]
      - [ 3.49843140e+01, 64. ]
      - [ 8.91647110e+01, 50. ]
      - [ 8.35098114e+01, 59. ]
      - [ 5.37098083e+01, 58. ]
      - [ 9.16313782e+01, 56. ]
      - [ 3.50235329e+01, 52. ]
      - [ 9.02274551e+01, 66. ]
      - [ 8.29451065e+01, 62. ]
      - [ 4.53529434e+01, 55. ]
      - [ 3.49568634e+01, 60. ]
      - [ 5.24509850e+01, 53. ]
      - [ 4.85294151e+01, 50. ]
      - [ 5.77529449e+01, 61. ]
      - [ 3.20980415e+01, 68. ]
      - [ 5.35921593e+01, 61. ]
      - [ 1.06486282e+02, 63. ]
      - [ 4.12666702e+01, 52. ]
      - [ 2.32074524e+02, 40. ]
      - [ 5.34235344e+01, 63. ]
      - [ 5.36627464e+01, 60. ]
      - [ 8.52039261e+01, 67. ]
      - [ 4.74392166e+01, 61. ]
      - [ 1.13282356e+02, 51. ]
      - [ 6.62941208e+01, 62. ]
      - [ 4.53803940e+01, 69. ]
      - [ 3.86862755e+01, 63. ]
      - [ 1.37254913e+02, 53. ]
      - [ 4.24780426e+02, 51. ]
      - [ 4.22235336e+01, 64. ]
      - [ 2.51019630e+01, 60. ]
      - [ 1.14843147e+02, 61. ]
      - [ 5.56431389e+01, 64. ]
      - [ 6.62470627e+01, 64. ]
      - [ 2.94058838e+02, 55. ]
      - [ 9.08352966e+01, 63. ]
      - [ 5.79411812e+01, 65. ]
      - [ 4.86823540e+01, 63. ]
      - [ 2.86160797e+02, 68. ]
      - [ 3.65843163e+01, 56. ]
      - [ 4.87019653e+01, 60. ]
      - [ 3.66509819e+01, 68. ]
      - [ 1.29705887e+02, 58. ]
      - [ 5.91725540e+01, 57. ]
      - [ 2.88082367e+02, 64. ]
      - [ 3.74156876e+01, 56. ]
      - [ 3.44447083e+02, 60. ]
      - [ 4.22823563e+01, 65. ]
      - [ 6.60470657e+01, 59. ]
      - [ 4.78784332e+01, 66. ]
      - [ 7.70431442e+01, 56. ]
      - [ 5.50509834e+01, 41. ]
      - [ 3.85372581e+01, 52. ]
      - [ 5.48470612e+01, 54. ]
      - [ 6.59568634e+01, 52. ]
      - [ 2.65933350e+02, 61. ]
      - [ 1.09000008e+02, 60. ]
      - [ 4.02196121e+01, 52. ]
      - [ 3.29811798e+02, 54. ]
      - [ 3.10117664e+01, 63. ]
      - [ 8.11372604e+01, 46. ]
      - [ 7.29333344e+01, 64. ]
      - [ 4.36313744e+01, 57. ]
      - [ 1.18345108e+02, 67. ]
      - [ 1.31894119e+02, 52. ]
      - [ 7.37176514e+01, 57. ]
      - [ 5.97921600e+01, 64. ]
      - [ 9.66745148e+01, 68. ]
      - [ 5.85294151e+01, 67. ]
      - [ 4.05451012e+01, 68. ]
      - [ 7.51882401e+01, 59. ]
      - [ 4.96196098e+01, 66. ]
      - [ 5.32156906e+01, 59. ]
      - [ 4.52313766e+01, 50. ]
      - [ 7.44117661e+01, 52. ]
      - [ 3.94588242e+01, 61. ]
      - [ 3.93686295e+01, 62. ]
      - [ 9.74313812e+01, 43. ]
      - [ 3.19058838e+01, 63. ]
      - [ 4.51450996e+01, 40. ]
      - [ 2.31831390e+02, 55. ]
      - [ 4.91294136e+01, 66. ]
      - [ 1.99611771e+02, 54. ]
      - [ 3.96592194e+02, 70. ]
      - [ 4.59960823e+01, 58. ]
      - [ 8.07294159e+01, 45. ]
      - [ 8.55058899e+01, 51. ]
      - [ 1.49043152e+02, 55. ]
      - [ 4.78184357e+02, 46. ]
      - [ 2.58403931e+02, 64. ]
      - [ 4.46274529e+01, 58. ]
      - [ 4.15752960e+02, 43. ]
      - [ 9.65607910e+01, 54. ]
      - [ 3.29843140e+01, 65. ]
      - [ 1.51866675e+03, 46. ]
      - [ 3.91764717e+01, 62. ]
      - [ 5.87882385e+01, 68. ]
      - [ 4.27137299e+01, 64. ]
      - [ 1.02921577e+02, 55. ]
      - [ 6.01098061e+01, 69. ]
      - [ 3.13854919e+02, 69. ]
      - [ 4.21188263e+02, 55. ]
      - [ 6.47843170e+01, 50. ]
      - [ 9.80117722e+01, 58. ]
      - [ 9.42000046e+01, 59. ]
      - [ 4.85176506e+01, 78. ]
      - [ 8.16784363e+01, 52. ]
      - [ 3.00980415e+01, 68. ]
      - [ 1.53549026e+02, 46. ]
      - [ 6.47490234e+01, 59. ]
      - [ 3.63843155e+01, 44. ]
      - [ 5.06156883e+01, 51. ]
      - [ 3.97882385e+01, 62. ]
      - [ 5.07451019e+01, 46. ]
      - [ 7.14313736e+01, 56. ]
      - [ 6.50235367e+01, 53. ]
      - [ 1.31858826e+02, 69. ]
      - [ 1.13521576e+02, 71. ]
      - [ 4.99451027e+01, 53. ]
      - [ 3.80549049e+01, 48. ]
      - [ 3.38470612e+01, 62. ]
      - [ 5.73882370e+01, 49. ]
      - [ 9.39882431e+01, 56. ]
      - [ 7.25843201e+01, 49. ]
      - [ 3.15215702e+01, 50. ]
      - [ 4.72352982e+01, 69. ]
      - [ 3.37451019e+01, 66. ]
      - [ 3.69843178e+01, 58. ]
      - [ 2.24847076e+02, 51. ]
      - [ 5.45411797e+01, 42. ]
      - [ 5.21490211e+01, 53. ]
      - [ 1.09984322e+02, 48. ]
      - [ 4.29333344e+01, 54. ]
      - [ 1.96301971e+02, 47. ]
      - [ 7.09176483e+01, 48. ]
      - [ 5.01686287e+01, 42. ]
      - [ 3.66235313e+01, 48. ]
      - [ 5.28862762e+01, 55. ]
      - [ 3.48509827e+01, 66. ]
      - [ 7.98392181e+01, 49. ]
      - [ 5.36588249e+01, 49. ]
      - [ 1.06121574e+02, 47. ]
      - [ 4.55254936e+01, 63. ]
      - [ 6.42313766e+01, 68. ]
      - [ 5.15960808e+01, 45. ]
      - [ 4.75568657e+01, 53. ]
      - [ 3.09490223e+01, 67. ]
      - [ 3.17725506e+01, 77. ]
      - [ 8.10784378e+01, 60. ]
      - [ 5.80078468e+01, 53. ]
      - [ 5.12627487e+01, 69. ]
      - [ 9.78588257e+01, 58. ]
      - [ 4.34588280e+01, 48. ]
      - [ 3.40039253e+01, 60. ]
      - [ 5.92156906e+01, 50. ]
      - [ 3.51019630e+01, 55. ]
      - [ 3.18941193e+01, 51. ]
      - [ 1.02909813e+02, 74. ]
      - [ 3.62431412e+01, 64. ]
      - [ 4.15490227e+01, 62. ]
      - [ 5.25019646e+01, 52. ]
      - [ 3.95294151e+01, 69. ]
      - [ 3.64078445e+01, 46. ]
      - [ 3.16000023e+01, 72. ]
      - [ 7.86666718e+01, 44. ]
      - [ 1.41596085e+02, 61. ]
      - [ 1.39874512e+02, 46. ]
      - [ 6.42588272e+01, 45. ]
      - [ 2.76117668e+01, 69. ]
      - [ 3.82352982e+01, 57. ]
      - [ 6.72313766e+01, 43. ]
      - [ 3.66274529e+01, 44. ]
      - [ 9.55372620e+01, 57. ]
      - [ 4.22823563e+01, 52. ]
      - [ 6.81607895e+01, 57. ]
      - [ 3.07658844e+02, 48. ]
      - [ 7.14705887e+01, 53. ]
      - [ 2.96901970e+01, 71. ]
      - [ 1.04533340e+02, 49. ]
      - [ 4.31568642e+01, 52. ]
      - [ 1.28393738e+03, 56. ]
      - [ 3.45215721e+01, 67. ]
      - [ 6.75254974e+01, 66. ]
      - [ 3.36588249e+01, 59. ]
      - [ 4.03254929e+01, 54. ]
      - [ 3.88117676e+01, 68. ]
      - [ 5.49843178e+01, 53. ]
      - [ 6.62274551e+01, 57. ]
      - [ 3.53019638e+01, 68. ]
      - [ 1.66568634e+02, 44. ]
      - [ 3.23411789e+01, 52. ]
      - [ 1.34733337e+02, 61. ]
      - [ 5.54235344e+01, 63. ]
      - [ 3.03137264e+01, 58. ]
      - [ 1.18196083e+02, 65. ]
      - [ 5.70666695e+01, 60. ]
      - [ 1.05309807e+02, 58. ]
      - [ 6.65333405e+01, 56. ]
      - [ 3.01098061e+01, 43. ]
      - [ 6.25294151e+01, 71. ]
      - [ 3.05568638e+01, 48. ]
      - [ 3.15411777e+01, 49. ]
      - [ 5.38470612e+01, 50. ]
      - [ 4.06470604e+01, 64. ]
      - [ 3.87921600e+01, 49. ]
      - [ 2.49333344e+01, 51. ]
      - [ 5.31529427e+01, 44. ]
      - [ 4.27098083e+01, 63. ]
      - [ 3.06274529e+01, 50. ]
      - [ 8.51372604e+01, 50. ]
      - [ 1.44466675e+02, 56. ]
      - [ 5.09843178e+01, 62. ]
      - [ 3.93215714e+01, 47. ]
      - [ 4.01411781e+01, 43. ]
      - [ 9.37215729e+01, 54. ]
      - [ 4.37960815e+01, 69. ]
      - [ 3.26156883e+01, 52. ]
      - [ 5.97529449e+01, 50. ]
      - [ 5.96196098e+01, 57. ]
      - [ 2.77725506e+01, 65. ]
      - [ 5.06274529e+01, 49. ]
      - [ 3.26274529e+01, 52. ]
      - [ 3.75921593e+01, 53. ]
      - [ 6.41882401e+01, 55. ]
      - [ 3.68392181e+01, 46. ]
      - [ 3.48470612e+01, 55. ]
      - [ 2.59541199e+02, 66. ]
      - [ 3.57411804e+01, 42. ]
      - [ 4.28156891e+01, 68. ]
      - [ 4.29450989e+01, 50. ]
      - [ 3.42980423e+01, 42. ]
      - [ 4.70666695e+01, 42. ]
      - [ 7.27529449e+01, 53. ]
      - [ 3.88274536e+01, 41. ]
      - [ 4.05019646e+01, 48. ]
      - [ 3.67058830e+01, 58. ]
      - [ 4.40235329e+01, 51. ]
      - [ 5.05019646e+01, 52. ]
      - [ 8.43921585e+01, 64. ]
      - [ 6.59137268e+01, 47. ]
      - [ 3.45286285e+02, 75. ]
      - [ 4.35882378e+01, 65. ]
      - [ 2.53094131e+02, 53. ]
      - [ 7.22431412e+01, 53. ]
      - [ 4.36235313e+01, 53. ]
      - [ 3.96784325e+01, 58. ]
      - [ 4.70745125e+01, 47. ]
      - [ 8.24549103e+01, 43. ]
      - [ 6.88078461e+01, 57. ]
      - [ 3.38705902e+01, 66. ]
      - [ 7.59647141e+01, 62. ]
      - [ 2.93803940e+01, 73. ]
      - [ 6.84156876e+01, 48. ]
      - [ 3.44156876e+01, 59. ]
      - [ 3.49490204e+01, 47. ]
      - [ 1.15407852e+02, 48. ]
      - [ 6.45607910e+01, 48. ]
      - [ 7.75372620e+01, 48. ]
      - [ 4.42470627e+01, 49. ]
      - [ 3.90470619e+01, 54. ]
      - [ 5.99333382e+01, 55. ]
      - [ 4.54196091e+01, 51. ]
      - [ 5.09529457e+01, 62. ]
      - [ 3.15294132e+01, 45. ]
      - [ 7.44352951e+01, 60. ]
      - [ 5.58078461e+01, 72. ]
      - [ 3.55647087e+01, 67. ]
      - [ 2.84941196e+01, 55. ]
      - [ 4.74784355e+01, 58. ]
      - [ 3.93725510e+01, 61. ]
      - [ 2.98941193e+01, 60. ]
      - [ 3.71384338e+02, 45. ]
      - [ 3.10274525e+01, 70. ]
      - [ 9.55411835e+01, 70. ]
      - [ 5.51450996e+01, 53. ]
      - [ 3.33960800e+01, 68. ]
      - [ 2.75215702e+01, 42. ]
      - [ 3.46666679e+01, 71. ]
      - [ 1.86686279e+02, 52. ]
      - [ 6.25176506e+01, 71. ]
      - [ 3.33647079e+01, 50. ]
      - [ 4.20784340e+01, 48. ]
      - [ 4.51764717e+01, 45. ]
      - [ 9.57803955e+01, 48. ]
      - [ 4.52392197e+01, 67. ]
      - [ 3.68549042e+01, 56. ]
      - [ 4.66274529e+01, 55. ]
      - [ 6.34196129e+01, 56. ]
      - [ 3.53411789e+01, 42. ]
      - [ 6.82078476e+01, 51. ]
      - [ 2.87984344e+02, 40. ]
      - [ 4.18588257e+01, 51. ]
      - [ 3.62980423e+01, 48. ]
      - [ 4.77372589e+01, 52. ]
      - [ 2.27580399e+02, 45. ]
      - [ 5.55372581e+01, 47. ]
      - [ 3.10000019e+01, 74. ]
      - [ 2.16345108e+02, 64. ]
      - [ 8.20196152e+01, 66. ]
      - [ 6.45058899e+01, 53. ]
      - [ 6.57490234e+01, 45. ]
      - [ 4.62215729e+02, 41. ]
      - [ 5.69137306e+01, 48. ]
      - [ 5.59215736e+01, 51. ]
      - [ 7.76784363e+01, 56. ]
      - [ 5.80823555e+01, 44. ]
      - [ 1.60172562e+02, 79. ]
      - [ 3.09725513e+01, 56. ]
      - [ 3.10549030e+01, 68. ]
      - [ 3.80588264e+01, 52. ]
      - [ 7.10705948e+01, 46. ]
      - [ 4.01058846e+01, 65. ]
      - [ 4.52745132e+01, 59. ]
      - [ 4.37337280e+02, 44. ]
      - [ 5.39098053e+01, 69. ]
      - [ 2.74235306e+01, 57. ]
      - [ 6.57254944e+01, 44. ]
      - [ 6.35254936e+01, 64. ]
      - [ 3.91450996e+01, 59. ]
      - [ 5.45078491e+02, 70. ]
      - [ 3.38117676e+01, 46. ]
      - [ 3.87058830e+01, 61. ]
      - [ 3.60156898e+01, 59. ]
      - [ 6.19529457e+01, 52. ]
      - [ 6.52392197e+01, 60. ]
      - [ 1.05043144e+02, 68. ]
      - [ 3.76705894e+01, 69. ]
      - [ 3.99490204e+01, 58. ]
      - [ 5.27764740e+01, 50. ]
      - [ 4.54078445e+01, 48. ]
      - [ 8.42156906e+01, 42. ]
      - [ 1.40223541e+02, 54. ]
      - [ 3.22941208e+01, 65. ]
      - [ 7.35215759e+01, 54. ]
      - [ 6.12941208e+01, 44. ]
      - [ 5.94156914e+01, 54. ]
      - [ 4.30980415e+01, 70. ]
      - [ 1.05972557e+02, 53. ]
      - [ 7.97843170e+01, 72. ]
      - [ 1.10552948e+02, 63. ]
      - [ 4.49333344e+01, 59. ]
      - [ 4.52549057e+01, 60. ]
      - [ 3.56941185e+01, 49. ]
      - [ 5.43882370e+01, 59. ]
      - [ 1.83678436e+02, 47. ]
      - [ 6.51019669e+01, 51. ]
      - [ 9.26313782e+01, 54. ]
      - [ 8.89176559e+01, 49. ]
      - [ 9.81019669e+01, 41. ]
      - [ 3.06666679e+01, 50. ]
      - [ 6.12705917e+01, 72. ]
      - [ 9.40823593e+01, 51. ]
      - [ 8.60039291e+01, 45. ]
      - [ 7.66902008e+01, 52. ]
      - [ 5.29490242e+01, 59. ]
      - [ 3.25686302e+01, 71. ]
      - [ 3.58745117e+01, 57. ]
      - [ 1.41047073e+02, 51. ]
      - [ 7.38352966e+01, 51. ]
      - [ 3.16745110e+01, 61. ]
      - [ 6.65803986e+01, 49. ]
      - [ 1.50658829e+02, 48. ]
      - [ 4.34313736e+01, 58. ]
      - [ 1.01458832e+02, 67. ]
      - [ 7.79294128e+01, 44. ]
      - [ 2.74156876e+01, 69. ]
      - [ 4.70039253e+01, 43. ]
      - [ 1.22450989e+02, 47. ]
      - [ 8.97803955e+01, 54. ]
      - [ 9.17372589e+01, 57. ]
      - [ 1.00058830e+02, 49. ]
      - [ 1.15600006e+02, 70. ]
      - [ 7.88705902e+01, 58. ]
      - [ 3.03725510e+01, 66. ]
      - [ 3.70235329e+01, 51. ]
      - [ 2.91882362e+01, 63. ]
      - [ 6.53529434e+01, 67. ]
      - [ 4.10588264e+01, 59. ]
      - [ 7.48156891e+01, 44. ]
      - [ 8.61451035e+01, 47. ]
      - [ 1.65611771e+02, 52. ]
      - [ 5.79294167e+01, 49. ]
      - [ 5.25372581e+01, 64. ]
      - [ 7.46352997e+01, 63. ]
      - [ 4.19529419e+01, 45. ]
      - [ 4.23451004e+01, 55. ]
      - [ 5.39724756e+03, 65. ]
      - [ 4.39960823e+01, 60. ]
      - [ 1.13054909e+02, 44. ]
      - [ 5.59019623e+01, 49. ]
      - [ 8.57921600e+01, 44. ]
      - [ 6.85451050e+01, 56. ]
      - [ 6.65451050e+01, 67. ]
      - [ 1.61109818e+02, 46. ]
      - [ 1.02239220e+02, 51. ]
      - [ 3.38823547e+01, 70. ]
      - [ 3.23568649e+01, 46. ]
      - [ 4.57725525e+01, 54. ]
      - [ 5.05843163e+01, 64. ]
      - [ 2.03286285e+02, 41. ]
      - [ 3.41890228e+02, 65. ]
      - [ 3.28470612e+01, 62. ]
      - [ 5.77960815e+01, 46. ]
      - [ 3.47428242e+04, 60. ]
      - [ 3.98431396e+01, 52. ]
      - [ 2.99607868e+01, 81. ]
      - [ 5.44509850e+01, 69. ]
      - [ 3.32313728e+01, 64. ]
      - [ 1.21007851e+02, 60. ]
      - [ 4.25411797e+01, 58. ]
      - [ 3.73254929e+01, 47. ]
      - [ 2.76901970e+01, 72. ]
      - [ 6.31843185e+01, 61. ]
      - [ 5.85607872e+01, 50. ]
      - [ 6.34980431e+01, 61. ]
      - [ 3.44588242e+01, 56. ]
      - [ 3.65686302e+01, 59. ]
      - [ 9.42039261e+01, 45. ]
      - [ 4.36784325e+01, 57. ]
      - [ 8.34784393e+01, 43. ]
      - [ 4.11764717e+01, 43. ]
      - [ 1.31827454e+02, 43. ]
      - [ 3.30745125e+01, 48. ]
      - [ 2.95725498e+01, 69. ]
      - [ 5.68901978e+01, 63. ]
      - [ 1.94956879e+02, 58. ]
      - [ 6.66745148e+01, 52. ]
      - [ 6.47294159e+01, 46. ]
      - [ 4.15607872e+01, 44. ]
      - [ 7.70470657e+01, 51. ]
      - [ 8.37725525e+01, 71. ]
      - [ 3.77403931e+02, 36. ]
      - [ 4.85294151e+01, 67. ]
      - [ 2.52674530e+02, 48. ]
      - [ 9.43490219e+01, 42. ]
      - [ 4.53843155e+01, 64. ]
      - [ 2.91309814e+02, 33. ]
      - [ 1.91274521e+02, 69. ]
      - [ 3.52470627e+01, 61. ]
      - [ 7.01490250e+01, 51. ]
      - [ 7.43372574e+01, 63. ]
      - [ 5.46823578e+01, 59. ]
      - [ 8.34117661e+01, 50. ]
      - [ 8.48823547e+01, 54. ]
      - [ 4.23921585e+01, 44. ]
      - [ 6.95176544e+01, 42. ]
      - [ 4.08941193e+01, 60. ]
      - [ 2.84235321e+02, 50. ]
      - [ 7.61921616e+01, 59. ]
      - [ 3.80588264e+01, 63. ]
      - [ 7.43058853e+01, 60. ]
      - [ 1.60098053e+02, 51. ]
      - [ 2.19521576e+02, 57. ]
      - [ 3.73254929e+01, 42. ]
      - [ 3.47843170e+01, 55. ]
      - [ 4.03294144e+01, 62. ]
      - [ 1.73247070e+02, 67. ]
      - [ 4.43537292e+02, 53. ]
      - [ 3.17098064e+01, 51. ]
      - [ 1.22078438e+02, 49. ]
      - [ 3.09023560e+02, 43. ]
      - [ 1.02666672e+02, 43. ]
      - [ 3.28784332e+01, 51. ]
      - [ 6.27764740e+01, 64. ]
   decision_functions:
      -
         sv_count: 755
         rho: 8.9347025317819306e-01
         alpha: [ 2.5000000000000000e+00, 2.5000000000000000e+00,
             2.5000000000000000e+00, 2.5000000000000000e+00,
             2.5000000000000000e+00, 2.5000000000000000e+00,
             2.5000000000000000e+00, 2.5000000000000000e+00,
             2.5000000000000000e+00, 2.5000000000000000e+00,
             2.5000000000000000e+00, 2.5000000000000000e+00,
             2.5000000000000000e+00, 2.5000000000000000e+00,
             2.5000000000000000e+00, 2.5000000000000000e+00,
             2.5000000000000000e+00, 2.5000000000000000e+00,
             2.5000000000000000e+00, 2.5000000000000000e+00,
             2.5000000000000000e+00, 2.5000000000000000e+00,
             2.5000000000000000e+00, 2.5000000000000000e+00,
             2.5000000000000000e+00, 2.5000000000000000e+00,
             2.5000000000000000e+00, 2.5000000000000000e+00,
             2.5000000000000000e+00, 2.5000000000000000e+00,
             2.5000000000000000e+00, 2.5000000000000000e+00,
             2.5000000000000000e+00, 2.5000000000000000e+00,
             2.5000000000000000e+00, 2.5000000000000000e+00,
             2.5000000000000000e+00, 2.5000000000000000e+00,
             2.5000000000000000e+00, 2.5000000000000000e+00,
             2.5000000000000000e+00, 2.5000000000000000e+00,
             2.5000000000000000e+00, 2.5000000000000000e+00,
             2.5000000000000000e+00, 2.5000000000000000e+00,
             2.5000000000000000e+00, 2.5000000000000000e+00,
             2.5000000000000000e+00, 2.5000000000000000e+00,
             2.5000000000000000e+00, 2.5000000000000000e+00,
             2.5000000000000000e+00, 2.5000000000000000e+00,
             2.5000000000000000e+00, 2.5000000000000000e+00,
             2.5000000000000000e+00, 2.5000000000000000e+00,
             2.5000000000000000e+00, 2.5000000000000000e+00,
             2.5000000000000000e+00, 2.5000000000000000e+00,
             2.5000000000000000e+00, 2.5000000000000000e+00,
             2.5000000000000000e+00, 2.5000000000000000e+00,
             2.5000000000000000e+00, 2.5000000000000000e+00,
             2.5000000000000000e+00, 5.3685110829449068e-01,
             2.5000000000000000e+00, 2.5000000000000000e+00,
             2.5000000000000000e+00, 2.5000000000000000e+00,
             2.5000000000000000e+00, 2.5000000000000000e+00,
             2.5000000000000000e+00, 2.5000000000000000e+00,
             1.6910655974730298e+00, 2.5000000000000000e+00,
             2.5000000000000000e+00, 2.5000000000000000e+00,
             2.5000000000000000e+00, 2.5000000000000000e+00,
             2.5000000000000000e+00, 2.5000000000000000e+00,
             2.5000000000000000e+00, 2.5000000000000000e+00,
             2.5000000000000000e+00, 2.5000000000000000e+00,
             2.5000000000000000e+00, 2.5000000000000000e+00,
             2.5000000000000000e+00, 2.5000000000000000e+00,
             2.5000000000000000e+00, 2.5000000000000000e+00,
             2.5000000000000000e+00, 2.5000000000000000e+00,
             2.5000000000000000e+00, 2.5000000000000000e+00,
             2.5000000000000000e+00, 2.5000000000000000e+00,
             2.5000000000000000e+00, 2.5000000000000000e+00,
             2.5000000000000000e+00, 2.5000000000000000e+00,
             2.5000000000000000e+00, 2.5000000000000000e+00,
             2.5000000000000000e+00, 2.5000000000000000e+00,
             2.5000000000000000e+00, 2.5000000000000000e+00,
             2.5000000000000000e+00, 2.5000000000000000e+00,
             2.5000000000000000e+00, 2.5000000000000000e+00,
             2.5000000000000000e+00, 2.5000000000000000e+00,
             2.5000000000000000e+00, 2.5000000000000000e+00,
             2.5000000000000000e+00, 2.5000000000000000e+00,
             2.5000000000000000e+00, 2.5000000000000000e+00,
             2.5000000000000000e+00, 2.5000000000000000e+00,
             2.5000000000000000e+00, 2.5000000000000000e+00,
             2.5000000000000000e+00, 2.5000000000000000e+00,
             2.5000000000000000e+00, 2.5000000000000000e+00,
             2.5000000000000000e+00, 2.5000000000000000e+00,
             2.5000000000000000e+00, 2.5000000000000000e+00,
             2.5000000000000000e+00, 2.5000000000000000e+00,
             2.5000000000000000e+00, 2.5000000000000000e+00,
             2.5000000000000000e+00, 2.5000000000000000e+00,
             2.5000000000000000e+00, 2.5000000000000000e+00,
             2.5000000000000000e+00, 2.5000000000000000e+00,
             2.5000000000000000e+00, 2.5000000000000000e+00,
             2.5000000000000000e+00, 2.5000000000000000e+00,
             2.5000000000000000e+00, 2.5000000000000000e+00,
             2.5000000000000000e+00, 2.5000000000000000e+00,
             2.5000000000000000e+00, 2.5000000000000000e+00,
             2.5000000000000000e+00, 2.5000000000000000e+00,
             2.5000000000000000e+00, 2.5000000000000000e+00,
             2.5000000000000000e+00, 2.5000000000000000e+00,
             2.5000000000000000e+00, 2.5000000000000000e+00,
             2.5000000000000000e+00, 2.5000000000000000e+00,
             2.5000000000000000e+00, 2.5000000000000000e+00,
             2.5000000000000000e+00, 2.5000000000000000e+00,
             2.5000000000000000e+00, 2.5000000000000000e+00,
             2.5000000000000000e+00, 2.5000000000000000e+00,
             2.5000000000000000e+00, 2.5000000000000000e+00,
             2.5000000000000000e+00, 2.5000000000000000e+00,
             2.5000000000000000e+00, 2.5000000000000000e+00,
             2.5000000000000000e+00, 2.5000000000000000e+00,
             2.5000000000000000e+00, 2.5000000000000000e+00,
             2.5000000000000000e+00, 2.5000000000000000e+00,
             2.5000000000000000e+00, 2.5000000000000000e+00,
             2.5000000000000000e+00, 2.5000000000000000e+00,
             2.5000000000000000e+00, 2.5000000000000000e+00,
             2.5000000000000000e+00, 2.5000000000000000e+00,
             2.5000000000000000e+00, 2.5000000000000000e+00,
             2.5000000000000000e+00, 2.5000000000000000e+00,
             2.5000000000000000e+00, 2.5000000000000000e+00,
             2.5000000000000000e+00, 2.5000000000000000e+00,
             2.5000000000000000e+00, 2.5000000000000000e+00,
             2.5000000000000000e+00, 2.5000000000000000e+00,
             2.5000000000000000e+00, 2.5000000000000000e+00,
             2.5000000000000000e+00, 2.5000000000000000e+00,
             2.5000000000000000e+00, 2.5000000000000000e+00,
             2.5000000000000000e+00, 2.5000000000000000e+00,
             2.5000000000000000e+00, 2.5000000000000000e+00,
             2.5000000000000000e+00, 2.5000000000000000e+00,
             2.5000000000000000e+00, 2.5000000000000000e+00,
             2.5000000000000000e+00, 2.5000000000000000e+00,
             2.5000000000000000e+00, 2.5000000000000000e+00,
             2.5000000000000000e+00, 2.5000000000000000e+00,
             2.5000000000000000e+00, 2.5000000000000000e+00,
             2.5000000000000000e+00, 2.5000000000000000e+00,
             2.5000000000000000e+00, 2.5000000000000000e+00,
             2.5000000000000000e+00, 2.5000000000000000e+00,
             2.5000000000000000e+00, 2.5000000000000000e+00,
             2.5000000000000000e+00, 2.5000000000000000e+00,
             2.5000000000000000e+00, 2.5000000000000000e+00,
             2.5000000000000000e+00, 2.5000000000000000e+00,
             2.5000000000000000e+00, 2.5000000000000000e+00,
             2.5000000000000000e+00, 2.5000000000000000e+00,
             2.5000000000000000e+00, 2.5000000000000000e+00,
             2.5000000000000000e+00, 2.5000000000000000e+00,
             2.5000000000000000e+00, 2.5000000000000000e+00,
             2.5000000000000000e+00, 2.5000000000000000e+00,
             2.5000000000000000e+00, 2.5000000000000000e+00,
             2.5000000000000000e+00, 2.5000000000000000e+00,
             2.5000000000000000e+00, 2.5000000000000000e+00,
             2.5000000000000000e+00, 2.5000000000000000e+00,
             2.5000000000000000e+00, 2.5000000000000000e+00,
             2.5000000000000000e+00, 2.5000000000000000e+00,
             2.5000000000000000e+00, 2.5000000000000000e+00,
             2.5000000000000000e+00, 2.5000000000000000e+00,
             2.5000000000000000e+00, 2.5000000000000000e+00,
             2.5000000000000000e+00, 2.5000000000000000e+00,
             2.5000000000000000e+00, 2.5000000000000000e+00,
             2.5000000000000000e+00, 2.5000000000000000e+00,
             2.5000000000000000e+00, 2.5000000000000000e+00,
             2.5000000000000000e+00, 2.5000000000000000e+00,
             2.5000000000000000e+00, 2.5000000000000000e+00,
             2.5000000000000000e+00, 2.5000000000000000e+00,
             2.5000000000000000e+00, 2.5000000000000000e+00,
             2.5000000000000000e+00, 2.5000000000000000e+00,
             2.5000000000000000e+00, 2.5000000000000000e+00,
             2.5000000000000000e+00, 2.5000000000000000e+00,
             2.5000000000000000e+00, 2.5000000000000000e+00,
             2.5000000000000000e+00, 2.5000000000000000e+00,
             2.5000000000000000e+00, 2.5000000000000000e+00,
             2.5000000000000000e+00, 2.5000000000000000e+00,
             2.5000000000000000e+00, 2.5000000000000000e+00,
             2.5000000000000000e+00, 2.5000000000000000e+00,
             2.5000000000000000e+00, 2.5000000000000000e+00,
             2.5000000000000000e+00, 2.5000000000000000e+00,
             2.5000000000000000e+00, 2.5000000000000000e+00,
             2.5000000000000000e+00, 2.5000000000000000e+00,
             2.5000000000000000e+00, 2.5000000000000000e+00,
             2.5000000000000000e+00, 2.5000000000000000e+00,
             2.5000000000000000e+00, 2.5000000000000000e+00,
             2.5000000000000000e+00, 2.5000000000000000e+00,
             2.5000000000000000e+00, 2.5000000000000000e+00,
             2.5000000000000000e+00, 2.5000000000000000e+00,
             2.5000000000000000e+00, 2.5000000000000000e+00,
             2.5000000000000000e+00, 2.5000000000000000e+00,
             2.5000000000000000e+00, 2.5000000000000000e+00,
             2.5000000000000000e+00, 2.5000000000000000e+00,
             2.5000000000000000e+00, 2.5000000000000000e+00,
             2.5000000000000000e+00, 2.5000000000000000e+00,
             2.5000000000000000e+00, 2.5000000000000000e+00,
             2.5000000000000000e+00, 2.5000000000000000e+00,
             2.5000000000000000e+00, 2.5000000000000000e+00,
             2.5000000000000000e+00, 2.5000000000000000e+00,
             2.5000000000000000e+00, 2.5000000000000000e+00,
             2.5000000000000000e+00, 2.5000000000000000e+00,
             2.5000000000000000e+00, 2.5000000000000000e+00,
             2.5000000000000000e+00, 2.5000000000000000e+00,
             2.5000000000000000e+00, 2.5000000000000000e+00,
             2.5000000000000000e+00, 2.5000000000000000e+00,
             2.5000000000000000e+00, 2.5000000000000000e+00,
             2.5000000000000000e+00, 2.5000000000000000e+00,
             2.5000000000000000e+00, 2.5000000000000000e+00,
             2.5000000000000000e+00, 2.5000000000000000e+00,
             2.5000000000000000e+00, 2.5000000000000000e+00,
             2.5000000000000000e+00, 2.5000000000000000e+00,
             2.5000000000000000e+00, 2.5000000000000000e+00,
             2.5000000000000000e+00, 2.5000000000000000e+00,
             2.5000000000000000e+00, -2.5000000000000000e+00,
             -2.5000000000000000e+00, -2.5000000000000000e+00,
             -2.5000000000000000e+00, -2.5000000000000000e+00,
             -2.5000000000000000e+00, -2.5000000000000000e+00,
             -2.5000000000000000e+00, -2.5000000000000000e+00,
             -2.5000000000000000e+00, -7.5240155580521412e-02,
             -2.5000000000000000e+00, -2.5000000000000000e+00,
             -2.5000000000000000e+00, -2.5000000000000000e+00,
             -2.5000000000000000e+00, -2.5000000000000000e+00,
             -2.5000000000000000e+00, -2.5000000000000000e+00,
             -2.5000000000000000e+00, -2.5000000000000000e+00,
             -2.5000000000000000e+00, -2.5000000000000000e+00,
             -2.5000000000000000e+00, -2.5000000000000000e+00,
             -2.5000000000000000e+00, -2.5000000000000000e+00,
             -2.5000000000000000e+00, -2.5000000000000000e+00,
             -2.5000000000000000e+00, -2.5000000000000000e+00,
             -2.5000000000000000e+00, -2.5000000000000000e+00,
             -2.5000000000000000e+00, -2.5000000000000000e+00,
             -2.5000000000000000e+00, -2.5000000000000000e+00,
             -2.5000000000000000e+00, -2.5000000000000000e+00,
             -2.5000000000000000e+00, -2.5000000000000000e+00,
             -2.5000000000000000e+00, -2.5000000000000000e+00,
             -2.5000000000000000e+00, -2.5000000000000000e+00,
             -2.5000000000000000e+00, -2.5000000000000000e+00,
             -2.5000000000000000e+00, -2.5000000000000000e+00,
             -2.5000000000000000e+00, -2.5000000000000000e+00,
             -2.5000000000000000e+00, -2.5000000000000000e+00,
             -2.5000000000000000e+00, -2.5000000000000000e+00,
             -2.5000000000000000e+00, -2.5000000000000000e+00,
             -2.5000000000000000e+00, -2.5000000000000000e+00,
             -2.5000000000000000e+00, -2.5000000000000000e+00,
             -2.5000000000000000e+00, -2.5000000000000000e+00,
             -2.5000000000000000e+00, -2.5000000000000000e+00,
             -2.5000000000000000e+00, -2.5000000000000000e+00,
             -2.5000000000000000e+00, -2.5000000000000000e+00,
             -2.5000000000000000e+00, -2.5000000000000000e+00,
             -2.5000000000000000e+00, -2.5000000000000000e+00,
             -2.5000000000000000e+00, -2.5000000000000000e+00,
             -2.5000000000000000e+00, -2.5000000000000000e+00,
             -2.5000000000000000e+00, -2.5000000000000000e+00,
             -2.5000000000000000e+00, -2.5000000000000000e+00,
             -2.5000000000000000e+00, -2.5000000000000000e+00,
             -2.5000000000000000e+00, -2.5000000000000000e+00,
             -2.5000000000000000e+00, -2.5000000000000000e+00,
             -2.5000000000000000e+00, -2.5000000000000000e+00,
             -2.5000000000000000e+00, -2.5000000000000000e+00,
             -2.5000000000000000e+00, -2.5000000000000000e+00,
             -2.5000000000000000e+00, -2.5000000000000000e+00,
             -2.5000000000000000e+00, -5.4213800057691747e-02,
             -2.5000000000000000e+00, -2.5000000000000000e+00,
             -2.5000000000000000e+00, -2.5000000000000000e+00,
             -2.5000000000000000e+00, -2.5000000000000000e+00,
             -2.5000000000000000e+00, -2.5000000000000000e+00,
             -2.5000000000000000e+00, -2.5000000000000000e+00,
             -2.5000000000000000e+00, -2.5000000000000000e+00,
             -2.5000000000000000e+00, -2.5000000000000000e+00,
             -2.5000000000000000e+00, -2.5000000000000000e+00,
             -2.5000000000000000e+00, -2.5000000000000000e+00,
             -2.5000000000000000e+00, -2.5000000000000000e+00,
             -2.5000000000000000e+00, -2.5000000000000000e+00,
             -2.5000000000000000e+00, -2.5000000000000000e+00,
             -2.5000000000000000e+00, -2.5000000000000000e+00,
             -2.5000000000000000e+00, -2.5000000000000000e+00,
             -2.5000000000000000e+00, -2.5000000000000000e+00,
             -2.5000000000000000e+00, -2.5000000000000000e+00,
             -2.5000000000000000e+00, -2.5000000000000000e+00,
             -2.5000000000000000e+00, -2.5000000000000000e+00,
             -2.5000000000000000e+00, -2.5000000000000000e+00,
             -2.5000000000000000e+00, -2.5000000000000000e+00,
             -2.5000000000000000e+00, -2.5000000000000000e+00,
             -2.5000000000000000e+00, -2.5000000000000000e+00,
             -2.5000000000000000e+00, -2.5000000000000000e+00,
             -2.5000000000000000e+00, -2.5000000000000000e+00,
             -2.5000000000000000e+00, -2.5000000000000000e+00,
             -2.5000000000000000e+00, -2.5000000000000000e+00,
             -6.2809242555264633e-01, -2.5000000000000000e+00,
             -2.5000000000000000e+00, -2.5000000000000000e+00,
             -2.5000000000000000e+00, -2.5000000000000000e+00,
             -2.5000000000000000e+00, -2.5000000000000000e+00,
             -2.5000000000000000e+00, -2.5000000000000000e+00,
             -2.5000000000000000e+00, -2.5000000000000000e+00,
             -2.5000000000000000e+00, -2.5000000000000000e+00,
             -2.5000000000000000e+00, -2.5000000000000000e+00,
             -2.5000000000000000e+00, -2.5000000000000000e+00,
             -2.5000000000000000e+00, -2.5000000000000000e+00,
             -2.5000000000000000e+00, -2.5000000000000000e+00,
             -2.5000000000000000e+00, -2.5000000000000000e+00,
             -2.5000000000000000e+00, -2.5000000000000000e+00,
             -2.5000000000000000e+00, -2.5000000000000000e+00,
             -2.5000000000000000e+00, -2.5000000000000000e+00,
             -2.5000000000000000e+00, -2.5000000000000000e+00,
             -2.5000000000000000e+00, -2.5000000000000000e+00,
             -2.5000000000000000e+00, -2.5000000000000000e+00,
             -2.5000000000000000e+00, -2.5000000000000000e+00,
             -2.5000000000000000e+00, -2.5000000000000000e+00,
             -2.5000000000000000e+00, -2.5000000000000000e+00,
             -2.5000000000000000e+00, -2.5000000000000000e+00,
             -2.5000000000000000e+00, -2.5000000000000000e+00,
             -2.5000000000000000e+00, -2.5000000000000000e+00,
             -2.5000000000000000e+00, -2.5000000000000000e+00,
             -2.5000000000000000e+00, -2.5000000000000000e+00,
             -2.5000000000000000e+00, -2.5000000000000000e+00,
             -2.5000000000000000e+00, -2.5000000000000000e+00,
             -2.5000000000000000e+00, -2.5000000000000000e+00,
             -2.5000000000000000e+00, -2.5000000000000000e+00,
             -2.5000000000000000e+00, -2.5000000000000000e+00,
             -2.5000000000000000e+00, -2.5000000000000000e+00,
             -2.5000000000000000e+00, -2.5000000000000000e+00,
             -2.5000000000000000e+00, -2.5000000000000000e+00,
             -2.5000000000000000e+00, -2.5000000000000000e+00,
             -2.5000000000000000e+00, -2.5000000000000000e+00,
             -2.5000000000000000e+00, -2.5000000000000000e+00,
             -2.5000000000000000e+00, -2.5000000000000000e+00,
             -2.5000000000000000e+00, -2.5000000000000000e+00,
             -2.5000000000000000e+00, -2.5000000000000000e+00,
             -2.5000000000000000e+00, -2.5000000000000000e+00,
             -2.5000000000000000e+00, -2.5000000000000000e+00,
             -2.5000000000000000e+00, -2.5000000000000000e+00,
             -1.7408622020421973e+00, -2.5000000000000000e+00,
             -2.5000000000000000e+00, -2.5000000000000000e+00,
             -2.5000000000000000e+00, -2.5000000000000000e+00,
             -2.5000000000000000e+00, -2.5000000000000000e+00,
             -2.5000000000000000e+00, -2.5000000000000000e+00,
             -2.5000000000000000e+00, -2.5000000000000000e+00,
             -2.5000000000000000e+00, -2.5000000000000000e+00,
             -2.5000000000000000e+00, -2.5000000000000000e+00,
             -2.5000000000000000e+00, -2.5000000000000000e+00,
             -2.5000000000000000e+00, -2.5000000000000000e+00,
             -2.5000000000000000e+00, -2.5000000000000000e+00,
             -2.5000000000000000e+00, -2.5000000000000000e+00,
             -2.5000000000000000e+00, -2.5000000000000000e+00,
             -2.5000000000000000e+00, -2.5000000000000000e+00,
             -2.5000000000000000e+00, -4.6869964590362617e-01,
             -2.5000000000000000e+00, -2.5000000000000000e+00,
             -2.5000000000000000e+00, -2.5000000000000000e+00,
             -2.5000000000000000e+00, -2.5000000000000000e+00,
             -2.5000000000000000e+00, -2.5000000000000000e+00,
             -2.5000000000000000e+00, -2.5000000000000000e+00,
             -2.5000000000000000e+00, -2.5000000000000000e+00,
             -2.5000000000000000e+00, -2.5000000000000000e+00,
             -2.5000000000000000e+00, -2.5000000000000000e+00,
             -2.5000000000000000e+00, -2.5000000000000000e+00,
             -2.5000000000000000e+00, -2.5000000000000000e+00,
             -2.5000000000000000e+00, -2.5000000000000000e+00,
             -2.5000000000000000e+00, -2.5000000000000000e+00,
             -2.5000000000000000e+00, -2.5000000000000000e+00,
             -2.5000000000000000e+00, -2.5000000000000000e+00,
             -2.5000000000000000e+00, -2.5000000000000000e+00,
             -2.5000000000000000e+00, -2.5000000000000000e+00,
             -2.5000000000000000e+00, -2.5000000000000000e+00,
             -2.5000000000000000e+00, -2.5000000000000000e+00,
             -2.5000000000000000e+00, -1.0661607902924625e-01,
             -2.5000000000000000e+00, -2.5000000000000000e+00,
             -2.5000000000000000e+00, -2.5000000000000000e+00,
             -2.5000000000000000e+00, -2.5000000000000000e+00,
             -2.5000000000000000e+00, -2.5000000000000000e+00,
             -2.5000000000000000e+00, -2.5000000000000000e+00,
             -2.5000000000000000e+00, -2.5000000000000000e+00,
             -2.5000000000000000e+00, -2.5000000000000000e+00,
             -2.5000000000000000e+00, -2.5000000000000000e+00,
             -1.0657434925261644e-01, -2.5000000000000000e+00,
             -2.5000000000000000e+00, -2.5000000000000000e+00,
             -2.5000000000000000e+00, -2.5000000000000000e+00,
             -2.5000000000000000e+00, -2.5000000000000000e+00,
             -2.5000000000000000e+00, -2.5000000000000000e+00,
             -2.5000000000000000e+00, -2.5000000000000000e+00,
             -2.5000000000000000e+00, -2.5000000000000000e+00,
             -2.5000000000000000e+00, -2.5000000000000000e+00,
             -2.5000000000000000e+00, -2.5000000000000000e+00,
             -2.5000000000000000e+00, -2.5000000000000000e+00,
             -2.5000000000000000e+00, -2.5000000000000000e+00,
             -2.5000000000000000e+00, -2.5000000000000000e+00,
             -2.5000000000000000e+00, -2.5000000000000000e+00,
             -2.5000000000000000e+00, -2.5000000000000000e+00,
             -2.5000000000000000e+00, -2.5000000000000000e+00,
             -2.5000000000000000e+00, -2.5000000000000000e+00,
             -2.5000000000000000e+00, -1.5476180483489757e+00,
             -2.5000000000000000e+00, -2.5000000000000000e+00,
             -2.5000000000000000e+00, -2.5000000000000000e+00,
             -2.5000000000000000e+00, -2.5000000000000000e+00,
             -2.5000000000000000e+00, -2.5000000000000000e+00,
             -2.5000000000000000e+00, -2.5000000000000000e+00,
             -2.5000000000000000e+00, -2.5000000000000000e+00,
             -2.5000000000000000e+00, -2.5000000000000000e+00,
             -2.5000000000000000e+00, -2.5000000000000000e+00,
             -2.5000000000000000e+00, -2.5000000000000000e+00,
             -2.5000000000000000e+00, -2.5000000000000000e+00,
             -2.5000000000000000e+00, -2.5000000000000000e+00,
             -2.5000000000000000e+00, -2.5000000000000000e+00,
             -2.5000000000000000e+00, -2.5000000000000000e+00,
             -2.5000000000000000e+00 ]
         index: [ 0, 1, 2, 3, 4, 5, 6, 7, 8, 9, 10, 11, 12, 13, 14, 15,
             16, 17, 18, 19, 20, 21, 22, 23, 24, 25, 26, 27, 28, 29, 30,
             31, 32, 33, 34, 35, 36, 37, 38, 39, 40, 41, 42, 43, 44, 45,
             46, 47, 48, 49, 50, 51, 52, 53, 54, 55, 56, 57, 58, 59, 60,
             61, 62, 63, 64, 65, 66, 67, 68, 69, 70, 71, 72, 73, 74, 75,
             76, 77, 78, 79, 80, 81, 82, 83, 84, 85, 86, 87, 88, 89, 90,
             91, 92, 93, 94, 95, 96, 97, 98, 99, 100, 101, 102, 103, 104,
             105, 106, 107, 108, 109, 110, 111, 112, 113, 114, 115, 116,
             117, 118, 119, 120, 121, 122, 123, 124, 125, 126, 127, 128,
             129, 130, 131, 132, 133, 134, 135, 136, 137, 138, 139, 140,
             141, 142, 143, 144, 145, 146, 147, 148, 149, 150, 151, 152,
             153, 154, 155, 156, 157, 158, 159, 160, 161, 162, 163, 164,
             165, 166, 167, 168, 169, 170, 171, 172, 173, 174, 175, 176,
             177, 178, 179, 180, 181, 182, 183, 184, 185, 186, 187, 188,
             189, 190, 191, 192, 193, 194, 195, 196, 197, 198, 199, 200,
             201, 202, 203, 204, 205, 206, 207, 208, 209, 210, 211, 212,
             213, 214, 215, 216, 217, 218, 219, 220, 221, 222, 223, 224,
             225, 226, 227, 228, 229, 230, 231, 232, 233, 234, 235, 236,
             237, 238, 239, 240, 241, 242, 243, 244, 245, 246, 247, 248,
             249, 250, 251, 252, 253, 254, 255, 256, 257, 258, 259, 260,
             261, 262, 263, 264, 265, 266, 267, 268, 269, 270, 271, 272,
             273, 274, 275, 276, 277, 278, 279, 280, 281, 282, 283, 284,
             285, 286, 287, 288, 289, 290, 291, 292, 293, 294, 295, 296,
             297, 298, 299, 300, 301, 302, 303, 304, 305, 306, 307, 308,
             309, 310, 311, 312, 313, 314, 315, 316, 317, 318, 319, 320,
             321, 322, 323, 324, 325, 326, 327, 328, 329, 330, 331, 332,
             333, 334, 335, 336, 337, 338, 339, 340, 341, 342, 343, 344,
             345, 346, 347, 348, 349, 350, 351, 352, 353, 354, 355, 356,
             357, 358, 359, 360, 361, 362, 363, 364, 365, 366, 367, 368,
             369, 370, 371, 372, 373, 374, 375, 376, 377, 378, 379, 380,
             381, 382, 383, 384, 385, 386, 387, 388, 389, 390, 391, 392,
             393, 394, 395, 396, 397, 398, 399, 400, 401, 402, 403, 404,
             405, 406, 407, 408, 409, 410, 411, 412, 413, 414, 415, 416,
             417, 418, 419, 420, 421, 422, 423, 424, 425, 426, 427, 428,
             429, 430, 431, 432, 433, 434, 435, 436, 437, 438, 439, 440,
             441, 442, 443, 444, 445, 446, 447, 448, 449, 450, 451, 452,
             453, 454, 455, 456, 457, 458, 459, 460, 461, 462, 463, 464,
             465, 466, 467, 468, 469, 470, 471, 472, 473, 474, 475, 476,
             477, 478, 479, 480, 481, 482, 483, 484, 485, 486, 487, 488,
             489, 490, 491, 492, 493, 494, 495, 496, 497, 498, 499, 500,
             501, 502, 503, 504, 505, 506, 507, 508, 509, 510, 511, 512,
             513, 514, 515, 516, 517, 518, 519, 520, 521, 522, 523, 524,
             525, 526, 527, 528, 529, 530, 531, 532, 533, 534, 535, 536,
             537, 538, 539, 540, 541, 542, 543, 544, 545, 546, 547, 548,
             549, 550, 551, 552, 553, 554, 555, 556, 557, 558, 559, 560,
             561, 562, 563, 564, 565, 566, 567, 568, 569, 570, 571, 572,
             573, 574, 575, 576, 577, 578, 579, 580, 581, 582, 583, 584,
             585, 586, 587, 588, 589, 590, 591, 592, 593, 594, 595, 596,
             597, 598, 599, 600, 601, 602, 603, 604, 605, 606, 607, 608,
             609, 610, 611, 612, 613, 614, 615, 616, 617, 618, 619, 620,
             621, 622, 623, 624, 625, 626, 627, 628, 629, 630, 631, 632,
             633, 634, 635, 636, 637, 638, 639, 640, 641, 642, 643, 644,
             645, 646, 647, 648, 649, 650, 651, 652, 653, 654, 655, 656,
             657, 658, 659, 660, 661, 662, 663, 664, 665, 666, 667, 668,
             669, 670, 671, 672, 673, 674, 675, 676, 677, 678, 679, 680,
             681, 682, 683, 684, 685, 686, 687, 688, 689, 690, 691, 692,
             693, 694, 695, 696, 697, 698, 699, 700, 701, 702, 703, 704,
             705, 706, 707, 708, 709, 710, 711, 712, 713, 714, 715, 716,
             717, 718, 719, 720, 721, 722, 723, 724, 725, 726, 727, 728,
             729, 730, 731, 732, 733, 734, 735, 736, 737, 738, 739, 740,
             741, 742, 743, 744, 745, 746, 747, 748, 749, 750, 751, 752,
             753, 754 ]
