%YAML:1.0
my_svm: !!opencv-ml-svm
   svm_type: C_SVC
   kernel: { type:RBF, gamma:3.3750000000000002e-02 }
   C: 2.5000000000000000e+00
   term_criteria: { epsilon:1.1920928955078125e-07, iterations:1000 }
   var_all: 104
   var_count: 104
   class_count: 2
   class_labels: !!opencv-matrix
      rows: 1
      cols: 2
      dt: i
      data: [ 0, 1 ]
   sv_total: 523
   support_vectors:
      - [ 1., 4.95223820e-01, 3.38216931e-01, 3.68137956e-01,
          2.06422016e-01, 6.32337630e-02, 1.24063063e-02, 5.93874753e-02,
          3.71559620e-01, 1.17202625e-02, 3.08786915e-03, 1.04293022e-02,
          3.39449555e-01, 1.00795487e-02, 5.32723870e-03, 8.18596687e-03,
          0., 0., 0., 0., 7.01834857e-01, 1.66496620e-01, 9.53753144e-02,
          1.00528240e-01, 2.66055048e-01, 1.33083686e-01, 2.74519306e-02,
          1.21810995e-01, 7.84403682e-01, 4.38838810e-01, 3.40701163e-01,
          2.80020237e-01, 6.37614667e-01, 5.64285696e-01, 7.26254463e-01,
          3.46957833e-01, 3.85321110e-01, 1.16180263e-01, 3.04309763e-02,
          9.22722220e-02, 5.55045843e-01, 2.96751350e-01, 1.30834103e-01,
          2.71020234e-01, 1., 8.86582613e-01, 3.77821267e-01,
          8.32099319e-01, 9.77064192e-01, 1., 8.57548237e-01, 1.,
          7.29357779e-01, 9.52537060e-01, 1., 9.06977713e-01,
          5.04587173e-01, 5.72208762e-01, 3.88569355e-01, 5.97616732e-01,
          4.86238539e-01, 2.69878894e-01, 1.90557063e-01, 2.24242195e-01,
          1., 9.33629334e-01, 7.43986011e-01, 7.45210052e-01, 1.,
          8.56482089e-01, 8.19564998e-01, 7.07924724e-01, 1.,
          8.60640705e-01, 7.86527932e-01, 6.93939269e-01, 1.,
          6.97048008e-01, 6.20658934e-01, 6.89786911e-01, 7.24770665e-01,
          4.85402167e-01, 4.39793408e-01, 4.01472569e-01, 1.,
          2.81687558e-01, 2.46401593e-01, 1.22542784e-01, 1.,
          2.54767478e-01, 7.46408477e-02, 2.54218072e-01, 5.41284382e-01,
          3.32132995e-01, 1.28394291e-01, 3.15417111e-01, 6.28440380e-01,
          3.57836306e-01, 3.29520375e-01, 2.74201721e-01, 4.90825683e-01,
          2.37392068e-01, 8.05071145e-02, 2.11731747e-01 ]
      - [ 1., 6.45790696e-01, 4.58223671e-01, 6.19958580e-01, 1.,
          7.87948132e-01, 7.17472613e-01, 7.00078011e-01, 5.72519064e-01,
          9.80358779e-01, 1., 8.70837986e-01, 7.86259532e-01,
          8.49181473e-01, 5.77071786e-01, 6.89292550e-01, 8.62595439e-01,
          2.95533836e-01, 1.93503082e-01, 1.52932942e-01, 1.90839693e-01,
          0., 0., 0., 3.05343509e-01, 6.80898607e-01, 6.11078262e-01,
          6.14441872e-01, 4.96183217e-01, 7.42522776e-01, 7.96533525e-01,
          5.84027231e-01, 7.63358772e-01, 8.59657347e-01, 8.34919572e-01,
          8.01192462e-01, 4.58015263e-01, 4.76967961e-01, 4.20716077e-01,
          4.67253804e-01, 2.29007639e-02, 1.10845588e-01, 6.44568726e-02,
          2.10329399e-01, 0., 4.00168717e-01, 2.14337125e-01,
          4.68584836e-01, 2.29007632e-01, 4.42075729e-01, 2.94347018e-01,
          4.88984734e-01, 7.78625965e-01, 7.98717082e-01, 4.40822959e-01,
          8.62776339e-01, 8.85496199e-01, 6.69376314e-01, 3.52578014e-01,
          7.32072890e-01, 1., 3.62394214e-01, 1.57956570e-01,
          4.50920165e-01, 3.05343509e-01, 5.85416436e-01, 3.14265192e-01,
          6.47324085e-01, 4.88549620e-01, 5.59354246e-01, 3.15838754e-01,
          5.87089539e-01, 4.42748100e-01, 7.37354696e-01, 4.22565967e-01,
          8.01466882e-01, 6.33587778e-01, 6.19837344e-01, 3.43108922e-01,
          6.60465121e-01, 8.85496199e-01, 1., 6.68731093e-01, 1.,
          5.19083977e-01, 3.79395127e-01, 2.32146174e-01, 4.16050524e-01,
          4.50381666e-01, 7.27728367e-01, 4.49260890e-01, 7.94692814e-01,
          6.18320584e-01, 7.70910621e-01, 4.93677825e-01, 8.17693055e-01,
          4.19847339e-01, 8.51779342e-01, 6.89894438e-01, 8.42568576e-01,
          6.18320584e-01, 9.57404673e-01, 7.97763228e-01, 9.60501492e-01 ]
      - [ 1., 4.07480806e-01, 2.34089524e-01, 3.69107127e-01,
          6.98689967e-02, 2.88513191e-02, 1.07355639e-02, 3.35000157e-02,
          3.49344984e-02, 2.11341176e-04, 3.56941222e-04, 1.65110896e-03,
          3.49344984e-02, 0., 0., 0., 0., 2.28406861e-02, 4.77408199e-03,
          3.37041616e-02, 1.74672492e-02, 1.22541692e-02, 3.15611227e-03,
          1.95328891e-02, 1.87772930e-01, 1.66064680e-01, 5.27206734e-02,
          1.77083686e-01, 1.70305684e-01, 8.97836089e-02, 2.68293526e-02,
          9.23140422e-02, 1.22270741e-01, 6.53512105e-02, 1.99691411e-02,
          7.73149729e-02, 8.29694346e-02, 2.74127927e-02, 7.87123386e-03,
          3.34708504e-02, 8.73362422e-02, 3.27489860e-02, 7.95825291e-03,
          3.79822366e-02, 2.62008727e-01, 2.31640756e-01, 7.61175081e-02,
          2.54914641e-01, 3.10043663e-01, 2.24354908e-01, 7.64849260e-02,
          2.45867178e-01, 2.22707421e-01, 2.41730466e-01, 8.20172876e-02,
          2.68803239e-01, 2.18340605e-01, 2.12368160e-01, 6.95600659e-02,
          2.28207499e-01, 4.36681211e-01, 1.40124366e-01, 3.39679308e-02,
          1.27332807e-01, 4.06113535e-01, 6.70038760e-01, 3.51692349e-01,
          7.46130764e-01, 5.45851529e-01, 6.31823599e-01, 2.78835714e-01,
          7.46716261e-01, 3.23144108e-01, 5.09019077e-01, 1.96115464e-01,
          6.21519148e-01, 4.23580796e-01, 5.13162136e-01, 2.40646020e-01,
          5.77470899e-01, 3.14410478e-01, 3.05449516e-01, 1.25132352e-01,
          3.75737220e-01, 4.27947611e-01, 8.48339677e-01, 1.,
          8.08872938e-01, 5.93886435e-01, 9.02436554e-01, 8.24942291e-01,
          9.05559242e-01, 5.41484714e-01, 1., 9.41892684e-01, 1., 1.,
          9.41397786e-01, 8.08775187e-01, 9.62468684e-01, 5.85152864e-01,
          8.45992327e-01, 5.69262683e-01, 9.01519001e-01 ]
      - [ 1., 5.04514575e-01, 2.97476560e-01, 4.12725806e-01,
          7.86610901e-01, 4.26731676e-01, 3.11015278e-01, 2.97373265e-01,
          5.89958131e-01, 2.05598310e-01, 1.07593082e-01, 9.44819823e-02,
          8.36820062e-03, 3.21014063e-03, 0., 2.83252308e-03, 0.,
          5.13417879e-03, 1.05597268e-04, 5.55922044e-03, 4.18410031e-03,
          7.40731787e-03, 2.94155179e-04, 9.25185811e-03, 1.,
          5.88043451e-01, 5.93682945e-01, 4.06075299e-01, 9.16317999e-01,
          3.00796330e-01, 1.75052270e-01, 1.52324677e-01, 7.07112968e-01,
          4.70054299e-02, 6.30934909e-03, 8.84319097e-03, 0., 0.,
          6.04425113e-05, 0., 2.09205020e-02, 3.82401049e-03,
          1.18676791e-04, 6.34840922e-03, 5.77405870e-01, 6.14421248e-01,
          4.00505632e-01, 7.35305429e-01, 7.78242707e-01, 5.69531858e-01,
          5.27615547e-01, 4.09386277e-01, 1., 1., 1., 8.59115720e-01, 1.,
          8.35232198e-01, 6.00307345e-01, 6.34477317e-01, 9.53974903e-01,
          5.13258219e-01, 3.28230590e-01, 3.50310832e-01, 6.27615035e-01,
          5.15046000e-01, 2.87389725e-01, 5.63156486e-01, 9.49790776e-01,
          6.21722162e-01, 3.84825647e-01, 6.46395087e-01, 9.95815873e-01,
          7.79802322e-01, 5.03110826e-01, 8.34654272e-01, 1.,
          8.44031096e-01, 4.90849584e-01, 1., 1., 6.25484467e-01,
          3.08930963e-01, 7.47277260e-01, 4.97907937e-01, 4.38966811e-01,
          2.39319116e-01, 5.36238492e-01, 6.86192453e-01, 4.83615756e-01,
          3.21110427e-01, 5.78069985e-01, 7.65690386e-01, 5.07545948e-01,
          3.56784344e-01, 5.91248691e-01, 6.86192453e-01, 4.95955735e-01,
          3.27261657e-01, 5.76896906e-01, 5.77405870e-01, 3.40464711e-01,
          1.37992412e-01, 3.27568471e-01 ]
      - [ 1., 3.85655671e-01, 2.28679240e-01, 3.34255666e-01, 1., 1., 1.,
          8.99480641e-01, 1., 9.87890065e-01, 9.14950311e-01, 1.,
          9.54545438e-01, 7.80246973e-01, 6.13888681e-01, 8.76822352e-01,
          1., 6.37042046e-01, 5.56848288e-01, 6.56350791e-01, 1.,
          4.67183948e-01, 4.44087356e-01, 4.93735760e-01, 1.,
          6.24576628e-01, 4.34595764e-01, 7.06783593e-01, 1.,
          4.75254506e-01, 2.67296463e-01, 5.52437365e-01, 7.44318187e-01,
          3.46487105e-01, 1.56668335e-01, 4.48355347e-01, 6.42045438e-01,
          3.52097034e-01, 2.39963993e-01, 3.65815490e-01, 6.25000000e-01,
          4.50384021e-01, 3.67613375e-01, 4.74359900e-01, 9.94318187e-01,
          2.31209621e-01, 7.25516602e-02, 2.14170843e-01, 6.36363626e-01,
          3.17101836e-01, 1.54621050e-01, 3.10152620e-01, 6.76136374e-01,
          2.71626323e-01, 1.08382374e-01, 2.97341675e-01, 4.94318187e-01,
          2.35075429e-01, 1.24508932e-01, 2.59824604e-01, 4.37500000e-01,
          1.81911349e-01, 1.05622269e-01, 1.81337133e-01, 2.21590906e-01,
          0., 0., 0., 2.95454532e-01, 3.26418579e-02, 9.54710972e-03,
          6.10387251e-02, 4.14772719e-01, 5.28035387e-02, 1.10399723e-02,
          8.20774511e-02, 5.05681813e-01, 4.70735058e-02, 9.34772845e-03,
          6.37972653e-02, 2.04545453e-01, 6.85283244e-02, 1.87510327e-02,
          9.58473831e-02, 2.44318187e-01, 4.19169590e-02, 9.78848338e-03,
          6.33075163e-02, 0., 1.53625514e-02, 9.91278328e-03,
          3.02801821e-02, 7.38636330e-02, 3.38617200e-03, 5.78961242e-03,
          2.54510250e-02, 8.52272734e-02, 2.19426639e-02, 1.04087656e-02,
          4.92482930e-02, 3.57954532e-01, 1.30600154e-01, 5.43875135e-02,
          2.20560372e-01 ]
      - [ 1., 5.03229916e-01, 3.32272708e-01, 4.33677793e-01, 1.,
          3.79093811e-02, 1.34941461e-02, 1.16866743e-02, 0., 0., 0., 0.,
          4.92537320e-01, 1.33308724e-01, 6.99744895e-02, 4.99866828e-02,
          1., 1.70695409e-01, 9.31866989e-02, 9.13411006e-02,
          8.35820913e-01, 7.28059560e-02, 2.97977161e-02, 7.69906957e-03,
          1., 5.31535923e-01, 2.61832535e-01, 5.38489997e-01, 1.,
          6.87315822e-01, 6.30793154e-01, 7.57089972e-01, 1.,
          7.72753716e-01, 8.15853536e-01, 8.95335793e-01, 1.,
          6.47428930e-01, 1., 6.22004211e-01, 9.10447776e-01,
          4.60400194e-01, 2.27654979e-01, 4.63410109e-01, 1., 1.,
          8.86688292e-01, 1., 1., 8.89294624e-01, 9.58938897e-01,
          9.59339023e-01, 1., 7.29684651e-01, 4.50275332e-01,
          8.58209610e-01, 1., 9.10841763e-01, 9.94365096e-01,
          8.54613602e-01, 1., 8.51460814e-01, 6.38061762e-01,
          8.53390932e-01, 1., 4.35504645e-01, 2.40503982e-01,
          4.13142860e-01, 1., 3.02512139e-01, 1.26361191e-01,
          2.71766245e-01, 8.50746274e-01, 2.27973506e-01, 3.67302932e-02,
          2.10506648e-01, 1., 2.80592144e-01, 5.17018884e-02,
          2.48542055e-01, 1., 4.86608028e-01, 3.70490134e-01,
          4.48262364e-01, 1., 5.15768170e-01, 1.82861507e-01,
          5.11712432e-01, 1., 3.18916589e-01, 1.19536787e-01,
          3.15854520e-01, 6.86567187e-01, 2.06975922e-01, 3.98069546e-02,
          2.03325227e-01, 3.58208954e-01, 1.48315609e-01, 2.52684671e-02,
          1.55299053e-01, 1., 1.40518665e-01, 2.15534717e-02,
          1.42607257e-01 ]
      - [ 1., 5.23178339e-01, 3.32572222e-01, 4.72225010e-01, 1.,
          4.46820110e-01, 2.07536891e-01, 3.80550683e-01, 1.,
          4.50304568e-01, 2.01633453e-01, 4.86560851e-01, 8.50746274e-01,
          5.69139361e-01, 2.40710929e-01, 6.49194121e-01, 0.,
          2.55143493e-01, 8.06356370e-02, 3.40182483e-01, 1., 1.,
          4.17071968e-01, 1., 4.32835817e-01, 0., 1.26940027e-01, 0., 1.,
          2.63433188e-01, 3.58482242e-01, 6.60264343e-02, 1.,
          4.82960939e-01, 2.97869653e-01, 2.31372491e-01, 1.,
          4.68471795e-01, 1.40534699e-01, 4.27650034e-01, 1.,
          7.59637296e-01, 1.47176936e-01, 7.66067028e-01, 1.,
          7.08059847e-01, 6.37356281e-01, 3.84146929e-01, 1.,
          4.58749771e-01, 7.73402691e-01, 2.03152344e-01, 1.,
          4.05530691e-01, 5.11121392e-01, 1.99956477e-01, 1.,
          5.17401099e-01, 4.93608415e-01, 2.42505044e-01, 1.,
          4.44011539e-01, 4.04789716e-01, 3.59972715e-01, 1.,
          4.90103722e-01, 2.66019136e-01, 4.78992641e-01, 1.,
          6.78404331e-01, 4.12897915e-01, 7.04485536e-01, 1.,
          9.03760314e-01, 1., 7.67731011e-01, 1., 6.36308134e-01,
          6.00636840e-01, 6.21117592e-01, 1., 6.41536176e-01,
          6.17540300e-01, 6.77582562e-01, 7.16417909e-01, 2.31289431e-01,
          0., 3.80275041e-01, 5.22388041e-01, 5.10602295e-01,
          1.03196912e-01, 6.64435029e-01, 4.47761208e-01, 4.79457885e-01,
          1.38346687e-01, 6.33925676e-01, 5.22388041e-01, 4.30374086e-01,
          6.05589524e-02, 5.78548729e-01, 3.43283594e-01, 4.13323045e-01,
          5.55490553e-02, 5.85970461e-01 ]
      - [ 1., 5.33183753e-01, 4.00476485e-01, 5.15529931e-01, 1.,
          2.17947111e-01, 1.21618219e-01, 3.01988244e-01, 1.,
          2.48666823e-01, 1.49485961e-01, 2.06380874e-01, 1.,
          2.37508133e-01, 1.52518332e-01, 1.83107078e-01, 1.,
          2.59225845e-01, 1.80421054e-01, 2.19500229e-01, 1., 0., 0., 0.,
          1., 3.41618240e-01, 2.01881319e-01, 3.46505791e-01, 1.,
          3.98697406e-01, 2.92164236e-01, 3.70849639e-01, 1.,
          9.06502545e-01, 7.15628326e-01, 8.75047565e-01, 1.,
          7.29296207e-01, 4.98630941e-01, 6.01569116e-01, 1.,
          3.33638251e-01, 1.97394252e-01, 3.36137533e-01, 1.,
          6.87852025e-01, 4.95251089e-01, 8.88358712e-01, 1.,
          6.45486176e-01, 5.04243791e-01, 8.62568557e-01, 1.,
          7.93339312e-01, 6.36372685e-01, 9.86098826e-01, 1., 1.,
          8.04921687e-01, 1., 1., 5.87258220e-01, 3.87878120e-01,
          8.64425659e-01, 1., 5.56635261e-01, 5.68666220e-01,
          6.51238859e-01, 1., 8.00023079e-01, 1., 8.01796973e-01, 1.,
          7.09913850e-01, 6.72377348e-01, 7.50590861e-01, 1.,
          2.51852870e-01, 1.10075623e-01, 3.28709036e-01, 1.,
          1.59741789e-01, 5.29643670e-02, 2.45295614e-01, 1.,
          4.02971327e-01, 2.95115858e-01, 4.45062310e-01, 1.,
          4.29255426e-01, 3.84290457e-01, 3.17943573e-01, 1.,
          6.59929752e-01, 7.51693070e-01, 4.80041683e-01, 1.,
          5.16427696e-01, 5.19207656e-01, 4.31654751e-01, 1.,
          4.02802497e-01, 2.83374488e-01, 4.70148176e-01 ]
      - [ 1., 6.21152163e-01, 4.51055169e-01, 5.77154934e-01,
          3.91304344e-01, 5.79951644e-01, 2.79124886e-01, 5.73586881e-01,
          8.69565234e-02, 6.81702852e-01, 2.75912941e-01, 7.31280684e-01,
          0., 7.28867352e-01, 5.74514806e-01, 7.66310036e-01,
          1.88405797e-01, 6.29469812e-01, 2.61907130e-01, 6.64655149e-01,
          2.89855063e-01, 6.96958184e-01, 2.65911162e-01, 6.95322692e-01,
          4.92753625e-01, 9.42080081e-01, 5.44198513e-01, 9.16094780e-01,
          2.75362313e-01, 8.23882699e-01, 8.22459996e-01, 7.81682849e-01,
          1., 7.59161890e-01, 1., 6.99334323e-01, 3.76811594e-01,
          6.23220682e-01, 6.01405323e-01, 6.13948524e-01, 4.49275374e-01,
          8.68267715e-01, 4.99811947e-01, 9.11609352e-01, 2.60869563e-01,
          7.97739446e-01, 5.12542009e-01, 7.26106346e-01, 5.65217376e-01,
          4.96560663e-01, 5.06232381e-01, 4.20778185e-01, 7.82608688e-01,
          6.04887664e-01, 5.59607565e-01, 5.22967815e-01, 2.46376812e-01,
          6.01425707e-01, 4.34303492e-01, 5.92685819e-01, 1.01449274e-01,
          6.89604640e-01, 2.79148161e-01, 6.89674437e-01, 7.39130437e-01,
          4.51971173e-01, 2.59449929e-01, 3.34003210e-01, 7.39130437e-01,
          2.15491638e-01, 3.52185369e-01, 1.66525841e-01, 9.27536249e-01,
          4.06861961e-01, 7.07828462e-01, 3.20929289e-01, 2.60869563e-01,
          4.11287397e-01, 3.61285716e-01, 3.90030712e-01, 3.47826093e-01,
          6.85293376e-01, 3.52151215e-01, 6.57788992e-01, 8.98550749e-01,
          8.00306380e-01, 6.89194262e-01, 6.77527308e-01, 3.76811594e-01,
          0., 0., 0., 5.36231875e-01, 2.71965802e-01, 2.64344215e-02,
          2.43406907e-01, 2.46376812e-01, 4.35034186e-01, 1.74889728e-01,
          4.09784317e-01, 0., 1., 8.92637134e-01, 1. ]
      - [ 1., 4.45574790e-01, 4.10765171e-01, 3.94771636e-01,
          2.23076925e-01, 1.29746228e-01, 3.66911322e-01, 1.42903298e-01,
          1.76923081e-01, 4.81432050e-01, 5.65869451e-01, 4.38485146e-01,
          3.30769241e-01, 4.76974368e-01, 1., 3.99224281e-01,
          3.84615399e-02, 1.94407657e-01, 1.28778920e-01, 1.83583930e-01,
          5.46153843e-01, 1., 5.29036224e-01, 1., 8.30769241e-01, 0.,
          1.74741492e-01, 0., 1.23076923e-01, 4.74673986e-01,
          6.80118978e-01, 4.20763522e-01, 5.07692337e-01, 2.03077167e-01,
          3.47230807e-02, 1.88020587e-01, 3.84615391e-01, 2.47908607e-01,
          2.34602168e-01, 1.78484708e-01, 3.76923084e-01, 7.76287079e-01,
          5.86219847e-01, 7.54578114e-01, 5.46153843e-01, 2.27979258e-01,
          5.62560201e-01, 1.54665127e-01, 1., 4.60205942e-01,
          8.05809140e-01, 3.66510719e-01, 3.07692319e-01, 1.18077777e-01,
          0., 1.21295534e-01, 0., 1.82078943e-01, 1.60455510e-01,
          1.47757739e-01, 2.69230783e-01, 7.18095541e-01, 3.50756884e-01,
          7.72335589e-01, 2.53846169e-01, 3.24742913e-01, 4.70967740e-01,
          2.89834201e-01, 2.38461539e-01, 4.33732450e-01, 5.31630576e-01,
          3.82649362e-01, 7.15384603e-01, 3.33532929e-01, 8.37513059e-02,
          3.30407113e-01, 3.46153855e-01, 2.16959342e-01, 2.62384683e-01,
          1.58889636e-01, 3.46153855e-01, 8.96476090e-01, 4.25326198e-01,
          9.95493710e-01, 4.69230771e-01, 5.76923907e-01, 5.80085754e-01,
          5.45116186e-01, 7.69230798e-02, 3.57453495e-01, 3.01281810e-01,
          3.25510234e-01, 2.46153846e-01, 4.89692867e-01, 4.65584278e-01,
          4.70643848e-01, 2.84615397e-01, 3.17498654e-01, 5.69663167e-01,
          2.33246654e-01, 7.15384603e-01, 8.59776139e-01, 3.92500252e-01,
          8.93430948e-01 ]
      - [ 1., 6.32775903e-01, 4.13049161e-01, 5.23828745e-01,
          7.17299581e-02, 6.38830438e-02, 4.33065416e-03, 7.68044963e-02,
          7.17299581e-02, 5.88591769e-02, 3.78914829e-03, 6.90738484e-02,
          9.28270072e-02, 5.21243960e-02, 3.19207180e-03, 6.08661883e-02,
          5.90717308e-02, 3.05163506e-02, 1.70951360e-03, 3.29934880e-02,
          0., 0., 0., 0., 1.43459916e-01, 6.61886558e-02, 4.48112097e-03,
          7.84160793e-02, 4.97890294e-01, 6.24140874e-02, 4.83050523e-03,
          7.02126548e-02, 3.96624476e-01, 5.41623086e-02, 3.15160444e-03,
          5.21580391e-02, 4.05063301e-01, 5.28213307e-02, 1.50945317e-03,
          3.29176448e-02, 4.93670881e-01, 2.96796300e-02, 8.04301002e-04,
          1.08155990e-02, 1., 7.21572995e-01, 6.19545043e-01,
          7.22755194e-01, 1., 1., 1., 1., 1., 8.58291507e-01,
          7.13696241e-01, 9.04546857e-01, 1., 7.59101748e-01,
          5.01291037e-01, 8.47702265e-01, 1., 6.80270553e-01,
          3.48649949e-01, 8.94942403e-01, 1., 8.28372955e-01,
          7.09708989e-01, 8.86243880e-01, 1., 9.01792407e-01,
          7.79197395e-01, 9.96526182e-01, 1., 9.51990068e-01,
          8.06660056e-01, 9.96240914e-01, 1., 8.83983195e-01,
          7.19243824e-01, 9.26451743e-01, 1., 7.55453646e-01,
          5.40363967e-01, 7.59025753e-01, 1., 8.67011249e-01,
          6.65295959e-01, 7.85438597e-01, 1., 7.36654699e-01,
          5.60114563e-01, 6.85559928e-01, 1., 8.56680512e-01,
          8.18589151e-01, 7.41445065e-01, 1., 8.76278520e-01,
          9.05559838e-01, 7.59567440e-01, 1., 7.41151512e-01,
          5.91902077e-01, 7.37620950e-01 ]
      - [ 1., 5.27028501e-01, 3.94320637e-01, 4.05060232e-01,
          4.54545468e-02, 0., 0., 0., 3.40909101e-02, 1.66555755e-02,
          3.55893455e-04, 1.71966683e-02, 8.63636374e-01, 1.82427108e-01,
          7.59336278e-02, 1.02217086e-01, 4.37500000e-01, 2.17030361e-01,
          3.44826669e-01, 1.30450383e-01, 0., 1.36973355e-02,
          1.03834132e-03, 2.12066285e-02, 3.63636374e-01, 2.72583246e-01,
          5.10936528e-02, 1.84685111e-01, 5.90909064e-01, 7.92840660e-01,
          2.72902668e-01, 7.59943128e-01, 7.04545438e-01, 7.33111262e-01,
          3.13929677e-01, 7.57593870e-01, 4.71590906e-01, 5.90945482e-01,
          2.99685776e-01, 6.53367817e-01, 5.96590936e-01, 1.51498765e-01,
          1.74250767e-01, 7.21410587e-02, 6.76136374e-01, 5.42174757e-01,
          3.13604146e-01, 5.06196976e-01, 4.94318187e-01, 9.23060119e-01,
          3.70477706e-01, 1., 4.71590906e-01, 8.77086163e-01,
          4.81288970e-01, 8.89125884e-01, 3.52272719e-01, 5.73948383e-01,
          4.28795338e-01, 5.60377598e-01, 5.22727251e-01, 3.12559068e-01,
          5.70739090e-01, 1.27905905e-01, 3.92045468e-01, 3.90415996e-01,
          2.63279110e-01, 3.67447019e-01, 4.82954532e-01, 7.50926197e-01,
          6.40151560e-01, 6.81184292e-01, 3.12500000e-01, 7.46425211e-01,
          6.25761390e-01, 6.84379101e-01, 3.35227281e-01, 5.87516308e-01,
          6.29014373e-01, 5.63263714e-01, 5.79545438e-01, 5.23176908e-01,
          9.37547028e-01, 3.16970319e-01, 8.06818187e-01, 3.34427685e-01,
          3.57105762e-01, 2.31468439e-01, 9.54545438e-01, 1., 1.,
          4.80059683e-01, 1., 8.87366533e-01, 7.76037097e-01,
          4.79861826e-01, 7.15909064e-01, 4.86056775e-01, 4.16037887e-01,
          3.34810674e-01, 4.09090906e-01, 3.44470531e-01, 5.04060030e-01,
          3.15999478e-01 ]
      - [ 1., 5.05444944e-01, 1.95634693e-01, 4.55416530e-01, 1.,
          3.53322834e-01, 8.92342627e-02, 3.67769569e-01, 1., 0., 0., 0.,
          1., 1.92588210e-01, 7.28620067e-02, 2.00077116e-01, 1.,
          5.44869483e-01, 1.18648671e-01, 4.95809048e-01, 1.,
          8.83674622e-01, 2.81427294e-01, 8.92848372e-01, 1.,
          5.81215136e-02, 2.29525249e-02, 5.94314486e-02, 1.,
          1.20180026e-01, 5.87192886e-02, 1.02260627e-01, 1.,
          1.96190879e-01, 5.81432395e-02, 2.12238267e-01, 1.,
          2.53051549e-01, 6.81767017e-02, 2.65540779e-01, 1.,
          3.91815275e-01, 1.03660159e-01, 3.61515731e-01, 1.,
          4.39280689e-01, 1.45843223e-01, 3.80566806e-01, 1.,
          5.45016348e-01, 3.82437974e-01, 5.36284328e-01, 1.,
          5.58642685e-01, 2.63006449e-01, 5.49912214e-01, 1.,
          4.29747790e-01, 3.01534176e-01, 3.96404445e-01, 1.,
          5.52469492e-01, 1.79212004e-01, 4.97911274e-01, 1.,
          7.68683672e-01, 2.05466077e-01, 7.58259535e-01, 1.,
          5.76958358e-01, 3.78533065e-01, 5.80522597e-01, 1.,
          6.31432950e-01, 1., 4.73594993e-01, 1., 4.46240515e-01,
          1.02900036e-01, 4.57183748e-01, 1., 8.40954363e-01,
          2.37184525e-01, 8.40298474e-01, 1., 8.02515447e-01,
          2.08962530e-01, 7.72148132e-01, 1., 5.77338219e-01,
          1.81732699e-01, 5.50741076e-01, 1., 1.61896572e-01,
          8.74967948e-02, 2.42107451e-01, 1., 3.70508879e-01,
          9.08443779e-02, 4.28691804e-01, 1., 1., 2.41987497e-01, 1. ]
      - [ 1., 4.52748656e-01, 2.17664704e-01, 3.22800845e-01, 1.,
          6.45608246e-01, 4.87132460e-01, 2.70954281e-01, 1.,
          8.76417279e-01, 1., 2.86429256e-01, 1., 1., 5.62027514e-01, 1.,
          1., 7.07750916e-01, 3.66574049e-01, 7.42165267e-01, 1.,
          6.23088002e-01, 2.51814753e-01, 7.49147654e-01, 1.,
          7.13189781e-01, 4.66978937e-01, 7.97051191e-01, 1.,
          6.61382973e-01, 4.74876791e-01, 5.63876688e-01, 9.59999979e-01,
          7.30986476e-01, 4.01098967e-01, 7.97727346e-01, 8.11428547e-01,
          5.63574433e-01, 2.73077220e-01, 6.07074976e-01, 8.00000012e-01,
          4.41250294e-01, 1.79619968e-01, 4.59491730e-01, 1.,
          3.20851564e-01, 1.58658102e-01, 2.22472176e-01, 7.31428564e-01,
          1.34491146e-01, 3.28160673e-02, 7.59773031e-02, 7.48571455e-01,
          3.97993475e-01, 1.93126664e-01, 3.14111352e-01, 8.22857141e-01,
          3.67555529e-01, 1.97941348e-01, 2.82384962e-01, 6.39999986e-01,
          3.72244626e-01, 2.07624808e-01, 3.13035339e-01, 2.68571436e-01,
          7.78034106e-02, 2.09814962e-02, 5.91803379e-02, 2.85714298e-01,
          5.30441105e-02, 1.07579865e-02, 4.45312634e-02, 3.77142847e-01,
          3.09663992e-02, 1.03390031e-02, 2.46670633e-03, 8.28571439e-01,
          9.03433114e-02, 2.09960658e-02, 6.35077283e-02, 5.71428597e-01,
          1.60603538e-01, 3.75927426e-02, 1.54965505e-01, 0., 0., 0., 0.,
          3.88571441e-01, 3.56278904e-02, 4.65054438e-03, 3.24189812e-02,
          3.42857152e-01, 8.84058848e-02, 1.71528235e-02, 9.27275419e-02,
          2.91428566e-01, 9.91722196e-02, 1.69643704e-02, 1.19598843e-01,
          3.48571420e-01, 7.01221302e-02, 1.50644071e-02, 8.75660107e-02 ]
      - [ 1., 5.03283381e-01, 2.93164819e-01, 3.41474801e-01,
          4.91071418e-02, 2.17302106e-02, 1.39361399e-03, 2.47066151e-02,
          4.01785709e-02, 2.08030995e-02, 1.31001440e-03, 2.47889478e-02,
          4.91071418e-02, 1.75899547e-02, 1.09199667e-03, 2.10111998e-02,
          4.01785709e-02, 7.14272913e-03, 4.19134274e-04, 9.13755875e-03,
          0., 0., 0., 0., 1., 6.83175683e-01, 3.36546361e-01,
          3.68327141e-01, 1., 5.51924825e-01, 3.23735535e-01,
          2.66988397e-01, 1., 5.22216141e-01, 3.20925385e-01,
          2.19482452e-01, 1., 6.27797961e-01, 2.94929177e-01,
          1.87170759e-01, 1., 4.28281337e-01, 1.27708465e-01,
          9.66189504e-02, 1., 5.02653360e-01, 2.00284526e-01,
          4.45442349e-01, 1., 3.12608838e-01, 9.66828540e-02,
          2.99109936e-01, 3.48214298e-01, 1.79307938e-01, 1.53802466e-02,
          1.91442043e-01, 2.54464298e-01, 1.22040607e-01, 5.54201845e-03,
          1.26396984e-01, 4.24107134e-01, 1.13084145e-01, 4.92327614e-03,
          1.02785252e-01, 6.69642866e-01, 5.90110183e-01, 3.42046410e-01,
          5.17361522e-01, 9.91071403e-01, 1., 8.99168611e-01, 1.,
          8.61607134e-01, 9.98263478e-01, 1., 9.33722198e-01, 1.,
          8.68408978e-01, 8.65443170e-01, 8.31852198e-01, 9.50892866e-01,
          7.20018983e-01, 6.02827966e-01, 6.83012068e-01, 6.87500000e-01,
          4.32503760e-01, 2.80580223e-01, 4.14860994e-01, 6.33928597e-01,
          4.87781644e-01, 3.35669309e-01, 4.41686869e-01, 7.18750000e-01,
          5.50103843e-01, 4.78793353e-01, 4.92982835e-01, 5.49107134e-01,
          4.95106936e-01, 4.24590230e-01, 4.58260775e-01, 5.62500000e-01,
          4.54230219e-01, 3.58802944e-01, 4.15204883e-01 ]
      - [ 1., 3.59843552e-01, 2.11713016e-01, 3.67894262e-01,
          6.77419364e-01, 1.83643460e-01, 1.03592262e-01, 0.,
          2.07373276e-01, 1.41616672e-01, 4.54528071e-02, 2.35841289e-01,
          9.21658993e-01, 5.64030707e-01, 3.42565447e-01, 6.25985384e-01,
          7.14285731e-01, 2.67622501e-01, 1.01677492e-01, 3.00947458e-01,
          7.83410147e-02, 0., 0., 5.26711307e-02, 8.01843345e-01,
          4.69256014e-01, 1.79710105e-01, 4.07747149e-01, 3.82488489e-01,
          2.40605429e-01, 7.38379434e-02, 3.28704298e-01, 9.76958513e-01,
          8.50970387e-01, 7.86455035e-01, 8.81120265e-01, 5.43778777e-01,
          4.21271265e-01, 2.52086431e-01, 4.68623042e-01, 2.02764973e-01,
          1.04655467e-01, 2.49553025e-02, 1.73015013e-01, 1.,
          4.01969850e-01, 1.89201653e-01, 3.83375376e-01, 3.17972362e-01,
          3.21397871e-01, 9.76715758e-02, 4.92676020e-01, 9.53917027e-01,
          1., 1., 1., 4.56221193e-01, 2.39736259e-01, 1.82594314e-01,
          2.61221737e-01, 9.67741907e-02, 4.83399406e-02, 8.04579817e-03,
          1.26247287e-01, 9.53917027e-01, 6.41989708e-01, 5.59559703e-01,
          5.20100653e-01, 5.11520743e-01, 3.66478711e-01, 1.94949597e-01,
          4.74069655e-01, 1., 4.94777799e-01, 3.11007321e-01,
          6.61720574e-01, 6.08294904e-01, 3.15434515e-01, 1.22280173e-01,
          4.60524112e-01, 1.29032254e-01, 7.76852444e-02, 5.65742934e-03,
          1.92245603e-01, 5.48387110e-01, 3.15219492e-01, 4.42795843e-01,
          2.17690378e-01, 2.21198156e-01, 1.57154575e-01, 1.36188507e-01,
          1.86612800e-01, 1.65898621e-01, 2.08395675e-01, 6.74204677e-02,
          3.76073480e-01, 1.24423966e-01, 1.61210075e-01, 5.82983829e-02,
          3.02628607e-01, 0., 3.92876267e-02, 2.91162124e-03,
          1.38938189e-01 ]
      - [ 1., 4.33873057e-01, 2.89868891e-01, 3.87269080e-01,
          7.27272749e-01, 6.73451662e-01, 1., 4.84730542e-01,
          6.41711205e-02, 2.47910485e-01, 2.10622847e-02, 3.14225972e-01,
          8.02139044e-02, 2.31061965e-01, 1.89120062e-02, 2.83375949e-01,
          2.13903747e-02, 2.54080296e-01, 2.17894726e-02, 3.14982533e-01,
          0., 3.90605599e-01, 3.04344714e-01, 4.60322231e-01,
          7.70053446e-01, 4.25312161e-01, 5.86785078e-01, 2.52740771e-01,
          2.62032092e-01, 2.64171779e-01, 4.41475026e-02, 3.23223829e-01,
          1.33689836e-01, 1.78261623e-01, 1.53674781e-02, 2.30631143e-01,
          1.55080214e-01, 2.96828330e-01, 1.99568883e-01, 3.32718551e-01,
          1.17647059e-01, 3.85741681e-01, 2.60801762e-01, 4.40124094e-01,
          5.45454562e-01, 2.03016400e-01, 2.16104835e-01, 1.62243098e-01,
          6.73796773e-01, 4.27949697e-01, 2.50939220e-01, 4.15610582e-01,
          4.86631006e-01, 4.80284333e-01, 5.88778615e-01, 3.94505948e-01,
          4.01069522e-01, 4.19933826e-01, 4.22402203e-01, 4.32583362e-01,
          8.02139044e-02, 3.81906748e-01, 2.22808555e-01, 4.49137598e-01,
          4.97326195e-01, 1.78033695e-01, 1.38770849e-01, 1.68962389e-01,
          1., 8.34155202e-01, 8.51495326e-01, 5.30012965e-01,
          8.71657729e-01, 5.73244631e-01, 7.51796901e-01, 3.84482980e-01,
          7.32620299e-01, 3.86854321e-01, 2.51442879e-01, 3.36868316e-01,
          2.35294119e-01, 4.26858395e-01, 1.98094577e-01, 5.12764871e-01,
          4.27807495e-02, 0., 0., 0., 1., 6.96732640e-01, 2.07684577e-01,
          6.51136816e-01, 1., 1., 3.81298423e-01, 1., 1., 7.70277560e-01,
          2.33054385e-01, 7.04913437e-01, 1.39037430e-01, 1.39910549e-01,
          3.56443040e-02, 1.59975737e-01 ]
      - [ 1., 3.80004138e-01, 3.39819252e-01, 3.75756294e-01,
          1.22340426e-01, 5.94359860e-02, 1.64170444e-01, 7.77951628e-02,
          1.43617019e-01, 3.17168146e-01, 2.20318839e-01, 3.94703656e-01,
          1.32978722e-01, 3.76394182e-01, 4.67314273e-01, 4.60907966e-01,
          1.43617019e-01, 1.55596942e-01, 1.39262468e-01, 1.87886924e-01,
          1., 1.53733090e-01, 2.31645465e-01, 1.49592131e-01,
          2.50000000e-01, 7.70344734e-02, 1.95825681e-01, 7.82044306e-02,
          4.04255331e-01, 3.55696201e-01, 2.43886530e-01, 4.43835586e-01,
          5.85106373e-01, 4.36635762e-01, 5.93881309e-01, 5.05641699e-01,
          1.70212761e-01, 2.46579289e-01, 1.84157759e-01, 2.91897148e-01,
          7.44680837e-02, 2.40438152e-03, 4.18248959e-03, 0.,
          5.74468076e-01, 4.56436217e-01, 2.43611425e-01, 5.63038528e-01,
          5.42553186e-01, 6.66686296e-01, 7.19557047e-01, 8.78197014e-01,
          7.71276593e-01, 7.43274629e-01, 8.75995457e-01, 7.84220219e-01,
          5.37234068e-01, 4.81122136e-01, 5.29406428e-01, 5.94724000e-01,
          1.54255316e-01, 1.56420127e-01, 1.13821439e-02, 1.90527692e-01,
          1., 4.69630390e-01, 2.42008671e-01, 4.83400762e-01, 1.,
          9.46799219e-01, 1., 1., 1., 1., 9.39046860e-01, 8.51207852e-01,
          1., 5.89615524e-01, 4.74976391e-01, 5.87768376e-01,
          1.59574464e-01, 1.49517536e-01, 1.85965486e-02, 1.96207374e-01,
          1., 2.80641820e-02, 3.59632354e-03, 6.72858059e-02,
          9.46808517e-01, 6.30338311e-01, 9.18454587e-01, 5.59281111e-01,
          8.19148958e-01, 1.41298950e-01, 6.55909553e-02, 1.33741975e-01,
          3.19148935e-02, 0., 0., 9.25934510e-05, 0., 9.94778145e-03,
          1.04757901e-02, 2.74780318e-02 ]
      - [ 9.63350773e-01, 5.44338346e-01, 2.96708912e-01, 4.28241640e-01,
          3.66492160e-02, 6.32320121e-02, 5.45312557e-03, 6.94411397e-02,
          5.23560215e-03, 3.31805721e-02, 2.10972619e-03, 3.69279198e-02,
          1.57068055e-02, 4.20705751e-02, 2.71831080e-03, 4.38267440e-02,
          2.14659691e-01, 1.89758632e-02, 1.43247971e-03, 1.76816657e-02,
          9.63350773e-01, 5.50726414e-01, 5.21380424e-01, 1.91076368e-01,
          8.90052393e-02, 7.09289759e-02, 8.14398285e-03, 7.93090165e-02,
          0., 2.06210539e-02, 1.74783519e-03, 2.75129471e-02,
          5.23560215e-03, 0., 0., 0., 7.22513080e-01, 6.09697521e-01,
          5.44811904e-01, 2.43677601e-01, 9.26701546e-01, 9.81647789e-01,
          1., 6.20285630e-01, 6.33507848e-01, 4.59811240e-01,
          4.22364414e-01, 3.42091054e-01, 5.96858621e-01, 5.37402689e-01,
          9.31437686e-02, 4.78466332e-01, 1., 7.51205206e-01,
          2.06383690e-01, 6.61710620e-01, 7.53926694e-01, 1.,
          9.90119696e-01, 8.41624439e-01, 8.06282699e-01, 5.83514452e-01,
          2.96919703e-01, 5.82973421e-01, 7.85340309e-01, 9.71820951e-01,
          7.90622294e-01, 1., 7.01570690e-01, 8.14353466e-01,
          5.48757017e-01, 7.93996036e-01, 7.06806302e-01, 8.44887197e-01,
          4.38274086e-01, 8.33952487e-01, 4.97382194e-01, 4.62809831e-01,
          1.88044220e-01, 4.74275798e-01, 3.61256540e-01, 5.56816757e-01,
          2.28950039e-01, 6.22568488e-01, 3.76963347e-01, 4.05756921e-01,
          1.49806499e-01, 4.43601668e-01, 4.55497384e-01, 4.95273501e-01,
          1.92681149e-01, 5.32028317e-01, 3.14136118e-01, 3.21870446e-01,
          1.17663562e-01, 3.71511698e-01, 5.44502616e-01, 5.42903841e-01,
          2.65794963e-01, 5.73563039e-01, 3.97905767e-01, 7.68116772e-01,
          3.63901913e-01, 8.83552611e-01 ]
      - [ 1., 2.39152461e-01, 1.31893754e-01, 4.05654818e-01,
          6.63716793e-02, 2.80848652e-01, 3.12649570e-02, 8.72402310e-01,
          8.84955749e-02, 2.96600074e-01, 3.19831520e-02, 8.94983053e-01,
          6.99115038e-01, 2.86202610e-01, 6.63107559e-02, 7.36929834e-01,
          6.19469024e-02, 8.41126963e-02, 7.96891097e-03, 2.56430864e-01,
          7.07964599e-02, 1.07838564e-01, 1.06163407e-02, 3.57825279e-01,
          6.63716793e-02, 2.13489354e-01, 2.13140324e-02, 5.96875310e-01,
          7.07964599e-02, 9.18771401e-02, 8.20833724e-03, 2.81338662e-01,
          3.71681422e-01, 2.75467187e-01, 1.31983384e-01, 5.59594572e-01,
          7.07964599e-02, 1.00674458e-01, 8.88935477e-03, 3.62395406e-01,
          1.32743362e-02, 1.76973324e-02, 1.77710748e-03, 6.11389317e-02,
          3.98230106e-02, 1.21693745e-01, 1.17612900e-02, 4.43242282e-01,
          5.30973449e-02, 1.11181371e-01, 1.00329490e-02, 4.02171105e-01,
          1., 6.73694313e-01, 2.71211654e-01, 9.11002517e-01,
          2.21238937e-02, 2.71099876e-03, 2.16239816e-04, 8.23462382e-03,
          0., 0., 0., 0., 3.09734512e-02, 2.72559356e-02, 2.24304898e-03,
          8.73181969e-02, 6.54867232e-01, 4.37351823e-01, 6.07489347e-01,
          2.20787480e-01, 1., 1., 1., 1., 6.50442481e-01, 2.98500627e-01,
          5.39910674e-01, 2.07718834e-01, 7.52212405e-02, 2.22472753e-02,
          1.10019371e-03, 6.11809157e-02, 3.53982300e-02, 6.59768842e-03,
          2.96601473e-04, 1.74108613e-02, 6.81415915e-01, 5.39626777e-02,
          1.89635158e-02, 6.93375692e-02, 5.53097367e-01, 5.85169375e-01,
          4.67033714e-01, 9.70438123e-01, 4.55752224e-01, 1.34230524e-01,
          3.92918587e-02, 4.00557756e-01, 2.21238937e-02, 1.15302160e-01,
          4.04921314e-03, 4.43380207e-01 ]
      - [ 1., 5.20787477e-01, 3.93918276e-01, 4.16499823e-01,
          4.87179488e-01, 4.77928281e-01, 3.76460761e-01, 4.56093520e-01,
          5.21367550e-01, 4.80478823e-01, 5.20777345e-01, 4.20988560e-01,
          8.03418815e-01, 8.17931145e-02, 1.09193973e-01, 2.66506355e-02,
          0., 0., 0., 0., 0., 7.43617071e-03, 7.46862788e-04,
          9.54458583e-03, 5.00000000e-01, 6.56683028e-01, 4.93128926e-01,
          6.55373096e-01, 4.95726496e-01, 5.98392367e-01, 5.96101224e-01,
          5.65208912e-01, 5.72649598e-01, 2.38405377e-01, 3.12539101e-01,
          1.02235503e-01, 2.56410260e-02, 8.08094256e-03, 1.79204997e-03,
          1.18263187e-02, 2.56410260e-02, 1.75960287e-02, 3.41132446e-03,
          2.09076144e-02, 5.04273534e-01, 5.51091850e-01, 4.21060950e-01,
          5.12556493e-01, 6.28205121e-01, 5.52345395e-01, 6.15597725e-01,
          4.95336324e-01, 8.24786305e-01, 4.52058971e-01, 5.05987525e-01,
          2.58093715e-01, 1.41025648e-01, 2.93321535e-02, 6.37450488e-03,
          3.15960422e-02, 2.00854704e-01, 4.36679833e-02, 9.99511126e-03,
          4.46931869e-02, 8.54700863e-01, 5.34185946e-01, 2.59734303e-01,
          4.66940671e-01, 7.47863233e-01, 7.58618474e-01, 9.27296817e-01,
          6.92125857e-01, 7.56410241e-01, 9.69022691e-01, 1.,
          9.64402974e-01, 1., 1., 9.82710838e-01, 1., 6.23931646e-01,
          8.33933830e-01, 6.64993286e-01, 8.60546470e-01, 5.59829056e-01,
          3.09334815e-01, 1.53205752e-01, 2.96018094e-01, 7.05128193e-01,
          7.31829524e-01, 5.36727965e-01, 6.98546410e-01, 7.05128193e-01,
          8.21476161e-01, 6.42960608e-01, 8.06134105e-01, 8.20512831e-01,
          6.55725718e-01, 4.66513395e-01, 6.36573613e-01, 4.65811968e-01,
          4.60278451e-01, 2.29148105e-01, 4.31022227e-01 ]
      - [ 1., 5.73235869e-01, 1.77563906e-01, 5.10976732e-01,
          4.40476179e-01, 9.32924569e-01, 4.13511336e-01, 8.95289123e-01,
          6.19047642e-01, 6.13132417e-01, 3.40494245e-01, 5.78664005e-01,
          1.78571433e-01, 3.44274759e-01, 2.41964627e-02, 3.62281859e-01,
          0., 3.50387037e-01, 2.89781056e-02, 3.68197501e-01,
          4.76190485e-02, 3.65923941e-01, 4.03847620e-02, 3.87336105e-01,
          2.85714298e-01, 1., 1.60976946e-01, 1., 1., 8.64937425e-01, 1.,
          6.81006610e-01, 3.57142873e-02, 1.28103733e-01, 9.59732383e-03,
          1.29883409e-01, 4.76190485e-02, 3.27552766e-01, 3.01481113e-02,
          3.38474929e-01, 1.19047621e-02, 3.59806687e-01, 5.30459695e-02,
          3.82030100e-01, 3.45238090e-01, 9.77948725e-01, 1.73454285e-01,
          9.73513961e-01, 6.54761910e-01, 7.40193963e-01, 7.03306437e-01,
          5.45566499e-01, 2.38095239e-01, 0., 0., 0., 2.38095243e-02,
          3.28064263e-01, 2.73025110e-02, 3.37532431e-01, 5.95238097e-02,
          3.74325871e-01, 3.36230136e-02, 3.92798573e-01, 2.85714298e-01,
          9.91473317e-01, 2.41957039e-01, 9.83696878e-01, 1.78571433e-01,
          5.43205917e-01, 1.43562913e-01, 5.09655535e-01, 4.64285702e-01,
          4.33230072e-01, 2.08950579e-01, 4.14846867e-01, 3.69047612e-01,
          3.68917465e-01, 5.26875183e-02, 3.67986947e-01, 0.,
          3.60412270e-01, 2.51451544e-02, 3.75242144e-01, 2.02380955e-01,
          9.89102542e-01, 2.92840600e-01, 9.76096809e-01, 3.80952388e-01,
          6.11790180e-01, 2.02469766e-01, 5.52927971e-01, 2.26190478e-01,
          4.03648913e-01, 1.06404923e-01, 4.21735078e-01, 1.54761910e-01,
          4.11333919e-01, 9.52569693e-02, 4.18534607e-01, 4.28571433e-01,
          3.90221477e-01, 2.80282106e-02, 4.01018292e-01 ]
      - [ 8.16326559e-01, 3.11514616e-01, 1.57544449e-01, 3.32997411e-01,
          6.80272095e-03, 3.80044580e-02, 1.97831611e-03, 7.34209493e-02,
          0., 0., 0., 2.61240173e-03, 1.56462580e-01, 7.63496733e-04,
          4.72629629e-03, 0., 3.40136066e-02, 2.37390380e-02,
          1.11279555e-03, 4.87045534e-02, 4.76190485e-02, 5.63863739e-02,
          3.12742172e-03, 1.04449637e-01, 2.65306115e-01, 1.75334632e-01,
          4.49100845e-02, 2.60780752e-01, 3.12925160e-01, 1.33468300e-01,
          5.17955348e-02, 1.47034958e-01, 6.25850320e-01, 2.80368179e-01,
          1.88965321e-01, 1.71729371e-01, 2.92517006e-01, 1.19985364e-01,
          8.22005346e-02, 1.03528328e-01, 4.08163257e-02, 3.80408652e-02,
          3.09720356e-03, 7.27880150e-02, 5.64625859e-01, 3.80151659e-01,
          1.88778564e-01, 5.80901384e-01, 4.01360542e-01, 3.23690027e-01,
          1.06925793e-01, 4.71207380e-01, 5.85034013e-01, 8.17356169e-01,
          7.71768510e-01, 7.67887235e-01, 4.89795923e-01, 4.10236090e-01,
          2.65432864e-01, 4.60464507e-01, 2.65306115e-01, 2.38780051e-01,
          6.61754012e-02, 4.26029205e-01, 4.21768695e-01, 3.14770639e-01,
          7.60800913e-02, 5.32885969e-01, 1., 5.77873349e-01,
          3.18327963e-01, 7.32171416e-01, 9.25170064e-01, 1., 1., 1.,
          5.44217706e-01, 5.68831921e-01, 3.69856775e-01, 6.93127096e-01,
          3.33333343e-01, 2.13857517e-01, 5.55981733e-02, 3.84504467e-01,
          5.44217676e-02, 1.13908984e-01, 1.20864091e-02, 2.61880428e-01,
          5.71428597e-01, 2.57862598e-01, 1.12027191e-01, 3.33363473e-01,
          7.27891147e-01, 3.02159518e-01, 1.62150815e-01, 3.19658756e-01,
          4.35374141e-01, 1.46513432e-01, 4.20132279e-02, 2.59074986e-01,
          1.42857149e-01, 9.57233831e-02, 1.15581499e-02, 1.88364178e-01 ]
      - [ 1., 5.00411689e-01, 4.14537251e-01, 4.47513551e-01,
          1.82926822e-02, 0., 0., 0., 1.28048778e-01, 3.02282497e-02,
          2.34890897e-02, 2.90406290e-02, 0., 6.24155290e-02,
          4.37648594e-02, 6.55451268e-02, 6.70731738e-02, 8.25539157e-02,
          5.61675690e-02, 8.82002190e-02, 4.26829271e-02, 1.00061983e-01,
          5.55229522e-02, 1.20668143e-01, 1.76829264e-01, 2.51027077e-01,
          2.44600520e-01, 2.78588176e-01, 9.14634168e-02, 2.30143532e-01,
          2.03323349e-01, 2.69642800e-01, 1.76829264e-01, 1.91096231e-01,
          1.39532492e-01, 2.27789119e-01, 2.07317069e-01, 2.83434927e-01,
          2.29613349e-01, 3.43607426e-01, 3.04878056e-01, 2.94361860e-01,
          2.07347602e-01, 3.57485533e-01, 6.15853667e-01, 5.85788369e-01,
          5.34860730e-01, 5.98315597e-01, 8.23170722e-01, 4.88707691e-01,
          4.04510319e-01, 4.34124738e-01, 6.46341443e-01, 2.66449124e-01,
          2.03539833e-01, 2.48156339e-01, 4.45121944e-01, 4.93870318e-01,
          4.45364356e-01, 5.20901322e-01, 3.35365862e-01, 5.78245521e-01,
          4.09892678e-01, 6.74981892e-01, 9.45121944e-01, 8.88088644e-01,
          8.74278545e-01, 8.26049447e-01, 1., 9.62881744e-01, 1.,
          9.32356656e-01, 9.63414609e-01, 1., 9.06329989e-01, 1.,
          9.20731723e-01, 7.74380267e-01, 6.96993709e-01, 7.32771516e-01,
          7.07317054e-01, 7.41612256e-01, 6.50517642e-01, 8.15466881e-01,
          7.37804890e-01, 4.85748082e-01, 4.98947501e-01, 4.21718061e-01,
          6.03658557e-01, 6.20306373e-01, 6.42389297e-01, 5.71048081e-01,
          6.28048778e-01, 6.95277035e-01, 6.92312539e-01, 6.77169859e-01,
          5.42682946e-01, 6.01488173e-01, 6.31618798e-01, 5.87214053e-01,
          3.35365862e-01, 4.67041939e-01, 5.51020682e-01, 4.42461908e-01 ]
      - [ 1., 4.76088107e-01, 4.45328474e-01, 5.43238461e-01, 1.,
          4.41776752e-01, 2.33404100e-01, 6.16613448e-01, 5.79999983e-01,
          4.98254478e-01, 3.53397459e-01, 6.15983427e-01, 5.69999993e-01,
          4.66373265e-01, 4.62908328e-01, 5.81266940e-01, 5.69999993e-01,
          4.19463247e-01, 6.83029652e-01, 4.70062464e-01, 4.60000008e-01,
          5.62733769e-01, 6.55996621e-01, 7.30180383e-01, 1.80000007e-01,
          6.04320586e-01, 6.62984252e-01, 7.33313143e-01, 3.00000012e-01,
          3.10723305e-01, 2.70084739e-01, 3.55528414e-01, 8.89999986e-01,
          4.11544770e-01, 4.81783122e-01, 3.62345189e-01, 5.09999990e-01,
          5.50994933e-01, 6.44302368e-01, 5.92529476e-01, 1.,
          8.10140193e-01, 1., 9.06531572e-01, 9.49999988e-01,
          7.99655318e-01, 5.43495178e-01, 9.03737605e-01, 1.,
          4.25569117e-01, 6.89871311e-01, 3.54349822e-01, 5.60000002e-01,
          4.98945326e-01, 7.43183792e-01, 5.34766316e-01, 0., 0.,
          5.82576543e-02, 0., 9.80000019e-01, 5.43490231e-01,
          3.48668873e-01, 7.63350785e-01, 9.30000007e-01, 1.,
          9.94120121e-01, 1., 6.20000005e-01, 5.88499308e-01,
          7.45278716e-01, 6.35030687e-01, 8.10000002e-01, 4.69985873e-01,
          3.11636627e-01, 6.66890860e-01, 1., 4.94445950e-01,
          3.20736229e-01, 6.55037284e-01, 7.20000029e-01, 3.65863681e-01,
          1.30473733e-01, 5.98160684e-01, 8.70000005e-01, 5.34428120e-01,
          4.83106911e-01, 4.39174682e-01, 9.00000036e-02, 1.78910375e-01,
          1.35395616e-01, 2.87548780e-01, 9.39999998e-01, 1.62916929e-01,
          1.17249139e-01, 2.35516533e-01, 1., 2.67148793e-01, 0.,
          3.01933676e-01, 1., 2.33463451e-01, 2.59001404e-02,
          3.62125069e-01 ]
      - [ 1., 2.35094130e-01, 2.25006729e-01, 4.66918707e-01, 1.,
          3.03965420e-01, 2.40981191e-01, 6.28422022e-01, 7.66423345e-01,
          3.69995147e-01, 2.92873949e-01, 8.83358300e-01, 1.,
          3.24570864e-01, 1.90264732e-01, 8.83172095e-01, 1.,
          2.87922174e-01, 8.41227025e-02, 4.56475675e-01, 1., 1., 1., 1.,
          2.91970789e-01, 2.40217477e-01, 1.57463804e-01, 8.07522476e-01,
          6.71532869e-01, 2.43504107e-01, 1.83792695e-01, 6.84186101e-01,
          6.64233565e-01, 2.47253269e-01, 2.50961185e-01, 3.98410171e-01,
          3.72262776e-01, 2.72837013e-01, 3.12103063e-01, 6.82059765e-01,
          1., 9.42548513e-02, 6.79184347e-02, 5.01290083e-01,
          6.56934306e-02, 4.75008935e-02, 1.96307257e-01, 9.79704112e-02,
          5.10948896e-01, 2.13176921e-01, 2.14889079e-01, 4.90501016e-01,
          4.23357666e-01, 2.40991071e-01, 8.24092850e-02, 7.23976195e-01,
          4.37956214e-01, 2.54376292e-01, 1.84700385e-01, 7.58415163e-01,
          1.38686135e-01, 8.75356421e-02, 1.55834883e-01, 3.67225975e-01,
          2.33576640e-01, 0., 1.84796840e-01, 0., 3.28467160e-01,
          9.79929119e-02, 3.07439119e-01, 3.03735808e-02, 5.76642334e-01,
          1.45534158e-01, 3.12004477e-01, 1.29076570e-01, 6.78832114e-01,
          2.95727223e-01, 6.23951733e-01, 2.49783680e-01, 0.,
          2.52507776e-02, 2.35864848e-01, 3.99985723e-02, 1.,
          4.97755669e-02, 1.17725655e-02, 4.18509811e-01, 8.02919716e-02,
          3.04397214e-02, 2.07661558e-02, 3.18793267e-01, 3.79562050e-01,
          2.79094446e-02, 0., 3.60393018e-01, 3.57664227e-01,
          7.51817375e-02, 1.24402061e-01, 3.37059796e-01, 6.71532869e-01,
          2.23135129e-01, 1.78310290e-01, 5.02107441e-01 ]
      - [ 1., 4.62410539e-01, 2.18709677e-01, 3.77647460e-01,
          7.82122910e-02, 2.36397833e-02, 1.18192052e-03, 0.,
          8.37988853e-02, 3.59648429e-02, 3.51918605e-03, 1.27696870e-02,
          1.95530728e-01, 3.80082093e-02, 4.43358347e-03, 1.78786293e-02,
          5.02793305e-02, 4.15694937e-02, 3.01700342e-03, 2.41627600e-02,
          2.01117322e-01, 3.67344953e-02, 2.76250439e-03, 1.57443453e-02,
          4.07821238e-01, 1.78367198e-01, 1.16699003e-01, 8.26728195e-02,
          2.79329605e-02, 7.76768709e-03, 7.46885606e-04, 1.55135756e-03,
          3.91061455e-02, 0., 0., 1.33392741e-05, 0., 6.08503819e-03,
          7.56529553e-05, 3.13873100e-03, 7.82122910e-02, 1.97039843e-02,
          1.43093814e-03, 7.23655615e-03, 9.94413435e-01, 9.82114732e-01,
          8.10865045e-01, 6.49902761e-01, 9.83240247e-01, 3.23831648e-01,
          1.59615323e-01, 2.13896587e-01, 8.88268173e-01, 8.59446943e-01,
          6.64034247e-01, 5.07216573e-01, 4.58100557e-01, 2.83405960e-01,
          9.60911885e-02, 2.52697855e-01, 2.40223467e-01, 1.95258319e-01,
          3.92003134e-02, 1.87240720e-01, 6.92737401e-01, 8.58805418e-01,
          1.90103561e-01, 9.73520219e-01, 3.85474861e-01, 6.20835841e-01,
          1.16094477e-01, 7.42339909e-01, 7.65363157e-01, 6.96495891e-01,
          1.71007499e-01, 8.32235932e-01, 1., 8.84993851e-01, 1.,
          6.57800913e-01, 8.99441361e-01, 4.56162870e-01, 7.92844221e-02,
          5.26727915e-01, 3.57541889e-01, 4.53587770e-01, 1.72228754e-01,
          4.28046614e-01, 3.46368700e-01, 7.17620373e-01, 3.43504280e-01,
          7.16612458e-01, 6.25698328e-01, 1., 6.53988302e-01, 1., 1.,
          8.96547616e-01, 4.93055373e-01, 9.13685560e-01, 2.90502787e-01,
          7.35470712e-01, 3.34982663e-01, 7.33017087e-01 ]
      - [ 1., 4.44113821e-01, 3.79148275e-01, 3.90803576e-01, 1.,
          7.17329860e-01, 7.49356270e-01, 6.84142530e-01, 1.,
          8.39624465e-01, 1., 7.31617272e-01, 1., 7.32625484e-01,
          7.23791122e-01, 5.91035128e-01, 1., 5.18595695e-01,
          5.00314355e-01, 4.77489531e-01, 1., 2.89695144e-01,
          2.50779033e-01, 2.48439908e-01, 1., 1., 9.89919603e-01, 1., 1.,
          7.15714455e-01, 6.37372911e-01, 6.64795816e-01, 1.,
          1.67071000e-01, 1.24699391e-01, 5.72428182e-02, 1.,
          6.10341489e-01, 4.93025273e-01, 5.47376990e-01, 1.,
          3.14013094e-01, 1.89079523e-01, 2.92643815e-01, 1.,
          3.72672409e-01, 2.87570924e-01, 4.31740701e-01, 1.,
          2.56737411e-01, 2.78092265e-01, 2.38541663e-01, 0., 0., 0., 0.,
          1., 3.16592216e-01, 2.33723640e-01, 3.46554011e-01, 1.,
          3.84561837e-01, 3.41797471e-01, 3.99322361e-01, 1.,
          3.99986356e-01, 3.34111959e-01, 4.61344153e-01, 1.,
          2.71536142e-01, 3.30346137e-01, 2.61606455e-01, 1.,
          1.54989570e-01, 1.37404889e-01, 1.32946298e-01, 1.,
          2.16278508e-01, 1.59571230e-01, 1.69962019e-01, 1.,
          2.85158098e-01, 1.76932499e-01, 2.99386352e-01, 1.,
          4.07210320e-01, 3.20301473e-01, 4.91420746e-01, 1.,
          3.12917709e-01, 2.79285789e-01, 3.56106758e-01, 1.,
          4.33818370e-01, 4.12310392e-01, 4.05216187e-01, 1.,
          2.70293355e-01, 2.52207011e-01, 2.05259040e-01, 1.,
          3.10563982e-01, 2.44436011e-01, 3.17395657e-01 ]
      - [ 1., 5.17689228e-01, 5.06274283e-01, 4.74630207e-01,
          2.70588249e-01, 6.83026463e-02, 2.71938801e-01, 4.18864638e-02,
          5.52941203e-01, 6.07707739e-01, 5.88154554e-01, 5.80354512e-01,
          4.94117647e-01, 8.10272515e-01, 3.83195579e-01, 9.47108209e-01,
          4.11764711e-01, 7.15318203e-01, 4.88173872e-01, 6.74031615e-01,
          6.70588255e-01, 7.98576951e-01, 5.87057889e-01, 8.18291605e-01,
          1.64705887e-01, 5.63054264e-01, 9.41151977e-01, 4.20623004e-01,
          2.11764708e-01, 1.49907261e-01, 5.59094787e-01, 2.37071998e-02,
          7.76470602e-01, 3.85718942e-01, 2.24752918e-01, 4.15752381e-01,
          5.41176498e-01, 2.81938583e-01, 3.92605782e-01, 1.82331964e-01,
          4.70588244e-02, 2.08234355e-01, 3.79192472e-01, 1.29760399e-01,
          3.76470596e-01, 6.00930870e-01, 6.80968165e-01, 5.32479405e-01,
          3.88235301e-01, 7.64533460e-01, 1., 5.25058270e-01,
          2.47058824e-01, 4.91225004e-01, 2.88923204e-01, 6.18420839e-01,
          5.05882382e-01, 2.51854271e-01, 2.95690268e-01, 2.37701192e-01,
          4.00000006e-01, 1.22739203e-01, 4.29211468e-01, 0.,
          2.35294119e-01, 4.82022107e-01, 3.38541478e-01, 5.03446519e-01,
          7.05882385e-02, 5.34552455e-01, 2.98904002e-01, 6.73565328e-01,
          7.17647076e-01, 5.72471678e-01, 7.35465586e-01, 4.54088360e-01,
          1.64705887e-01, 4.70650375e-01, 8.36877286e-01, 3.57411295e-01,
          0., 0., 0., 1.20850541e-01, 1., 7.60988176e-01, 6.05015159e-01,
          6.43498778e-01, 3.88235301e-01, 4.52328205e-01, 2.45093077e-01,
          4.54268128e-01, 5.05882382e-01, 1., 9.35225129e-01,
          9.59478676e-01, 6.35294139e-01, 9.08637106e-01, 5.78137994e-01,
          1., 8.82352948e-01, 5.98391593e-01, 5.02653539e-01,
          6.66526198e-01 ]
      - [ 1., 3.69734704e-01, 1.46236911e-01, 4.53031898e-01, 1., 1.,
          6.68124974e-01, 1., 1., 8.65562439e-01, 6.70207918e-01,
          8.21116626e-01, 6.84466004e-01, 9.96603727e-01, 1.,
          9.46896553e-01, 7.81553388e-01, 5.99077106e-01, 3.64200443e-01,
          5.54301500e-01, 3.00970882e-01, 9.44610611e-02, 1.19224284e-02,
          1.29258409e-01, 5.24271846e-01, 3.43565345e-01, 1.19411886e-01,
          3.26487750e-01, 4.95145619e-01, 3.05137455e-01, 1.20041989e-01,
          2.78126001e-01, 3.30097079e-01, 1.58449963e-01, 4.40705977e-02,
          1.86488569e-01, 3.68932039e-01, 1.44621789e-01, 1.66598354e-02,
          2.22807273e-01, 3.73786420e-01, 1.03229292e-01, 7.35499384e-03,
          2.08441854e-01, 2.28155345e-01, 2.30898589e-01, 2.78742835e-02,
          4.47793663e-01, 2.08737865e-01, 3.38633865e-01, 5.88278435e-02,
          5.93611121e-01, 4.02912617e-01, 2.48918802e-01, 6.13888018e-02,
          3.96500379e-01, 1.89320385e-01, 2.91026592e-01, 5.86695746e-02,
          5.13685346e-01, 1.60194173e-01, 4.36095268e-01, 7.35513493e-02,
          8.63657296e-01, 1.84466019e-01, 4.22531486e-01, 7.39083216e-02,
          8.90699506e-01, 2.42718443e-01, 2.93956637e-01, 3.71899866e-02,
          5.09917438e-01, 1.26213595e-01, 5.31472117e-02, 4.64689592e-03,
          1.05288059e-01, 8.73786435e-02, 6.00189641e-02, 5.48552349e-03,
          1.43288136e-01, 2.28155345e-01, 3.61841440e-01, 7.04097971e-02,
          7.00447381e-01, 4.36893195e-01, 1.01910859e-01, 1.53874028e-02,
          1.09338105e-01, 0., 0., 0., 0., 9.22330096e-02, 9.34350863e-02,
          1.02038682e-02, 1.66825831e-01, 1.99029133e-01, 3.04157168e-01,
          5.19563034e-02, 5.63049853e-01, 7.37864077e-01, 3.94005597e-01,
          7.62064755e-02, 7.28576303e-01 ]
      - [ 1., 2.94302315e-01, 2.41611302e-01, 2.22379848e-01,
          1.24481330e-02, 7.91480020e-02, 2.53763329e-02, 9.62068960e-02,
          4.14937781e-03, 8.50977674e-02, 2.31928248e-02, 9.78469551e-02,
          0., 0., 0., 0., 4.85477179e-01, 2.09507883e-01, 1.62902400e-01,
          1.11981146e-01, 4.77178425e-01, 1.89559802e-01, 1.50076166e-01,
          1.16825573e-01, 8.29875529e-01, 3.68515909e-01, 1.,
          2.00931594e-01, 8.29875562e-03, 6.20261058e-02, 1.91425700e-02,
          7.62203559e-02, 3.85892123e-01, 9.12486613e-02, 3.01421493e-01,
          5.82467429e-02, 8.29875562e-03, 3.75654101e-02, 1.02093359e-02,
          4.38649394e-02, 0., 4.44823503e-02, 1.00278780e-02,
          4.62653041e-02, 7.46887997e-02, 7.03715160e-02, 2.29689609e-02,
          8.17639157e-02, 1.74273863e-01, 8.83196145e-02, 1.07369542e-01,
          1.01071715e-01, 5.47717869e-01, 1.42312884e-01, 1.57788932e-01,
          1.41397282e-01, 3.19502085e-01, 6.94466904e-02, 2.85315793e-02,
          8.81347954e-02, 1.28630713e-01, 1.20769851e-01, 3.76311578e-02,
          1.38332739e-01, 3.19502085e-01, 1.85991302e-01, 2.75234312e-01,
          1.58240631e-01, 5.18672228e-01, 3.43217283e-01, 3.79814774e-01,
          2.92777628e-01, 4.43983406e-01, 3.98039371e-01, 5.38106203e-01,
          3.86965781e-01, 9.12863076e-01, 3.95640939e-01, 3.78529489e-01,
          4.03823704e-01, 1.32780090e-01, 1.17895961e-01, 1.60855249e-01,
          1.46495149e-01, 1., 5.44720113e-01, 5.00134885e-01,
          1.20842695e-01, 2.53112048e-01, 2.46068239e-01, 1.25007927e-01,
          2.22916499e-01, 4.39834028e-01, 1., 6.90988004e-01, 1.,
          3.07053953e-01, 9.75564539e-01, 5.52819669e-01, 9.65471447e-01,
          9.50207472e-01, 4.57472503e-01, 3.74267787e-01, 4.74477172e-01 ]
      - [ 1., 3.90324384e-01, 2.19648317e-01, 2.81059772e-01,
          6.61971807e-01, 2.54481167e-01, 3.29449438e-02, 2.27840230e-01,
          2.76995301e-01, 1.37163252e-01, 2.08023954e-02, 1.77543387e-01,
          7.51173720e-02, 3.25537063e-02, 5.63396653e-03, 3.96901965e-02,
          1.87793434e-01, 9.02160034e-02, 2.74484605e-02, 9.58906636e-02,
          7.51173720e-02, 7.37497509e-02, 1.13592185e-02, 9.87853929e-02,
          6.57276988e-01, 6.17413700e-01, 4.33601737e-01, 5.65392911e-01,
          3.80281687e-01, 2.34970406e-01, 6.52222931e-02, 1.81966498e-01,
          7.51173720e-02, 0., 0., 0., 6.80751145e-01, 5.45070618e-02,
          1.31907221e-02, 3.94250304e-02, 7.51173720e-02, 7.13455826e-02,
          9.85679589e-03, 9.04031992e-02, 5.39906085e-01, 9.27552998e-01,
          9.08935726e-01, 1., 4.92957741e-01, 6.59615695e-01,
          7.85413384e-01, 4.55743045e-01, 6.00938976e-01, 1., 1.,
          7.58610547e-01, 6.94835663e-01, 7.06806898e-01, 8.79041791e-01,
          4.66500700e-01, 5.91549277e-01, 7.09884882e-01, 4.12230402e-01,
          7.33736455e-01, 6.71361506e-01, 6.56702399e-01, 2.52329767e-01,
          7.25461066e-01, 4.78873253e-01, 5.14200091e-01, 2.51110613e-01,
          4.59330171e-01, 4.22535211e-01, 2.16404200e-01, 5.79705797e-02,
          1.37444392e-01, 0., 5.20906597e-03, 4.79138270e-03,
          1.20540056e-02, 8.45070407e-02, 1.19930590e-02, 3.64762498e-03,
          1.88083742e-02, 3.99061024e-01, 1.08660415e-01, 1.63638853e-02,
          1.21825375e-01, 1.40845075e-01, 5.30476011e-02, 8.01125076e-03,
          7.93656632e-02, 4.74178404e-01, 8.13141093e-02, 3.07457931e-02,
          6.51350841e-02, 4.88262922e-01, 3.78586888e-01, 2.37472013e-01,
          2.37191007e-01, 6.38497651e-01, 3.34050834e-01, 2.54388824e-02,
          2.91262776e-01 ]
      - [ 1., 6.31183803e-01, 4.50856090e-01, 4.99244034e-01,
          9.56937764e-03, 1.11311348e-03, 0., 1.20839069e-03, 0., 0.,
          2.07706194e-04, 0., 2.87081338e-02, 2.76563806e-03,
          6.48747489e-04, 4.64419508e-03, 0., 2.75998889e-03,
          9.44103405e-04, 4.78668930e-03, 5.26315793e-02, 3.31371985e-02,
          3.78829683e-03, 3.66688929e-02, 1., 3.34733248e-01,
          1.05620101e-01, 2.00128809e-01, 1., 3.53850633e-01,
          1.42793000e-01, 1.97437346e-01, 1., 3.70678484e-01,
          1.03204235e-01, 2.08046630e-01, 1., 2.46507019e-01,
          5.04583940e-02, 1.69737175e-01, 7.41626799e-01, 1.90800577e-01,
          2.24713180e-02, 1.73062354e-01, 1., 7.64278233e-01,
          5.09628594e-01, 7.73255646e-01, 1., 1., 7.37118661e-01, 1., 1.,
          9.61719990e-01, 8.94910753e-01, 8.27905118e-01, 1.,
          9.85814214e-01, 9.52395439e-01, 8.97822082e-01, 1.,
          7.83706784e-01, 7.37771749e-01, 8.52058887e-01, 1.,
          7.26962864e-01, 4.99726385e-01, 7.13105202e-01, 1.,
          8.99210513e-01, 8.02587628e-01, 8.21296930e-01, 1.,
          8.98220301e-01, 7.70742536e-01, 8.05101275e-01, 1.,
          8.13397706e-01, 6.16275012e-01, 8.13382864e-01, 1.,
          7.62384117e-01, 8.08380127e-01, 7.55824447e-01, 1.,
          4.90550578e-01, 3.68896544e-01, 4.05956447e-01, 1.,
          5.65571606e-01, 3.09634417e-01, 5.16729057e-01, 1.,
          8.46517503e-01, 1., 6.18122280e-01, 1., 8.76217544e-01,
          9.62470114e-01, 9.07686055e-01, 1., 8.00778687e-01,
          8.50328565e-01, 8.19905758e-01 ]
      - [ 1., 6.42836750e-01, 3.75819653e-01, 6.44810915e-01,
          7.44855940e-01, 5.10600924e-01, 1.64562926e-01, 3.15915316e-01,
          9.54732537e-01, 3.28771442e-01, 6.88142180e-02, 1.71594292e-01,
          7.61316895e-01, 4.11903530e-01, 1.15429565e-01, 3.09205145e-01,
          6.13168716e-01, 3.30616683e-01, 1.36281818e-01, 1.75374061e-01,
          0., 0., 0., 0., 6.33744836e-01, 5.96400678e-01, 4.17180359e-01,
          4.61716890e-01, 9.62962985e-01, 1., 1., 1., 8.76543224e-01,
          8.52068543e-01, 6.83041215e-01, 8.23019922e-01, 7.24279821e-01,
          8.09478521e-01, 5.58706105e-01, 8.23480070e-01, 9.13580239e-01,
          6.94179714e-01, 2.78239459e-01, 6.38158381e-01, 9.13580239e-01,
          8.08700323e-01, 7.30251849e-01, 6.93691671e-01, 6.95473254e-01,
          8.34975362e-01, 7.78151512e-01, 8.58527958e-01, 1.,
          7.86450803e-01, 7.65364826e-01, 7.90812075e-01, 6.62551463e-01,
          6.39994383e-01, 5.40773451e-01, 6.84264719e-01, 7.48971164e-01,
          5.72567344e-01, 2.75068134e-01, 6.54696703e-01, 9.34156358e-01,
          7.67570138e-01, 5.98989666e-01, 7.82573521e-01, 8.97119343e-01,
          6.84802473e-01, 5.18985987e-01, 7.73939073e-01, 6.91358030e-01,
          6.05410755e-01, 2.89545506e-01, 7.39637434e-01, 5.55555582e-01,
          6.12612188e-01, 3.68609846e-01, 7.16761649e-01, 9.01234567e-01,
          5.94730616e-01, 3.05320293e-01, 6.97028458e-01, 5.34979403e-01,
          6.21191919e-01, 2.13180006e-01, 8.22613537e-01, 5.10288060e-01,
          5.98708749e-01, 1.66188583e-01, 7.96873093e-01, 4.36214000e-01,
          5.80926657e-01, 1.45019487e-01, 7.81219244e-01, 4.52674896e-01,
          5.78075051e-01, 1.24985971e-01, 8.01169753e-01, 5.59670806e-01,
          6.13100052e-01, 1.46473840e-01, 8.47466588e-01 ]
      - [ 1., 5.23042798e-01, 2.52995402e-01, 4.19261247e-01,
          5.93908608e-01, 1.24772698e-01, 3.18662934e-02, 1.16419196e-02,
          5.78680217e-01, 5.80208957e-01, 2.23932937e-01, 4.32674497e-01,
          7.00507641e-01, 1., 1., 9.51751590e-01, 6.75126910e-01,
          4.29552376e-01, 2.41049707e-01, 3.33409488e-01, 5.43147206e-01,
          6.77375555e-01, 4.56101745e-01, 6.81201696e-01, 6.24365509e-01,
          5.44247389e-01, 1.86752722e-01, 5.16370416e-01, 1.,
          8.03570211e-01, 3.83214325e-01, 8.90877068e-01, 7.91878164e-01,
          9.45300877e-01, 6.75347447e-01, 1., 7.81725883e-01,
          7.95988977e-01, 5.02063394e-01, 8.09219956e-01, 5.68527937e-01,
          5.72263718e-01, 2.93722540e-01, 6.06583774e-01, 4.87309635e-01,
          4.55196351e-01, 2.14627385e-01, 4.17168051e-01, 8.27411175e-01,
          8.79984200e-01, 5.34637034e-01, 8.58057141e-01, 8.83248746e-01,
          6.19458497e-01, 1.96630925e-01, 4.55762804e-01, 7.76649773e-01,
          7.97358811e-01, 4.21041191e-01, 8.29275310e-01, 5.22842646e-01,
          4.14250404e-01, 1.86487690e-01, 4.00954157e-01, 1.,
          2.97293812e-01, 1.22164711e-01, 1.44818753e-01, 2.43654817e-01,
          2.36545995e-01, 9.46441665e-02, 2.21078932e-01, 0.,
          8.41423962e-03, 3.84704530e-04, 1.44881364e-02, 4.51776654e-01,
          3.38524610e-01, 1.83180973e-01, 3.17895353e-01, 3.55329961e-01,
          1.80538088e-01, 5.75875491e-02, 1.66778892e-01, 1.,
          4.80178058e-01, 2.08991453e-01, 2.09900573e-01, 1.21827409e-01,
          8.04189667e-02, 1.81261152e-02, 7.66160861e-02, 0., 0., 0., 0.,
          1.77664980e-01, 1.49903595e-01, 7.25943372e-02, 1.39260337e-01,
          3.04568522e-02, 7.11490735e-02, 7.19728367e-03, 7.03974739e-02 ]
      - [ 1., 4.11783397e-01, 2.18867138e-01, 2.95995921e-01,
          6.92307711e-01, 1.45525098e-01, 1.96781367e-01, 5.19623943e-02,
          1., 9.44526613e-01, 4.50300425e-01, 7.86788046e-01,
          8.18181813e-01, 7.91882098e-01, 9.51165557e-01, 4.15055484e-01,
          9.02097881e-01, 9.84252810e-01, 4.03452963e-01, 1.,
          3.56643349e-01, 5.27315736e-01, 2.05382809e-01, 5.08418977e-01,
          4.19580415e-02, 6.41475916e-02, 7.77501836e-02, 5.20994179e-02,
          6.57342672e-01, 1.61619082e-01, 2.95117468e-01, 6.94394037e-02,
          1., 8.28599930e-01, 1., 4.14343864e-01, 5.80419600e-01,
          6.76088691e-01, 1.15787730e-01, 6.53986692e-01, 4.26573426e-01,
          1.34162366e-01, 0., 1.53814539e-01, 1.53846160e-01,
          1.00757964e-01, 7.08664581e-03, 1.06884062e-01, 6.99300706e-01,
          5.97961843e-01, 2.60029256e-01, 5.26183844e-01, 1., 1.,
          6.27691805e-01, 6.80578709e-01, 7.76223779e-01, 7.69741654e-01,
          3.33035022e-01, 5.81757247e-01, 3.91608387e-01, 2.57371038e-01,
          2.80029792e-02, 2.50406742e-01, 1.18881121e-01, 9.23672020e-02,
          1.64935011e-02, 8.61138478e-02, 1., 0., 8.64947140e-02, 0.,
          4.96503502e-01, 6.71052337e-02, 1.23139918e-01, 6.03059456e-02,
          6.22377634e-01, 3.46802145e-01, 1.02771103e-01, 3.10666651e-01,
          6.64335668e-01, 2.62776464e-01, 3.71141471e-02, 2.58577585e-01,
          2.79720277e-02, 1.12460539e-01, 2.01830864e-02, 9.52588245e-02,
          0., 3.89406234e-02, 1.41744055e-02, 4.09992449e-02,
          2.09790207e-02, 7.27724060e-02, 4.90956120e-02, 6.28518462e-02,
          5.52447557e-01, 1.05627269e-01, 4.12472636e-02, 1.04164295e-01,
          1., 1.95889294e-01, 2.07541361e-02, 1.85960129e-01 ]
      - [ 1., 3.85169327e-01, 3.53788853e-01, 3.51648152e-01,
          2.98701286e-01, 1.37848541e-01, 1.39901295e-01, 1.08131081e-01,
          3.24675329e-02, 5.06818928e-02, 6.93593323e-02, 4.89187837e-02,
          0., 3.29639204e-02, 3.86163369e-02, 3.30855288e-02,
          5.19480519e-02, 0., 0., 0., 3.24675329e-02, 6.87631816e-02,
          6.78255707e-02, 5.32955714e-02, 1.10389613e-01, 2.95451134e-02,
          4.67974134e-02, 3.64866666e-02, 8.44155848e-02, 3.20042744e-02,
          4.79025878e-02, 3.49230208e-02, 5.84415570e-02, 2.77382247e-02,
          3.07737943e-02, 3.15372944e-02, 3.89610380e-02, 3.44947614e-02,
          4.52125557e-02, 4.00822237e-02, 2.01298699e-01, 7.64028654e-02,
          8.34667683e-02, 7.03143030e-02, 7.20779240e-01, 4.72952306e-01,
          4.40890133e-01, 4.92187113e-01, 1., 6.30234897e-01,
          5.60806215e-01, 6.40541494e-01, 5.71428597e-01, 5.55345237e-01,
          4.75516081e-01, 5.81000805e-01, 7.20779240e-01, 5.54694712e-01,
          5.26390731e-01, 5.64558208e-01, 5.97402573e-01, 5.90774238e-01,
          5.69472432e-01, 6.27584219e-01, 7.59740233e-01, 7.37120092e-01,
          7.62431502e-01, 7.45747983e-01, 8.37662339e-01, 9.70296741e-01,
          8.94645751e-01, 9.37982857e-01, 9.35064912e-01, 1., 1., 1.,
          8.50649357e-01, 8.51392686e-01, 7.48163879e-01, 8.62530708e-01,
          8.05194795e-01, 6.64111912e-01, 5.91293037e-01, 6.92823470e-01,
          2.66233772e-01, 3.43249917e-01, 4.23243046e-01, 3.14475536e-01,
          2.85714298e-01, 2.79681832e-01, 3.31340849e-01, 2.78633773e-01,
          1.03896104e-01, 2.28678867e-01, 2.91135818e-01, 2.27987736e-01,
          8.37662339e-01, 2.04751000e-01, 2.85246372e-01, 1.95043281e-01,
          2.33766228e-01, 2.45553464e-01, 3.15061390e-01, 2.23394006e-01 ]
      - [ 1., 5.32966077e-01, 2.90891856e-01, 4.45443600e-01,
          5.08474559e-02, 0., 1.93297584e-02, 0., 9.32203382e-02,
          2.01899841e-01, 3.56734037e-01, 1.59465626e-01, 3.98305088e-01,
          1.21960148e-01, 2.71424800e-01, 1.13981791e-01, 5.08474559e-02,
          7.34306499e-02, 0., 9.00946483e-02, 1., 6.10028207e-02,
          1.69034954e-02, 6.69001117e-02, 5.33898294e-01, 6.42375350e-01,
          5.75991392e-01, 5.66755176e-01, 1.77966103e-01, 7.06780255e-01,
          5.95639110e-01, 6.18459642e-01, 3.47457618e-01, 4.06267524e-01,
          2.61714786e-01, 3.07337195e-01, 6.35593235e-01, 2.61791497e-01,
          9.45785176e-03, 1.55751273e-01, 8.05084765e-01, 2.77595311e-01,
          1.01143876e-02, 1.47852257e-01, 2.37288132e-01, 7.61519909e-01,
          4.19204921e-01, 6.87598646e-01, 9.06779647e-01, 1., 1., 1.,
          2.28813559e-01, 7.31495023e-01, 3.59698296e-01, 6.28951907e-01,
          1.18644066e-01, 4.11104947e-01, 5.61448559e-02, 2.82325774e-01,
          3.47457618e-01, 4.02828008e-01, 8.64313915e-02, 2.83794761e-01,
          0., 5.92537642e-01, 2.58130163e-01, 4.88418847e-01,
          5.08474559e-02, 6.21339917e-01, 2.45286390e-01, 5.97549140e-01,
          2.79661030e-01, 7.72169352e-01, 2.89546609e-01, 7.19133556e-01,
          1.86440676e-01, 6.13667905e-01, 1.63263932e-01, 4.99168873e-01,
          3.22033912e-01, 5.34677505e-01, 2.49740854e-01, 4.62730885e-01,
          1.01694912e-01, 4.12054688e-01, 7.38207698e-02, 2.75953710e-01,
          9.32203382e-02, 7.26722240e-01, 2.94127405e-01, 6.21387959e-01,
          2.20338985e-01, 8.45294178e-01, 5.61829567e-01, 8.28286350e-01,
          3.30508471e-01, 8.98017049e-01, 6.34363413e-01, 9.05144036e-01,
          8.55932176e-01, 6.88454032e-01, 4.45714355e-01, 6.68025076e-01 ]
      - [ 1., 4.21217799e-01, 2.53670812e-01, 3.16093951e-01,
          7.45341629e-02, 2.89019663e-02, 2.35041440e-03, 2.47027688e-02,
          1.18012421e-01, 1.72688346e-02, 1.39244343e-03, 1.56374425e-02,
          8.69565234e-02, 1.60128549e-02, 1.59269792e-03, 1.41052119e-02,
          8.69565234e-02, 1.46783739e-02, 1.30545686e-03, 1.24169625e-02,
          8.69565234e-02, 2.43075639e-02, 1.91379699e-03, 2.12827586e-02,
          2.48447210e-02, 6.17347425e-03, 5.08747180e-04, 6.10405346e-03,
          2.48447210e-02, 0., 0., 0., 0., 2.57009733e-03, 5.35351457e-04,
          3.35971592e-03, 6.89440966e-01, 3.90411131e-02, 2.10898127e-02,
          1.50090102e-02, 7.57763982e-01, 3.85383010e-01, 2.48593986e-01,
          2.05815390e-01, 2.79503107e-01, 6.24523722e-02, 5.69655327e-03,
          5.97861595e-02, 1.92546591e-01, 9.29073691e-02, 1.76675040e-02,
          8.90004560e-02, 4.78260875e-01, 2.77892083e-01, 1.07970431e-01,
          2.45231286e-01, 8.13664615e-01, 6.57082796e-01, 4.98021662e-01,
          5.80073416e-01, 9.75155294e-01, 6.55836463e-01, 5.04271567e-01,
          5.34325361e-01, 8.50931704e-01, 4.01792914e-01, 2.97059119e-01,
          3.02345842e-01, 5.40372670e-01, 4.22527075e-01, 2.77674019e-01,
          3.82137984e-01, 6.14906847e-01, 6.68521166e-01, 4.06285673e-01,
          6.93883598e-01, 7.95031071e-01, 5.58808506e-01, 3.84601116e-01,
          4.81150478e-01, 8.32298160e-01, 8.20900619e-01, 6.63660645e-01,
          8.65722656e-01, 7.08074510e-01, 4.69835222e-01, 3.06000203e-01,
          4.94548321e-01, 6.39751554e-01, 5.61225891e-01, 3.28389943e-01,
          6.28007650e-01, 5.21739125e-01, 4.61076975e-01, 2.57888049e-01,
          4.06957000e-01, 8.63354027e-01, 8.76846254e-01, 9.70085859e-01,
          8.29479337e-01, 9.56521749e-01, 1., 1., 1. ]
      - [ 1., 4.65562344e-01, 2.23501563e-01, 4.11677599e-01,
          4.37908500e-01, 6.59436285e-01, 2.85353094e-01, 6.51896536e-01,
          2.22222224e-01, 3.15282464e-01, 1.17700018e-01, 3.44632000e-01,
          0., 0., 0., 5.34624606e-02, 6.79738581e-01, 4.46752571e-02,
          2.68884841e-02, 0., 5.29411793e-01, 3.12021434e-01,
          1.93956912e-01, 2.12106839e-01, 5.81699371e-01, 6.89143181e-01,
          3.37031543e-01, 6.78655803e-01, 7.64705896e-01, 7.62694120e-01,
          6.42869830e-01, 7.24222660e-01, 1., 1., 1., 1., 7.25490212e-01,
          8.58417571e-01, 5.71140647e-01, 9.23694730e-01, 9.28104579e-01,
          8.81556988e-01, 4.57078755e-01, 9.10657525e-01, 7.84313738e-01,
          7.23663151e-01, 3.92205685e-01, 6.88950181e-01, 9.15032685e-01,
          6.65959537e-01, 2.81545967e-01, 6.39674246e-01, 8.56209159e-01,
          7.04767883e-01, 2.93636739e-01, 6.72485232e-01, 8.30065370e-01,
          5.43722808e-01, 1.92240924e-01, 5.08951485e-01, 5.42483687e-01,
          4.96466637e-01, 1.68835983e-01, 4.63930547e-01, 5.94771266e-01,
          2.98055887e-01, 9.25333872e-02, 2.82619327e-01, 5.81699371e-01,
          2.36281246e-01, 1.11073941e-01, 2.08621964e-01, 3.33333343e-01,
          8.92297029e-02, 2.25458201e-02, 1.03876077e-01, 3.52941185e-01,
          9.48371068e-02, 2.53146663e-02, 1.10273048e-01, 4.70588237e-01,
          2.13911578e-01, 6.32389858e-02, 2.06899136e-01, 5.09803951e-01,
          2.93184966e-01, 9.46494341e-02, 2.67806619e-01, 6.01307213e-01,
          1.72263578e-01, 5.43776341e-02, 1.68888286e-01, 3.72549027e-01,
          1.05427667e-01, 3.43436822e-02, 1.20616719e-01, 4.44444448e-01,
          1.53428078e-01, 4.45450060e-02, 1.56126842e-01, 6.01307213e-01,
          2.58590221e-01, 7.33988434e-02, 2.25519538e-01 ]
      - [ 1., 3.43232185e-01, 1.88633904e-01, 3.03481549e-01,
          1.98529407e-01, 4.43415865e-02, 1.12591777e-02, 9.62820426e-02,
          1.91176474e-01, 0., 0., 6.20107837e-02, 4.26470578e-01,
          7.56682232e-02, 2.04863120e-02, 1.06212407e-01, 1.,
          7.78170049e-01, 5.92102170e-01, 7.05714285e-01, 1., 1.,
          9.99944925e-01, 1., 0., 3.66537832e-02, 5.53679094e-02,
          4.04666737e-02, 5.88235296e-02, 2.84598041e-02, 2.16579586e-02,
          7.88038969e-02, 1.47058824e-02, 2.80188732e-02, 4.13913615e-02,
          4.74073067e-02, 1., 3.16055268e-01, 1.75510690e-01,
          3.47760975e-01, 1., 4.38679129e-01, 2.44877473e-01,
          4.95470256e-01, 1., 4.41062242e-01, 3.55478555e-01,
          2.79984921e-01, 1., 8.13299358e-01, 1., 5.23273528e-01,
          9.55882370e-02, 2.99499817e-02, 5.37997894e-02, 0.,
          9.04411793e-01, 2.46998057e-01, 1.18015423e-01, 2.81317830e-01,
          1.76470593e-01, 1.39694244e-01, 4.86082137e-02, 2.26930931e-01,
          1., 4.16757137e-01, 2.47291207e-01, 5.44987559e-01,
          9.55882370e-01, 4.44801062e-01, 2.79757708e-01, 5.11296868e-01,
          1., 2.32172921e-01, 1.08735107e-01, 2.25532547e-01,
          3.16176474e-01, 1.68423131e-01, 3.11956871e-02, 2.73929358e-01,
          5.80882370e-01, 2.17184365e-01, 5.62499203e-02, 3.09425533e-01,
          3.67647052e-01, 2.04648703e-01, 5.98328412e-02, 3.45295191e-01,
          8.82352963e-02, 1.16267711e-01, 3.11883800e-02, 2.32864365e-01,
          4.26470578e-01, 1.53061256e-01, 6.36413097e-02, 2.32862607e-01,
          2.13235289e-01, 1.13961905e-01, 2.05146354e-02, 2.03609630e-01,
          5.29411793e-01, 2.31077820e-01, 5.76149039e-02, 4.09785926e-01 ]
      - [ 1., 4.09880757e-01, 2.48766795e-01, 3.32255125e-01,
          7.88888872e-01, 3.23253661e-01, 1.83338970e-01, 2.80830353e-01,
          1., 2.02009529e-01, 1.56399503e-01, 1.09809332e-01, 0., 0., 0.,
          0., 1., 4.22508121e-01, 3.21716160e-01, 2.84229726e-01, 1.,
          3.19552243e-01, 2.36937657e-01, 2.01590613e-01, 1.,
          4.67534095e-01, 4.49839205e-01, 3.14693093e-01, 1.,
          6.96029484e-01, 1., 4.28621680e-01, 1., 4.48864400e-01,
          4.74620104e-01, 2.38419443e-01, 1., 3.90706062e-01,
          2.82546461e-01, 2.23689601e-01, 5.11111140e-01, 1.23841010e-01,
          7.31322318e-02, 1.31099641e-01, 3.11111122e-01, 1.02184564e-01,
          2.56339032e-02, 1.21672563e-01, 8.44444454e-01, 2.45095909e-01,
          8.34809169e-02, 2.63625026e-01, 4.83333319e-01, 3.83337080e-01,
          8.05478394e-02, 4.83874768e-01, 6.61111116e-01, 4.66141760e-01,
          1.16560534e-01, 5.71136653e-01, 6.11111104e-01, 1.61624327e-01,
          3.70665714e-02, 1.54180959e-01, 5.27777791e-01, 3.28093916e-01,
          9.40661132e-02, 4.09805745e-01, 1., 6.82853699e-01,
          4.20085937e-01, 7.85497546e-01, 1., 1., 9.40876365e-01, 1., 1.,
          7.63373733e-01, 4.37607020e-01, 9.19281125e-01, 7.33333349e-01,
          4.06474888e-01, 1.07419170e-01, 4.48184490e-01, 4.94444430e-01,
          2.51781315e-01, 8.59294906e-02, 2.98689812e-01, 1.,
          5.03493369e-01, 3.49380761e-01, 3.89913619e-01, 1.,
          1.81192085e-01, 1.19262680e-01, 1.36976749e-01, 7.94444442e-01,
          1.16556697e-01, 8.38111490e-02, 9.03684720e-02, 5.61111093e-01,
          7.66755566e-02, 5.34554012e-02, 6.48543835e-02 ]
      - [ 1., 3.67845416e-01, 4.39222366e-01, 3.79694283e-01, 1., 0., 0.,
          0., 1., 4.99519974e-01, 4.23718870e-01, 4.36009496e-01,
          4.74576265e-01, 2.62336910e-01, 1.65685549e-01, 4.70311582e-01,
          0., 1.09808646e-01, 2.90048450e-01, 2.48670861e-01,
          1.44067794e-01, 1.04870100e-03, 6.44955039e-02, 1.74929067e-01,
          1., 2.44097427e-01, 2.42338315e-01, 3.11766744e-01,
          1.77966103e-01, 2.36009359e-01, 4.44914788e-01, 2.68218189e-01,
          2.28813559e-01, 2.37256601e-01, 2.34146580e-01, 3.34253520e-01,
          3.98305088e-01, 3.49894851e-01, 2.17690170e-01, 5.28812945e-01,
          1.61016956e-01, 3.77677351e-01, 4.32508469e-01, 4.78612334e-01,
          1.18644066e-01, 2.37804711e-01, 3.52897346e-01, 2.23538578e-01,
          3.22033912e-01, 2.86917031e-01, 2.70636141e-01, 3.58829856e-01,
          5.00000000e-01, 4.15358007e-01, 3.83822560e-01, 5.08287966e-01,
          2.88135588e-01, 2.00673833e-01, 3.39730561e-01, 2.51808405e-01,
          1.61016956e-01, 3.37878764e-01, 6.79763436e-01, 3.03325415e-01,
          3.55932206e-01, 2.03151733e-01, 5.18797338e-01, 1.63478002e-01,
          2.96610177e-01, 2.19325110e-01, 5.80222011e-01, 2.11384609e-01,
          1.69491526e-02, 2.36039668e-01, 5.62667787e-01, 2.27794394e-01,
          2.62711853e-01, 3.00448477e-01, 6.59853339e-01, 2.89816737e-01,
          2.62711853e-01, 3.37328017e-01, 6.71465278e-01, 2.96149313e-01,
          1., 1., 1., 3.86415929e-01, 1., 5.83395183e-01, 6.29924893e-01,
          5.89141965e-01, 5.76271176e-01, 6.59447610e-01, 4.97949630e-01,
          8.92218113e-01, 5.67796588e-01, 7.13139415e-01, 5.57250917e-01,
          1., 2.28813559e-01, 5.11207938e-01, 6.20005190e-01,
          6.78635359e-01 ]
      - [ 1., 6.27204180e-01, 5.45738399e-01, 6.18913412e-01, 1.,
          5.22570491e-01, 3.51962358e-01, 6.25801682e-01, 1.,
          5.70085466e-01, 4.42572385e-01, 7.05167651e-01, 1.,
          7.14029670e-01, 6.89932227e-01, 7.75478065e-01, 1.,
          7.59036005e-01, 5.51987946e-01, 8.27931762e-01, 1.,
          8.34696174e-01, 4.46193159e-01, 8.82141292e-01, 0.,
          5.25559187e-01, 3.70207071e-01, 6.28821433e-01, 1.,
          7.05030859e-01, 7.94936299e-01, 6.16993129e-01, 1.,
          5.58423817e-01, 6.83225572e-01, 2.92334825e-01, 1.,
          7.60322988e-01, 5.67964077e-01, 8.44106734e-01, 1.,
          6.28975928e-01, 2.80235350e-01, 7.42261171e-01, 1.,
          7.07241476e-01, 6.13758624e-01, 7.27774382e-01, 1.,
          6.67972028e-01, 7.94241786e-01, 5.91212094e-01, 1.,
          8.13553810e-01, 9.87335503e-01, 6.55452013e-01, 1.,
          3.77221853e-01, 3.19222301e-01, 3.60745847e-01, 1.,
          9.16691497e-02, 1.58062968e-02, 1.14043340e-01, 1.,
          7.96733081e-01, 6.79255843e-01, 8.72500539e-01, 1.,
          6.64461553e-01, 7.62142241e-01, 5.57612002e-01, 1.,
          8.34062576e-01, 1., 6.57734632e-01, 1., 3.59825104e-01,
          2.67143250e-01, 3.61554265e-01, 7.74999976e-01, 0., 0., 0., 1.,
          7.36582398e-01, 5.93321919e-01, 7.71584094e-01, 1., 1.,
          9.94900823e-01, 1., 1., 9.17215705e-01, 9.33910072e-01,
          9.21866834e-01, 1., 5.15422344e-01, 3.32516253e-01,
          5.62394917e-01, 1., 3.91788781e-01, 1.41466007e-01,
          4.69844401e-01 ]
      - [ 1., 6.32946432e-01, 4.30807471e-01, 4.50201362e-01, 0., 0., 0.,
          0., 1.20331950e-01, 1.73128285e-02, 1.89857034e-03,
          1.23417275e-02, 1., 1.75660804e-01, 4.19958495e-02,
          4.46664430e-02, 1., 6.70210779e-01, 6.36243343e-01,
          3.55418801e-01, 1., 7.25231826e-01, 9.70454574e-01,
          4.56724763e-01, 1., 3.99065435e-01, 2.40454853e-01,
          1.75113931e-01, 1., 3.29919457e-01, 1.40154079e-01,
          1.06387794e-01, 1., 3.72199684e-01, 1.81906879e-01,
          1.20254382e-01, 1., 8.83847177e-01, 9.75114763e-01,
          5.05064666e-01, 1., 5.13825834e-01, 3.62729371e-01,
          3.61206621e-01, 1., 3.17657471e-01, 9.28455442e-02,
          2.23997101e-01, 1., 2.76293308e-01, 5.30761071e-02,
          1.82192355e-01, 1., 4.38710213e-01, 3.60764146e-01,
          2.68962801e-01, 1., 4.74943995e-01, 3.13256800e-01,
          3.29379797e-01, 1., 4.48263228e-01, 2.62635320e-01,
          3.28885794e-01, 1., 8.33724260e-01, 5.00468850e-01,
          8.52097511e-01, 1., 7.45416880e-01, 4.43404824e-01,
          6.98275864e-01, 1., 7.47400939e-01, 4.91724342e-01,
          6.48163557e-01, 1., 6.64338827e-01, 3.73950303e-01,
          5.76914191e-01, 1., 6.35714889e-01, 4.05121744e-01,
          5.36225438e-01, 1., 8.90321434e-01, 5.15738785e-01, 1., 1.,
          9.10818994e-01, 6.93600297e-01, 9.46727812e-01, 1., 1.,
          9.83942688e-01, 9.40086186e-01, 1., 9.64498580e-01, 1.,
          8.71116221e-01, 1., 8.15030754e-01, 7.08250463e-01,
          7.35245466e-01 ]
      - [ 1., 4.24572110e-01, 3.60171109e-01, 3.62484217e-01,
          2.57575750e-01, 5.42207241e-01, 4.26270634e-01, 4.00953412e-01,
          4.24242437e-01, 9.09975171e-02, 1.52191296e-01, 3.81770357e-02,
          2.19696969e-01, 1.01162300e-01, 8.67153481e-02, 6.38724789e-02,
          2.19696969e-01, 1.16491981e-01, 1.75137773e-01, 6.38392493e-02,
          0., 0., 0., 0., 3.78787875e-01, 1., 9.17661250e-01, 1.,
          5.30303001e-01, 6.84592366e-01, 7.73888826e-01, 5.82599998e-01,
          5.60606062e-01, 6.57530010e-01, 1., 4.71066713e-01, 1.,
          6.35951161e-01, 9.09445763e-01, 3.47625881e-01, 6.06060624e-01,
          2.96958834e-01, 2.75981963e-01, 2.02564612e-01, 3.10606062e-01,
          3.91537607e-01, 2.74943441e-01, 3.38000000e-01, 6.06060624e-01,
          6.71004653e-01, 6.75466001e-01, 5.49556792e-01, 7.80303001e-01,
          3.74095470e-01, 3.68950784e-01, 3.50404799e-01, 9.46969688e-01,
          2.34451413e-01, 1.69630527e-01, 2.59122550e-01, 5.22727251e-01,
          2.41808355e-01, 1.63259521e-01, 2.78063804e-01, 8.18181813e-01,
          6.99805617e-01, 4.67777431e-01, 6.86987281e-01, 7.80303001e-01,
          5.13761938e-01, 3.44448656e-01, 5.28081894e-01, 5.83333313e-01,
          4.14874345e-01, 2.72037864e-01, 4.65444714e-01, 1.36363640e-01,
          2.46761918e-01, 1.99432045e-01, 3.03151906e-01, 1.81818187e-01,
          3.85752052e-01, 2.22813010e-01, 4.46962982e-01, 7.57575780e-03,
          2.84240723e-01, 1.33944303e-01, 2.67980665e-01, 2.42424250e-01,
          4.06892210e-01, 2.23779917e-01, 3.91650677e-01, 1.13636367e-01,
          1.83731511e-01, 1.25887141e-01, 1.64737090e-01, 3.78787875e-01,
          3.18824679e-01, 2.36076221e-01, 3.00363839e-01, 2.42424250e-01,
          6.15285158e-01, 3.86372030e-01, 6.04363739e-01 ]
      - [ 1., 5.66624224e-01, 2.91918099e-01, 4.49846894e-01, 1., 1., 1.,
          9.23264682e-01, 7.74436116e-01, 8.51884663e-01, 8.03906679e-01,
          8.77240419e-01, 6.84210539e-01, 7.26367772e-01, 4.29098904e-01,
          7.04994917e-01, 8.87218058e-01, 7.06698596e-01, 3.37379932e-01,
          7.21181214e-01, 6.39097750e-01, 6.44339561e-01, 4.69585329e-01,
          5.50645769e-01, 1., 8.96563828e-01, 5.25611341e-01,
          8.74965668e-01, 8.19548845e-01, 9.22478080e-01, 7.20887184e-01,
          9.72870946e-01, 8.34586442e-01, 5.51559567e-01, 4.09328669e-01,
          4.89458889e-01, 2.70676702e-01, 5.18562555e-01, 2.57682323e-01,
          5.49402654e-01, 6.84210539e-01, 4.04686421e-01, 1.92386389e-01,
          2.42094725e-01, 5.03759384e-01, 4.82092768e-01, 3.91619116e-01,
          2.05420181e-01, 5.18796980e-01, 2.85402477e-01, 8.21814463e-02,
          2.28171900e-01, 3.98496240e-01, 2.79569209e-01, 2.13721886e-01,
          1.66756660e-01, 4.06015038e-01, 1.53324783e-01, 5.08604795e-02,
          9.05917436e-02, 1.42857149e-01, 1.65029138e-01, 6.00475110e-02,
          9.37000811e-02, 1., 9.95016575e-01, 4.21581447e-01, 1.,
          8.19548845e-01, 7.44064391e-01, 2.55781353e-01, 6.32833838e-01,
          8.87218058e-01, 7.49875963e-01, 2.74257064e-01, 7.19359875e-01,
          1., 5.88526845e-01, 1.37524113e-01, 5.48052669e-01,
          5.93984962e-01, 6.44117773e-01, 2.14911759e-01, 5.99727750e-01,
          6.99248135e-01, 1.38920262e-01, 1.41902408e-02, 6.71380386e-02,
          9.09774423e-01, 4.19006981e-02, 1.04427729e-02, 1.44706937e-02,
          0., 0., 0., 0., 7.81954885e-01, 3.37201953e-02, 2.16586818e-03,
          1.90595109e-02, 3.30827057e-01, 4.38266993e-02, 4.90533886e-03,
          2.55979300e-02 ]
      - [ 1., 5.47776997e-01, 3.14462602e-01, 4.18057233e-01,
          1.27659570e-02, 1.36609618e-02, 1.59465196e-03, 1.82978697e-02,
          0., 5.46015240e-03, 7.99874892e-04, 7.78488303e-03,
          4.25531901e-02, 0., 0., 0., 0., 3.90844513e-03, 3.31648131e-04,
          4.18202812e-03, 0., 1.12052886e-02, 1.13943254e-03,
          1.39660565e-02, 3.44680846e-01, 3.88742760e-02, 2.75788940e-02,
          3.63550857e-02, 0., 1.88270081e-02, 1.97692402e-03,
          2.37091426e-02, 4.25531901e-03, 1.96481496e-02, 1.73978368e-03,
          2.48744786e-02, 1.06382981e-01, 2.07921453e-02, 1.99782383e-03,
          2.54816115e-02, 2.12765951e-02, 2.90371776e-02, 4.07641381e-03,
          3.57319750e-02, 6.34042561e-01, 5.19821763e-01, 2.80950785e-01,
          4.48089123e-01, 6.17021263e-01, 6.42372429e-01, 4.08192873e-01,
          5.31228423e-01, 1., 8.48921180e-01, 7.62382209e-01,
          6.69496953e-01, 1., 6.75138235e-01, 4.92718667e-01,
          5.39462626e-01, 1., 5.15961826e-01, 2.96682656e-01,
          4.24816370e-01, 5.10638297e-01, 6.51058912e-01, 3.11091542e-01,
          6.68052018e-01, 6.72340453e-01, 8.13658059e-01, 5.10491371e-01,
          8.18103731e-01, 1., 1., 8.17296684e-01, 1., 7.23404229e-01,
          9.89816487e-01, 1., 9.49370325e-01, 7.78723419e-01,
          9.36144054e-01, 8.07879150e-01, 9.34421659e-01, 5.53191483e-01,
          6.47687197e-01, 3.09450418e-01, 6.36714756e-01, 6.97872341e-01,
          7.29335248e-01, 4.21558201e-01, 7.12628365e-01, 6.80851042e-01,
          6.84789717e-01, 4.38606739e-01, 6.13724589e-01, 7.10638285e-01,
          7.78971374e-01, 5.38948357e-01, 7.45762050e-01, 7.74468064e-01,
          6.66736186e-01, 4.14709657e-01, 6.24221623e-01 ]
      - [ 1., 3.16521347e-01, 2.21606642e-01, 1.76837027e-01,
          2.13675220e-02, 1.21767400e-02, 3.76352575e-03, 1.99686047e-02,
          1.70940179e-02, 8.88035540e-03, 3.37187806e-03, 1.33111421e-02,
          2.13675220e-02, 9.92627442e-03, 3.74959176e-03, 1.60043873e-02,
          2.13675220e-02, 1.35158384e-02, 4.47125128e-03, 2.30174195e-02,
          2.13675220e-02, 1.43181821e-02, 4.60900879e-03, 2.26240233e-02,
          2.13675220e-02, 2.34851288e-03, 1.12296187e-03, 5.20492485e-03,
          2.56410260e-02, 3.43254791e-03, 1.78084162e-03, 7.37238303e-03,
          8.54700897e-03, 1.89797895e-03, 1.06734980e-03, 4.36895946e-03,
          3.41880359e-02, 1.20089855e-03, 1.02921727e-03, 0., 1.,
          2.02633180e-02, 2.03232025e-03, 6.01441180e-03, 8.29059839e-01,
          9.35568362e-02, 2.31910553e-02, 2.71329414e-02, 4.27350448e-03,
          1.30030641e-03, 1.21726864e-03, 4.51270025e-03, 2.82051295e-01,
          5.15026739e-03, 1.76120829e-03, 8.06082506e-03, 0.,
          2.51309772e-04, 6.52237562e-04, 4.18739254e-03, 1.19658120e-01,
          0., 0., 3.17742524e-04, 1., 4.64400887e-01, 4.86340553e-01,
          1.58383295e-01, 7.69230783e-01, 2.78619081e-01, 3.94202262e-01,
          1.44357234e-01, 6.66666687e-01, 1.74530908e-01, 8.05537626e-02,
          1.41312197e-01, 9.40170944e-01, 1.85343131e-01, 6.45611286e-02,
          1.39697015e-01, 1., 3.79490733e-01, 1.47986948e-01,
          2.49450564e-01, 1., 2.18217358e-01, 7.08737731e-01,
          7.60274604e-02, 1., 6.23749673e-01, 7.88942516e-01,
          5.52293241e-01, 1., 8.16117525e-01, 9.80194092e-01,
          8.55873525e-01, 1., 9.38703060e-01, 1., 9.64106441e-01, 1., 1.,
          8.14928174e-01, 1. ]
      - [ 1., 6.48163915e-01, 4.75004971e-01, 4.81972545e-01, 1.,
          8.58945847e-01, 9.40569580e-01, 6.32316113e-01, 1.,
          1.28071561e-01, 4.11967281e-03, 3.76254171e-02, 4.11522621e-03,
          0., 0., 0., 1.23456791e-02, 8.17934866e-04, 2.70360761e-05,
          1.92883064e-03, 0., 2.12000147e-03, 1.14617717e-06,
          5.28353266e-03, 1., 9.59302545e-01, 7.85059571e-01,
          7.27104604e-01, 1., 9.01390076e-01, 4.85698998e-01,
          5.88215590e-01, 1., 6.33469045e-01, 3.04695755e-01,
          3.45776856e-01, 1., 4.74652350e-01, 2.23597735e-02,
          2.17012510e-01, 1., 4.84115213e-01, 3.26710850e-01,
          2.92311311e-01, 1., 4.54987884e-01, 2.42335260e-01,
          3.77386749e-01, 1., 1., 9.53946829e-01, 1., 1., 9.14364040e-01,
          7.05999792e-01, 8.54827046e-01, 1., 7.15334356e-01,
          5.39302766e-01, 7.51979530e-01, 1., 5.60075581e-01,
          4.52165425e-01, 5.26030898e-01, 1., 5.37186563e-01,
          4.25511271e-01, 3.96972954e-01, 1., 6.30648315e-01,
          6.12887323e-01, 4.74832654e-01, 1., 7.77109623e-01,
          9.82321262e-01, 5.98041117e-01, 1., 4.93968040e-01,
          5.74589789e-01, 3.95664841e-01, 1., 4.58246291e-01,
          4.28776920e-01, 3.46658587e-01, 1., 7.64324903e-01,
          5.56828141e-01, 7.12076962e-01, 1., 9.87206042e-01, 1.,
          9.16174889e-01, 1., 8.34996164e-01, 8.30094218e-01,
          8.15675855e-01, 1., 5.82959354e-01, 4.62410927e-01,
          6.33228302e-01, 1., 3.64813060e-01, 2.18594149e-01,
          4.25030172e-01 ]
      - [ 1., 5.69127798e-01, 3.48496139e-01, 4.38908994e-01,
          6.66666687e-01, 5.06172597e-01, 2.16218024e-01, 4.22015667e-01,
          3.62573087e-01, 3.91393512e-01, 4.51418638e-01, 3.00792068e-01,
          0., 0., 0., 0., 2.28070170e-01, 3.96026731e-01, 2.01653495e-01,
          3.65284383e-01, 6.72514617e-01, 8.05474222e-01, 5.35289645e-01,
          7.39780724e-01, 5.61403513e-01, 4.91625130e-01, 1.75066754e-01,
          3.86924326e-01, 5.55555582e-01, 5.69752693e-01, 7.49996066e-01,
          4.54634041e-01, 5.02923965e-01, 4.12555367e-01, 1.72282636e-01,
          3.55440140e-01, 8.18713427e-01, 6.10364437e-01, 3.66926581e-01,
          5.72463572e-01, 9.94152069e-01, 5.82770228e-01, 2.40204990e-01,
          4.86585081e-01, 5.20467818e-01, 4.05817270e-01, 1.38577372e-01,
          3.21564257e-01, 5.43859661e-01, 8.40242267e-01, 5.81557214e-01,
          8.23372722e-01, 1., 8.02817523e-01, 6.15236878e-01,
          5.60409904e-01, 7.07602322e-01, 4.82984781e-01, 3.59597355e-01,
          3.72303754e-01, 8.53801191e-01, 2.94937909e-01, 3.73157412e-02,
          1.83406934e-01, 8.24561417e-01, 3.61112744e-01, 6.63319379e-02,
          2.59410352e-01, 4.38596487e-01, 8.91360462e-01, 5.05976021e-01,
          8.86524796e-01, 1., 6.65512562e-01, 7.18351841e-01,
          1.24983527e-01, 1., 5.42318583e-01, 4.25906420e-01,
          2.83826113e-01, 6.90058470e-01, 3.54587525e-01, 4.33841348e-02,
          2.29532748e-01, 1., 3.64391297e-01, 7.26172850e-02,
          2.18024418e-01, 6.78362548e-01, 1., 6.79172456e-01,
          9.55817223e-01, 6.84210539e-01, 9.68363225e-01, 1., 1.,
          4.15204674e-01, 5.92262745e-01, 2.82301754e-01, 5.00761211e-01,
          8.94736826e-01, 3.82444561e-01, 6.11059889e-02, 2.27962598e-01 ]
      - [ 1., 5.16043067e-01, 2.72713661e-01, 4.77703989e-01,
          6.42201826e-02, 1.41242340e-01, 8.87760241e-03, 1.95979863e-01,
          5.96330278e-02, 1.48849264e-01, 9.45889764e-03, 2.00117081e-01,
          1.51376143e-01, 1.76469401e-01, 1.27806282e-02, 2.22489640e-01,
          1.05504587e-01, 1.69969782e-01, 1.15683973e-02, 2.07010224e-01,
          0., 0., 0., 0., 5.73394477e-01, 4.17409718e-01, 2.14655489e-01,
          3.66660029e-01, 4.35779810e-01, 3.46714377e-01, 1.01242989e-01,
          3.67698878e-01, 5.09174287e-01, 3.73812169e-01, 9.44726914e-02,
          3.44881505e-01, 2.70642191e-01, 2.53552943e-01, 4.82578985e-02,
          2.36739859e-01, 3.99082571e-01, 2.94588387e-01, 4.94527966e-02,
          3.19756866e-01, 7.47706413e-01, 5.48606753e-01, 4.25843120e-01,
          5.61817229e-01, 5.82568824e-01, 7.76711226e-01, 7.32734740e-01,
          7.37000048e-01, 7.47706413e-01, 9.78299856e-01, 1.,
          8.28737259e-01, 1., 8.31657529e-01, 6.87979221e-01,
          7.47370362e-01, 5.04587173e-01, 7.45946288e-01, 6.97932661e-01,
          7.06282258e-01, 4.44954127e-01, 2.65014708e-01, 8.73459727e-02,
          3.18194777e-01, 4.63302761e-01, 4.83001709e-01, 2.15980008e-01,
          4.94308323e-01, 6.97247684e-01, 7.88783133e-01, 4.99619067e-01,
          7.49295950e-01, 6.42201841e-01, 1., 7.82622814e-01, 1.,
          4.77064222e-01, 8.55406940e-01, 6.29037857e-01, 9.03612792e-01,
          3.21100920e-01, 2.21782774e-01, 2.79660374e-02, 2.97091603e-01,
          2.79816508e-01, 3.54332507e-01, 1.03589177e-01, 4.17733908e-01,
          2.47706428e-01, 4.94402975e-01, 1.23485617e-01, 6.06541276e-01,
          2.75229365e-01, 5.01755118e-01, 1.30477324e-01, 6.24423683e-01,
          2.93577969e-01, 4.35013145e-01, 1.05224587e-01, 5.52515447e-01 ]
      - [ 1., 5.33241868e-01, 1.69769347e-01, 3.31779242e-01, 1.,
          2.53846735e-01, 1.28929466e-01, 2.91855168e-02, 1.,
          8.62720728e-01, 8.46445858e-01, 3.62222075e-01, 1.,
          9.81654763e-01, 1., 3.72566432e-01, 7.72058845e-01,
          2.77786881e-01, 1.16989441e-01, 0., 1., 8.42884243e-01,
          3.83048147e-01, 3.32011014e-01, 1., 3.93861443e-01,
          1.01428740e-01, 2.16358095e-01, 9.70588207e-01, 6.26342058e-01,
          1.28406987e-01, 4.39045131e-01, 1., 8.55103791e-01,
          2.03125417e-01, 6.09362662e-01, 8.89705896e-01, 4.68887776e-01,
          9.51246098e-02, 3.19010437e-01, 6.47058845e-01, 1.22233190e-01,
          1.55226942e-02, 8.86376351e-02, 1., 8.40903282e-01,
          2.58605778e-01, 5.76028824e-01, 4.63235289e-01, 1.,
          1.76787749e-01, 1., 6.02941155e-01, 8.30599964e-01,
          1.47197098e-01, 7.96753049e-01, 9.55882370e-02, 3.40164661e-01,
          3.80246006e-02, 3.30851138e-01, 3.01470578e-01, 3.70480537e-01,
          4.20788191e-02, 3.88534039e-01, 1., 7.34568954e-01,
          2.06625730e-01, 5.64482868e-01, 3.52941185e-01, 4.61080343e-01,
          7.40946159e-02, 4.03400153e-01, 3.75000000e-01, 6.27181411e-01,
          1.14712395e-01, 5.51522195e-01, 7.35294148e-02, 2.40009576e-01,
          2.92457342e-02, 2.22562701e-01, 4.41176482e-02, 1.57895416e-01,
          1.42917586e-02, 1.70942530e-01, 5.07352948e-01, 2.09690556e-01,
          3.96819413e-02, 1.35359243e-01, 1.17647059e-01, 1.77415371e-01,
          2.88827028e-02, 1.49688601e-01, 3.23529422e-01, 2.52459347e-01,
          4.35164347e-02, 2.01458275e-01, 0., 4.66833636e-02,
          7.60894455e-03, 5.86168654e-02, 2.20588241e-02, 0., 0.,
          2.67974474e-02 ]
      - [ 1., 6.39720500e-01, 3.56551886e-01, 5.57548404e-01, 1.,
          2.14976832e-01, 4.47116196e-02, 1.25949264e-01, 0., 0., 0., 0.,
          1., 3.33370000e-01, 1.73413113e-01, 1.83328792e-01, 1.,
          3.58447522e-01, 3.07958126e-01, 2.02763572e-01, 1.,
          8.00857365e-01, 9.09447312e-01, 6.50762916e-01, 1.,
          5.39070010e-01, 3.03440541e-01, 4.33603495e-01, 1.,
          4.77281690e-01, 2.75024593e-01, 3.93055558e-01, 1.,
          6.88396156e-01, 4.62496519e-01, 7.37052500e-01, 1.,
          7.45526552e-01, 3.11238885e-01, 7.34057307e-01, 1., 1.,
          3.62612456e-01, 1., 1., 4.26903456e-01, 2.65303403e-01,
          2.61234224e-01, 1., 4.35090840e-01, 2.07828209e-01,
          3.63401741e-01, 1., 7.36250997e-01, 5.82805514e-01,
          8.52498114e-01, 1., 6.24240458e-01, 3.55140448e-01,
          6.63984239e-01, 1., 7.21575379e-01, 2.57922947e-01,
          6.71725571e-01, 1., 6.09202325e-01, 2.88402706e-01,
          5.10938525e-01, 1., 5.26467681e-01, 2.68734217e-01,
          4.60837364e-01, 1., 6.79087579e-01, 3.99362952e-01,
          7.53309965e-01, 1., 6.80080891e-01, 3.98425490e-01,
          6.76952064e-01, 1., 8.33156645e-01, 3.61742586e-01,
          8.06383431e-01, 1., 5.99169374e-01, 4.35803115e-01,
          4.66770530e-01, 1., 9.38837945e-01, 1., 8.37809443e-01, 1.,
          9.36015308e-01, 4.29062158e-01, 9.80256617e-01, 1.,
          7.56723046e-01, 3.07325155e-01, 7.35680044e-01, 1.,
          5.27039289e-01, 1.79894745e-01, 4.57644224e-01 ]
      - [ 1., 3.60469460e-01, 2.38913491e-01, 5.43673694e-01, 0.,
          1.79726809e-01, 0., 4.20060694e-01, 1.83206111e-01,
          3.47786009e-01, 7.81919714e-03, 7.19836831e-01, 2.29007639e-02,
          3.45460594e-01, 5.81393577e-03, 7.34271944e-01, 2.59541988e-01,
          2.81464815e-01, 4.07534055e-02, 5.72830975e-01, 4.58015278e-02,
          3.34430307e-01, 5.08159492e-03, 7.05362797e-01, 4.58015278e-02,
          1.84578300e-01, 3.30088334e-03, 4.23077613e-01, 2.74809152e-01,
          4.64009285e-01, 1.74126148e-01, 7.69289732e-01, 3.96946579e-01,
          3.23432058e-01, 1.63934842e-01, 4.56730604e-01, 7.32824445e-01,
          1., 1., 8.12244833e-01, 1., 6.01419926e-01, 5.68500400e-01,
          3.48031819e-01, 1.98473290e-01, 3.55975837e-01, 6.79687411e-02,
          6.23289526e-01, 2.67175585e-01, 4.11965162e-01, 1.54469371e-01,
          6.65448546e-01, 4.80916023e-01, 4.84622419e-01, 2.09181026e-01,
          7.43804574e-01, 3.96946579e-01, 2.45317563e-01, 1.25203490e-01,
          4.17974591e-01, 7.63358772e-01, 2.31231749e-01, 1.56411663e-01,
          4.06367838e-01, 3.74045789e-01, 3.36183727e-01, 1.84445098e-01,
          7.14997172e-01, 4.27480906e-01, 5.34441590e-01, 3.16030473e-01,
          9.70025361e-01, 5.95419824e-01, 6.09892249e-01, 4.62750167e-01,
          1., 6.94656491e-01, 3.89282227e-01, 4.24196750e-01,
          5.97511053e-01, 3.74045789e-01, 2.28479996e-01, 3.27712744e-01,
          3.91097695e-01, 6.25954211e-01, 1.59984484e-01, 2.43017197e-01,
          3.29226971e-01, 4.58015263e-01, 2.64155000e-01, 3.83996218e-01,
          4.05912906e-01, 6.33587778e-01, 3.12563598e-01, 4.06957835e-01,
          3.74603420e-01, 2.74809152e-01, 1.78427681e-01, 3.63382459e-01,
          1.72083944e-01, 9.16030556e-02, 0., 1.68874130e-01, 0. ]
      - [ 1., 4.30712163e-01, 2.59805053e-01, 4.85025853e-01, 1.,
          3.84396672e-01, 6.60025477e-02, 5.01136124e-01, 1.,
          2.16031343e-01, 6.90232366e-02, 3.23115826e-01, 1.,
          7.02237561e-02, 1.03745341e-01, 2.12048560e-01, 1.,
          7.02874139e-02, 5.24682999e-02, 2.29247123e-01, 1.,
          4.90553200e-01, 2.07227349e-01, 6.39719486e-01, 1., 0., 0., 0.,
          1., 5.55993021e-02, 5.11543229e-02, 1.16043434e-01, 1.,
          3.04900467e-01, 3.09954941e-01, 3.45053256e-01, 1.,
          1.42856076e-01, 1.26744896e-01, 2.51539767e-01, 1.,
          1.40133426e-01, 5.67297190e-02, 2.49521285e-01, 1.,
          6.44678622e-02, 3.95532139e-03, 3.84762473e-02, 1.,
          3.06043535e-01, 3.14194202e-01, 1.37895793e-01, 1.,
          3.34058434e-01, 3.73951882e-01, 1.50786489e-01, 1.,
          4.40959305e-01, 2.30531827e-01, 4.94316578e-01, 1.,
          5.88267684e-01, 3.29602629e-01, 7.62084961e-01, 1.,
          6.88523412e-01, 2.52408147e-01, 8.03562522e-01, 1.,
          6.95608914e-01, 4.37865287e-01, 7.49404430e-01, 1.,
          7.79849887e-01, 6.55887485e-01, 8.91807497e-01, 1.,
          6.05077267e-01, 3.46294641e-01, 8.24502826e-01, 1.,
          4.67316449e-01, 2.00812235e-01, 5.99937379e-01, 1.,
          5.06230474e-01, 1.42860681e-01, 6.04667664e-01, 1.,
          8.25207889e-01, 5.85433185e-01, 8.66790175e-01, 1., 1., 1., 1.,
          1., 5.47007143e-01, 4.27940398e-01, 6.35503113e-01, 0.,
          5.37664950e-01, 1.29214510e-01, 7.43070245e-01 ]
      - [ 1., 4.24346954e-01, 2.79483259e-01, 3.82675707e-01,
          5.14084518e-01, 6.10904992e-01, 3.21967959e-01, 5.61721921e-01,
          3.02816898e-01, 2.51499981e-01, 1.62681088e-01, 2.51870334e-01,
          5.00000000e-01, 2.16723740e-01, 1.12449102e-01, 2.49693766e-01,
          4.43661958e-01, 4.10240799e-01, 1.61632463e-01, 5.36989212e-01,
          4.78873253e-01, 5.94201386e-01, 2.35507101e-01, 8.08487594e-01,
          6.33802831e-01, 7.29901135e-01, 4.84000534e-01, 6.53317809e-01,
          8.23943675e-01, 6.32697523e-01, 6.67946815e-01, 5.16707242e-01,
          1.83098584e-01, 9.99836475e-02, 1.42018110e-01, 9.50168632e-03,
          4.22535211e-01, 3.42268795e-01, 4.08763587e-01, 6.80295378e-02,
          6.12676084e-01, 4.75902230e-01, 4.51804340e-01, 2.18407020e-01,
          5.14084518e-01, 7.11224496e-01, 3.81195545e-01, 9.48372722e-01,
          5.42253494e-01, 5.98032415e-01, 2.98324525e-01, 7.70929813e-01,
          3.16901416e-01, 4.55626547e-01, 2.43966132e-01, 5.17214775e-01,
          1., 5.54275870e-01, 5.76359391e-01, 3.27366501e-01,
          9.22535241e-01, 1., 1., 6.18775964e-01, 4.08450693e-01,
          6.82177126e-01, 2.28048906e-01, 1., 2.11267605e-01,
          3.36477548e-01, 1.12915114e-01, 3.67330194e-01, 2.74647892e-01,
          3.00834149e-01, 1.60551921e-01, 2.51709282e-01, 3.23943675e-01,
          3.57295364e-01, 3.51392090e-01, 1.81527585e-01, 8.52112651e-01,
          2.64828652e-01, 1.76309183e-01, 1.09837927e-01, 9.15492922e-02,
          2.47984052e-01, 1.24241352e-01, 3.59492660e-01, 2.11267605e-01,
          1.09923176e-01, 8.75989124e-02, 1.44721374e-01, 0.,
          1.52945621e-02, 5.52899204e-02, 0., 1.05633803e-01, 0.,
          1.28077650e-02, 8.48319530e-02, 3.38028163e-01, 6.78041652e-02,
          0., 1.52924925e-01 ]
      - [ 1., 5.51979601e-01, 1.92493156e-01, 4.36948091e-01,
          3.91304344e-02, 4.17943187e-02, 2.08559562e-03, 5.01824133e-02,
          3.91304344e-02, 3.01724765e-02, 1.78172137e-03, 3.50884013e-02,
          3.91304344e-02, 1.23040583e-02, 6.64734980e-04, 1.27150659e-02,
          4.34782589e-03, 1.00423833e-02, 1.20196477e-04, 9.95617732e-03,
          0., 2.64586601e-02, 9.90336412e-04, 2.97217369e-02,
          1.60869569e-01, 8.39837119e-02, 5.10947313e-03, 9.82363001e-02,
          3.04347817e-02, 4.27316129e-02, 2.11611181e-03, 5.32435291e-02,
          3.47826071e-02, 1.63610838e-02, 5.36130683e-04, 2.13716719e-02,
          0., 0., 0., 0., 6.60869539e-01, 4.10219967e-01, 4.53878433e-01,
          1.02381110e-01, 5.86956501e-01, 7.24720240e-01, 4.89793211e-01,
