%YAML:1.0
my_svm: !!opencv-ml-svm
   svm_type: C_SVC
   kernel: { type:RBF, gamma:5.0625000000000009e-01 }
   C: 2.5000000000000000e+00
   term_criteria: { epsilon:1.1920928955078125e-07, iterations:1000 }
   var_all: 101
   var_count: 101
   class_count: 2
   class_labels: !!opencv-matrix
      rows: 1
      cols: 2
      dt: i
      data: [ 0, 1 ]
   sv_total: 361
   support_vectors:
      - [ 9.15100098e-01, 9.93411541e-01, 9.94303942e-01, 9.93975222e-01,
          9.94477868e-01, 9.94781733e-01, 9.95479882e-01, 9.94325638e-01,
          9.95662332e-01, 9.95647073e-01, 9.96011615e-01, 9.93458807e-01,
          9.94030952e-01, 9.94758964e-01, 9.94013727e-01, 9.95507538e-01,
          9.95001316e-01, 9.51385021e-01, 9.95730281e-01, 9.95603144e-01,
          9.96246397e-01, 9.93863940e-01, 9.95106757e-01, 9.94629264e-01,
          9.94842470e-01, 9.94793296e-01, 9.95033681e-01, 9.28583741e-01,
          9.90250885e-01, 9.95127201e-01, 9.96430397e-01, 9.95182097e-01,
          9.94379222e-01, 9.94223297e-01, 9.94993448e-01, 9.94986236e-01,
          9.92787004e-01, 8.53405774e-01, 9.17659819e-01, 9.79900002e-01,
          9.13185120e-01, 9.95003343e-01, 9.95254993e-01, 9.95000005e-01,
          9.95425880e-01, 9.95078623e-01, 9.44718242e-01, 8.46897840e-01,
          8.79502296e-01, 8.45995247e-01, 8.18757236e-01, 9.95058835e-01,
          9.90593672e-01, 9.80862677e-01, 9.19028342e-01, 9.28765535e-01,
          8.61237943e-01, 9.00919974e-01, 8.71768355e-01, 7.73313880e-01,
          7.74743855e-01, 8.96419644e-01, 8.81542325e-01, 8.55482817e-01,
          8.69226158e-01, 8.25305700e-01, 8.32721949e-01, 7.82954335e-01,
          7.87192345e-01, 7.79184401e-01, 7.96707213e-01, 8.50214303e-01,
          8.78802299e-01, 8.88753593e-01, 9.19398546e-01, 8.62934589e-01,
          8.07399750e-01, 7.88002670e-01, 7.85217941e-01, 8.59717667e-01,
          8.49332690e-01, 8.65254819e-01, 8.96417499e-01, 9.29250419e-01,
          9.08327878e-01, 8.30237985e-01, 8.33513021e-01, 8.38101506e-01,
          8.34317744e-01, 8.44024777e-01, 9.02925253e-01, 8.35985661e-01,
          8.79382551e-01, 8.83322716e-01, 8.62171531e-01, 8.54198933e-01,
          8.62384081e-01, 8.36975813e-01, 8.19990456e-01, 8.20614994e-01,
          8.94085646e-01 ]
      - [ 8.58734727e-01, 8.70188594e-01, 9.02202725e-01, 9.78627920e-01,
          9.75440681e-01, 8.03341389e-01, 7.99816012e-01, 8.95924151e-01,
          8.92124653e-01, 9.94877815e-01, 9.83455837e-01, 9.45340753e-01,
          8.59926760e-01, 9.07915354e-01, 8.97323430e-01, 8.75234306e-01,
          8.28771114e-01, 8.41976225e-01, 8.84151459e-01, 9.59432781e-01,
          9.43831682e-01, 9.16196585e-01, 8.50988030e-01, 7.94873118e-01,
          8.01200688e-01, 7.89500177e-01, 8.22133720e-01, 7.98804879e-01,
          7.40121901e-01, 9.36030269e-01, 9.48238432e-01, 8.38321567e-01,
          8.66154671e-01, 8.16223443e-01, 8.45117629e-01, 7.98718035e-01,
          8.14435780e-01, 7.84413755e-01, 8.14084589e-01, 9.51102376e-01,
          9.59252596e-01, 8.14673603e-01, 8.72206390e-01, 9.01837468e-01,
          9.70170200e-01, 9.03818548e-01, 9.15119588e-01, 8.60890090e-01,
          8.63701820e-01, 9.27416682e-01, 9.78961110e-01, 7.47093439e-01,
          8.39398801e-01, 8.80278528e-01, 9.35714602e-01, 8.35751057e-01,
          9.40040112e-01, 8.23071241e-01, 8.24241161e-01, 9.82047439e-01,
          9.41370249e-01, 7.94815481e-01, 9.12453473e-01, 9.09041047e-01,
          9.79610205e-01, 9.82942462e-01, 9.05356288e-01, 8.06029439e-01,
          7.92923450e-01, 9.23645020e-01, 7.39720583e-01, 7.82481134e-01,
          8.53474200e-01, 9.33390200e-01, 9.76645887e-01, 9.81727242e-01,
          9.58461046e-01, 8.34302008e-01, 8.39410603e-01, 9.06552315e-01,
          6.67950571e-01, 9.58660543e-01, 9.26159620e-01, 9.65636969e-01,
          9.62998331e-01, 9.71840262e-01, 9.59230959e-01, 8.26005220e-01,
          8.15777421e-01, 6.92367554e-01, 3.92686307e-01, 9.43043232e-01,
          9.34484720e-01, 9.22144771e-01, 9.33531225e-01, 9.64618504e-01,
          8.09997201e-01, 7.51567841e-01, 7.41939545e-01, 4.25207794e-01,
          0. ]
      - [ 9.02688026e-01, 9.99458313e-01, 9.99999225e-01, 9.99987423e-01,
          9.99493241e-01, 9.99299169e-01, 9.98991728e-01, 9.96882200e-01,
          9.77656543e-01, 9.53539371e-01, 9.37451005e-01, 9.98882294e-01,
          9.99283433e-01, 9.97746050e-01, 9.85906541e-01, 9.69695568e-01,
          9.61116672e-01, 9.35467064e-01, 9.53729153e-01, 9.50162888e-01,
          9.55692887e-01, 9.55483735e-01, 9.76631463e-01, 9.37959194e-01,
          9.40467477e-01, 9.34604168e-01, 9.34894502e-01, 9.43250656e-01,
          9.48392272e-01, 9.45979655e-01, 9.47819233e-01, 9.57502902e-01,
          9.56240237e-01, 9.22769368e-01, 9.30214405e-01, 9.42571223e-01,
          9.27977920e-01, 9.27981079e-01, 9.37719941e-01, 8.97972167e-01,
          8.55236709e-01, 9.24656868e-01, 9.16582525e-01, 8.68046165e-01,
          8.67145538e-01, 8.01390529e-01, 8.17275643e-01, 8.57254922e-01,
          8.33293438e-01, 7.72234917e-01, 7.14195848e-01, 7.52741635e-01,
          7.20385730e-01, 7.39079535e-01, 9.00875270e-01, 6.91155910e-01,
          7.16067731e-01, 8.65831554e-01, 6.64309025e-01, 6.98175669e-01,
          6.78842664e-01, 9.40343082e-01, 9.43766773e-01, 8.95886540e-01,
          8.96719277e-01, 8.75737369e-01, 8.99611771e-01, 8.66217554e-01,
          8.90930474e-01, 9.05000448e-01, 9.02060628e-01, 9.29271221e-01,
          9.29986060e-01, 9.31567550e-01, 9.25454021e-01, 9.17821884e-01,
          9.13918972e-01, 9.16399598e-01, 9.12899077e-01, 9.14504588e-01,
          9.02758300e-01, 9.16365802e-01, 9.24402773e-01, 9.13365662e-01,
          9.11040723e-01, 9.08326447e-01, 9.00526822e-01, 8.87520134e-01,
          8.93073499e-01, 8.86620045e-01, 8.81209910e-01, 9.13858950e-01,
          9.10988152e-01, 9.12954152e-01, 9.10752237e-01, 9.03123140e-01,
          8.99870455e-01, 8.93219590e-01, 8.91801000e-01, 8.87707829e-01,
          8.76801789e-01 ]
      - [ 7.47231424e-01, 3.91521484e-01, 7.36704171e-01, 8.61247182e-01,
          9.63296771e-01, 9.35702741e-01, 9.23154712e-01, 9.32195425e-01,
          9.50540543e-01, 9.67014492e-01, 5.60845375e-01, 3.82560700e-01,
          7.76179373e-01, 7.51313686e-01, 8.30669165e-01, 9.40255225e-01,
          9.35237288e-01, 9.50406909e-01, 9.63154376e-01, 9.67186809e-01,
          5.79635918e-01, 3.74262124e-01, 7.96119869e-01, 7.75965333e-01,
          7.44775414e-01, 7.84197271e-01, 8.07194650e-01, 9.70268428e-01,
          9.68248606e-01, 9.66916144e-01, 5.93321919e-01, 3.63428205e-01,
          8.07806134e-01, 7.73487031e-01, 7.97828913e-01, 7.97763288e-01,
          7.62774706e-01, 8.36679399e-01, 9.34440255e-01, 9.78874385e-01,
          4.54919487e-01, 3.70449930e-01, 7.92475164e-01, 7.81040430e-01,
          7.85935998e-01, 7.55369902e-01, 7.98963249e-01, 8.15863907e-01,
          7.85521328e-01, 8.63620996e-01, 4.63818520e-01, 3.46342087e-01,
          8.15913975e-01, 8.23646128e-01, 8.25479209e-01, 7.99671292e-01,
          8.76914263e-01, 9.09534454e-01, 7.71550953e-01, 7.29735672e-01,
          3.95948112e-01, 3.58970791e-01, 7.47091293e-01, 8.05727899e-01,
          8.65930736e-01, 8.93217027e-01, 9.42104042e-01, 7.91674256e-01,
          8.16341281e-01, 7.89205074e-01, 4.83549237e-01, 3.62999082e-01,
          7.36609638e-01, 7.34856486e-01, 7.64964342e-01, 8.36163342e-01,
          8.17430735e-01, 7.24693656e-01, 7.08343983e-01, 7.33766079e-01,
          4.25198317e-01, 3.78557086e-01, 7.81377137e-01, 7.41039336e-01,
          7.21560836e-01, 7.82211423e-01, 7.88499475e-01, 7.78147995e-01,
          7.55133092e-01, 6.45696998e-01, 4.62374121e-01, 3.72398376e-01,
          7.95476913e-01, 8.04291785e-01, 8.14670563e-01, 8.55451405e-01,
          9.42388117e-01, 9.25829053e-01, 9.23479915e-01, 8.21339726e-01,
          6.71106100e-01 ]
      - [ 8.24666440e-01, 9.83438611e-01, 9.83438671e-01, 9.83570158e-01,
          9.83649015e-01, 9.83768404e-01, 9.81916308e-01, 9.79566038e-01,
          9.80016589e-01, 9.80274260e-01, 9.80095863e-01, 9.89418268e-01,
          9.90340531e-01, 9.89890337e-01, 9.86832619e-01, 9.72137451e-01,
          8.93636882e-01, 9.56394851e-01, 9.58744824e-01, 9.47407722e-01,
          9.80106771e-01, 9.92178977e-01, 9.91348028e-01, 9.91125822e-01,
          9.82423425e-01, 8.96949112e-01, 9.20142055e-01, 8.91696692e-01,
          8.75223100e-01, 8.80335748e-01, 9.11208928e-01, 9.80262041e-01,
          9.72416580e-01, 9.74177957e-01, 9.23486233e-01, 9.41446543e-01,
          9.49576259e-01, 9.53436911e-01, 9.47901011e-01, 9.42699730e-01,
          9.05138016e-01, 9.83626306e-01, 9.83467340e-01, 9.81664956e-01,
          9.65446413e-01, 9.24553454e-01, 9.66294229e-01, 9.67843711e-01,
          8.99815917e-01, 8.21655512e-01, 8.42186570e-01, 9.80501771e-01,
          9.83038008e-01, 9.74730492e-01, 9.20496583e-01, 9.66734886e-01,
          9.68577683e-01, 9.53915656e-01, 8.53666127e-01, 8.87079477e-01,
          8.77541900e-01, 9.16552484e-01, 9.27260280e-01, 9.42415178e-01,
          9.56898093e-01, 9.73053992e-01, 9.67043519e-01, 9.35867131e-01,
          8.82600009e-01, 8.59087825e-01, 8.58566403e-01, 9.71865237e-01,
          9.70472932e-01, 9.21366692e-01, 8.94472718e-01, 9.64439392e-01,
          9.61242735e-01, 9.38415289e-01, 9.15995359e-01, 8.92644227e-01,
          8.86891842e-01, 2.74496168e-01, 3.63310039e-01, 4.89228427e-01,
          8.26387286e-01, 8.68689060e-01, 8.60286057e-01, 8.10039997e-01,
          7.45578289e-01, 7.74091423e-01, 8.72811437e-01, 0., 0., 0.,
          1.40401587e-01, 1.15391232e-01, 3.45634259e-02, 8.54065865e-02,
          2.10345779e-02, 9.93499309e-02, 4.26958427e-02 ]
      - [ 8.38470459e-01, 8.20922971e-01, 7.85653651e-01, 9.39699054e-01,
          9.31549191e-01, 9.82335687e-01, 8.90827060e-01, 7.16707289e-01,
          6.52679265e-01, 6.67774439e-01, 6.84681773e-01, 7.52795696e-01,
          7.97387183e-01, 9.29117143e-01, 9.57992315e-01, 9.86370981e-01,
          8.07275593e-01, 6.57584608e-01, 6.39469147e-01, 6.74516559e-01,
          6.63131118e-01, 7.81273842e-01, 7.74379194e-01, 9.47879791e-01,
          9.90219772e-01, 9.89564419e-01, 8.54021430e-01, 6.90111756e-01,
          6.58329785e-01, 6.96341395e-01, 6.48499668e-01, 8.72367918e-01,
          8.89341593e-01, 8.74090791e-01, 9.87888277e-01, 9.84530210e-01,
          9.67933595e-01, 7.56548285e-01, 6.87531412e-01, 7.44604886e-01,
          7.42932916e-01, 8.99502039e-01, 9.25090909e-01, 8.32256019e-01,
          9.58933592e-01, 9.47997808e-01, 9.34669197e-01, 8.88191044e-01,
          8.64269733e-01, 9.09839571e-01, 9.29715037e-01, 9.00574863e-01,
          9.36996162e-01, 7.59083390e-01, 9.19690192e-01, 9.25535679e-01,
          9.01603401e-01, 9.15233016e-01, 7.63104796e-01, 8.90259981e-01,
          9.09989774e-01, 9.40587223e-01, 8.74726772e-01, 7.93661535e-01,
          8.09920967e-01, 8.23350132e-01, 8.42107654e-01, 8.74373496e-01,
          7.78706372e-01, 7.25683987e-01, 8.84849846e-01, 9.29367304e-01,
          8.37969303e-01, 7.49166548e-01, 8.42451334e-01, 8.11291099e-01,
          8.67492735e-01, 9.35153782e-01, 9.24001873e-01, 7.65810907e-01,
          7.52965391e-01, 9.02552128e-01, 8.30347538e-01, 7.67313123e-01,
          8.30390513e-01, 8.29097152e-01, 8.81506920e-01, 9.17306960e-01,
          9.63638365e-01, 7.54609108e-01, 7.24241614e-01, 9.20257509e-01,
          8.05323303e-01, 7.97880352e-01, 8.29488099e-01, 8.46715748e-01,
          7.98078537e-01, 8.46384764e-01, 9.08686936e-01, 8.05558860e-01,
          7.65385330e-01 ]
      - [ 6.49984539e-01, 5.63975990e-01, 5.90868831e-01, 6.02407277e-01,
          6.35885894e-01, 6.61429048e-01, 6.21375680e-01, 6.56019866e-01,
          6.46722436e-01, 6.45982087e-01, 7.74829090e-01, 5.69680750e-01,
          5.84190786e-01, 5.95962942e-01, 5.88973224e-01, 5.83379686e-01,
          6.04532599e-01, 6.43136919e-01, 6.42270803e-01, 6.11012578e-01,
          7.44222224e-01, 5.76130092e-01, 5.83546519e-01, 5.72687924e-01,
          5.76965511e-01, 6.20664597e-01, 6.04842484e-01, 6.92842662e-01,
          6.48823500e-01, 6.40014112e-01, 6.65710807e-01, 5.75700164e-01,
          5.82592428e-01, 5.98966122e-01, 5.66922605e-01, 5.72087824e-01,
          6.14878476e-01, 6.62518024e-01, 6.79313898e-01, 6.40961349e-01,
          6.00592732e-01, 6.01257682e-01, 6.13922656e-01, 6.33732975e-01,
          5.97081184e-01, 5.93559682e-01, 6.14105284e-01, 6.21371984e-01,
          6.93898201e-01, 6.46452665e-01, 5.83526492e-01, 6.07202470e-01,
          6.12471402e-01, 6.37763679e-01, 6.18001997e-01, 6.08103573e-01,
          5.63322008e-01, 6.03925407e-01, 7.06264079e-01, 6.13733053e-01,
          6.14745438e-01, 8.87490094e-01, 6.81398511e-01, 6.26818717e-01,
          5.91183782e-01, 5.73077559e-01, 5.59609950e-01, 5.88581085e-01,
          6.25550449e-01, 6.06155992e-01, 6.55787885e-01, 9.89719391e-01,
          7.23379970e-01, 6.92914844e-01, 6.10849142e-01, 6.05307102e-01,
          5.56377351e-01, 5.89115739e-01, 6.52616382e-01, 6.45867288e-01,
          6.80234313e-01, 9.81252432e-01, 8.24342906e-01, 7.16823936e-01,
          6.50413513e-01, 6.01098776e-01, 5.52070141e-01, 5.86118162e-01,
          6.53965294e-01, 6.67451203e-01, 7.02133775e-01, 9.47588444e-01,
          9.07532990e-01, 8.90084505e-01, 8.61007988e-01, 7.05123007e-01,
          6.28606021e-01, 6.26361072e-01, 6.37051105e-01, 6.46366358e-01,
          6.83943033e-01 ]
      - [ 9.19178426e-01, 8.90025377e-01, 8.89048040e-01, 9.01834369e-01,
          9.54604387e-01, 9.47444320e-01, 9.73529398e-01, 9.70202982e-01,
          9.28260386e-01, 9.39334393e-01, 9.43099141e-01, 9.41035092e-01,
          9.50422347e-01, 9.48911309e-01, 9.40995097e-01, 9.34193671e-01,
          9.71178055e-01, 9.71643150e-01, 9.21500742e-01, 9.13785696e-01,
          9.21828210e-01, 9.68087971e-01, 9.61517751e-01, 9.32324827e-01,
          9.35553372e-01, 8.74107420e-01, 9.74009454e-01, 9.60180044e-01,
          9.18404102e-01, 8.99028957e-01, 9.16826069e-01, 9.37851250e-01,
          9.38552797e-01, 9.61819708e-01, 9.50733185e-01, 8.49948287e-01,
          8.47809911e-01, 8.95114839e-01, 9.12665069e-01, 9.16149735e-01,
          9.19283271e-01, 9.51634228e-01, 9.40290570e-01, 9.67345119e-01,
          9.36476409e-01, 9.15366590e-01, 9.07847583e-01, 9.11396325e-01,
          8.95382166e-01, 8.97086501e-01, 9.39346552e-01, 9.49551821e-01,
          9.37444746e-01, 9.67234612e-01, 9.46667433e-01, 9.33832288e-01,
          9.37107384e-01, 9.62594748e-01, 9.63740110e-01, 9.62461710e-01,
          9.31454599e-01, 9.44719076e-01, 9.42794979e-01, 9.35188651e-01,
          8.67965996e-01, 9.25699234e-01, 9.55664396e-01, 9.73675847e-01,
          9.80683565e-01, 9.85169232e-01, 9.07491505e-01, 9.17872727e-01,
          9.14045990e-01, 8.84137392e-01, 9.34981823e-01, 7.81482279e-01,
          8.76232624e-01, 8.87972295e-01, 8.85590672e-01, 9.65699852e-01,
          9.32397783e-01, 8.91974032e-01, 7.53657103e-01, 9.39278781e-01,
          9.87241030e-01, 7.88457632e-01, 8.43684316e-01, 8.69492352e-01,
          8.70644808e-01, 8.90235186e-01, 9.10590649e-01, 9.06444311e-01,
          8.43615353e-01, 8.98007751e-01, 9.11225557e-01, 8.65931094e-01,
          8.71217906e-01, 8.85108352e-01, 9.16705668e-01, 9.38314080e-01,
          9.25008416e-01 ]
      - [ 9.20888543e-01, 9.72752690e-01, 9.31977272e-01, 9.34710622e-01,
          9.43813622e-01, 9.97334003e-01, 9.97841239e-01, 9.96984303e-01,
          9.63406265e-01, 9.87018764e-01, 9.96863425e-01, 9.56481040e-01,
          9.12293732e-01, 9.36140597e-01, 9.53083038e-01, 9.91229117e-01,
          9.97921586e-01, 9.75696146e-01, 9.04726863e-01, 9.52835321e-01,
          9.93592560e-01, 9.63100016e-01, 9.59356904e-01, 9.59450722e-01,
          9.48440850e-01, 9.35614944e-01, 9.76917565e-01, 7.51380563e-01,
          7.05697775e-01, 6.85776472e-01, 8.44167888e-01, 9.97214019e-01,
          9.90965903e-01, 9.87548232e-01, 9.27469492e-01, 9.66035306e-01,
          9.86672461e-01, 8.91888559e-01, 8.48349929e-01, 8.36960495e-01,
          8.95683169e-01, 9.78443384e-01, 8.27739894e-01, 7.43975878e-01,
          8.22491765e-01, 8.62520993e-01, 9.32151616e-01, 9.96929824e-01,
          9.31821883e-01, 9.33042467e-01, 9.97464895e-01, 9.45198715e-01,
          7.53987074e-01, 6.39056087e-01, 7.79283404e-01, 7.08138585e-01,
          7.81472147e-01, 9.52141821e-01, 9.22208846e-01, 9.32732105e-01,
          9.96482551e-01, 9.90275562e-01, 8.86535108e-01, 8.07916343e-01,
          8.27150285e-01, 8.80754590e-01, 8.31903815e-01, 9.41598415e-01,
          9.35241938e-01, 9.54399467e-01, 9.51048315e-01, 9.97381926e-01,
          9.60721254e-01, 8.58401120e-01, 8.96936655e-01, 9.52236354e-01,
          9.52942610e-01, 9.51636374e-01, 8.51243317e-01, 9.52187836e-01,
          9.50880766e-01, 9.91307437e-01, 8.94190133e-01, 9.36122775e-01,
          9.44151759e-01, 9.97244835e-01, 9.95660603e-01, 9.43680823e-01,
          9.09269631e-01, 9.96821046e-01, 9.96595860e-01, 9.66020823e-01,
          9.22715425e-01, 8.87089252e-01, 9.95554745e-01, 9.97230232e-01,
          8.26428652e-01, 8.56890500e-01, 9.08737242e-01, 9.62307632e-01,
          9.93476748e-01 ]
      - [ 9.85778153e-01, 9.92011905e-01, 9.93463218e-01, 9.93556798e-01,
          9.93826091e-01, 9.94049072e-01, 9.94195342e-01, 9.94302452e-01,
          9.94243264e-01, 9.92901981e-01, 9.92120445e-01, 9.93305504e-01,
          9.94215190e-01, 9.94588435e-01, 9.94446933e-01, 9.94941413e-01,
          9.95932937e-01, 9.95986938e-01, 9.94689167e-01, 9.94440496e-01,
          9.93994534e-01, 9.93690193e-01, 9.94948745e-01, 9.95616972e-01,
          9.95848179e-01, 9.96008039e-01, 9.97050166e-01, 9.96527851e-01,
          9.96137321e-01, 9.95459616e-01, 9.94844675e-01, 9.88772273e-01,
          9.96395409e-01, 9.95719194e-01, 9.96278882e-01, 9.96705532e-01,
          9.97463882e-01, 9.97177124e-01, 9.96841729e-01, 9.96278167e-01,
          9.96185541e-01, 9.37599182e-01, 9.50172603e-01, 9.68361437e-01,
          9.55161750e-01, 9.82641876e-01, 9.70159709e-01, 9.69461858e-01,
          9.68936443e-01, 9.48569477e-01, 9.08614933e-01, 9.62474883e-01,
          9.68181670e-01, 9.62979972e-01, 9.22650397e-01, 9.37998712e-01,
          9.74206626e-01, 9.64126110e-01, 9.66440201e-01, 9.60123539e-01,
          9.62525129e-01, 9.75517213e-01, 9.80322421e-01, 9.84836996e-01,
          9.74325120e-01, 9.86192882e-01, 9.79636729e-01, 9.78593647e-01,
          9.75332439e-01, 9.74658489e-01, 9.68297660e-01, 9.91001964e-01,
          9.96610701e-01, 9.95768130e-01, 9.95842695e-01, 9.96862531e-01,
          9.97162580e-01, 9.97131169e-01, 9.96813118e-01, 9.97089684e-01,
          9.94948924e-01, 9.95871007e-01, 9.96074200e-01, 9.95530903e-01,
          9.95615065e-01, 9.95770216e-01, 9.95957255e-01, 9.96729255e-01,
          9.96004939e-01, 9.96348262e-01, 9.96139467e-01, 9.92476404e-01,
          9.92983282e-01, 9.94022369e-01, 9.94591951e-01, 9.93768394e-01,
          9.94405985e-01, 9.94460583e-01, 9.94267106e-01, 9.95259583e-01,
          9.94725525e-01 ]
      - [ 9.56159770e-01, 9.67658758e-01, 9.73063588e-01, 9.76059914e-01,
          9.80139971e-01, 9.80647087e-01, 9.81793404e-01, 9.82817531e-01,
          9.90851045e-01, 9.93798554e-01, 9.92664814e-01, 9.72215235e-01,
          9.77798462e-01, 9.79711473e-01, 9.81097102e-01, 9.85414743e-01,
          9.86265361e-01, 9.87787962e-01, 9.91607010e-01, 9.94712532e-01,
          9.93051052e-01, 9.75732207e-01, 9.80831027e-01, 9.84623492e-01,
          9.85987008e-01, 9.86975551e-01, 9.87126112e-01, 9.89437819e-01,
          9.91777480e-01, 9.93414700e-01, 9.92604733e-01, 9.82674181e-01,
          9.85776663e-01, 9.86728668e-01, 9.88205612e-01, 9.87945080e-01,
          9.89732504e-01, 9.90718663e-01, 9.92049634e-01, 9.92092669e-01,
          9.91642833e-01, 9.86205995e-01, 9.87640738e-01, 9.89253640e-01,
          9.89882112e-01, 9.90324080e-01, 9.90426004e-01, 9.91981745e-01,
          9.92550313e-01, 9.92981076e-01, 9.92194533e-01, 9.89156783e-01,
          9.90289688e-01, 9.91222978e-01, 9.92466867e-01, 9.91774321e-01,
          9.82075214e-01, 9.87549424e-01, 9.92561519e-01, 9.92701352e-01,
          9.92677033e-01, 9.10282671e-01, 9.21062291e-01, 9.14170980e-01,
          9.08357382e-01, 8.61023664e-01, 8.34789872e-01, 8.57616425e-01,
          8.24179232e-01, 8.32127333e-01, 8.58071566e-01, 9.15268362e-01,
          9.02760744e-01, 9.11704600e-01, 9.08188581e-01, 9.18825090e-01,
          9.19837654e-01, 9.21835423e-01, 9.01644111e-01, 8.90576780e-01,
          8.69858086e-01, 9.00086939e-01, 8.94482136e-01, 9.67335641e-01,
          9.63352025e-01, 9.63967562e-01, 9.65118885e-01, 9.51348722e-01,
          9.16489244e-01, 9.05281603e-01, 9.19774592e-01, 8.84899676e-01,
          8.75640094e-01, 9.55432296e-01, 9.59483027e-01, 9.63434875e-01,
          9.42324460e-01, 9.06190813e-01, 9.05339539e-01, 9.42965031e-01,
          9.34881687e-01 ]
      - [ 9.62035954e-01, 9.97128606e-01, 9.97086763e-01, 9.97295856e-01,
          9.97001052e-01, 9.96518850e-01, 9.95745897e-01, 9.96682644e-01,
          9.97287333e-01, 9.96730804e-01, 9.97377872e-01, 9.97203946e-01,
          9.97362673e-01, 9.97388422e-01, 9.96711612e-01, 9.75717485e-01,
          9.68148112e-01, 9.76604998e-01, 9.84451830e-01, 9.95371819e-01,
          9.97189105e-01, 9.97003138e-01, 9.97302413e-01, 9.97485220e-01,
          9.83762622e-01, 9.27067101e-01, 9.57943320e-01, 9.64604497e-01,
          9.75519121e-01, 9.77629185e-01, 9.97219384e-01, 9.97353196e-01,
          9.96545315e-01, 9.85225439e-01, 9.74492133e-01, 9.35764790e-01,
          9.66909707e-01, 9.15105760e-01, 8.63546908e-01, 9.86532092e-01,
          9.97445285e-01, 9.97039378e-01, 9.95738566e-01, 8.80773306e-01,
          8.85543704e-01, 8.37147474e-01, 8.31233144e-01, 8.58652472e-01,
          9.05800581e-01, 9.95640576e-01, 9.97051895e-01, 9.96788800e-01,
          9.44588959e-01, 8.22232008e-01, 8.19261551e-01, 8.03463876e-01,
          8.90183508e-01, 9.13915932e-01, 9.41653371e-01, 9.92370784e-01,
          9.97184336e-01, 9.97190535e-01, 9.95505214e-01, 9.79472339e-01,
          8.98854494e-01, 7.85797417e-01, 8.96688700e-01, 9.60456789e-01,
          9.93126810e-01, 9.95657623e-01, 9.97872889e-01, 9.97160554e-01,
          9.91564155e-01, 9.57005203e-01, 8.68355572e-01, 8.54659557e-01,
          9.44775045e-01, 9.95446444e-01, 9.96608853e-01, 9.90293145e-01,
          9.97308075e-01, 9.91735518e-01, 8.79367471e-01, 8.04549634e-01,
          9.76562917e-01, 9.80034888e-01, 9.93088722e-01, 9.88552690e-01,
          9.97551143e-01, 9.92817819e-01, 9.94731665e-01, 9.78987277e-01,
          9.38319564e-01, 9.97482538e-01, 9.97212470e-01, 9.97673094e-01,
          9.97346938e-01, 9.77276802e-01, 9.97111320e-01, 9.97108698e-01,
          9.91754830e-01 ]
      - [ 9.37691331e-01, 9.94925380e-01, 9.93800223e-01, 9.93996620e-01,
          9.91835475e-01, 9.94854629e-01, 9.94681299e-01, 9.93612766e-01,
          9.81703222e-01, 9.85519588e-01, 9.80940163e-01, 9.95262802e-01,
          9.93677855e-01, 9.93954301e-01, 9.94786143e-01, 9.93539989e-01,
          9.90087152e-01, 9.90485847e-01, 9.88486767e-01, 9.86537874e-01,
          9.88889635e-01, 9.94410813e-01, 9.92957890e-01, 9.86328125e-01,
          9.85223234e-01, 9.89667714e-01, 9.86476541e-01, 9.87623513e-01,
          9.90653098e-01, 9.92009103e-01, 9.93717909e-01, 9.87354100e-01,
          9.87461984e-01, 9.87964094e-01, 9.91920531e-01, 9.86825764e-01,
          9.85785842e-01, 9.89903212e-01, 9.88235652e-01, 9.94200408e-01,
          9.94611919e-01, 9.85824943e-01, 9.90437686e-01, 9.91387427e-01,
          9.89626944e-01, 9.90367770e-01, 9.93604481e-01, 9.92718995e-01,
          9.95728195e-01, 9.96057451e-01, 9.96291041e-01, 9.84620512e-01,
          9.88077104e-01, 9.89133477e-01, 9.86204565e-01, 9.91198838e-01,
          9.95162427e-01, 9.96767819e-01, 9.97236431e-01, 9.97588575e-01,
          9.97019887e-01, 7.95520186e-01, 8.25863600e-01, 8.39833915e-01,
          8.75644147e-01, 9.17378068e-01, 9.31850374e-01, 9.36279297e-01,
          9.36557472e-01, 9.30609822e-01, 9.15302813e-01, 7.59737015e-01,
          7.97609389e-01, 8.25900197e-01, 8.45215619e-01, 8.71999085e-01,
          9.00341272e-01, 9.15188849e-01, 8.88499022e-01, 8.58871520e-01,
          8.95755112e-01, 7.93193698e-01, 8.29839468e-01, 8.55469465e-01,
          8.82477343e-01, 8.92758071e-01, 8.94370317e-01, 8.64397645e-01,
          8.52199912e-01, 8.93255889e-01, 8.97546709e-01, 8.20923030e-01,
          8.49898517e-01, 8.71974051e-01, 8.87518466e-01, 8.65421593e-01,
          8.48551333e-01, 8.14329386e-01, 8.81978154e-01, 8.87822568e-01,
          8.75781238e-01 ]
      - [ 8.97668958e-01, 9.95594978e-01, 9.95223522e-01, 9.95212853e-01,
          9.95042920e-01, 9.95858371e-01, 9.96777415e-01, 9.96338487e-01,
          9.96186793e-01, 9.96124148e-01, 9.95177925e-01, 9.94652629e-01,
          9.94858444e-01, 9.94512618e-01, 9.82514620e-01, 9.50787306e-01,
          9.67803955e-01, 8.93922746e-01, 9.63420689e-01, 9.80537057e-01,
          8.91635120e-01, 8.94584000e-01, 9.68193948e-01, 9.59330440e-01,
          9.69003737e-01, 9.52568889e-01, 8.72462928e-01, 7.56297469e-01,
          8.50220859e-01, 7.11849272e-01, 6.58826411e-01, 7.60519445e-01,
          9.06731009e-01, 9.39767540e-01, 8.72759521e-01, 9.39222991e-01,
          8.17735553e-01, 7.75935054e-01, 7.75085866e-01, 6.42089963e-01,
          6.73920393e-01, 8.51434648e-01, 9.59809959e-01, 9.59347963e-01,
          8.31467807e-01, 8.38555217e-01, 7.83934534e-01, 7.75320709e-01,
          7.72318304e-01, 6.72809243e-01, 6.92660868e-01, 8.75088692e-01,
          9.58835185e-01, 9.71094966e-01, 9.11809027e-01, 8.54629278e-01,
          8.26203465e-01, 8.25775027e-01, 8.26104105e-01, 7.46982813e-01,
          7.36250460e-01, 9.48219955e-01, 9.72374916e-01, 9.58972931e-01,
          9.26143765e-01, 9.48792219e-01, 8.75579596e-01, 8.82036507e-01,
          8.77629101e-01, 8.42673600e-01, 8.29967082e-01, 9.93696809e-01,
          9.79192674e-01, 9.75108564e-01, 9.59073901e-01, 9.44863617e-01,
          8.58494103e-01, 8.48977506e-01, 8.79363656e-01, 8.23028088e-01,
          8.06237280e-01, 9.86194491e-01, 9.86244678e-01, 9.90113735e-01,
          9.70126629e-01, 9.35080230e-01, 8.98436248e-01, 8.44068170e-01,
          8.87724757e-01, 8.34316015e-01, 8.22431147e-01, 9.84823287e-01,
          9.89292383e-01, 9.86765683e-01, 9.88703728e-01, 9.66697752e-01,
          9.75064814e-01, 9.19300437e-01, 8.93735170e-01, 8.79647136e-01,
          8.25589299e-01 ]
      - [ 9.37161148e-01, 9.96393323e-01, 9.96010602e-01, 9.96034622e-01,
          9.96156633e-01, 9.96136069e-01, 9.95854497e-01, 9.95962024e-01,
          9.96012628e-01, 9.96492088e-01, 9.96046782e-01, 9.96018529e-01,
          9.96304572e-01, 9.96226668e-01, 9.96094227e-01, 9.95733798e-01,
          9.96175468e-01, 9.96323645e-01, 9.96165216e-01, 9.96489167e-01,
          9.96921241e-01, 9.93104935e-01, 9.76237595e-01, 9.96747315e-01,
          9.96735692e-01, 9.96756673e-01, 9.96659696e-01, 9.96895194e-01,
          9.96756315e-01, 9.96556818e-01, 9.96415317e-01, 9.28917050e-01,
          9.48591471e-01, 9.12795067e-01, 9.47158098e-01, 9.70229268e-01,
          9.85003173e-01, 9.96807754e-01, 9.96575773e-01, 9.96989012e-01,
          9.96631742e-01, 9.25129890e-01, 9.40926492e-01, 9.52526450e-01,
          8.81858766e-01, 8.19718301e-01, 9.03357923e-01, 9.76980567e-01,
          9.94625986e-01, 9.96799648e-01, 9.96812403e-01, 9.37872410e-01,
          9.46865141e-01, 9.31399226e-01, 8.63225162e-01, 7.88215160e-01,
          8.54643583e-01, 8.82955909e-01, 9.41286445e-01, 9.89742517e-01,
          9.96911228e-01, 8.43815386e-01, 9.19573188e-01, 9.48911965e-01,
          8.58730733e-01, 7.95240164e-01, 8.42594564e-01, 8.35847437e-01,
          8.04206371e-01, 8.38836789e-01, 9.18192327e-01, 8.71062040e-01,
          9.58052874e-01, 9.14125741e-01, 7.98120618e-01, 7.81327248e-01,
          8.90790462e-01, 9.00506854e-01, 9.02990937e-01, 9.09281194e-01,
          8.91439021e-01, 9.47933853e-01, 9.57721770e-01, 9.26935136e-01,
          9.21414435e-01, 7.72038817e-01, 8.99880946e-01, 9.20900941e-01,
          9.05988038e-01, 8.92082989e-01, 8.48399758e-01, 9.47482347e-01,
          9.33918118e-01, 9.56909537e-01, 9.32489157e-01, 9.18492198e-01,
          9.08529878e-01, 9.24522877e-01, 9.01910961e-01, 9.09952402e-01,
          9.17559564e-01 ]
      - [ 9.38069463e-01, 9.16280866e-01, 9.57159817e-01, 9.83101726e-01,
          9.62980807e-01, 9.41824615e-01, 9.69418406e-01, 9.80281174e-01,
          9.76250112e-01, 9.79996324e-01, 9.74942923e-01, 9.40975130e-01,
          9.44049776e-01, 9.67862964e-01, 9.52295959e-01, 9.62090075e-01,
          9.78105962e-01, 9.61461842e-01, 9.67966497e-01, 9.73733902e-01,
          9.63226020e-01, 9.56576884e-01, 9.50296283e-01, 9.39601183e-01,
          9.39586401e-01, 9.61375415e-01, 9.58693743e-01, 9.59577382e-01,
          9.62827504e-01, 9.44432616e-01, 9.74812746e-01, 9.01586592e-01,
          9.35071826e-01, 9.54739630e-01, 9.69546258e-01, 9.65185761e-01,
          9.70660865e-01, 9.76860642e-01, 9.63169456e-01, 9.83753860e-01,
          9.83406425e-01, 8.98051441e-01, 9.11851764e-01, 9.32318211e-01,
          9.68416154e-01, 9.62576091e-01, 9.81631875e-01, 9.79893446e-01,
          9.79870200e-01, 9.85817909e-01, 9.61828828e-01, 9.14799213e-01,
          8.95081460e-01, 9.25560296e-01, 9.20181215e-01, 9.57254529e-01,
          9.80993807e-01, 9.82227206e-01, 9.83292401e-01, 9.57489669e-01,
          8.82250488e-01, 9.63309050e-01, 9.39256430e-01, 8.95408094e-01,
          8.88567388e-01, 8.99415672e-01, 9.60394442e-01, 9.50712323e-01,
          9.41503227e-01, 8.35837483e-01, 8.17251325e-01, 9.61575925e-01,
          9.47478950e-01, 9.20225024e-01, 9.12910163e-01, 9.24309313e-01,
          9.24543858e-01, 8.74927819e-01, 8.37648749e-01, 7.25778639e-01,
          8.12968433e-01, 9.54370975e-01, 9.49572742e-01, 9.34800208e-01,
          9.50359166e-01, 9.41560090e-01, 9.24765050e-01, 8.67461562e-01,
          8.35037708e-01, 8.27349484e-01, 8.85861337e-01, 9.68434155e-01,
          9.75215912e-01, 9.77533102e-01, 9.76132452e-01, 9.70091999e-01,
          9.66153264e-01, 9.54521298e-01, 9.13169682e-01, 9.08993125e-01,
          8.61505449e-01 ]
      - [ 6.95272624e-01, 4.32697117e-01, 4.40442413e-01, 4.71933633e-01,
          4.52480048e-01, 4.29641247e-01, 4.35898066e-01, 4.12029326e-01,
          4.06326056e-01, 3.89980853e-01, 3.96383047e-01, 7.94787586e-01,
          9.32779133e-01, 9.05332625e-01, 8.73288333e-01, 8.00847709e-01,
          8.17665458e-01, 7.40650415e-01, 6.76415622e-01, 6.02788985e-01,
          6.50586069e-01, 7.29632735e-01, 9.07723248e-01, 7.96699822e-01,
          7.74197459e-01, 7.27428854e-01, 8.35546434e-01, 8.29347789e-01,
          7.21295834e-01, 6.69026256e-01, 6.51728928e-01, 7.68458247e-01,
          8.26849282e-01, 7.54045844e-01, 8.26174438e-01, 7.17366993e-01,
          7.48161495e-01, 7.37643301e-01, 7.28445232e-01, 6.51854336e-01,
          6.73919797e-01, 8.14157426e-01, 7.65157580e-01, 7.87187040e-01,
          8.34640503e-01, 7.41802752e-01, 8.18581164e-01, 7.28325009e-01,
          7.09402800e-01, 7.12216973e-01, 8.02960753e-01, 6.77317321e-01,
          7.93593466e-01, 7.95744538e-01, 8.36468935e-01, 7.56980360e-01,
          8.13609421e-01, 7.66325712e-01, 7.32743979e-01, 8.52850199e-01,
          8.67376566e-01, 7.34498143e-01, 6.85437262e-01, 8.00013840e-01,
          7.72067726e-01, 7.42712080e-01, 7.87280917e-01, 7.82868385e-01,
          8.09996009e-01, 7.61854351e-01, 8.58025074e-01, 7.01669455e-01,
          7.00318456e-01, 7.30924785e-01, 7.16216862e-01, 6.93363786e-01,
          7.25354373e-01, 7.23084509e-01, 7.48236835e-01, 7.52687573e-01,
          5.01707315e-01, 6.74253345e-01, 8.55158448e-01, 8.11079681e-01,
          8.35381210e-01, 7.77178884e-01, 7.71140993e-01, 8.59417081e-01,
          7.84756005e-01, 6.47404373e-01, 4.64986533e-01, 6.05220735e-01,
          6.63754225e-01, 6.54665649e-01, 6.63110435e-01, 6.44486666e-01,
          6.24186218e-01, 6.64785087e-01, 6.70542181e-01, 6.36812925e-01,
          5.57907820e-01 ]
      - [ 9.58183348e-01, 9.87797618e-01, 9.89496469e-01, 9.91714776e-01,
          9.92026627e-01, 9.92815733e-01, 9.93326485e-01, 9.94110942e-01,
          9.94511425e-01, 9.94494259e-01, 9.94334817e-01, 9.89858270e-01,
          9.91642773e-01, 9.92547393e-01, 9.93817687e-01, 9.94442999e-01,
          9.95288491e-01, 9.95029986e-01, 9.95099485e-01, 9.95848358e-01,
          9.96065617e-01, 9.91148174e-01, 9.93452489e-01, 9.94593143e-01,
          9.95325744e-01, 9.95493531e-01, 9.95780587e-01, 9.95902181e-01,
          9.96119797e-01, 9.96265233e-01, 9.95896757e-01, 9.88961697e-01,
          9.92457747e-01, 9.94799614e-01, 9.94036019e-01, 9.95820940e-01,
          9.95218813e-01, 9.96348500e-01, 9.96348917e-01, 9.94598567e-01,
          9.93046880e-01, 9.32068765e-01, 9.44427371e-01, 9.38378155e-01,
          9.50613916e-01, 9.49170053e-01, 9.49064374e-01, 9.44468081e-01,
          9.46999609e-01, 9.52244759e-01, 9.48348999e-01, 8.89073491e-01,
          8.87368381e-01, 9.09359574e-01, 8.93164992e-01, 8.89361143e-01,
          8.94161880e-01, 9.04420555e-01, 8.91327083e-01, 9.09193695e-01,
          8.88446331e-01, 9.13556457e-01, 9.11940515e-01, 9.22181308e-01,
          9.31101441e-01, 9.42989469e-01, 9.49150145e-01, 9.50651228e-01,
          9.44319963e-01, 9.47245002e-01, 9.47079659e-01, 9.09064829e-01,
          9.03820336e-01, 9.19973075e-01, 9.39888716e-01, 9.54550743e-01,
          9.55224454e-01, 9.60089505e-01, 9.59437191e-01, 9.69413757e-01,
          9.72931445e-01, 9.01446939e-01, 9.15149510e-01, 9.36531544e-01,
          9.43591118e-01, 9.54035461e-01, 9.61508632e-01, 9.60369051e-01,
          9.70010459e-01, 9.72314060e-01, 9.71933782e-01, 8.80144835e-01,
          8.99598598e-01, 9.17305529e-01, 9.35936570e-01, 9.41268086e-01,
          9.39927816e-01, 9.41943586e-01, 9.59683359e-01, 9.66351628e-01,
          9.67373192e-01 ]
      - [ 9.54684973e-01, 9.83845830e-01, 9.79774475e-01, 9.88285840e-01,
          9.93441641e-01, 9.96509373e-01, 9.94583607e-01, 9.91973460e-01,
          9.41024184e-01, 9.54508662e-01, 9.46320713e-01, 9.90308106e-01,
          9.78131771e-01, 9.79893327e-01, 9.72956836e-01, 9.85036016e-01,
          9.67778206e-01, 9.60167766e-01, 9.87969875e-01, 9.82870936e-01,
          9.85525787e-01, 9.95125830e-01, 9.93226409e-01, 9.91464496e-01,
          9.86243248e-01, 9.84043479e-01, 9.72845197e-01, 9.66734231e-01,
          9.72617924e-01, 9.64084327e-01, 9.76482689e-01, 9.95567918e-01,
          9.95747089e-01, 9.94866729e-01, 9.94121313e-01, 9.90491629e-01,
          9.89922881e-01, 9.88292277e-01, 9.85412002e-01, 9.75427806e-01,
          9.73811150e-01, 9.89313543e-01, 9.89458859e-01, 9.91237044e-01,
          9.91384864e-01, 9.90564346e-01, 9.89169776e-01, 9.88591731e-01,
          9.87839639e-01, 9.81022596e-01, 9.78841186e-01, 9.89990532e-01,
          9.88298237e-01, 9.86772954e-01, 9.83180583e-01, 9.80237126e-01,
          9.82376516e-01, 9.83443677e-01, 9.82511938e-01, 9.83852386e-01,
          9.88003492e-01, 8.77241969e-01, 8.71368349e-01, 8.76037061e-01,
          8.73554707e-01, 8.71342003e-01, 8.88904631e-01, 8.87945592e-01,
          8.83651197e-01, 8.84363711e-01, 8.82403255e-01, 8.93181026e-01,
          8.71542215e-01, 8.66538584e-01, 8.80977154e-01, 8.88476491e-01,
          8.82925868e-01, 9.03288424e-01, 8.97838414e-01, 8.94741356e-01,
          8.92030895e-01, 9.28545117e-01, 9.58804667e-01, 9.11404431e-01,
          9.23810542e-01, 9.23863769e-01, 9.12851453e-01, 9.13390458e-01,
          9.07839894e-01, 9.16681290e-01, 9.25663888e-01, 9.48745549e-01,
          9.41556513e-01, 9.51854050e-01, 9.59891915e-01, 9.51109648e-01,
          9.75440383e-01, 9.78230000e-01, 9.79160190e-01, 9.74317312e-01,
          9.47619140e-01 ]
      - [ 8.56803179e-01, 7.92932570e-01, 8.73485744e-01, 8.14040601e-01,
          7.39282131e-01, 9.10232425e-01, 8.97937298e-01, 7.32687831e-01,
          7.96344101e-01, 8.85057509e-01, 8.03492904e-01, 8.36731195e-01,
          7.51344144e-01, 8.84337008e-01, 8.51900518e-01, 8.79267454e-01,
          8.65606368e-01, 8.62076283e-01, 8.93158913e-01, 8.38482618e-01,
          8.35524619e-01, 9.02583182e-01, 7.86024153e-01, 8.03147674e-01,
          8.11596215e-01, 7.72352815e-01, 8.06812882e-01, 8.01344216e-01,
          8.31954241e-01, 8.21433842e-01, 8.89411271e-01, 9.03929293e-01,
          7.38543570e-01, 8.27962279e-01, 8.19127381e-01, 7.55453825e-01,
          7.77685106e-01, 8.29590678e-01, 8.56930792e-01, 8.61331701e-01,
          8.94532323e-01, 8.71369243e-01, 8.24539840e-01, 8.42386246e-01,
          8.34663987e-01, 7.98205435e-01, 8.02123070e-01, 8.25616539e-01,
          9.21283424e-01, 8.94886196e-01, 8.66067529e-01, 8.90902340e-01,
          8.56396019e-01, 8.58462691e-01, 8.32439244e-01, 8.05909395e-01,
          7.72716343e-01, 8.31847012e-01, 8.46980810e-01, 8.42516303e-01,
          8.64228368e-01, 9.13379371e-01, 9.27806914e-01, 9.37146783e-01,
          9.05924261e-01, 8.38376760e-01, 8.37374687e-01, 8.88514161e-01,
          9.27062809e-01, 9.21450853e-01, 8.94299090e-01, 8.74589384e-01,
          8.52130651e-01, 9.50312078e-01, 9.47224915e-01, 9.57938969e-01,
          9.57648098e-01, 9.04943705e-01, 9.12405074e-01, 8.67898107e-01,
          8.20302665e-01, 8.37784767e-01, 8.08670104e-01, 8.93803775e-01,
          9.66928661e-01, 8.42509866e-01, 8.58637214e-01, 9.42664027e-01,
          9.10249650e-01, 8.38846087e-01, 8.20906818e-01, 9.14193690e-01,
          9.69947338e-01, 9.75975811e-01, 8.43218148e-01, 6.97830558e-01,
          7.35196829e-01, 7.95346320e-01, 9.73298311e-01, 9.66413379e-01,
          8.98285866e-01 ]
      - [ 8.91398191e-01, 9.97244596e-01, 9.96551573e-01, 9.84879732e-01,
          9.14016366e-01, 9.31368589e-01, 9.95279312e-01, 9.64507341e-01,
          8.42960238e-01, 9.32248890e-01, 9.86524940e-01, 9.13387716e-01,
          9.64687526e-01, 9.04547989e-01, 8.69569600e-01, 8.58936369e-01,
          8.25079918e-01, 9.12746787e-01, 6.90296471e-01, 8.86779666e-01,
          8.52749705e-01, 8.77730131e-01, 9.24614489e-01, 9.06995416e-01,
          9.05611813e-01, 8.70533764e-01, 8.46828878e-01, 8.50584030e-01,
          6.60478532e-01, 8.72871399e-01, 8.11076105e-01, 8.38891566e-01,
          8.24630380e-01, 8.62623751e-01, 8.48894536e-01, 8.08446229e-01,
          8.26393783e-01, 8.14647198e-01, 7.45312691e-01, 8.46816838e-01,
          8.01690578e-01, 8.77727509e-01, 8.66793215e-01, 8.40279758e-01,
          7.88366199e-01, 7.89674580e-01, 7.67263591e-01, 7.51001477e-01,
          7.47679234e-01, 7.61445165e-01, 7.48512328e-01, 9.23447728e-01,
          9.14486885e-01, 9.28805053e-01, 9.23008621e-01, 8.97005677e-01,
          8.62113178e-01, 8.59320402e-01, 8.49984109e-01, 8.82798433e-01,
          8.64815474e-01, 8.99220228e-01, 9.26247180e-01, 9.01565969e-01,
          8.94584239e-01, 8.67408931e-01, 8.69836807e-01, 8.96358073e-01,
          8.39533210e-01, 8.67311776e-01, 8.19892943e-01, 9.57774639e-01,
          9.64573801e-01, 9.20314014e-01, 8.82440805e-01, 8.69678497e-01,
          9.24668074e-01, 9.36514378e-01, 8.52396190e-01, 8.73019218e-01,
          9.42375124e-01, 9.93818879e-01, 9.93477285e-01, 9.92702603e-01,
          9.64298964e-01, 9.43036497e-01, 9.90420699e-01, 9.04208541e-01,
          9.63565350e-01, 9.39460218e-01, 9.85160172e-01, 9.70527530e-01,
          9.43942308e-01, 9.64664936e-01, 9.87276495e-01, 9.76853251e-01,
          9.34879720e-01, 9.29340065e-01, 9.83176410e-01, 9.84781325e-01,
          9.82710123e-01 ]
      - [ 7.84950972e-01, 9.84008670e-01, 9.79843378e-01, 9.76837873e-01,
          9.90597904e-01, 9.90572155e-01, 9.90223527e-01, 9.92791474e-01,
          9.94874895e-01, 9.93978024e-01, 9.94043946e-01, 9.90705192e-01,
          9.88651812e-01, 9.92739022e-01, 9.91886318e-01, 9.92804587e-01,
          9.92754936e-01, 9.91559029e-01, 9.95135009e-01, 9.95916009e-01,
          9.70050275e-01, 9.76346850e-01, 9.88136411e-01, 9.90981817e-01,
          9.92048919e-01, 9.94405389e-01, 9.91991997e-01, 9.47581828e-01,
          9.80669677e-01, 8.85537565e-01, 8.08025002e-01, 8.12033236e-01,
          8.32022905e-01, 8.13395917e-01, 8.23610604e-01, 8.74686837e-01,
          8.33034098e-01, 8.06934834e-01, 7.74837017e-01, 7.15666115e-01,
          6.60560071e-01, 7.55583405e-01, 7.61568189e-01, 7.50936627e-01,
          7.83354163e-01, 6.98922992e-01, 6.85144961e-01, 7.19192088e-01,
          7.48817444e-01, 6.14684463e-01, 6.55146301e-01, 8.40070784e-01,
          9.17175412e-01, 9.15594697e-01, 9.05422986e-01, 7.67333567e-01,
          6.15805089e-01, 6.38549209e-01, 6.85347497e-01, 6.30255818e-01,
          6.79508805e-01, 7.53075957e-01, 7.54997134e-01, 7.58363128e-01,
          7.32327640e-01, 6.39664829e-01, 6.23574615e-01, 6.09016180e-01,
          6.34262800e-01, 6.52008176e-01, 6.50059402e-01, 7.50007033e-01,
          7.43775666e-01, 7.08317220e-01, 7.38660812e-01, 6.19006038e-01,
          6.62583828e-01, 6.47147179e-01, 6.25793576e-01, 6.69901252e-01,
          6.76170528e-01, 7.78534293e-01, 7.68149078e-01, 7.10548341e-01,
          6.78338289e-01, 6.49734259e-01, 6.55613005e-01, 6.74755931e-01,
          6.28535032e-01, 6.51120663e-01, 6.87750816e-01, 7.62355626e-01,
          6.86793029e-01, 6.85079873e-01, 6.97861493e-01, 6.46341145e-01,
          6.06310427e-01, 6.47818267e-01, 5.86883903e-01, 6.20302796e-01,
          6.65906310e-01 ]
      - [ 8.90659511e-01, 9.86901224e-01, 9.88749325e-01, 9.89437222e-01,
          9.90003645e-01, 9.88476634e-01, 9.54628885e-01, 9.79338109e-01,
          8.17754447e-01, 7.40053535e-01, 7.87008643e-01, 9.91080403e-01,
          9.88864481e-01, 9.89587486e-01, 9.90063608e-01, 9.75694716e-01,
          8.91459763e-01, 7.96717644e-01, 7.51209557e-01, 8.01321447e-01,
          8.05148125e-01, 9.94025767e-01, 9.93160129e-01, 9.91505623e-01,
          9.89165723e-01, 9.85023260e-01, 7.35481083e-01, 6.94870889e-01,
          7.66227365e-01, 7.64327168e-01, 7.59537220e-01, 9.84673440e-01,
          9.86844778e-01, 9.89704311e-01, 9.86395776e-01, 9.87611771e-01,
          7.36024857e-01, 7.40341544e-01, 8.08621943e-01, 8.16673875e-01,
          8.32793117e-01, 9.89835858e-01, 9.91195738e-01, 9.89693403e-01,
          9.83602464e-01, 9.88134742e-01, 7.67135501e-01, 7.47718334e-01,
          9.08329487e-01, 9.72846985e-01, 9.73321140e-01, 8.77184510e-01,
          8.93304646e-01, 9.34235990e-01, 9.67409551e-01, 9.80257630e-01,
          7.72187829e-01, 7.73027480e-01, 8.51927280e-01, 8.80979717e-01,
          9.11368489e-01, 9.61955130e-01, 9.64348435e-01, 9.54959869e-01,
          9.41958547e-01, 9.18152571e-01, 7.79776573e-01, 7.68745840e-01,
          8.90111446e-01, 9.37920690e-01, 8.91868591e-01, 8.26238036e-01,
          8.94889593e-01, 9.75822568e-01, 9.20386136e-01, 8.74475956e-01,
          8.49008203e-01, 7.93683112e-01, 8.73645365e-01, 9.05393541e-01,
          9.43440080e-01, 9.13653731e-01, 7.89530337e-01, 8.80908608e-01,
          8.56963515e-01, 8.52857769e-01, 8.72855723e-01, 8.34580958e-01,
          8.83902788e-01, 9.08168316e-01, 9.49828148e-01, 8.25573087e-01,
          8.05885255e-01, 8.82373154e-01, 8.81582856e-01, 8.58968019e-01,
          8.52475107e-01, 8.00491512e-01, 8.69575083e-01, 9.00974452e-01,
          9.20352697e-01 ]
      - [ 9.54702258e-01, 9.97013271e-01, 9.97312307e-01, 9.97046292e-01,
          9.97207403e-01, 9.96854842e-01, 9.96985137e-01, 9.96407747e-01,
          9.87991631e-01, 9.96846974e-01, 9.96746838e-01, 9.97337818e-01,
          9.97686267e-01, 9.98054683e-01, 9.97657955e-01, 9.97160733e-01,
          9.97456551e-01, 9.86258268e-01, 9.02094424e-01, 9.96617675e-01,
          9.96642470e-01, 9.97343183e-01, 9.97579932e-01, 9.97779012e-01,
          9.97921884e-01, 9.97866213e-01, 9.97608483e-01, 9.73501325e-01,
          8.59535575e-01, 9.97096479e-01, 9.96794462e-01, 9.97742116e-01,
          9.97847021e-01, 9.98109579e-01, 9.98533905e-01, 9.99061048e-01,
          9.98240173e-01, 9.31531668e-01, 8.27620864e-01, 9.97471571e-01,
          9.97168183e-01, 9.50851381e-01, 9.51286435e-01, 9.47007895e-01,
          9.58361208e-01, 9.63395536e-01, 9.72526848e-01, 8.80897164e-01,
          7.96181619e-01, 9.27865505e-01, 9.63026762e-01, 8.58758390e-01,
          8.30129385e-01, 8.36783588e-01, 8.68252754e-01, 9.05791819e-01,
          9.25120234e-01, 8.44921470e-01, 7.81682074e-01, 7.58754253e-01,
          7.74064958e-01, 9.15264964e-01, 8.26222420e-01, 8.16573977e-01,
          9.77970481e-01, 9.70183432e-01, 9.61690426e-01, 9.44709361e-01,
          9.22746122e-01, 9.28409934e-01, 9.53314960e-01, 9.46252644e-01,
          8.33261847e-01, 8.55734944e-01, 9.93688345e-01, 9.92554665e-01,
          9.89622653e-01, 9.83764410e-01, 9.70093727e-01, 9.91663933e-01,
          9.91775453e-01, 9.91487622e-01, 9.88737941e-01, 8.33371341e-01,
          9.94227350e-01, 9.92833018e-01, 9.86861467e-01, 9.91613448e-01,
          9.81130242e-01, 9.94574547e-01, 9.93663430e-01, 9.95107353e-01,
          9.92040992e-01, 9.64809060e-01, 9.94370937e-01, 9.96134818e-01,
          9.94934618e-01, 9.91325140e-01, 9.84634638e-01, 9.86640573e-01,
          9.03847516e-01 ]
      - [ 9.80500102e-01, 9.90030766e-01, 9.82901514e-01, 9.92046058e-01,
          9.88110185e-01, 9.85324264e-01, 9.83771443e-01, 9.95452642e-01,
          9.96759236e-01, 9.95394111e-01, 9.95521963e-01, 9.88431633e-01,
          9.80897546e-01, 9.86901224e-01, 9.86537397e-01, 9.82148051e-01,
          9.84427273e-01, 9.92460847e-01, 9.92001832e-01, 9.91276085e-01,
          9.91704524e-01, 9.83297586e-01, 9.84428942e-01, 9.82434154e-01,
          9.85801876e-01, 9.83707666e-01, 9.84686136e-01, 9.90148187e-01,
          9.92806792e-01, 9.92176354e-01, 9.91289437e-01, 9.80389893e-01,
          9.86717880e-01, 9.82172728e-01, 9.87264633e-01, 9.85323250e-01,
          9.81492579e-01, 9.86072659e-01, 9.92329538e-01, 9.92372453e-01,
          9.91619051e-01, 9.78099823e-01, 9.87280011e-01, 9.82382655e-01,
          9.83935654e-01, 9.86298621e-01, 9.79437232e-01, 9.83717561e-01,
          9.74006414e-01, 9.75608230e-01, 9.91215110e-01, 9.84173000e-01,
          9.82359350e-01, 9.82236147e-01, 9.79885697e-01, 9.86506402e-01,
          9.81672823e-01, 9.76606250e-01, 9.57235992e-01, 9.68877316e-01,
          9.75343406e-01, 9.88261104e-01, 9.82644260e-01, 9.77352619e-01,
          9.78964865e-01, 9.79449987e-01, 9.85139132e-01, 9.85744119e-01,
          9.72683251e-01, 9.57328856e-01, 9.82026041e-01, 9.91125703e-01,
          9.87878263e-01, 9.84489143e-01, 9.78725433e-01, 9.79220331e-01,
          9.83517289e-01, 9.91830528e-01, 9.76271272e-01, 9.63091910e-01,
          9.85454917e-01, 9.91415143e-01, 9.91453588e-01, 9.85760927e-01,
          9.88989413e-01, 9.79186237e-01, 9.77685332e-01, 9.90913868e-01,
          9.89382803e-01, 9.79673088e-01, 9.88194287e-01, 9.87282753e-01,
          9.85757530e-01, 9.84785855e-01, 9.41428959e-01, 8.95738900e-01,
          8.67764831e-01, 9.16096210e-01, 9.87445414e-01, 9.75522876e-01,
          9.86529469e-01 ]
      - [ 8.96024644e-01, 9.78693068e-01, 9.84581351e-01, 9.85008419e-01,
          9.79053915e-01, 9.82445955e-01, 9.85867739e-01, 9.85999107e-01,
          9.85046804e-01, 9.84868824e-01, 9.87199306e-01, 9.11276400e-01,
          9.59902704e-01, 9.32726443e-01, 8.00372899e-01, 9.58740234e-01,
          9.79086101e-01, 9.78459418e-01, 9.80948865e-01, 9.73312616e-01,
          9.71314490e-01, 8.37052047e-01, 9.28240597e-01, 9.09676909e-01,
          8.11077595e-01, 9.43951309e-01, 9.77349341e-01, 9.67363656e-01,
          9.74920332e-01, 9.74562824e-01, 9.70412254e-01, 8.61644208e-01,
          8.79825056e-01, 8.99235964e-01, 8.26949477e-01, 9.72134113e-01,
          9.84278440e-01, 9.82932329e-01, 9.71988261e-01, 9.69781697e-01,
          9.75787699e-01, 8.53331447e-01, 8.87112379e-01, 8.98106158e-01,
          8.65274727e-01, 9.49548483e-01, 9.77872849e-01, 9.86215770e-01,
          9.81560051e-01, 9.79318559e-01, 9.81663585e-01, 9.52844501e-01,
          8.86077404e-01, 8.20949316e-01, 8.23936164e-01, 8.25746834e-01,
          8.86980712e-01, 8.78728926e-01, 8.87772679e-01, 8.77761304e-01,
          8.69049907e-01, 9.13851738e-01, 8.76385391e-01, 8.34232092e-01,
          8.77768874e-01, 6.91692770e-01, 8.61902058e-01, 8.06885958e-01,
          7.56601572e-01, 7.17921019e-01, 7.19221771e-01, 8.78607452e-01,
          8.84215534e-01, 8.78622532e-01, 8.82975996e-01, 8.93091142e-01,
          8.61519635e-01, 8.23053241e-01, 8.07465315e-01, 7.67571926e-01,
          8.59323263e-01, 8.55760813e-01, 8.57949018e-01, 8.43076766e-01,
          8.23563874e-01, 8.25136244e-01, 8.18060994e-01, 8.47026825e-01,
          9.05673683e-01, 9.30409610e-01, 9.35437381e-01, 8.06848586e-01,
          8.23442340e-01, 8.11252296e-01, 8.30398917e-01, 8.31762016e-01,
          7.89695978e-01, 8.45637560e-01, 8.98261130e-01, 8.48933578e-01,
          9.52265561e-01 ]
      - [ 9.27558959e-01, 9.93783593e-01, 9.86933112e-01, 9.73614097e-01,
          9.67765272e-01, 9.55318749e-01, 9.51888382e-01, 9.67694938e-01,
          9.73798215e-01, 9.47683096e-01, 9.79971528e-01, 9.92312312e-01,
          9.87631500e-01, 9.82626140e-01, 9.69470918e-01, 9.62114990e-01,
          9.36897278e-01, 9.40264344e-01, 9.58333373e-01, 9.52890158e-01,
          9.39143360e-01, 9.90531206e-01, 9.86878753e-01, 9.84943092e-01,
          9.80542243e-01, 9.44519162e-01, 9.61907744e-01, 9.31770682e-01,
          9.34901178e-01, 9.16292906e-01, 9.44899142e-01, 9.79087114e-01,
          9.86574411e-01, 9.83217120e-01, 9.85501766e-01, 9.83233511e-01,
          9.84430015e-01, 9.30140197e-01, 9.18491602e-01, 9.12372828e-01,
          9.62601721e-01, 9.85782743e-01, 9.80506897e-01, 9.87095237e-01,
          9.89370823e-01, 9.86638844e-01, 9.82399940e-01, 9.73864377e-01,
          9.74502683e-01, 9.65541720e-01, 9.64197695e-01, 9.15824890e-01,
          8.93650055e-01, 8.98067117e-01, 8.98995996e-01, 9.01952088e-01,
          8.88767123e-01, 8.74324322e-01, 8.90626431e-01, 8.96737337e-01,
          9.19291198e-01, 9.05825257e-01, 8.68619740e-01, 8.40855718e-01,
          8.47175002e-01, 8.38460565e-01, 8.39309871e-01, 8.85684311e-01,
          8.71263862e-01, 8.75901997e-01, 8.98987651e-01, 8.01941037e-01,
          7.66307473e-01, 7.98056960e-01, 8.40735257e-01, 8.44550431e-01,
          7.80683637e-01, 7.72741854e-01, 8.13939571e-01, 8.01001966e-01,
          8.10932279e-01, 8.05340409e-01, 8.67495000e-01, 9.56720650e-01,
          9.48844373e-01, 9.50023770e-01, 9.33083892e-01, 8.91692400e-01,
          8.66564214e-01, 9.11422074e-01, 9.24405992e-01, 9.72935438e-01,
          9.63530064e-01, 9.56880748e-01, 9.66207922e-01, 9.65452552e-01,
          9.61697161e-01, 9.50520039e-01, 9.56766665e-01, 9.56984699e-01,
          9.67365503e-01 ]
      - [ 8.81905496e-01, 9.73440230e-01, 9.76292491e-01, 9.82894480e-01,
          9.81283605e-01, 9.84218776e-01, 9.87378597e-01, 9.88255382e-01,
          9.69130635e-01, 9.81881738e-01, 9.87516761e-01, 9.74879920e-01,
          9.85246122e-01, 9.93658602e-01, 9.92405176e-01, 9.91832554e-01,
          8.89102757e-01, 8.20087254e-01, 7.85428882e-01, 8.10549915e-01,
          9.12373841e-01, 9.82696772e-01, 9.80300486e-01, 9.26246345e-01,
          9.84095275e-01, 8.69524539e-01, 7.72136450e-01, 7.91179001e-01,
          7.84322560e-01, 7.96264827e-01, 8.61381233e-01, 9.89851236e-01,
          9.86404419e-01, 7.43871868e-01, 8.71441126e-01, 7.98275352e-01,
          8.24130774e-01, 7.95921922e-01, 7.88788855e-01, 8.56036246e-01,
          8.69422495e-01, 9.35118496e-01, 9.30023253e-01, 7.95373917e-01,
          8.27272952e-01, 7.64029324e-01, 7.71015644e-01, 7.55156636e-01,
          7.67349899e-01, 8.36288512e-01, 7.84847021e-01, 8.57528448e-01,
          8.68662596e-01, 8.26070428e-01, 8.86534691e-01, 8.34998786e-01,
          8.51473927e-01, 8.18459153e-01, 8.15451264e-01, 7.97159791e-01,
          8.56971145e-01, 9.01179075e-01, 8.86059880e-01, 9.42653358e-01,
          9.68154430e-01, 7.92755485e-01, 7.86604166e-01, 7.98747480e-01,
          7.70080268e-01, 8.10319245e-01, 8.55919778e-01, 9.18661118e-01,
          9.55437660e-01, 9.73746300e-01, 9.63772178e-01, 8.57713044e-01,
          8.29272985e-01, 7.68523991e-01, 7.99067080e-01, 8.23827326e-01,
          8.78697872e-01, 9.66068923e-01, 9.62370276e-01, 9.51145530e-01,
          9.50232863e-01, 8.98835659e-01, 8.09087992e-01, 7.75363982e-01,
          8.56105566e-01, 8.28644156e-01, 8.87607992e-01, 9.52813268e-01,
          9.44206297e-01, 9.36164916e-01, 8.95146370e-01, 8.89717281e-01,
          9.04056013e-01, 9.07300949e-01, 8.95744383e-01, 8.94804299e-01,
          8.65880072e-01 ]
      - [ 5.32371759e-01, 0., 0., 1.60830542e-02, 2.72795111e-01,
          5.11336446e-01, 5.24796188e-01, 3.62043321e-01, 2.07841936e-02,
          3.47388834e-02, 0., 0., 3.72669958e-02, 5.46355486e-01,
          6.91998124e-01, 7.23759413e-01, 7.77981877e-01, 6.85714424e-01,
          4.76299793e-01, 3.34397480e-02, 0., 0., 3.14695388e-01,
          7.25354671e-01, 6.99280262e-01, 7.57664621e-01, 7.69369304e-01,
          6.72528982e-01, 6.66180909e-01, 3.80278587e-01, 1.74823683e-02,
          2.65976824e-02, 5.37340164e-01, 7.75451601e-01, 7.08228230e-01,
          8.53772342e-01, 7.51541495e-01, 6.77092254e-01, 6.91044211e-01,
          6.95929766e-01, 5.92218973e-02, 7.99138919e-02, 8.08889568e-01,
          7.10663795e-01, 7.46721208e-01, 7.41871834e-01, 6.87221229e-01,
          7.17053056e-01, 7.13872194e-01, 7.89145887e-01, 1.07801825e-01,
          8.46418738e-02, 8.39598119e-01, 8.65708351e-01, 7.28648484e-01,
          7.56446660e-01, 7.78948605e-01, 8.09658825e-01, 8.77422214e-01,
          8.33782017e-01, 1.51670963e-01, 7.56921917e-02, 6.50116086e-01,
          6.69647038e-01, 7.07456470e-01, 7.25300491e-01, 7.32299566e-01,
          6.84242427e-01, 6.61379516e-01, 6.79347217e-01, 1.14913128e-01,
          7.88735151e-02, 5.48840344e-01, 6.96214974e-01, 8.36902797e-01,
          8.77279878e-01, 8.86895835e-01, 7.21668899e-01, 6.44395053e-01,
          6.00346565e-01, 3.99637707e-02, 8.42157677e-02, 5.62655449e-01,
          6.85494840e-01, 9.19460356e-01, 8.45545650e-01, 7.85319984e-01,
          9.13536668e-01, 7.67664611e-01, 4.49320525e-01, 0.,
          5.08002378e-02, 6.51092947e-01, 8.69028628e-01, 9.05175030e-01,
          8.20135772e-01, 7.45394230e-01, 7.90909052e-01, 8.96401405e-01,
          7.98918128e-01, 1.92017034e-01 ]
      - [ 8.45643997e-01, 9.21897709e-01, 8.63434911e-01, 7.16464043e-01,
          8.60135317e-01, 8.81811798e-01, 8.55204582e-01, 8.13901901e-01,
          7.21189797e-01, 8.87927830e-01, 8.71802151e-01, 8.33745956e-01,
          9.06354487e-01, 7.36447632e-01, 9.47804153e-01, 9.30735946e-01,
          9.50668991e-01, 8.93333077e-01, 7.46130764e-01, 8.99542630e-01,
          8.03606749e-01, 8.86797488e-01, 8.48666430e-01, 9.06568587e-01,
          7.33236849e-01, 9.61526692e-01, 9.53930020e-01, 7.65538454e-01,
          8.95735204e-01, 7.85417438e-01, 8.69395375e-01, 9.40883875e-01,
          8.14300954e-01, 9.23631847e-01, 8.23717237e-01, 7.53765166e-01,
          7.43660271e-01, 8.90202582e-01, 8.65432382e-01, 8.25091302e-01,
          8.91043842e-01, 9.27374482e-01, 8.03123772e-01, 8.72195780e-01,
          9.04706657e-01, 6.81580544e-01, 6.87222719e-01, 9.40510213e-01,
          8.67207527e-01, 8.16321552e-01, 8.86935771e-01, 9.20748055e-01,
          8.13931406e-01, 8.69929314e-01, 9.12588954e-01, 6.81369424e-01,
          6.99260592e-01, 9.45991516e-01, 8.25933278e-01, 8.71463239e-01,
          9.05039847e-01, 9.03794944e-01, 8.03262115e-01, 9.14184213e-01,
          8.23771596e-01, 7.96986520e-01, 8.01884890e-01, 8.45044076e-01,
          8.90523016e-01, 7.83904910e-01, 8.91454160e-01, 8.11667323e-01,
          8.97298932e-01, 8.15729320e-01, 7.74640441e-01, 9.42996442e-01,
          9.47577238e-01, 7.84476042e-01, 7.81519234e-01, 8.64339948e-01,
          8.01057637e-01, 9.13654506e-01, 9.24325585e-01, 7.26823807e-01,
          8.61158073e-01, 8.57466638e-01, 8.55175018e-01, 8.01051080e-01,
          7.28793383e-01, 9.11702633e-01, 8.96291256e-01, 8.94253194e-01,
          7.57733166e-01, 8.44435990e-01, 8.56921494e-01, 7.49170840e-01,
          7.63889492e-01, 8.72018635e-01, 8.45755935e-01, 7.86113083e-01,
          9.02059138e-01 ]
      - [ 7.90504992e-01, 9.31527555e-01, 9.38617051e-01, 9.91783798e-01,
          9.84534323e-01, 9.77964103e-01, 9.69155610e-01, 9.60241675e-01,
          9.56216335e-01, 9.24380720e-01, 8.80219042e-01, 6.32188082e-01,
          8.06915760e-01, 9.81982946e-01, 9.95401561e-01, 9.88247991e-01,
          9.69808459e-01, 9.62701559e-01, 8.56182039e-01, 8.65500808e-01,
          9.23770070e-01, 6.93924904e-01, 9.40503538e-01, 9.66800332e-01,
          9.48980033e-01, 9.95176852e-01, 9.89381254e-01, 9.72423792e-01,
          9.20594633e-01, 6.32215917e-01, 8.21286201e-01, 8.44260871e-01,
          9.12188888e-01, 8.57000053e-01, 9.11967754e-01, 9.95755851e-01,
          9.96811330e-01, 9.81864691e-01, 9.07321453e-01, 6.32173598e-01,
          6.86641872e-01, 9.66911316e-01, 7.88900137e-01, 7.11608469e-01,
          9.29031134e-01, 9.93483782e-01, 9.79033232e-01, 9.86725926e-01,
          7.90782630e-01, 7.10093141e-01, 6.32580459e-01, 7.91512489e-01,
          5.95425844e-01, 6.21441185e-01, 9.45468664e-01, 8.93853009e-01,
          8.97036552e-01, 9.10357416e-01, 6.33510470e-01, 6.98988259e-01,
          5.92816770e-01, 6.37441933e-01, 5.93033195e-01, 6.40082300e-01,
          8.62753212e-01, 7.78951824e-01, 8.31706166e-01, 8.19466949e-01,
          6.28875077e-01, 6.62710607e-01, 6.41354620e-01, 5.99310160e-01,
          5.95694482e-01, 6.25074089e-01, 6.42349303e-01, 6.55124128e-01,
          6.50172293e-01, 6.47049546e-01, 6.23789787e-01, 6.01686597e-01,
          6.60811603e-01, 6.16009653e-01, 6.10825777e-01, 6.06453359e-01,
          6.23617113e-01, 6.29047275e-01, 6.43097579e-01, 6.30495131e-01,
          6.01185679e-01, 6.87131882e-01, 7.10193634e-01, 6.43331349e-01,
          6.94443405e-01, 7.85000205e-01, 7.51882434e-01, 7.78998613e-01,
          8.06337774e-01, 6.94337189e-01, 6.35524690e-01, 7.08678007e-01,
          7.18113244e-01 ]
      - [ 9.22029436e-01, 9.89204407e-01, 9.91551578e-01, 9.92419422e-01,
          9.92229998e-01, 9.93437827e-01, 9.94002640e-01, 9.92289841e-01,
          9.91614223e-01, 9.92045522e-01, 9.90674913e-01, 9.91248310e-01,
          9.92645085e-01, 9.92807806e-01, 9.92831051e-01, 9.93132114e-01,
          9.89531219e-01, 9.52008188e-01, 9.68440533e-01, 9.90920603e-01,
          9.90246058e-01, 9.90628839e-01, 9.92502868e-01, 9.92618263e-01,
          9.91492450e-01, 9.92784977e-01, 9.68031526e-01, 9.36833858e-01,
          9.13064480e-01, 9.91745114e-01, 9.90195513e-01, 9.83927488e-01,
          9.90183473e-01, 9.85136509e-01, 9.87452805e-01, 9.87873197e-01,
          9.28698480e-01, 8.69773746e-01, 8.74494553e-01, 9.78992641e-01,
          9.89185035e-01, 9.89747822e-01, 9.91559684e-01, 9.90966260e-01,
          9.92583275e-01, 9.70825374e-01, 8.44866037e-01, 8.50228965e-01,
          8.61864448e-01, 9.73162055e-01, 9.88131166e-01, 9.90044057e-01,
          9.90394354e-01, 9.91329432e-01, 9.90347147e-01, 9.12141800e-01,
          7.27025688e-01, 8.68682802e-01, 7.92905033e-01, 8.73219907e-01,
          9.74085569e-01, 9.88237739e-01, 9.89959359e-01, 9.89942133e-01,
          9.82344568e-01, 8.61140251e-01, 7.59901166e-01, 7.72735357e-01,
          8.27396512e-01, 7.97297060e-01, 8.63911808e-01, 9.85832751e-01,
          9.89646554e-01, 9.88779664e-01, 8.94622564e-01, 8.66168201e-01,
          7.87111223e-01, 8.57068181e-01, 9.08153832e-01, 8.66954088e-01,
          8.87349904e-01, 9.17660415e-01, 9.43317473e-01, 9.28016067e-01,
          8.20406199e-01, 8.32290173e-01, 8.07369053e-01, 8.39908361e-01,
          7.95311451e-01, 8.21485519e-01, 8.84497166e-01, 8.87011230e-01,
          8.75638127e-01, 7.27535069e-01, 7.63493776e-01, 8.24429035e-01,
          7.60228336e-01, 7.98691094e-01, 8.29201698e-01, 8.78875554e-01,
          8.99011791e-01 ]
      - [ 8.56073260e-01, 9.00356293e-01, 9.43217695e-01, 9.66693819e-01,
          9.58670974e-01, 9.56236303e-01, 9.55236793e-01, 9.41495121e-01,
          9.35778201e-01, 9.71357405e-01, 9.69033718e-01, 9.00791883e-01,
          9.44301784e-01, 9.63563919e-01, 9.55712974e-01, 9.68009710e-01,
          9.60573971e-01, 9.59896207e-01, 9.47164536e-01, 9.80070055e-01,
          9.66952741e-01, 9.30565894e-01, 8.92951965e-01, 9.55683529e-01,
          9.69167769e-01, 9.63686347e-01, 9.51105833e-01, 9.17237699e-01,
          9.74374831e-01, 9.83295739e-01, 9.62951720e-01, 9.12681460e-01,
          8.39681208e-01, 9.14147973e-01, 9.48318422e-01, 9.40788507e-01,
          9.48637903e-01, 8.37443471e-01, 9.01881278e-01, 9.09299016e-01,
          9.62845504e-01, 8.25728178e-01, 8.27442408e-01, 9.37759042e-01,
          8.63309264e-01, 8.72838974e-01, 8.85614991e-01, 8.55076194e-01,
          8.55481148e-01, 8.79295766e-01, 9.51647580e-01, 8.51198912e-01,
          8.99304569e-01, 8.11999381e-01, 8.83960783e-01, 8.79774153e-01,
          9.01570618e-01, 8.83671343e-01, 8.77367437e-01, 8.64615202e-01,
          8.86386931e-01, 8.92179489e-01, 8.61032128e-01, 8.50596189e-01,
          8.86571527e-01, 6.51792705e-01, 7.88393915e-01, 8.88989925e-01,
          8.55795324e-01, 7.45077014e-01, 7.34651566e-01, 9.32199001e-01,
          9.04438376e-01, 7.83791423e-01, 9.04146612e-01, 8.12280357e-01,
          9.01877820e-01, 8.33484888e-01, 7.68090606e-01, 8.67142558e-01,
          8.47170413e-01, 9.25833464e-01, 8.94216895e-01, 7.51482904e-01,
          8.27944636e-01, 6.75844312e-01, 6.03312492e-01, 6.67297900e-01,
          6.59212232e-01, 1.35620356e-01, 6.86901212e-01, 9.28526044e-01,
          8.75615597e-01, 8.19766402e-01, 4.74806339e-01, 5.71432054e-01,
          6.77280486e-01, 6.64553225e-01, 6.87868357e-01, 6.27872944e-01,
          7.21322834e-01 ]
      - [ 9.19537544e-01, 9.90008354e-01, 9.84379590e-01, 9.85470176e-01,
          9.87471998e-01, 9.52065706e-01, 8.83839309e-01, 9.38625276e-01,
          9.84578133e-01, 9.81929541e-01, 9.83345747e-01, 9.89176750e-01,
          9.83827889e-01, 9.85281348e-01, 9.86584961e-01, 8.91091824e-01,
          8.84582102e-01, 8.20743263e-01, 9.79922831e-01, 9.79724050e-01,
          9.80081439e-01, 9.87018168e-01, 9.82608736e-01, 9.84951317e-01,
          8.91170681e-01, 7.80560672e-01, 7.33246207e-01, 7.26917446e-01,
          8.29656363e-01, 9.76180911e-01, 9.77424502e-01, 9.87456143e-01,
          9.83764887e-01, 9.57131863e-01, 8.02210152e-01, 7.33974159e-01,
          7.57857621e-01, 8.12954068e-01, 8.41911316e-01, 9.70794141e-01,
          9.73234713e-01, 9.85951185e-01, 9.83684897e-01, 9.53299224e-01,
          7.60182858e-01, 7.32867777e-01, 7.70688176e-01, 7.80435443e-01,
          9.36727107e-01, 9.69616652e-01, 9.65112984e-01, 9.83755052e-01,
          9.81425405e-01, 9.79555666e-01, 8.05204809e-01, 9.48311388e-01,
          7.58642793e-01, 8.15497398e-01, 9.63733494e-01, 9.62367475e-01,
          9.56175625e-01, 9.82908487e-01, 9.79984283e-01, 9.75091994e-01,
          9.57437515e-01, 9.24652755e-01, 9.22219634e-01, 8.16942751e-01,
          9.53275621e-01, 9.55362976e-01, 9.47872043e-01, 9.80096400e-01,
          9.52385664e-01, 9.51669753e-01, 9.69902337e-01, 8.32016170e-01,
          9.09960866e-01, 7.82762945e-01, 9.44416404e-01, 9.48267579e-01,
          9.41532075e-01, 9.80314016e-01, 9.67164338e-01, 9.51939583e-01,
          9.50709403e-01, 8.36718798e-01, 8.56065810e-01, 8.32159281e-01,
          9.15400028e-01, 9.25628245e-01, 9.25691128e-01, 9.70094979e-01,
          9.45382655e-01, 9.05714869e-01, 8.62615585e-01, 9.26310599e-01,
          9.42047298e-01, 9.20248568e-01, 9.49471295e-01, 9.50346291e-01,
          9.35349703e-01 ]
      - [ 8.33976984e-01, 8.68393660e-01, 7.47427166e-01, 7.70236015e-01,
          5.65346241e-01, 8.04009914e-01, 8.17044199e-01, 6.91403210e-01,
          7.39624739e-01, 7.44343340e-01, 9.07762945e-01, 8.38222086e-01,
          8.93987834e-01, 8.82099986e-01, 8.43744218e-01, 7.67838418e-01,
          8.26001465e-01, 7.55649686e-01, 6.67224228e-01, 7.37679780e-01,
          7.84470558e-01, 8.70342672e-01, 9.07500744e-01, 9.33027089e-01,
          9.38109636e-01, 9.01440084e-01, 8.14790785e-01, 8.14611435e-01,
          7.32217610e-01, 7.06474066e-01, 7.45022357e-01, 8.81357610e-01,
          9.24582064e-01, 8.81929100e-01, 8.71165752e-01, 8.59956026e-01,
          7.67262399e-01, 7.93270767e-01, 7.56781518e-01, 8.21669042e-01,
          9.31024909e-01, 8.81435096e-01, 9.45379138e-01, 9.53894734e-01,
          8.85266423e-01, 8.43164861e-01, 7.75475502e-01, 8.47354531e-01,
          8.52343500e-01, 7.63279080e-01, 8.19160461e-01, 8.97758245e-01,
          9.22202229e-01, 9.08716857e-01, 8.48173320e-01, 7.83827424e-01,
          8.19331765e-01, 8.47810566e-01, 8.55619550e-01, 8.47102582e-01,
          9.50085580e-01, 9.38484430e-01, 9.29452181e-01, 9.24633861e-01,
          7.89733827e-01, 6.26396060e-01, 7.89369345e-01, 8.25813174e-01,
          7.85392821e-01, 8.28667521e-01, 9.01371479e-01, 9.64970350e-01,
          9.61333156e-01, 9.39787090e-01, 8.27109396e-01, 6.02112830e-01,
          8.31800818e-01, 8.71292055e-01, 7.90262818e-01, 7.88644671e-01,
          9.15563464e-01, 9.53227818e-01, 9.54028487e-01, 9.45838392e-01,
          8.10830772e-01, 7.44248033e-01, 7.85003603e-01, 8.14728916e-01,
          7.57174194e-01, 7.47834682e-01, 8.73977482e-01, 9.17092562e-01,
          9.11873281e-01, 9.06713665e-01, 8.28570426e-01, 7.90429533e-01,
          7.99861252e-01, 8.14310014e-01, 8.23369920e-01, 7.54694104e-01,
          8.43103051e-01 ]
      - [ 6.61266863e-01, 0., 0., 0., 0., 0., 0., 0., 0., 0., 0.,
          7.19974458e-01, 7.07777262e-01, 7.09423304e-01, 7.15170383e-01,
          7.15834379e-01, 7.12020874e-01, 7.10540950e-01, 7.13373601e-01,
          7.12975621e-01, 7.09569216e-01, 9.90741789e-01, 9.90733325e-01,
          9.91029918e-01, 9.91529286e-01, 9.90652740e-01, 9.91432607e-01,
          9.92444515e-01, 9.92522538e-01, 9.92813587e-01, 9.93073225e-01,
          9.91975248e-01, 9.91437435e-01, 9.87512112e-01, 9.87537920e-01,
          9.92352784e-01, 9.90760088e-01, 9.90643501e-01, 9.89545763e-01,
          9.88435149e-01, 9.89343166e-01, 9.85108972e-01, 9.10070837e-01,
          9.18434918e-01, 9.73572016e-01, 9.77483809e-01, 9.76584435e-01,
          9.07557845e-01, 9.51448083e-01, 9.78354454e-01, 9.80860829e-01,
          9.36655164e-01, 8.47265244e-01, 7.57402301e-01, 8.92498076e-01,
          9.29100096e-01, 8.92267942e-01, 8.01043212e-01, 8.50258648e-01,
          8.59099090e-01, 8.90613377e-01, 7.62047887e-01, 7.70603061e-01,
          7.21688330e-01, 7.15305448e-01, 7.42975056e-01, 7.58439124e-01,
          7.65058398e-01, 7.39602983e-01, 7.55706847e-01, 7.70501971e-01,
          7.11132169e-01, 7.72142589e-01, 7.82761157e-01, 7.55410731e-01,
          8.07059586e-01, 8.12546253e-01, 7.70429254e-01, 7.45543242e-01,
          7.53912270e-01, 7.47646809e-01, 6.75870597e-01, 6.78541422e-01,
          6.23460233e-01, 6.25477970e-01, 8.29348505e-01, 8.35677147e-01,
          6.24278903e-01, 6.34515822e-01, 6.76194608e-01, 6.89110100e-01,
          0., 0., 0., 0., 0., 0., 0., 0., 0., 0. ]
      - [ 9.18928385e-01, 9.91192818e-01, 9.93867338e-01, 9.95418906e-01,
          9.50224578e-01, 9.73938107e-01, 9.82695282e-01, 9.92065907e-01,
          9.86227334e-01, 9.35301781e-01, 9.60810661e-01, 9.65096056e-01,
          9.88982081e-01, 9.88679945e-01, 9.38674450e-01, 9.80211437e-01,
          9.44286227e-01, 9.19289470e-01, 9.38944936e-01, 9.84964490e-01,
          9.59690094e-01, 9.68111277e-01, 9.03380334e-01, 9.81680214e-01,
          9.68918622e-01, 9.64056253e-01, 9.84444976e-01, 9.58801568e-01,
          9.63819087e-01, 9.43297267e-01, 9.40932691e-01, 9.54915047e-01,
          8.41426134e-01, 8.78547728e-01, 8.34003210e-01, 8.09351623e-01,
          9.61030006e-01, 9.74544346e-01, 9.77981210e-01, 9.66971934e-01,
          9.50422704e-01, 9.75434482e-01, 8.98430765e-01, 8.78978729e-01,
          8.08566928e-01, 9.47596550e-01, 8.34404588e-01, 9.58660364e-01,
          9.61970329e-01, 9.83654559e-01, 9.79942679e-01, 9.38152850e-01,
          9.39566076e-01, 9.83297348e-01, 9.45998073e-01, 9.32308972e-01,
          8.52057815e-01, 7.96443462e-01, 8.15120816e-01, 8.74031901e-01,
          9.03738439e-01, 9.50698137e-01, 8.60354662e-01, 8.04194629e-01,
          8.16632569e-01, 8.88085306e-01, 9.17428792e-01, 7.86770463e-01,
          7.58862913e-01, 7.89429367e-01, 7.89046347e-01, 9.12147045e-01,
          8.82141352e-01, 8.30994964e-01, 8.07871103e-01, 8.81594241e-01,
          9.16142583e-01, 8.03845167e-01, 8.46584499e-01, 7.46723711e-01,
          8.63946080e-01, 9.40697968e-01, 9.14251983e-01, 9.16406572e-01,
          9.17428732e-01, 9.25986826e-01, 9.60215449e-01, 9.65904832e-01,
          9.58639801e-01, 9.56308305e-01, 9.60367620e-01, 8.07982564e-01,
          8.73284161e-01, 9.34582412e-01, 9.47346449e-01, 9.58447874e-01,
          9.62316275e-01, 9.45956767e-01, 9.37902212e-01, 9.27123666e-01,
          9.35625255e-01 ]
      - [ 9.68742549e-01, 9.92292702e-01, 9.90774989e-01, 9.90212321e-01,
          9.89665329e-01, 9.89974976e-01, 9.91355538e-01, 9.91999269e-01,
          9.90720630e-01, 9.90061760e-01, 9.90939081e-01, 9.89931226e-01,
          9.91566181e-01, 9.91392434e-01, 9.90460753e-01, 9.91311550e-01,
          9.91775811e-01, 9.92337763e-01, 9.92234170e-01, 9.90021765e-01,
          9.91976380e-01, 9.88524139e-01, 9.81649280e-01, 9.84517455e-01,
          9.89418507e-01, 9.93507028e-01, 9.93969738e-01, 9.93648469e-01,
          9.92030621e-01, 9.89236712e-01, 9.90548015e-01, 9.91799414e-01,
          9.85584915e-01, 9.86918807e-01, 9.87886608e-01, 9.88570988e-01,
          9.85465944e-01, 9.91582930e-01, 9.89182174e-01, 9.88400936e-01,
          9.88433301e-01, 9.86233950e-01, 9.94242966e-01, 9.86871183e-01,
          9.87203538e-01, 9.83615577e-01, 9.77364898e-01, 9.84063089e-01,
          9.88815665e-01, 9.85386431e-01, 9.83902872e-01, 9.77732897e-01,
          9.82620418e-01, 9.79954779e-01, 9.58460748e-01, 9.64625537e-01,
          9.68318403e-01, 9.86006021e-01, 9.85020280e-01, 9.82602537e-01,
          9.82621551e-01, 9.56980884e-01, 9.76446152e-01, 9.78926897e-01,
          9.77807939e-01, 9.75998998e-01, 9.76100624e-01, 9.77660537e-01,
          9.72887337e-01, 9.78500009e-01, 8.81766915e-01, 8.86066854e-01,
          8.75793159e-01, 8.67753804e-01, 8.36655676e-01, 8.50381136e-01,
          9.05339003e-01, 8.73886466e-01, 9.33288932e-01, 9.02304113e-01,
          9.11445498e-01, 9.55192387e-01, 9.53968763e-01, 9.65172648e-01,
          9.65045214e-01, 9.66440082e-01, 9.67591763e-01, 9.74079490e-01,
          9.73417878e-01, 9.41307485e-01, 9.30854738e-01, 9.45687711e-01,
          9.44436848e-01, 9.49506700e-01, 9.56626117e-01, 9.58849192e-01,
          9.55164135e-01, 9.65309620e-01, 9.67000961e-01, 9.72307384e-01,
          9.73238945e-01 ]
      - [ 9.21033144e-01, 9.83378112e-01, 9.58928823e-01, 9.02759075e-01,
          7.96757519e-01, 7.16839612e-01, 7.89935708e-01, 7.97578573e-01,
          7.91340292e-01, 7.52578795e-01, 7.60299265e-01, 8.96555185e-01,
          7.91261375e-01, 7.72553861e-01, 8.31753731e-01, 8.66009891e-01,
          8.19406450e-01, 9.35508311e-01, 9.51097310e-01, 9.16411817e-01,
          9.57481146e-01, 8.23475957e-01, 8.18565130e-01, 8.54054332e-01,
          8.99998665e-01, 9.63969469e-01, 8.87311161e-01, 9.67879593e-01,
          9.89506066e-01, 9.74372923e-01, 9.81683910e-01, 8.86840403e-01,
          8.76228571e-01, 8.55337799e-01, 8.87227058e-01, 9.85538900e-01,
          9.23274517e-01, 8.07529867e-01, 9.61200774e-01, 9.88938987e-01,
          9.82922614e-01, 9.23897326e-01, 9.38346505e-01, 9.87510860e-01,
          9.87307310e-01, 9.85358655e-01, 9.88588154e-01, 9.67184305e-01,
          7.81773448e-01, 8.07426214e-01, 9.76419508e-01, 9.06839252e-01,
          9.01206911e-01, 9.49446142e-01, 9.86891508e-01, 9.84598517e-01,
          9.87736106e-01, 9.88030255e-01, 9.80700314e-01, 7.70504236e-01,
          7.37819254e-01, 9.43375707e-01, 9.66091394e-01, 9.88009512e-01,
          9.77086365e-01, 9.90309000e-01, 9.90521133e-01, 9.86235678e-01,
          9.58251357e-01, 9.53710258e-01, 8.96495104e-01, 9.21233296e-01,
          9.35949743e-01, 9.11422491e-01, 9.32347775e-01, 9.87293839e-01,
          9.85913575e-01, 9.87266004e-01, 9.85254526e-01, 9.84281719e-01,
          9.81162012e-01, 9.23107624e-01, 8.26276720e-01, 8.90890718e-01,
          9.84511912e-01, 9.86074090e-01, 9.80618656e-01, 9.84227121e-01,
          9.82269526e-01, 9.81193900e-01, 9.70052719e-01, 9.46457982e-01,
          9.29758966e-01, 9.12446320e-01, 9.27262545e-01, 9.76746142e-01,
          8.87198687e-01, 9.76344705e-01, 9.81899440e-01, 9.78737473e-01,
          9.78644729e-01 ]
      - [ 9.60756183e-01, 9.99984622e-01, 9.99984622e-01, 9.99984622e-01,
          9.99984622e-01, 9.99984622e-01, 9.99984622e-01, 9.70529020e-01,
          9.99706388e-01, 9.99984622e-01, 9.99984622e-01, 9.99984622e-01,
          9.99984622e-01, 9.97305095e-01, 9.85302091e-01, 9.99124885e-01,
          9.65680659e-01, 8.70364547e-01, 9.57752764e-01, 9.99984622e-01,
          9.99984622e-01, 9.99984622e-01, 9.99984622e-01, 8.68803859e-01,
          8.34655166e-01, 8.67795885e-01, 8.12125921e-01, 8.60448718e-01,
          9.41188931e-01, 9.99984622e-01, 9.99984622e-01, 9.99984622e-01,
          9.88291979e-01, 9.32984948e-01, 9.28511441e-01, 8.59813213e-01,
          9.86945808e-01, 8.98721695e-01, 9.41342592e-01, 9.99984622e-01,
          9.99741316e-01, 9.99984622e-01, 9.66112435e-01, 9.67097998e-01,
          8.99352849e-01, 9.79528725e-01, 9.99755740e-01, 9.40434992e-01,
          9.66305375e-01, 9.99984622e-01, 9.99741316e-01, 9.99984622e-01,
          9.88330960e-01, 9.83464360e-01, 9.83106792e-01, 9.89519477e-01,
          9.55254197e-01, 8.91830683e-01, 8.85134995e-01, 9.99055207e-01,
          9.99449074e-01, 9.98825252e-01, 9.69269633e-01, 9.83373702e-01,
          9.74805534e-01, 9.84537721e-01, 8.38317513e-01, 8.32824409e-01,
          8.58486652e-01, 9.48585987e-01, 9.95688558e-01, 9.91791010e-01,
          9.74936187e-01, 9.74320292e-01, 9.48374867e-01, 9.31231737e-01,
          9.23413754e-01, 9.76460338e-01, 9.45757508e-01, 9.48570848e-01,
          9.60893393e-01, 9.62632656e-01, 9.68219042e-01, 9.73417878e-01,
          9.59825337e-01, 9.37219143e-01, 9.60209846e-01, 9.55551863e-01,
          9.45090294e-01, 9.55186546e-01, 9.62240279e-01, 9.53954279e-01,
          9.60243940e-01, 9.72870171e-01, 9.41912174e-01, 9.32556689e-01,
          9.67575133e-01, 9.71327424e-01, 9.74011302e-01, 9.60846901e-01,
          9.64674950e-01 ]
      - [ 9.48802948e-01, 9.97668743e-01, 9.93537545e-01, 9.88315642e-01,
          9.89383101e-01, 9.86679733e-01, 9.86884534e-01, 9.84313369e-01,
          9.80518758e-01, 9.70122099e-01, 9.61126149e-01, 9.94015694e-01,
          9.91121650e-01, 9.80106294e-01, 9.86153305e-01, 9.90335703e-01,
          9.91448998e-01, 9.87485647e-01, 9.83183801e-01, 9.72323179e-01,
          9.66578066e-01, 9.92474377e-01, 9.92543757e-01, 9.90648270e-01,
          9.88347232e-01, 9.94314313e-01, 9.94463325e-01, 9.87441480e-01,
          9.62223768e-01, 9.65216637e-01, 9.71771002e-01, 9.91458833e-01,
          9.93858635e-01, 9.94746745e-01, 9.94776487e-01, 9.93141830e-01,
          9.93116438e-01, 9.84000146e-01, 9.72084463e-01, 9.79682922e-01,
          9.75854695e-01, 9.91203010e-01, 9.93412197e-01, 9.93404329e-01,
          9.92028713e-01, 9.86627281e-01, 9.76983905e-01, 9.72854674e-01,
          9.82331932e-01, 9.83313859e-01, 9.79205966e-01, 9.86602664e-01,
          9.92098689e-01, 9.91879702e-01, 9.79685247e-01, 9.88990009e-01,
          9.86853182e-01, 9.87167895e-01, 9.84899819e-01, 9.85492587e-01,
          9.56057787e-01, 9.69121933e-01, 9.82426107e-01, 9.69279170e-01,
          9.85678375e-01, 9.92030144e-01, 9.88366723e-01, 9.62344170e-01,
          9.21782911e-01, 9.36625779e-01, 9.27591085e-01, 9.80423868e-01,
          9.81361687e-01, 9.42472100e-01, 9.13264334e-01, 9.62611079e-01,
          9.51867223e-01, 9.21281517e-01, 9.16566610e-01, 9.15947616e-01,
          9.04078126e-01, 7.94462562e-01, 8.93908620e-01, 8.75507116e-01,
          8.42768669e-01, 9.22503710e-01, 9.24917161e-01, 9.00560558e-01,
          8.20648909e-01, 7.73403049e-01, 7.36853182e-01, 7.88982213e-01,
          7.81260312e-01, 8.40833724e-01, 9.11145866e-01, 9.05588031e-01,
          8.92581761e-01, 8.81650865e-01, 8.39543700e-01, 8.04984629e-01,
          8.00139546e-01 ]
      - [ 9.26684797e-01, 9.91709709e-01, 9.92590547e-01, 9.93277311e-01,
          9.94376302e-01, 9.94861543e-01, 9.94895518e-01, 9.94296432e-01,
          9.93016899e-01, 9.92245317e-01, 9.91727650e-01, 9.91498590e-01,
          9.92100000e-01, 9.91134703e-01, 9.95506525e-01, 9.96326447e-01,
          9.96151626e-01, 9.95391667e-01, 9.94786263e-01, 9.93716836e-01,
          9.91845727e-01, 9.92195547e-01, 9.93997574e-01, 9.95252967e-01,
          9.96251583e-01, 9.96857285e-01, 9.96546388e-01, 9.96057332e-01,
          9.94828761e-01, 9.94007885e-01, 9.92950082e-01, 9.92021441e-01,
          9.92049873e-01, 9.92684305e-01, 9.95897770e-01, 9.96808946e-01,
          9.96730983e-01, 9.96491909e-01, 9.95376527e-01, 9.93400574e-01,
          9.92281497e-01, 9.86560106e-01, 9.90559936e-01, 9.88035738e-01,
          9.65205133e-01, 9.55297410e-01, 9.96210754e-01, 9.95726705e-01,
          9.92581964e-01, 9.88562286e-01, 9.90281224e-01, 9.32769537e-01,
          9.52842057e-01, 9.48222160e-01, 9.59180832e-01, 9.48653102e-01,
          9.64602649e-01, 9.41313088e-01, 9.59779263e-01, 9.49783385e-01,
          9.51961994e-01, 7.83611238e-01, 8.26824725e-01, 8.51384878e-01,
          8.62017572e-01, 8.64138067e-01, 8.73803020e-01, 8.61928046e-01,
          8.39400351e-01, 7.75199056e-01, 8.33371341e-01, 9.22988772e-01,
          9.17486608e-01, 9.22137082e-01, 9.25445378e-01, 9.22784746e-01,
          9.23542738e-01, 8.08174849e-01, 7.97749639e-01, 6.69500113e-01,
          7.98927009e-01, 9.25354064e-01, 9.45024192e-01, 9.38626230e-01,
          9.35149491e-01, 9.22623932e-01, 8.92961204e-01, 8.45540822e-01,
          9.13622677e-01, 8.29647005e-01, 8.02245915e-01, 7.07384467e-01,
          8.24640870e-01, 8.72440398e-01, 8.82022917e-01, 8.77104759e-01,
          8.34856451e-01, 8.13819289e-01, 8.02780211e-01, 7.97858655e-01,
          7.69259334e-01 ]
      - [ 9.37071085e-01, 9.97890234e-01, 9.97498274e-01, 9.97046888e-01,
          9.96255040e-01, 9.96736050e-01, 9.96102989e-01, 9.94649291e-01,
          9.94785547e-01, 9.96909797e-01, 9.98207152e-01, 9.97128367e-01,
          9.96732116e-01, 9.96991754e-01, 9.96375918e-01, 9.97344136e-01,
          9.96656299e-01, 9.95940864e-01, 9.95706856e-01, 9.97270286e-01,
          9.97971833e-01, 9.97865260e-01, 9.97626781e-01, 9.96906340e-01,
          9.96380329e-01, 9.96775746e-01, 9.96407986e-01, 9.96220291e-01,
          9.96508121e-01, 9.97385085e-01, 9.97714281e-01, 9.95715380e-01,
          9.95922983e-01, 9.96692300e-01, 9.96485054e-01, 9.96845961e-01,
          9.96979892e-01, 9.88890588e-01, 9.96407330e-01, 9.97890055e-01,
          9.97472405e-01, 9.93090630e-01, 9.93130565e-01, 9.95169938e-01,
          9.95859563e-01, 9.58203137e-01, 9.84398842e-01, 8.89721453e-01,
          9.79727268e-01, 9.95962858e-01, 9.92811263e-01, 9.87236977e-01,
          9.70637918e-01, 9.01655614e-01, 9.42971051e-01, 9.01056111e-01,
          9.59382355e-01, 9.12344754e-01, 9.42616165e-01, 9.62307096e-01,
          8.67532551e-01, 8.23853195e-01, 8.48562896e-01, 7.78219223e-01,
          7.97862470e-01, 7.47150064e-01, 8.52528632e-01, 9.10479546e-01,
          7.87978590e-01, 8.52774620e-01, 7.51870573e-01, 7.51454175e-01,
          7.38026917e-01, 7.66349375e-01, 7.41774738e-01, 7.65326679e-01,
          7.50194728e-01, 8.05467188e-01, 7.19681263e-01, 7.62106478e-01,
          7.00132728e-01, 9.02038515e-01, 9.13572490e-01, 9.20956075e-01,
          9.24774587e-01, 9.20426071e-01, 9.25199151e-01, 9.09351110e-01,
          8.98511887e-01, 8.91694009e-01, 9.03353930e-01, 9.76203859e-01,
          9.83101547e-01, 9.86509919e-01, 9.82329786e-01, 9.80235457e-01,
          9.81133163e-01, 9.79181707e-01, 9.90601301e-01, 9.88195956e-01,
          9.91523206e-01 ]
      - [ 9.68863308e-01, 9.87131000e-01, 9.89367723e-01, 9.86301184e-01,
          9.70817506e-01, 9.68638122e-01, 9.69091713e-01, 9.78288531e-01,
          9.66144443e-01, 9.83113587e-01, 9.82092023e-01, 9.85235870e-01,
          9.82521772e-01, 9.60444093e-01, 9.47212815e-01, 9.92387176e-01,
          9.86428559e-01, 9.45748627e-01, 9.65669334e-01, 9.48917747e-01,
          9.84006286e-01, 9.81039405e-01, 9.74182785e-01, 9.25811112e-01,
          9.90152299e-01, 9.90277469e-01, 9.92104650e-01, 9.78698671e-01,
          9.46956098e-01, 9.16110814e-01, 9.75623727e-01, 9.76307809e-01,
          9.31507111e-01, 9.87148345e-01, 9.86720622e-01, 9.83675599e-01,
          9.87069726e-01, 9.74605799e-01, 9.51888382e-01, 9.29883957e-01,
          9.58442569e-01, 9.66023088e-01, 9.38014865e-01, 9.92642164e-01,
          9.82309163e-01, 9.66451824e-01, 9.47617054e-01, 8.95448029e-01,
          9.58269238e-01, 9.55300331e-01, 9.50826049e-01, 9.18969274e-01,
          9.90311682e-01, 9.88107681e-01, 9.68728602e-01, 9.59500194e-01,
          9.78148162e-01, 9.73713994e-01, 9.67207849e-01, 9.77725208e-01,
          9.69366968e-01, 9.84402835e-01, 9.91903365e-01, 9.83395696e-01,
          9.61271346e-01, 9.53853250e-01, 9.73408282e-01, 9.65330362e-01,
          9.45032418e-01, 9.72240984e-01, 9.80592966e-01, 9.89490092e-01,
          9.88720477e-01, 9.59925950e-01, 9.35320020e-01, 9.71452534e-01,
          9.70790684e-01, 9.58060384e-01, 9.28285062e-01, 9.73040700e-01,
          9.73747790e-01, 9.88472521e-01, 9.76688147e-01, 9.77759719e-01,
          9.55227733e-01, 9.79666233e-01, 9.68972087e-01, 9.08754706e-01,
          9.35648203e-01, 9.76118028e-01, 9.75357115e-01, 9.83778000e-01,
          9.86624897e-01, 9.75396693e-01, 9.60546255e-01, 9.83498991e-01,
          9.77623284e-01, 9.81224120e-01, 9.85009730e-01, 9.88921702e-01,
          9.86892283e-01 ]
      - [ 9.61709917e-01, 9.88732219e-01, 9.90028262e-01, 9.87080097e-01,
          9.77363825e-01, 9.85397875e-01, 9.91335273e-01, 9.92057145e-01,
          9.85943437e-01, 9.88563776e-01, 9.91705179e-01, 9.90330100e-01,
          9.88869667e-01, 9.91464019e-01, 9.85720456e-01, 9.87443030e-01,
          9.88951266e-01, 9.88728583e-01, 9.91227508e-01, 9.89871621e-01,
          9.90903974e-01, 9.89952207e-01, 9.87095296e-01, 9.88163352e-01,
          9.02222037e-01, 9.28871274e-01, 9.86173987e-01, 9.88335311e-01,
          9.88548577e-01, 9.86228585e-01, 9.84172583e-01, 9.84005570e-01,
          9.73044336e-01, 8.94135475e-01, 6.89426959e-01, 8.86195362e-01,
          9.86710250e-01, 9.90274847e-01, 9.90094483e-01, 9.90304053e-01,
          9.92071807e-01, 9.86202180e-01, 9.88994002e-01, 9.82564032e-01,
          7.60181904e-01, 7.92404890e-01, 9.88849699e-01, 9.89828885e-01,
          9.91436899e-01, 9.89541709e-01, 9.88131940e-01, 9.85480785e-01,
          9.79646027e-01, 9.67754543e-01, 7.83182681e-01, 8.26439202e-01,
          9.93119895e-01, 9.88687575e-01, 9.89767313e-01, 9.91075993e-01,
          9.84627903e-01, 9.89003897e-01, 9.86206412e-01, 9.38394070e-01,
          8.07062685e-01, 8.70122969e-01, 9.87453401e-01, 9.88823116e-01,
          9.88278568e-01, 9.90441978e-01, 9.89806771e-01, 9.83775139e-01,
          9.90353286e-01, 9.14713323e-01, 8.19810152e-01, 8.80397558e-01,
          9.86190915e-01, 9.84680176e-01, 9.83813763e-01, 9.85468328e-01,
          9.85480070e-01, 9.87454116e-01, 9.87721622e-01, 9.86514926e-01,
          8.61898541e-01, 9.36980247e-01, 9.72739697e-01, 9.68170226e-01,
          9.74520624e-01, 9.83340144e-01, 9.87645745e-01, 9.84158099e-01,
          9.81098413e-01, 9.54311728e-01, 8.64293754e-01, 9.14659619e-01,
          9.85260129e-01, 9.84221578e-01, 9.85828757e-01, 9.83539522e-01,
          9.83732879e-01 ]
      - [ 9.03637469e-01, 8.75184238e-01, 9.36179042e-01, 9.56188679e-01,
          9.52063620e-01, 9.65697765e-01, 9.65002835e-01, 9.75797474e-01,
          9.43713129e-01, 8.38506520e-01, 9.46305692e-01, 8.45263481e-01,
          9.03619647e-01, 9.31968153e-01, 9.23373520e-01, 9.52247500e-01,
          9.48391199e-01, 9.66996491e-01, 9.27150905e-01, 8.69005620e-01,
          9.41416979e-01, 8.74572814e-01, 8.84197533e-01, 8.88617635e-01,
          9.20999646e-01, 9.32780504e-01, 9.41315651e-01, 9.65457022e-01,
          9.02686119e-01, 9.19458330e-01, 9.20983672e-01, 8.67723823e-01,
          8.48957419e-01, 8.69680345e-01, 9.00394678e-01, 8.89791369e-01,
          9.17037845e-01, 9.41389680e-01, 8.86638939e-01, 9.57591057e-01,
          9.43502188e-01, 8.70091856e-01, 8.23853314e-01, 8.71267676e-01,
          9.00371492e-01, 9.00731087e-01, 8.86728585e-01, 8.65406990e-01,
          8.94447148e-01, 9.15184438e-01, 9.21699405e-01, 9.66338158e-01,
          7.83608556e-01, 9.01338458e-01, 9.07419682e-01, 9.14507627e-01,
          8.97273540e-01, 8.72952282e-01, 8.96453083e-01, 9.03564751e-01,
          9.41170037e-01, 8.78143966e-01, 8.57010484e-01, 8.59582305e-01,
          8.87805641e-01, 8.82265866e-01, 9.04993832e-01, 9.20455873e-01,
          9.33912635e-01, 9.32232380e-01, 8.84072900e-01, 9.00481999e-01,
          8.15540373e-01, 8.64131272e-01, 9.02028084e-01, 9.08769846e-01,
          9.23649490e-01, 8.82101297e-01, 8.69679272e-01, 8.85729551e-01,
          9.31451678e-01, 9.49550688e-01, 8.42214584e-01, 8.83657753e-01,
          9.07520115e-01, 9.29242313e-01, 9.24190938e-01, 9.38493550e-01,
          8.49113226e-01, 7.96270132e-01, 8.76194894e-01, 8.48597229e-01,
          8.35186243e-01, 9.29599464e-01, 9.28665698e-01, 9.36384857e-01,
          9.36401248e-01, 9.42875683e-01, 8.92171443e-01, 8.06306839e-01,
          9.16289568e-01 ]
      - [ 7.77002335e-01, 9.93489325e-01, 9.97009933e-01, 9.94969070e-01,
          9.97032285e-01, 9.93613720e-01, 9.91663277e-01, 9.94111717e-01,
          9.91669476e-01, 9.89285409e-01, 9.86288607e-01, 9.86935437e-01,
          9.89206731e-01, 9.89480913e-01, 9.93057311e-01, 9.93378222e-01,
          9.87592220e-01, 9.56355989e-01, 9.36753869e-01, 9.68444347e-01,
          9.44482803e-01, 9.72554684e-01, 9.76101518e-01, 9.58202183e-01,
          9.44323480e-01, 9.57954884e-01, 9.40569162e-01, 9.34486449e-01,
          9.24892664e-01, 8.05164814e-01, 8.12147856e-01, 8.49847019e-01,
          8.12538922e-01, 8.08206975e-01, 7.60320008e-01, 7.94825315e-01,
          8.08109403e-01, 7.83280194e-01, 8.03355217e-01, 8.02210808e-01,
          7.95935810e-01, 8.80270660e-01, 9.59453940e-01, 9.55083311e-01,
          9.77708757e-01, 9.85984743e-01, 9.81500030e-01, 9.78652298e-01,
          9.62455451e-01, 9.85344887e-01, 9.61215138e-01, 7.09955871e-01,
          7.34271348e-01, 7.66213953e-01, 8.43173146e-01, 8.57891738e-01,
          8.73530626e-01, 8.78354669e-01, 7.81468511e-01, 8.68395746e-01,
          8.47760797e-01, 5.66700041e-01, 5.54091275e-01, 5.66578805e-01,
          5.59454203e-01, 5.59951484e-01, 6.77593231e-01, 5.64860642e-01,
          5.55975258e-01, 5.53282917e-01, 5.52386224e-01, 5.61914623e-01,
          5.65363824e-01, 5.47842860e-01, 5.49657345e-01, 5.61531126e-01,
          5.48608661e-01, 5.55142403e-01, 5.67501903e-01, 5.59780538e-01,
          5.62636077e-01, 5.98838389e-01, 6.04815066e-01, 5.64215600e-01,
          5.61500371e-01, 5.61560571e-01, 5.87548316e-01, 5.84226310e-01,
          5.78265250e-01, 5.91160417e-01, 5.59851766e-01, 5.85026026e-01,
          5.87417781e-01, 5.91032565e-01, 5.85858464e-01, 5.73827803e-01,
          5.77143431e-01, 5.82985699e-01, 6.00027680e-01, 5.95990121e-01,
          6.06249273e-01 ]
      - [ 9.51863885e-01, 9.90054786e-01, 9.88178670e-01, 9.88810003e-01,
          9.83242810e-01, 9.87392068e-01, 9.84743714e-01, 9.87723649e-01,
          9.86194611e-01, 9.89047050e-01, 9.87695992e-01, 9.93062198e-01,
          9.92064893e-01, 9.90159631e-01, 9.91508961e-01, 9.91467655e-01,
          9.85690653e-01, 9.81531560e-01, 9.87850308e-01, 9.90317404e-01,
          9.85477448e-01, 9.96036053e-01, 9.96434510e-01, 9.96799290e-01,
          9.97688591e-01, 9.96870697e-01, 9.91693258e-01, 9.89000618e-01,
          9.89049017e-01, 9.88986969e-01, 9.82697606e-01, 9.94565070e-01,
          9.96663511e-01, 9.97684598e-01, 9.98142838e-01, 9.97942150e-01,
          9.97515142e-01, 9.96461809e-01, 9.95534539e-01, 9.95363235e-01,
          9.91837025e-01, 9.82168198e-01, 9.83282983e-01, 9.86524522e-01,
          9.96059716e-01, 9.94959056e-01, 9.78022516e-01, 9.76375461e-01,
          9.87573922e-01, 9.84175026e-01, 9.78037298e-01, 9.81222451e-01,
          9.80655372e-01, 9.79387641e-01, 9.89540040e-01, 9.87084866e-01,
          9.79788959e-01, 9.86419678e-01, 9.86912191e-01, 9.85548556e-01,
          9.75147784e-01, 9.56218839e-01, 9.79388475e-01, 9.83927608e-01,
          9.87463057e-01, 9.87613916e-01, 9.86753106e-01, 9.88336623e-01,
          9.85952079e-01, 9.87147808e-01, 9.80884492e-01, 8.49105120e-01,
          8.45817208e-01, 8.12712252e-01, 7.93754697e-01, 7.75516927e-01,
          7.69607782e-01, 8.28899622e-01, 8.78438175e-01, 8.99038255e-01,
          8.91301990e-01, 8.79376888e-01, 8.82905126e-01, 8.58080387e-01,
          8.50594819e-01, 8.60054970e-01, 8.62758994e-01, 8.83645594e-01,
          8.91999066e-01, 8.84401858e-01, 9.02783155e-01, 8.80218923e-01,
          8.88222992e-01, 9.06526685e-01, 9.11233366e-01, 9.04795647e-01,
          9.09494400e-01, 9.23128307e-01, 9.29521143e-01, 9.45688903e-01,
          9.48232234e-01 ]
      - [ 9.39971924e-01, 8.94856453e-01, 9.11917210e-01, 9.29780662e-01,
          9.42392111e-01, 9.29464519e-01, 9.30213153e-01, 9.17445123e-01,
          9.15662050e-01, 9.36034799e-01, 9.38138366e-01, 9.08118725e-01,
          9.57328856e-01, 9.51358676e-01, 9.52797294e-01, 9.53690231e-01,
          9.50742304e-01, 9.02056992e-01, 8.58804464e-01, 9.50844765e-01,
          9.53122973e-01, 9.38439071e-01, 9.79821324e-01, 9.78154361e-01,
          9.67298210e-01, 9.55328107e-01, 8.82240713e-01, 8.11352491e-01,
          7.83517599e-01, 9.05770540e-01, 9.01260674e-01, 9.56936300e-01,
          9.89312947e-01, 9.89587188e-01, 9.84253585e-01, 9.68815029e-01,
          8.12640786e-01, 6.80464387e-01, 8.26545060e-01, 9.10934269e-01,
          9.35703695e-01, 9.66947794e-01, 9.90619719e-01, 9.93501604e-01,
          9.88846004e-01, 9.85193670e-01, 9.43096519e-01, 7.97557592e-01,
          8.62811685e-01, 9.38651264e-01, 9.42687571e-01, 9.55581427e-01,
          9.92949724e-01, 9.94112849e-01, 9.91891026e-01, 9.88069892e-01,
          9.88759339e-01, 9.81064439e-01, 9.52657878e-01, 9.49195564e-01,
          9.49965656e-01, 8.34488392e-01, 8.76975179e-01, 9.87717330e-01,
          9.88045812e-01, 8.92789960e-01, 8.20490003e-01, 9.29404557e-01,
          9.68624115e-01, 9.57138062e-01, 9.56045330e-01, 8.54059637e-01,
          9.15770829e-01, 9.49725747e-01, 9.37564075e-01, 9.33351755e-01,
          9.64229941e-01, 9.25122440e-01, 9.48840916e-01, 9.44536507e-01,
          9.27295804e-01, 9.57459927e-01, 9.89534855e-01, 9.69340384e-01,
          9.29637194e-01, 9.91095781e-01, 9.88030970e-01, 9.86596882e-01,
          9.86110806e-01, 9.78321016e-01, 9.66309488e-01, 9.64701831e-01,
          9.89714622e-01, 9.70740795e-01, 9.55113471e-01, 9.91587281e-01,
          9.90124702e-01, 9.82809126e-01, 9.80810106e-01, 9.81558681e-01,
          9.71263587e-01 ]
      - [ 7.94425488e-01, 9.99999225e-01, 9.99999225e-01, 9.99999225e-01,
          9.98565555e-01, 7.84931123e-01, 8.53058338e-01, 8.66464257e-01,
          8.80581558e-01, 8.80521059e-01, 9.15727973e-01, 9.99999225e-01,
          9.99999225e-01, 9.99935627e-01, 9.10993040e-01, 9.11808074e-01,
          9.55941260e-01, 9.85641122e-01, 9.86138821e-01, 9.85903382e-01,
          9.85048294e-01, 9.99999225e-01, 9.99999225e-01, 9.74902511e-01,
          8.29701424e-01, 9.11868513e-01, 9.88158405e-01, 9.82573092e-01,
          9.85313296e-01, 9.84259963e-01, 9.85619903e-01, 9.79383647e-01,
          9.71256793e-01, 9.58532453e-01, 9.15895224e-01, 8.69981885e-01,
          8.96821082e-01, 8.60496700e-01, 9.52711046e-01, 9.01479781e-01,
          9.58340764e-01, 8.45113099e-01, 8.95321488e-01, 8.51222992e-01,
          8.48877728e-01, 7.78371930e-01, 8.33358586e-01, 8.81401658e-01,
          8.83185327e-01, 8.96897972e-01, 9.33429062e-01, 7.05522418e-01,
          7.07549214e-01, 7.39682198e-01, 7.13540316e-01, 6.27369225e-01,
          6.46173835e-01, 7.23683953e-01, 7.69133151e-01, 8.18464160e-01,
          8.90572667e-01, 6.53007686e-01, 6.22275651e-01, 6.13443911e-01,
          5.54670572e-01, 6.35770917e-01, 6.23879969e-01, 6.58852160e-01,
          7.19327867e-01, 8.06416869e-01, 8.68691742e-01, 5.94427049e-01,
          6.07746005e-01, 5.43287873e-01, 5.43849468e-01, 6.77339196e-01,
          6.28503382e-01, 6.38821781e-01, 6.86317027e-01, 7.59195030e-01,
          8.45121801e-01, 5.80714583e-01, 6.09030008e-01, 5.48520684e-01,
          5.60422063e-01, 6.29298270e-01, 7.08313107e-01, 5.63773990e-01,
          5.97199142e-01, 7.59384632e-01, 8.07086468e-01, 6.02164567e-01,
          5.96736848e-01, 5.59148490e-01, 5.51408052e-01, 5.98752856e-01,
          7.01388478e-01, 6.62335515e-01, 3.83961916e-01, 5.30994594e-01,
          7.12784767e-01 ]
      - [ 8.07624221e-01, 9.58784878e-01, 9.52422678e-01, 9.62650359e-01,
          9.52528119e-01, 9.39583361e-01, 9.93486285e-01, 9.86881971e-01,
          9.81275201e-01, 9.70619202e-01, 9.55616772e-01, 9.40454841e-01,
          9.55213845e-01, 9.46460545e-01, 9.45081711e-01, 9.76663113e-01,
          9.82078016e-01, 9.61493134e-01, 9.72883999e-01, 9.78570700e-01,
          9.69379187e-01, 9.75164115e-01, 9.77245390e-01, 9.55865026e-01,
          9.64901090e-01, 9.93731201e-01, 9.95666444e-01, 9.91029680e-01,
          9.41704512e-01, 9.77618396e-01, 9.72029746e-01, 9.79666710e-01,
          9.72542703e-01, 9.78258491e-01, 9.85496938e-01, 9.89419341e-01,
          9.93442237e-01, 9.88279045e-01, 9.55316842e-01, 9.06420231e-01,
          9.23435032e-01, 9.74868000e-01, 9.69016671e-01, 9.71721947e-01,
          9.86612737e-01, 9.74320948e-01, 9.87349510e-01, 9.83737111e-01,
          9.77714598e-01, 9.40812349e-01, 9.27537382e-01, 9.74040449e-01,
          9.31776583e-01, 9.29607987e-01, 9.63495731e-01, 9.51550066e-01,
          9.81120229e-01, 9.78620768e-01, 9.72685933e-01, 9.65340734e-01,
          9.47938085e-01, 9.66667235e-01, 9.37285125e-01, 9.22290146e-01,
          9.79002774e-01, 8.80204916e-01, 9.61908281e-01, 9.72161829e-01,
          9.65299129e-01, 9.58047390e-01, 9.42449152e-01, 9.64550376e-01,
          9.22813237e-01, 9.24024820e-01, 9.61254179e-01, 9.00005460e-01,
          9.08500612e-01, 9.58087265e-01, 9.56024230e-01, 9.38580990e-01,
          8.97971988e-01, 8.86395037e-01, 7.77017534e-01, 7.04457939e-01,
          6.20996535e-01, 6.44839764e-01, 6.28333330e-01, 4.14028704e-01,
          6.78034842e-01, 5.69156170e-01, 1.94880411e-01, 0., 0., 0., 0.,
          6.17825314e-02, 1.08313244e-02, 2.45541092e-02, 6.08096682e-02,
          0., 0. ]
      - [ 8.60539615e-01, 9.92047191e-01, 9.93412971e-01, 9.94285882e-01,
          9.94982719e-01, 9.95420933e-01, 9.94267702e-01, 9.93284345e-01,
          9.92684782e-01, 9.91688311e-01, 9.89639997e-01, 5.52939832e-01,
          6.39611959e-01, 7.18493462e-01, 7.23979056e-01, 9.43600237e-01,
          9.91959989e-01, 9.91209567e-01, 9.91363585e-01, 9.90935326e-01,
          9.89498734e-01, 3.00799876e-01, 3.09198648e-01, 2.89244175e-01,
          2.99743176e-01, 3.98420781e-01, 5.57896972e-01, 6.12884223e-01,
          7.58724570e-01, 8.82648468e-01, 8.83037329e-01, 8.96624446e-01,
          8.97477806e-01, 8.94357681e-01, 8.93119276e-01, 8.97863507e-01,
          8.99864614e-01, 8.93667996e-01, 9.00518894e-01, 8.99966359e-01,
          8.86760533e-01, 9.15649593e-01, 9.01519060e-01, 8.92383575e-01,
          8.93206894e-01, 8.81536245e-01, 8.89687181e-01, 8.99600804e-01,
          8.82532597e-01, 8.99105012e-01, 9.03250456e-01, 8.96910250e-01,
          8.82680178e-01, 8.91044378e-01, 9.05338585e-01, 8.83501768e-01,
          8.85306060e-01, 8.87527049e-01, 8.88250291e-01, 9.14414167e-01,
          8.92074466e-01, 8.79980981e-01, 9.17037904e-01, 8.93401325e-01,
          9.05512214e-01, 8.97612810e-01, 9.24741507e-01, 9.19288218e-01,
          9.02472198e-01, 8.70399117e-01, 9.06187296e-01, 8.80410731e-01,
          8.66360962e-01, 8.81964147e-01, 8.82924795e-01, 9.01514351e-01,
          8.67388070e-01, 9.18267965e-01, 9.20742393e-01, 9.16027963e-01,
          8.72967780e-01, 8.80090594e-01, 8.88848841e-01, 8.78912747e-01,
          8.73893797e-01, 8.35115790e-01, 8.88747573e-01, 8.89746785e-01,
          8.72560024e-01, 8.72954249e-01, 8.74319375e-01, 8.68328035e-01,
          8.66909146e-01, 8.75231445e-01, 8.71265769e-01, 8.45529199e-01,
          8.74621749e-01, 8.87831211e-01, 8.76648068e-01, 8.37126493e-01,
          8.97842169e-01 ]
      - [ 9.41777289e-01, 9.96310413e-01, 9.97885585e-01, 9.97230887e-01,
          9.96198118e-01, 9.97652531e-01, 9.96308863e-01, 9.96258140e-01,
          9.96110916e-01, 9.97201860e-01, 9.96858180e-01, 9.96774316e-01,
          9.97204721e-01, 9.97368813e-01, 9.96410906e-01, 9.96775270e-01,
          9.96343076e-01, 9.96156931e-01, 9.96686578e-01, 9.97532904e-01,
          9.96604681e-01, 9.97423172e-01, 9.97830629e-01, 9.97874200e-01,
          9.96861160e-01, 9.97089267e-01, 9.97252226e-01, 9.97306466e-01,
          9.97756779e-01, 9.97596145e-01, 9.96156871e-01, 9.96960044e-01,
          9.97511268e-01, 9.97823477e-01, 9.97280777e-01, 9.97450888e-01,
          9.97496188e-01, 9.96168852e-01, 9.96439278e-01, 9.96228218e-01,
          9.95752990e-01, 9.75798965e-01, 9.19357479e-01, 9.31781173e-01,
          9.63813424e-01, 9.81298566e-01, 9.60149586e-01, 9.86579716e-01,
          9.90101278e-01, 9.92849588e-01, 9.82011437e-01, 9.75904107e-01,
          8.74920785e-01, 8.15561950e-01, 7.56298006e-01, 8.18152785e-01,
          7.67317653e-01, 8.78686011e-01, 9.71166611e-01, 9.77427423e-01,
          9.92194772e-01, 9.83001769e-01, 9.76883173e-01, 9.34839129e-01,
          7.79518008e-01, 8.90524447e-01, 8.09141040e-01, 7.25445092e-01,
          8.15224290e-01, 9.22073066e-01, 9.08768892e-01, 9.83648896e-01,
          9.83794928e-01, 9.81664896e-01, 9.45815206e-01, 9.87327516e-01,
          9.09860492e-01, 7.32173979e-01, 7.02278018e-01, 7.65961826e-01,
          8.43112946e-01, 9.79022563e-01, 9.74684060e-01, 9.74932134e-01,
          9.72891450e-01, 9.71906960e-01, 9.74663377e-01, 7.93571711e-01,
          7.75817573e-01, 7.38291323e-01, 8.28002989e-01, 9.64538515e-01,
          9.49176252e-01, 9.52521741e-01, 9.70053196e-01, 9.71791744e-01,
          9.74853516e-01, 9.21033263e-01, 8.26502502e-01, 8.39578032e-01,
          8.69330168e-01 ]
      - [ 9.20258284e-01, 9.41194832e-01, 9.45986569e-01, 9.50523853e-01,
          9.51437593e-01, 9.48986471e-01, 9.50185418e-01, 9.50521290e-01,
          9.56334233e-01, 9.58438098e-01, 9.61336374e-01, 9.23632443e-01,
          9.42112446e-01, 9.45858300e-01, 9.34280217e-01, 9.44051802e-01,
          9.49679971e-01, 9.42958236e-01, 9.48999703e-01, 9.50624168e-01,
          9.34046805e-01, 9.38819647e-01, 9.42649484e-01, 9.48662817e-01,
          9.40995038e-01, 9.24355030e-01, 9.42985475e-01, 9.35767889e-01,
          8.75707388e-01, 8.45315993e-01, 9.39101398e-01, 9.22990143e-01,
