%YAML:1.0
my_svm: !!opencv-ml-svm
   svm_type: C_SVC
   kernel: { type:RBF, gamma:2.2500000000000003e-03 }
   C: 1.0000000000000001e-01
   term_criteria: { epsilon:1.1920928955078125e-07, iterations:1000 }
   var_all: 3
   var_count: 3
   class_count: 2
   class_labels: !!opencv-matrix
      rows: 1
      cols: 2
      dt: i
      data: [ 0, 1 ]
   sv_total: 325
   support_vectors:
      - [ 1.88388396e-02, 19., 2.98980465e+01 ]
      - [ 2.38431320e-02, 10., 3.58121910e+01 ]
      - [ 3.89957950e-02, 7., 6.33238888e+00 ]
      - [ 1.83068234e-02, 22., 6.70087814e+01 ]
      - [ 3.48090455e-02, 13., 4.69374418e+00 ]
      - [ 6.90224022e-03, 17., 3.58169136e+01 ]
      - [ 3.29492688e-02, 12., 3.32276306e+01 ]
      - [ 2.45680548e-02, 20., 2.94078674e+01 ]
      - [ 0., 0., 0. ]
      - [ 2.56217159e-02, 11., 6.38715591e+01 ]
      - [ 1.82467774e-02, 21., 3.54869194e+01 ]
      - [ 1.51605159e-02, 19., 3.73521614e+01 ]
      - [ 0., 0., 0. ]
      - [ 2.09651515e-02, 24., 3.27757416e+01 ]
      - [ 1.09874466e-02, 23., 3.65869827e+01 ]
      - [ 3.28249075e-02, 21., 2.77292404e+01 ]
      - [ 2.36064103e-02, 2., 8.99779415e+00 ]
      - [ 8.62857141e-03, 7., 2.33218021e+01 ]
      - [ 4.71730456e-02, 6., 5.69551620e+01 ]
      - [ 4.57332358e-02, 16., 1.21830969e+01 ]
      - [ 1.88865252e-02, 14., 3.70216713e+01 ]
      - [ 1.57726482e-02, 16., 1.64004612e+01 ]
      - [ 2.78266668e-02, 19., 3.21806526e+01 ]
      - [ 1.73897985e-02, 16., 3.82283707e+01 ]
      - [ 1.90786887e-02, 19., 3.12974968e+01 ]
      - [ 4.15157825e-02, 16., 3.25684586e+01 ]
      - [ 0., 0., 0. ]
      - [ 1.25074200e-02, 19., 3.53242531e+01 ]
      - [ 1.56073179e-02, 15., 3.60324211e+01 ]
      - [ 1.60111580e-02, 22., 3.23469772e+01 ]
      - [ 1.15829473e-02, 27., 3.32764435e+01 ]
      - [ 3.08366679e-02, 22., 2.68092194e+01 ]
      - [ 1.95429716e-02, 16., 5.70361481e+01 ]
      - [ 3.91367897e-02, 14., 2.00096169e+01 ]
      - [ 3.65721285e-02, 10., 1.27939224e+01 ]
      - [ 1.73194427e-02, 14., 3.17534142e+01 ]
      - [ 1.32591501e-02, 14., 3.44801979e+01 ]
      - [ 1.16517320e-02, 18., 1.85003605e+01 ]
      - [ 1.16766877e-02, 25., 6.05859146e+01 ]
      - [ 1.24807656e-02, 4., 4.30552025e+01 ]
      - [ 3.11421864e-02, 11., 3.67786140e+01 ]
      - [ 4.54990268e-02, 15., 5.32187653e+01 ]
      - [ 1.47599149e-02, 15., 3.28693237e+01 ]
      - [ 2.73321141e-02, 13., 5.92777824e+01 ]
      - [ 6.28495812e-02, 35., 1.67896957e+01 ]
      - [ 2.24146675e-02, 14., 3.18977814e+01 ]
      - [ 2.72111185e-02, 18., 3.51142883e+01 ]
      - [ 1.56772416e-02, 22., 5.92585716e+01 ]
      - [ 2.19396669e-02, 19., 3.54300423e+01 ]
      - [ 3.93930934e-02, 6., 6.89433384e+00 ]
      - [ 1.38352104e-02, 22., 3.37136421e+01 ]
      - [ 2.29937285e-02, 14., 3.10145779e+01 ]
      - [ 9.28992499e-03, 10., 2.28774452e+01 ]
      - [ 1.72631219e-02, 17., 3.65258217e+01 ]
      - [ 2.88644172e-02, 13., 2.48190441e+01 ]
      - [ 0., 0., 0. ]
      - [ 7.08380761e-03, 15., 6.95054779e+01 ]
      - [ 2.11929455e-02, 17., 3.07178898e+01 ]
      - [ 1.44981807e-02, 21., 2.89376812e+01 ]
      - [ 2.26684473e-02, 20., 2.02500324e+01 ]
      - [ 1.08166216e-02, 20., 5.87550163e+01 ]
      - [ 3.35401036e-02, 17., 3.47237434e+01 ]
      - [ 5.16032502e-02, 17., 2.12733517e+01 ]
      - [ 1.92470942e-02, 28., 5.61595688e+01 ]
      - [ 0., 0., 0. ]
      - [ 0., 0., 0. ]
      - [ 2.06514038e-02, 16., 2.03023243e+01 ]
      - [ 6.38810731e-03, 17., 3.48007584e+01 ]
      - [ 1.74908619e-02, 20., 2.92485371e+01 ]
      - [ 1.58663653e-02, 14., 3.23313675e+01 ]
      - [ 9.88537166e-03, 25., 3.14439087e+01 ]
      - [ 2.07551084e-02, 9., 2.08444576e+01 ]
      - [ 1.70856416e-02, 14., 3.14233074e+01 ]
      - [ 1.46051766e-02, 10., 5.81190758e+01 ]
      - [ 1.09739555e-02, 6., 4.68833466e+01 ]
      - [ 2.90622003e-02, 7., 2.83015862e+01 ]
      - [ 2.24271081e-02, 15., 2.57188339e+01 ]
      - [ 1.67549010e-02, 18., 2.72183590e+01 ]
      - [ 2.19981410e-02, 11., 3.17755547e+01 ]
      - [ 1.65648721e-02, 22., 3.80396347e+01 ]
      - [ 1.61339603e-02, 20., 3.71439171e+01 ]
      - [ 2.29042396e-02, 8., 2.58439903e+01 ]
      - [ 2.13716887e-02, 12., 3.76905556e+01 ]
      - [ 2.08835304e-02, 22., 3.13655872e+01 ]
      - [ 0., 0., 0. ]
      - [ 2.47646011e-02, 20., 5.89907608e+01 ]
      - [ 5.21201007e-02, 10., 6.98798180e+00 ]
      - [ 2.44993549e-02, 22., 2.40479736e+01 ]
      - [ 2.48270184e-02, 19., 7.52624741e+01 ]
      - [ 8.19259230e-03, 12., 3.50652771e+01 ]
      - [ 1.51985306e-02, 17., 6.91067505e+01 ]
      - [ 1.78969875e-02, 16., 3.30071793e+01 ]
      - [ 2.87081935e-02, 22., 2.97764473e+01 ]
      - [ 4.72680628e-02, 12., 2.56747684e+01 ]
      - [ 1.87051222e-02, 19., 2.93971233e+01 ]
      - [ 3.00660245e-02, 23., 1.35982952e+01 ]
      - [ 1.15106404e-02, 27., 2.75700760e+01 ]
      - [ 1.12077706e-02, 19., 2.50257854e+01 ]
      - [ 1.67436618e-02, 33., 5.37277412e+01 ]
      - [ 1.35554150e-02, 14., 2.77594490e+01 ]
      - [ 0., 0., 0. ]
      - [ 7.61256926e-03, 21., 3.43405952e+01 ]
      - [ 2.11191084e-02, 17., 3.67437096e+01 ]
      - [ 1.10376170e-02, 11., 5.61698761e+01 ]
      - [ 9.67132300e-03, 6., 4.59653091e+01 ]
      - [ 2.99341790e-02, 16., 3.08865604e+01 ]
      - [ 1.35170549e-01, 28., 2.20068951e+01 ]
      - [ 4.57999222e-02, 11., 3.63410149e+01 ]
      - [ 2.27258727e-02, 10., 3.75757217e+01 ]
      - [ 2.24932775e-01, 17., 3.63751945e+01 ]
      - [ 1.57519802e-02, 16., 2.60419083e+01 ]
      - [ 3.85960415e-02, 10., 2.68842278e+01 ]
      - [ 2.77121887e-02, 23., 3.80263710e+01 ]
      - [ 1.76778995e-02, 19., 2.49772930e+01 ]
      - [ 2.83951089e-02, 25., 2.03380642e+01 ]
      - [ 4.47675027e-02, 20., 3.22009659e+01 ]
      - [ 1.20972376e-02, 13., 6.14032707e+01 ]
      - [ 1.22582484e-02, 10., 1.91040192e+01 ]
      - [ 0., 0., 0. ]
      - [ 2.16859952e-02, 22., 2.50963516e+01 ]
      - [ 2.29412988e-02, 18., 5.48902016e+01 ]
      - [ 4.17072847e-02, 7., 8.44608307e+00 ]
      - [ 1.44847864e-02, 11., 3.62410088e+01 ]
      - [ 4.63690190e-03, 11., 3.60466042e+01 ]
      - [ 1.73955970e-02, 25., 3.45203819e+01 ]
      - [ 2.98290513e-02, 21., 2.77564716e+01 ]
      - [ 2.33575255e-02, 16., 1.86901550e+01 ]
      - [ 2.88699493e-02, 10., 1.88429260e+01 ]
      - [ 2.48379633e-02, 15., 1.79394054e+01 ]
      - [ 0., 0., 0. ]
      - [ 1.28463935e-02, 29., 5.60790329e+01 ]
      - [ 1.92142352e-02, 23., 5.74773788e+01 ]
      - [ 3.47650722e-02, 11., 1.78217201e+01 ]
      - [ 2.62566656e-02, 10., 3.17852097e+01 ]
      - [ 1.64634697e-02, 12., 1.48770733e+01 ]
      - [ 1.20778503e-02, 18., 1.48990164e+01 ]
      - [ 1.01496875e-02, 14., 3.84042702e+01 ]
      - [ 3.02158929e-02, 15., 2.32727222e+01 ]
      - [ 5.51253557e-03, 17., 3.52146454e+01 ]
      - [ 1.49408709e-02, 25., 3.75392761e+01 ]
      - [ 1.53912203e-02, 21., 5.76017799e+01 ]
      - [ 1.47424089e-02, 18., 2.68691330e+01 ]
      - [ 1.34681975e-02, 22., 3.53003197e+01 ]
      - [ 1.13599729e-02, 20., 2.18045578e+01 ]
      - [ 7.51294103e-03, 30., 3.03609810e+01 ]
      - [ 8.98209773e-03, 32., 5.50045166e+01 ]
      - [ 1.64041668e-02, 12., 3.02218895e+01 ]
      - [ 5.08538112e-02, 18., 2.05990143e+01 ]
      - [ 3.03265750e-02, 13., 5.39154663e+01 ]
      - [ 1.13786999e-02, 7., 5.00327454e+01 ]
      - [ 4.02717069e-02, 7., 5.49166489e+00 ]
      - [ 1.95391234e-02, 16., 3.81520882e+01 ]
      - [ 1.45822521e-02, 17., 2.56335678e+01 ]
      - [ 1.08369663e-02, 12., 5.95369835e+01 ]
      - [ 2.51011364e-02, 8., 2.77995625e+01 ]
      - [ 3.57157961e-02, 24., 3.27621651e+01 ]
      - [ 5.98537996e-02, 18., 1.51914244e+01 ]
      - [ 2.19593830e-02, 11., 1.66007996e+01 ]
      - [ 9.73711722e-03, 20., 3.69460564e+01 ]
      - [ 2.23164540e-02, 11., 5.82073555e+01 ]
      - [ 3.11912410e-02, 27., 6.28706360e+01 ]
      - [ 6.16756752e-02, 15., 2.95284824e+01 ]
      - [ 2.73899399e-02, 25., 3.45237694e+01 ]
      - [ 1.79347247e-02, 19., 5.82551727e+01 ]
      - [ 8.67598597e-03, 15., 2.72690086e+01 ]
      - [ 1.95580553e-02, 21., 4.41729813e+01 ]
      - [ 3.36594805e-02, 10., 2.77579842e+01 ]
      - [ 6.19846955e-02, 19., 2.78580952e+01 ]
      - [ 2.52382681e-02, 26., 2.67225208e+01 ]
      - [ 3.95334028e-02, 20., 2.99044514e+01 ]
      - [ 1.78099312e-02, 23., 2.28976746e+01 ]
      - [ 1.99589431e-02, 29., 5.48305283e+01 ]
      - [ 3.34367678e-02, 11., 1.24230623e+01 ]
      - [ 1.97193921e-02, 23., 1.84371109e+01 ]
      - [ 2.74603087e-02, 11., 3.29505997e+01 ]
      - [ 1.91717800e-02, 15., 4.63641663e+01 ]
      - [ 2.68560685e-02, 22., 2.09065475e+01 ]
      - [ 1.71599332e-02, 12., 2.98072109e+01 ]
      - [ 2.01506987e-02, 21., 2.52861271e+01 ]
      - [ 1.80513263e-02, 14., 3.26684914e+01 ]
      - [ 1.81568041e-02, 23., 3.10610294e+01 ]
      - [ 2.11418420e-02, 15., 5.96452866e+01 ]
      - [ 2.61517521e-02, 13., 3.63794441e+01 ]
      - [ 1.80816948e-02, 19., 2.78576469e+01 ]
      - [ 1.27350539e-02, 10., 1.58312502e+01 ]
      - [ 2.55986806e-02, 19., 1.97068577e+01 ]
      - [ 7.97105115e-03, 15., 3.20341415e+01 ]
      - [ 6.98802546e-02, 7., 2.15796280e+01 ]
      - [ 8.14488716e-03, 13., 5.73138733e+01 ]
      - [ 2.12062113e-02, 11., 4.71540794e+01 ]
      - [ 2.93271486e-02, 17., 1.86060009e+01 ]
      - [ 1.96159948e-02, 15., 2.24843712e+01 ]
      - [ 5.14602251e-02, 12., 5.53542376e+00 ]
      - [ 2.12273486e-02, 20., 2.45931625e+01 ]
      - [ 4.89088660e-03, 18., 4.47132225e+01 ]
      - [ 3.75692435e-02, 18., 1.84251823e+01 ]
      - [ 2.67949551e-02, 13., 3.60754280e+01 ]
      - [ 3.32422592e-02, 9., 9.03344250e+00 ]
      - [ 2.64717732e-02, 24., 2.36021843e+01 ]
      - [ 7.26464111e-03, 18., 6.71565781e+01 ]
      - [ 2.55087819e-02, 15., 1.10348768e+01 ]
      - [ 2.45574415e-02, 15., 2.81054611e+01 ]
      - [ 4.82383035e-02, 10., 1.02841196e+01 ]
      - [ 2.86976285e-02, 18., 2.55133915e+01 ]
      - [ 1.34027516e-02, 13., 2.02494278e+01 ]
      - [ 1.59941688e-02, 30., 4.32664795e+01 ]
      - [ 3.22834291e-02, 19., 1.85761871e+01 ]
      - [ 1.95077192e-02, 10., 3.67124519e+01 ]
      - [ 5.61058745e-02, 13., 5.04733772e+01 ]
      - [ 1.75193921e-02, 13., 2.67039452e+01 ]
      - [ 3.94393429e-02, 9., 3.64928093e+01 ]
      - [ 3.03413551e-02, 16., 3.89385071e+01 ]
      - [ 6.73542544e-03, 13., 4.46065331e+01 ]
      - [ 1.82222016e-02, 17., 3.15519085e+01 ]
      - [ 2.97482163e-02, 11., 3.65044823e+01 ]
      - [ 1.18740723e-01, 12., 4.71701336e+00 ]
      - [ 1.01038590e-02, 14., 3.35623055e+01 ]
      - [ 8.76447186e-02, 9., 9.74065971e+00 ]
      - [ 3.35320532e-02, 11., 4.21968346e+01 ]
      - [ 2.17189752e-02, 16., 4.81846085e+01 ]
      - [ 1.09274145e-02, 13., 2.97145767e+01 ]
      - [ 1.92811675e-02, 17., 1.31458797e+01 ]
      - [ 3.42327617e-02, 10., 2.76646233e+01 ]
      - [ 2.90866718e-02, 16., 1.50000448e+01 ]
      - [ 2.49321982e-02, 12., 6.03643179e+00 ]
      - [ 1.76616609e-02, 14., 4.27633629e+01 ]
      - [ 1.52923465e-02, 20., 5.69597473e+01 ]
      - [ 1.11189876e-02, 23., 4.32437553e+01 ]
      - [ 2.62863189e-02, 23., 2.01203594e+01 ]
      - [ 1.91802550e-02, 17., 4.68620758e+01 ]
      - [ 9.50268060e-02, 11., 6.91067553e+00 ]
      - [ 1.16702849e-02, 16., 3.46725655e+01 ]
      - [ 1.83126628e-02, 13., 4.76706085e+01 ]
      - [ 4.26916778e-02, 19., 8.73834801e+00 ]
      - [ 2.32681297e-02, 20., 2.72253399e+01 ]
      - [ 2.36437190e-02, 9., 1.15466118e+01 ]
      - [ 1.42160626e-02, 29., 1.64642162e+01 ]
      - [ 9.13347676e-03, 12., 7.35294724e+01 ]
      - [ 1.34161487e-02, 23., 4.10984116e+01 ]
      - [ 4.58992496e-02, 22., 6.97764874e+00 ]
      - [ 4.27530631e-02, 18., 2.13418846e+01 ]
      - [ 2.12665014e-02, 18., 3.45395470e+01 ]
      - [ 3.77937816e-02, 11., 1.81870613e+01 ]
      - [ 2.48794332e-02, 27., 1.80031681e+01 ]
      - [ 3.13573182e-02, 22., 1.61365662e+01 ]
      - [ 1.77605189e-02, 12., 5.00164795e+01 ]
      - [ 1.93172488e-02, 16., 2.29990692e+01 ]
      - [ 1.73476841e-02, 12., 4.01994019e+01 ]
      - [ 2.03959085e-02, 25., 2.17531071e+01 ]
      - [ 2.39325836e-02, 19., 3.65523491e+01 ]
      - [ 1.53770382e-02, 17., 5.05516396e+01 ]
      - [ 2.48453915e-02, 19., 2.45482140e+01 ]
      - [ 2.37039514e-02, 22., 2.73822880e+01 ]
      - [ 8.95148795e-03, 28., 6.59593735e+01 ]
      - [ 3.19607183e-02, 14., 1.95056591e+01 ]
      - [ 9.28657036e-03, 18., 3.53347244e+01 ]
      - [ 5.12684137e-02, 12., 1.96077785e+01 ]
      - [ 1.84038207e-02, 13., 1.66011810e+01 ]
      - [ 4.12373468e-02, 15., 4.58777428e+01 ]
      - [ 1.48193557e-02, 22., 1.53270397e+01 ]
      - [ 1.00509845e-01, 20., 1.73823509e+01 ]
      - [ 2.11498104e-02, 15., 4.00494347e+01 ]
      - [ 1.48445740e-02, 20., 2.00175571e+01 ]
      - [ 2.11567692e-02, 20., 2.34767036e+01 ]
      - [ 1.66029911e-02, 14., 1.64743443e+01 ]
      - [ 3.18833776e-02, 18., 3.15853214e+01 ]
      - [ 1.26184598e-02, 11., 2.29211273e+01 ]
      - [ 2.03893036e-02, 17., 3.66405640e+01 ]
      - [ 1.38681699e-02, 16., 2.71325207e+01 ]
      - [ 1.44653786e-02, 20., 2.35223541e+01 ]
      - [ 2.49795169e-02, 19., 3.23199539e+01 ]
      - [ 3.11320759e-02, 20., 1.92095947e+01 ]
      - [ 1.20135862e-02, 14., 3.76248665e+01 ]
      - [ 2.63527483e-02, 20., 1.83045254e+01 ]
      - [ 4.26997989e-02, 14., 2.24885883e+01 ]
      - [ 2.26602182e-02, 26., 4.35226555e+01 ]
      - [ 2.93904394e-02, 17., 1.84794083e+01 ]
      - [ 1.98831055e-02, 16., 2.08672104e+01 ]
      - [ 9.15192626e-03, 14., 2.22635403e+01 ]
      - [ 1.29272901e-02, 18., 2.27126541e+01 ]
      - [ 3.69625390e-02, 11., 5.43094864e+01 ]
      - [ 2.68449876e-02, 16., 3.19683876e+01 ]
      - [ 1.50165753e-02, 27., 5.69981346e+01 ]
      - [ 1.82262808e-02, 17., 4.75904312e+01 ]
      - [ 9.56723280e-03, 20., 2.41087246e+01 ]
      - [ 3.02293897e-02, 15., 7.73904266e+01 ]
      - [ 2.42467877e-02, 21., 2.14852028e+01 ]
      - [ 2.66899653e-02, 15., 1.42265606e+01 ]
      - [ 2.63328962e-02, 18., 2.88495216e+01 ]
      - [ 1.76418647e-02, 18., 5.62311134e+01 ]
      - [ 3.07112057e-02, 19., 5.93683319e+01 ]
      - [ 5.89515530e-02, 15., 7.12735891e+00 ]
      - [ 9.71257165e-02, 9., 1.99201298e+01 ]
      - [ 2.24818122e-02, 15., 4.95863495e+01 ]
      - [ 1.19384667e-02, 18., 3.19790630e+01 ]
      - [ 1.94937475e-02, 20., 2.08327522e+01 ]
      - [ 4.90656734e-01, 10., 4.43409653e+01 ]
      - [ 1.78300068e-02, 18., 2.01787491e+01 ]
      - [ 3.02690417e-02, 14., 5.59370155e+01 ]
      - [ 1.15788169e-02, 20., 3.71179771e+01 ]
      - [ 2.95350724e-03, 26., 2.01549301e+01 ]
      - [ 2.18753703e-02, 15., 1.85338707e+01 ]
      - [ 2.15879492e-02, 18., 1.36276379e+01 ]
      - [ 1.63782202e-02, 15., 1.51735029e+01 ]
      - [ 1.28059480e-02, 28., 3.39731941e+01 ]
      - [ -4.48766947e-02, 11., 6.60616493e+00 ]
      - [ 7.00252596e-03, 23., 2.84210014e+01 ]
      - [ 2.99533494e-02, 27., 8.40223026e+00 ]
      - [ 2.67232619e-02, 12., 1.07083168e+01 ]
      - [ 1.93503834e-02, 20., 1.61550217e+01 ]
      - [ 1.38216242e-02, 24., 3.11005173e+01 ]
      - [ 1.28901526e-02, 22., 2.72786751e+01 ]
      - [ 1.98957231e-02, 9., 3.02078381e+01 ]
      - [ 2.22219974e-02, 22., 2.90709400e+01 ]
      - [ 2.30101869e-02, 18., 3.06245384e+01 ]
      - [ 1.25047676e-02, 18., 4.37456932e+01 ]
      - [ 9.95405950e-03, 21., 6.08106537e+01 ]
      - [ 3.80586609e-02, 19., 4.36217041e+01 ]
      - [ 7.23375287e-03, 15., 2.55068226e+01 ]
      - [ 1.49717163e-02, 10., 1.73081360e+01 ]
      - [ 2.70399321e-02, 11., 4.06421242e+01 ]
      - [ 5.93134668e-03, 20., 6.39402695e+01 ]
      - [ 1.13924984e-02, 17., 2.30771332e+01 ]
      - [ 1.88136920e-02, 20., 2.18089581e+01 ]
      - [ 2.42598522e-02, 14., 2.66455231e+01 ]
   decision_functions:
      -
         sv_count: 325
         rho: -6.7978108349638766e-01
         alpha: [ 1.0000000000000001e-01, 1.0000000000000001e-01,
             1.0000000000000001e-01, 8.4429915557529475e-02,
             1.0000000000000001e-01, 1.0000000000000001e-01,
             1.0000000000000001e-01, 1.0000000000000001e-01,
             8.0235624711469819e-02, 9.1944544187436347e-02,
             1.0000000000000001e-01, 1.0000000000000001e-01,
             1.0000000000000001e-01, 1.0000000000000001e-01,
             1.0000000000000001e-01, 1.0000000000000001e-01,
             1.0000000000000001e-01, 1.0000000000000001e-01,
             1.0000000000000001e-01, 1.0000000000000001e-01,
             1.0000000000000001e-01, 1.0000000000000001e-01,
             1.0000000000000001e-01, 1.0000000000000001e-01,
             1.0000000000000001e-01, 1.0000000000000001e-01,
             1.0000000000000001e-01, 1.0000000000000001e-01,
             1.0000000000000001e-01, 1.0000000000000001e-01,
             1.0000000000000001e-01, 1.0000000000000001e-01,
             1.0000000000000001e-01, 1.0000000000000001e-01,
             1.0000000000000001e-01, 1.0000000000000001e-01,
             1.0000000000000001e-01, 1.0000000000000001e-01,
             1.0000000000000001e-01, 7.5158455390145354e-03,
             1.0000000000000001e-01, 1.0000000000000001e-01,
             1.0000000000000001e-01, 1.0000000000000001e-01,
             1.0000000000000001e-01, 1.0000000000000001e-01,
             1.0000000000000001e-01, 1.0000000000000001e-01,
             1.0000000000000001e-01, 1.0000000000000001e-01,
             1.0000000000000001e-01, 1.0000000000000001e-01,
             1.0000000000000001e-01, 1.0000000000000001e-01,
             1.0000000000000001e-01, 1.0000000000000001e-01,
             1.0000000000000001e-01, 1.0000000000000001e-01,
             1.0000000000000001e-01, 1.0000000000000001e-01,
             1.0000000000000001e-01, 1.0000000000000001e-01,
             1.0000000000000001e-01, 1.2877468388493251e-02,
             1.0000000000000001e-01, 1.0000000000000001e-01,
             1.0000000000000001e-01, 1.0000000000000001e-01,
             1.0000000000000001e-01, 1.0000000000000001e-01,
             1.0000000000000001e-01, 1.0000000000000001e-01,
             1.0000000000000001e-01, 1.0000000000000001e-01,
             1.0000000000000001e-01, 1.0000000000000001e-01,
             1.0000000000000001e-01, 1.0000000000000001e-01,
             1.0000000000000001e-01, 1.0000000000000001e-01,
             1.0000000000000001e-01, 1.0000000000000001e-01,
             1.0000000000000001e-01, 1.0000000000000001e-01,
             1.0000000000000001e-01, 1.0000000000000001e-01,
             1.0000000000000001e-01, 1.0000000000000001e-01,
             1.0000000000000001e-01, 1.0000000000000001e-01,
             5.9201434016797512e-02, 1.0000000000000001e-01,
             1.0000000000000001e-01, 1.0000000000000001e-01,
             1.0000000000000001e-01, 1.0000000000000001e-01,
             1.0000000000000001e-01, 1.0000000000000001e-01,
             1.0000000000000001e-01, 1.0000000000000001e-01,
             1.0000000000000001e-01, 1.0000000000000001e-01,
             1.0000000000000001e-01, 1.0000000000000001e-01,
             7.7691376363401746e-02, 1.0000000000000001e-01,
             1.0000000000000001e-01, 1.0000000000000001e-01,
             1.0000000000000001e-01, 1.0000000000000001e-01,
             1.0000000000000001e-01, 1.0000000000000001e-01,
             7.7232719738850750e-02, 1.0000000000000001e-01,
             1.0000000000000001e-01, 1.0000000000000001e-01,
             1.0000000000000001e-01, 1.0000000000000001e-01,
             1.0000000000000001e-01, 1.0000000000000001e-01,
             1.0000000000000001e-01, 1.0000000000000001e-01,
             1.0000000000000001e-01, 1.0000000000000001e-01,
             1.0000000000000001e-01, 1.0000000000000001e-01,
             1.0000000000000001e-01, 1.0000000000000001e-01,
             1.0000000000000001e-01, 7.1425123785663860e-02,
             1.0000000000000001e-01, 4.4274287063342174e-02,
             1.0000000000000001e-01, 1.0000000000000001e-01,
             1.0000000000000001e-01, 1.0000000000000001e-01,
             1.0000000000000001e-01, 1.0000000000000001e-01,
             1.0000000000000001e-01, 1.0000000000000001e-01,
             1.0000000000000001e-01, 1.0000000000000001e-01,
             1.0000000000000001e-01, 1.0000000000000001e-01,
             1.0000000000000001e-01, 1.0000000000000001e-01,
             1.0000000000000001e-01, 1.0000000000000001e-01,
             1.0000000000000001e-01, 1.0000000000000001e-01,
             1.0000000000000001e-01, 1.0000000000000001e-01,
             1.0000000000000001e-01, 1.0000000000000001e-01,
             1.0000000000000001e-01, 1.0000000000000001e-01,
             1.0000000000000001e-01, 1.0000000000000001e-01,
             1.0000000000000001e-01, 1.0000000000000001e-01,
             1.0000000000000001e-01, 1.0000000000000001e-01,
             1.0000000000000001e-01, 1.0000000000000001e-01,
             -1.0000000000000001e-01, -1.0000000000000001e-01,
             -1.0000000000000001e-01, -1.0000000000000001e-01,
             -1.0000000000000001e-01, -1.0000000000000001e-01,
             -1.0000000000000001e-01, -1.0000000000000001e-01,
             -1.0000000000000001e-01, -1.0000000000000001e-01,
             -1.0000000000000001e-01, -1.0000000000000001e-01,
             -1.0000000000000001e-01, -1.0000000000000001e-01,
             -1.0000000000000001e-01, -1.0000000000000001e-01,
             -1.0000000000000001e-01, -1.0000000000000001e-01,
             -1.0000000000000001e-01, -1.0000000000000001e-01,
             -1.0000000000000001e-01, -1.0000000000000001e-01,
             -1.0000000000000001e-01, -1.0000000000000001e-01,
             -1.0000000000000001e-01, -1.0000000000000001e-01,
             -1.0000000000000001e-01, -1.0000000000000001e-01,
             -1.0000000000000001e-01, -1.0000000000000001e-01,
             -1.0000000000000001e-01, -1.0000000000000001e-01,
             -1.0000000000000001e-01, -1.0000000000000001e-01,
             -1.0000000000000001e-01, -1.0000000000000001e-01,
             -1.0000000000000001e-01, -1.0000000000000001e-01,
             -1.0000000000000001e-01, -1.0000000000000001e-01,
             -1.0000000000000001e-01, -1.0000000000000001e-01,
             -1.0000000000000001e-01, -1.0000000000000001e-01,
             -1.0000000000000001e-01, -1.0000000000000001e-01,
             -1.0000000000000001e-01, -1.0000000000000001e-01,
             -1.0000000000000001e-01, -1.0000000000000001e-01,
             -1.0000000000000001e-01, -1.0000000000000001e-01,
             -1.0000000000000001e-01, -1.0000000000000001e-01,
             -1.0000000000000001e-01, -1.0000000000000001e-01,
             -1.0000000000000001e-01, -1.0000000000000001e-01,
             -1.0000000000000001e-01, -1.0000000000000001e-01,
             -1.0000000000000001e-01, -1.0000000000000001e-01,
             -1.0000000000000001e-01, -1.0000000000000001e-01,
             -1.0000000000000001e-01, -1.0000000000000001e-01,
             -1.0000000000000001e-01, -1.0000000000000001e-01,
             -1.0000000000000001e-01, -1.0000000000000001e-01,
             -1.0000000000000001e-01, -1.0000000000000001e-01,
             -1.0000000000000001e-01, -1.0000000000000001e-01,
             -1.0000000000000001e-01, -1.0000000000000001e-01,
             -1.0000000000000001e-01, -1.0000000000000001e-01,
             -1.0000000000000001e-01, -1.0000000000000001e-01,
             -1.0000000000000001e-01, -1.0000000000000001e-01,
             -1.0000000000000001e-01, -1.0000000000000001e-01,
             -1.0000000000000001e-01, -1.0000000000000001e-01,
             -1.0000000000000001e-01, -1.0000000000000001e-01,
             -1.0000000000000001e-01, -1.0000000000000001e-01,
             -1.0000000000000001e-01, -1.0000000000000001e-01,
             -1.0000000000000001e-01, -1.0000000000000001e-01,
             -1.0000000000000001e-01, -6.8283393519993655e-03,
             -1.0000000000000001e-01, -1.0000000000000001e-01,
             -1.0000000000000001e-01, -1.0000000000000001e-01,
             -1.0000000000000001e-01, -1.0000000000000001e-01,
             -1.0000000000000001e-01, -1.0000000000000001e-01,
             -1.0000000000000001e-01, -1.0000000000000001e-01,
             -1.0000000000000001e-01, -1.0000000000000001e-01,
             -1.0000000000000001e-01, -1.0000000000000001e-01,
             -1.0000000000000001e-01, -1.0000000000000001e-01,
             -1.0000000000000001e-01, -1.0000000000000001e-01,
             -1.0000000000000001e-01, -1.0000000000000001e-01,
             -1.0000000000000001e-01, -1.0000000000000001e-01,
             -1.0000000000000001e-01, -1.0000000000000001e-01,
             -1.0000000000000001e-01, -1.0000000000000001e-01,
             -1.0000000000000001e-01, -1.0000000000000001e-01,
             -1.0000000000000001e-01, -1.0000000000000001e-01,
             -1.0000000000000001e-01, -1.0000000000000001e-01,
             -1.0000000000000001e-01, -1.0000000000000001e-01,
             -1.0000000000000001e-01, -1.0000000000000001e-01,
             -1.0000000000000001e-01, -1.0000000000000001e-01,
             -1.0000000000000001e-01, -1.0000000000000001e-01,
             -1.0000000000000001e-01, -1.0000000000000001e-01,
             -1.0000000000000001e-01, -1.0000000000000001e-01,
             -1.0000000000000001e-01, -1.0000000000000001e-01,
             -1.0000000000000001e-01, -1.0000000000000001e-01,
             -1.0000000000000001e-01, -1.0000000000000001e-01,
             -1.0000000000000001e-01, -1.0000000000000001e-01,
             -1.0000000000000001e-01, -1.0000000000000001e-01,
             -1.0000000000000001e-01, -1.0000000000000001e-01,
             -1.0000000000000001e-01, -1.0000000000000001e-01,
             -1.0000000000000001e-01, -1.0000000000000001e-01,
             -1.0000000000000001e-01, -1.0000000000000001e-01,
             -1.0000000000000001e-01, -1.0000000000000001e-01,
             -1.0000000000000001e-01 ]
         index: [ 0, 1, 2, 3, 4, 5, 6, 7, 8, 9, 10, 11, 12, 13, 14, 15,
             16, 17, 18, 19, 20, 21, 22, 23, 24, 25, 26, 27, 28, 29, 30,
             31, 32, 33, 34, 35, 36, 37, 38, 39, 40, 41, 42, 43, 44, 45,
             46, 47, 48, 49, 50, 51, 52, 53, 54, 55, 56, 57, 58, 59, 60,
             61, 62, 63, 64, 65, 66, 67, 68, 69, 70, 71, 72, 73, 74, 75,
             76, 77, 78, 79, 80, 81, 82, 83, 84, 85, 86, 87, 88, 89, 90,
             91, 92, 93, 94, 95, 96, 97, 98, 99, 100, 101, 102, 103, 104,
             105, 106, 107, 108, 109, 110, 111, 112, 113, 114, 115, 116,
             117, 118, 119, 120, 121, 122, 123, 124, 125, 126, 127, 128,
             129, 130, 131, 132, 133, 134, 135, 136, 137, 138, 139, 140,
             141, 142, 143, 144, 145, 146, 147, 148, 149, 150, 151, 152,
             153, 154, 155, 156, 157, 158, 159, 160, 161, 162, 163, 164,
             165, 166, 167, 168, 169, 170, 171, 172, 173, 174, 175, 176,
             177, 178, 179, 180, 181, 182, 183, 184, 185, 186, 187, 188,
             189, 190, 191, 192, 193, 194, 195, 196, 197, 198, 199, 200,
             201, 202, 203, 204, 205, 206, 207, 208, 209, 210, 211, 212,
             213, 214, 215, 216, 217, 218, 219, 220, 221, 222, 223, 224,
             225, 226, 227, 228, 229, 230, 231, 232, 233, 234, 235, 236,
             237, 238, 239, 240, 241, 242, 243, 244, 245, 246, 247, 248,
             249, 250, 251, 252, 253, 254, 255, 256, 257, 258, 259, 260,
             261, 262, 263, 264, 265, 266, 267, 268, 269, 270, 271, 272,
             273, 274, 275, 276, 277, 278, 279, 280, 281, 282, 283, 284,
             285, 286, 287, 288, 289, 290, 291, 292, 293, 294, 295, 296,
             297, 298, 299, 300, 301, 302, 303, 304, 305, 306, 307, 308,
             309, 310, 311, 312, 313, 314, 315, 316, 317, 318, 319, 320,
             321, 322, 323, 324 ]
