%YAML:1.0
my_svm: !!opencv-ml-svm
   svm_type: C_SVC
   kernel: { type:RBF, gamma:5.0625000000000009e-001 }
   C: 3.1250000000000000e+002
   term_criteria: { epsilon:1.1920928955078125e-007, iterations:1000 }
   var_all: 26
   var_count: 26
   class_count: 2
   class_labels: !!opencv-matrix
      rows: 1
      cols: 2
      dt: i
      data: [ -1, 1 ]
   sv_total: 198
   support_vectors:
      - [ 1.65488739e-002, -4.47265618e-002, -2.32574251e-002,
          1.56418085e-001, -1.04496412e-001, -6.47274852e-002, 0., 0.,
          0., 0., 0., 0., -7.07099676e-001, 0., 0., 0., -1.39576327e-002,
          -8.05013551e-005, -9.51757953e-002, -6.64665177e-002,
          -1.74463931e-002, -5.23354188e-002, 0., 0., 0., 0. ]
      - [ 5.99504448e-004, -8.27990994e-002, -7.84557313e-002,
          1.99999601e-001, 5.19159079e-001, 8.02443504e-001, 0., 0.,
          -1.15663722e-001, 1.01785235e-001, -1.12043358e-001,
          3.55270773e-001, 8.49941969e-002, -2.80955583e-001,
          -3.41543674e-001, 2.22981378e-001, -2.48272866e-002,
          -2.47912586e-001, 0., -2.26668030e-001, -1.58623010e-002,
          8.66534337e-002, 1.85746953e-001, 1.34383395e-001,
          -7.69964397e-001, 5.07632030e-005 ]
      - [ 2.79923528e-002, 0., 0., 0., 0., 0., 0., 0., 0., 0., 0.,
          -1.06819242e-001, 8.05802047e-002, 5.81125952e-002,
          -1.04400866e-001, -2.45584082e-002, -2.95591682e-001,
          -3.48991118e-002, -4.35293578e-002, -6.50105178e-002,
          -1.84370324e-001, 0., -4.43884462e-001, 0., 0., 0. ]
      - [ 4.31338232e-003, -4.54377115e-001, -8.09008956e-001, 0.,
          5.23277409e-002, 1.82795018e-001, 1.40091568e-001,
          2.36973181e-001, 6.85598925e-002, -2.08697647e-001,
          1.66122064e-001, -3.33078951e-001, -7.07099676e-001,
          -1.05830304e-001, -1.51384294e-001, 0., 1.77612647e-001,
          1.15751743e-001, 3.15078199e-001, 7.87215307e-004,
          -2.25267082e-001, 3.20785552e-001, 4.00905579e-001,
          7.95398057e-001, 0., -3.09013844e-001 ]
      - [ 2.21136902e-002, 0., 0., 0., 0., 0., -1.74521767e-002, 0.,
          1.74505543e-002, -2.61757765e-002, -8.71466249e-002,
          -5.22628725e-002, -4.23278324e-002, -4.03266102e-002,
          -7.29113594e-002, -1.64969359e-002, 0., 0., 0., 0., 0., 0., 0.,
          -1.21201068e-001, 0., 2.61280406e-002 ]
      - [ 3.06763165e-002, 0., 0., 0., 0., 0., -8.71954206e-003,
          1.24621950e-002, 2.95623131e-002, -3.83686349e-002,
          -3.09402812e-002, -3.87417600e-002, 1.50054030e-003,
          -3.09157670e-002, 2.28015129e-002, 6.53402554e-003, 0., 0., 0.,
          0., 0., 0., 0., -7.65747726e-002, -1.12474956e-001,
          -9.57104936e-002 ]
      - [ 4.80150692e-002, -1.99603677e-001, -9.99837697e-001, 0., 0.,
          0., -1.42519891e-001, 3.33332211e-001, 0., 9.97942269e-001, 0.,
          -2.49400377e-001, 7.61445554e-005, 0., 0., 0.,
          -9.56295192e-001, 0., 0., 0., -7.07103252e-001,
          7.07099676e-001, -3.42016697e-001, 4.26006049e-001,
          9.92536187e-001, -9.49276209e-001 ]
      - [ 1.63432062e-002, -3.81795280e-002, 7.94777125e-002,
          -6.81651682e-002, 1.09984137e-001, -2.06802979e-001,
          -6.17862754e-002, -2.31677964e-001, -1.88973695e-002,
          -1.22173458e-001, 1.86021596e-001, -1.81708768e-001,
          6.45847842e-002, -8.50382168e-003, -3.09336539e-002,
          -2.76459027e-002, 2.55502649e-002, -1.11148037e-001,
          -1.67108372e-001, 1.00163579e-001, 5.36784939e-002,
          -1.82269618e-001, -1.92183375e-001, -3.17968339e-001,
          -9.15002525e-002, 3.41227353e-001 ]
      - [ 2.75504775e-004, 0., 0., 0., 0., 0., 0., 0., 0., 0.,
          -9.50956762e-001, 7.07099676e-001, 0., -4.92741287e-001, 0.,
          0., -9.95651722e-001, 0., 9.98220682e-001, -9.51046944e-001,
          0., -1.33630976e-001, -5.28843224e-001, 0., 1.69068992e-001,
          6.56961083e-001 ]
      - [ -9.56853293e-003, 6.80972636e-002, 4.90238294e-002,
          -3.22585814e-002, 1.61101043e-001, -1.87865794e-001,
          -3.89573693e-001, -3.29591572e-001, 6.59845769e-002,
          -9.04984493e-003, -4.39833887e-002, -3.32375616e-001,
          -8.63230824e-001, 1.24672409e-002, 6.92838356e-002,
          -2.32609287e-002, 0., 0., 0., 0., 0., 0., -1.16715267e-001, 0.,
          0., 0. ]
      - [ 9.36505198e-002, -6.28936172e-001, 0., 0., -8.61592054e-001,
          0., -5.24516478e-002, -1.39014840e-001, 0., 0.,
          -8.43740523e-001, -1.62510499e-001, 3.41028497e-002,
          -3.61555606e-001, 0., 0., -1.21880569e-001, -8.07673335e-002,
          -3.11078668e-001, -1.24197833e-001, 0., -2.63817698e-001,
          -2.11255297e-001, -6.95162416e-002, -4.14675385e-001, 0. ]
      - [ 1.97272189e-002, -9.27111730e-002, -8.72263871e-003,
          1.39158517e-001, -1.21831976e-001, -6.47274852e-002, 0., 0.,
          0., 0., 0., 0., -7.07099676e-001, 0., 0., 0., -2.61718836e-002,
          4.94770519e-003, -8.04440454e-002, -2.53832098e-002,
          -2.90754847e-002, -6.10459037e-002, 0., 0., 0.,
          -3.48991118e-002 ]
      - [ 3.59785222e-002, 0., 0., 0., 0., 0., -6.90988600e-001,
          2.82991707e-001, 0., 0., 0., -9.84537184e-001,
          -8.43286693e-001, -7.64931798e-001, -4.79021132e-001,
          -2.45321244e-001, -9.81866598e-001, -9.42759454e-001,
          -8.68219972e-001, 0., 0., 0., -3.48958001e-002,
          -3.77966389e-002, 8.72612651e-003, 0. ]
      - [ 1.80232506e-002, 8.72612651e-003, 0., 0., 0., 0.,
          -1.41458614e-002, -1.61997043e-002, 4.74912999e-003,
          -8.72121565e-003, -1.74423438e-002, 0., 0., 0., 0.,
          -4.37109513e-008, 0., 0., 0., 0., 0., -2.06548020e-001,
          5.23357131e-002, -1.11121088e-001, -1.56432882e-001,
          -9.54040587e-002 ]
      - [ 2.81611830e-002, 3.91500071e-004, 3.81338805e-001,
          7.02660024e-001, 8.17537189e-001, 9.96108472e-001,
          1.64403543e-001, 8.13251615e-001, 3.10126811e-001,
          -2.87032694e-001, -4.42770272e-001, 8.14191550e-002,
          3.92910659e-001, -7.84557313e-002, -5.18350065e-001,
          -2.22917214e-001, 2.74683554e-002, 3.90282154e-001,
          2.59014010e-001, -5.78976810e-001, -7.45358825e-001, 0.,
          1.37817234e-001, 2.35701472e-001, -7.07099676e-001,
          -9.18422461e-001 ]
      - [ 3.37363444e-002, 3.48887928e-002, 4.35999483e-002,
          1.74505543e-002, 4.29622959e-009, -4.37109513e-008,
          -3.45021263e-002, 6.35418575e-004, 1.74522083e-002,
          1.52420402e-001, -1.07340544e-001, 7.95712024e-002,
          4.64992635e-002, 4.26776171e-001, 2.63592958e-001,
          -7.20473453e-002, -5.58246598e-002, -5.12517653e-002,
          2.59862393e-001, 2.02444673e-001, -1.19484566e-001,
          -3.89226973e-002, -5.01463339e-002, 5.55423260e-001,
          3.11340839e-001, -1.34851471e-001 ]
      - [ 2.85772011e-002, 0., -9.63588953e-001, 0., 9.20495689e-001, 0.,
          -7.07099676e-001, 0., -9.65916157e-001, 0., 0., 0.,
          -3.33078414e-001, -2.49828354e-001, -2.93809086e-001, 0.,
          4.00653817e-002, 5.16040735e-002, -6.97557777e-002,
          -8.24308544e-002, -7.06033930e-002, 7.73340240e-002,
          2.28140354e-001, 1.45321442e-002, -1.94483519e-001,
          -1.56321898e-001 ]
      - [ 1.30159669e-002, -1.44829080e-001, -2.24866495e-001,
          -4.83851358e-002, 1.62799954e-001, 8.76401067e-002,
          -2.40824729e-001, 6.47881255e-002, -3.43177170e-001,
          -2.26591811e-001, 2.47565145e-003, 2.45006964e-001,
          -6.24063686e-002, -3.04178864e-001, -1.30716056e-001,
          6.10076785e-001, 9.80936829e-003, 2.06017688e-001,
          -1.26561075e-001, -1.73609346e-001, 1.38527542e-001,
          -2.38889307e-002, 2.11418942e-002, 6.94662184e-002,
          -2.58817114e-002, 1.97168395e-001 ]
      - [ 3.81143875e-002, 0., 0., 0., 0., 0., -6.17689490e-002,
          -5.61327748e-002, -2.54848581e-002, 4.36044438e-003,
          -8.72615445e-003, -1.24629391e-002, 8.72484874e-003,
          -4.01546041e-009, -1.16331046e-002, -3.13877016e-002,
          3.48991454e-002, 0., 0., 8.71549323e-002, -5.23354188e-002,
          4.66494411e-002, 1.27457559e-001, 1.05720773e-001,
          3.48143056e-002, -1.69614181e-002 ]
      - [ 2.25200746e-002, 0., 0., 0., 0., 0., 0., 0., 0., 0., 0.,
          1.16260685e-002, -4.79176752e-002, -2.61559878e-002,
          1.56121701e-001, -1.74426176e-002, -5.81656350e-003,
          -1.74470209e-002, -2.49091834e-002, -3.48887853e-002,
          -5.23198955e-002, 0., 0., 0., -4.37109513e-008,
          -4.36174832e-002 ]
      - [ 6.25884905e-002, 9.87678468e-001, 0., 8.15234959e-001,
          9.39683199e-001, 0., -2.48090774e-001, 3.74010146e-001,
          1.66565016e-001, 0., 0., 9.13536310e-001, 9.98232007e-001,
          -9.99837697e-001, 0., 0., 4.47419703e-001, 9.96954679e-001,
          9.99807119e-001, 0., 3.33332211e-001, 7.07099676e-001,
          9.99614298e-001, 2.46960312e-001, -7.60608196e-001,
          -9.74186599e-001 ]
      - [ -5.00578946e-003, -4.57520597e-002, 1.75012678e-001,
          -1.39576327e-002, 4.29622959e-009, -6.97350949e-002,
          -5.66372164e-002, -1.39576327e-002, -4.69828136e-002,
          -2.13159341e-002, -4.25988138e-002, 0., 0., 0., 0., 0.,
          2.61758082e-002, 0., -4.01546041e-009, -1.74505617e-002,
          -1.74505617e-002, 0., 0., 0., 0., 0. ]
      - [ 4.29628696e-003, 0., 0., 0., 0., 0., 0., 0., 0., 0., 0., 0.,
          0., 0., 0., 0., -5.21655940e-002, -1.55096715e-002,
          -4.74984124e-002, -2.24342048e-002, 4.79117110e-002,
          -2.25205451e-001, -2.03513503e-002, 2.65604388e-002,
          -1.39576327e-002, 2.32574362e-002 ]
      - [ -4.27605212e-003, 0., 0., 0., 0., 0., 0., 0., 9.45156217e-001,
          0., 0., 0., -7.07099676e-001, 0., 0., 0., 6.28099620e-001,
          3.76568854e-001, -1.99359328e-001, 0., 0., -2.12351292e-001,
          0., 0., 0., 7.06511557e-001 ]
      - [ 3.84192131e-002, 0., 0., 0., 0., 2.07758099e-001,
          -8.72484688e-003, -3.39458062e-009, 2.18088198e-002,
          -3.13776396e-002, -5.23304529e-002, 4.84310687e-002,
          3.16367135e-004, 0., 0., 0., -1.74521767e-002, 0., 0., 0., 0.,
          0., 0., 0., 3.42016727e-001, 0. ]
      - [ 6.36389712e-003, 0., 0., 0., -9.50084448e-001, 0., 0., 0.,
          -5.06570935e-001, -7.07099676e-001, 9.98677075e-001,
          9.95333016e-001, 0., 9.66157675e-001, 7.23194718e-001,
          -7.04388618e-001, 0., 0., 9.28189576e-001, 8.00511241e-001,
          -4.98133898e-001, -2.62950752e-002, 4.78343099e-001,
          9.23813954e-002, 0., -8.07814956e-001 ]
      - [ 4.59449887e-002, -9.53268707e-002, -3.04223727e-002,
          -3.25255811e-001, 0., 5.91586471e-001, -2.96783615e-002,
          6.01877235e-002, -6.76404312e-002, -7.07105339e-001,
          1.69948369e-001, -7.54948184e-002, -6.12239018e-002,
          3.47054489e-002, -7.13185817e-002, -3.48991118e-002,
          -1.74521767e-002, 0., 0., 0., 4.75778952e-002, 5.91522865e-002,
          1.32716037e-002, 2.04460211e-002, -4.41011563e-002,
          -3.32945175e-002 ]
      - [ 2.59111375e-002, 1.47316590e-001, 9.32306200e-002,
          9.03662294e-002, -1.92371249e-001, 1.08031444e-001,
          3.84950377e-002, 2.17898324e-001, 8.43466744e-002,
          -7.84209594e-002, -1.45610854e-001, 4.84057739e-002,
          5.51255234e-002, 1.40798688e-001, 8.36157501e-002,
          -4.12961155e-001, -5.28951809e-002, 5.90365455e-002,
          -1.98465869e-001, 1.59590021e-001, 1.18587032e-001,
          -2.31934171e-002, -1.00467280e-002, 3.71987969e-002,
          -3.64056289e-001, 7.00344294e-002 ]
      - [ 6.75228536e-002, 0., 0., 0., 8.95833254e-001, 0., 0., 0.,
          -7.70909667e-001, 9.99918878e-001, 0., 0., -3.68120745e-002,
          -1.21318974e-001, 9.17873457e-002, 3.60102095e-002,
          3.64818066e-001, 2.98220247e-001, 2.18125060e-001, 0., 0., 0.,
          0., 0., 0., 0. ]
      - [ 3.60869877e-002, 0., 0., 0., 0., 0., 1.01548873e-001,
          -8.27791616e-002, 4.83938530e-002, 2.90872972e-003,
          -2.44088732e-002, -2.49031484e-002, 2.53345985e-002,
          1.39321610e-002, -2.44216025e-002, -4.35778163e-002, 0.,
          -7.84557313e-002, 0., 0., 0., -5.78825288e-002, 0.,
          1.02939941e-001, -7.84439743e-002, -4.53389622e-002 ]
      - [ 6.37275279e-002, 0., 0., -9.98091817e-001, 7.07099676e-001,
          -7.07099676e-001, -9.93658245e-001, -9.81524229e-001,
          2.32591286e-001, 3.02491516e-001, -8.65889192e-001, 0.,
          -7.07103252e-001, 7.07104981e-001, 7.62770176e-002, 0.,
          -4.53851283e-001, 8.72484874e-003, 0., 0., -6.16787493e-001,
          -7.31346428e-001, 0., 0., 3.85216445e-001, 1.52362570e-001 ]
      - [ 5.77111021e-002, 0., 0., 0., 0., 0., 0., 0., 0., 0., 0., 0.,
          0., 3.77833880e-002, 0., 0., 0., 0., 9.84420180e-001, 0., 0.,
          4.36308235e-003, 1.93873998e-002, -3.77461948e-002,
          1.46945953e-001, -6.97669946e-003 ]
      - [ 1.29597066e-002, 0., 0., 0., 0., 0., 0., 0., 0.,
          -8.72615445e-003, 0., 8.16755652e-001, 3.15585375e-001,
          3.33737493e-001, 7.35748559e-004, -4.99465764e-001,
          4.90053415e-001, 3.62787582e-002, -2.33679220e-001,
          -5.26326776e-001, -6.26801327e-002, -4.37109513e-008,
          -4.37109513e-008, -4.37109513e-008, -4.37109513e-008,
          5.30246854e-001 ]
      - [ 9.96528473e-003, 0., 0., 0., 0., -7.07099676e-001, 0., 0.,
          -3.66485447e-001, -1.09266974e-001, -6.48042142e-001, 0., 0.,
          0., 0., 7.07099676e-001, -5.87779284e-001, -2.52175808e-001,
          -2.41584137e-001, 6.39370531e-002, -1.29905850e-001,
          -1.12298161e-001, 0., 0., -7.07099676e-001, -3.14854711e-001 ]
      - [ 6.46204725e-002, 0., 0., 0., 4.36175168e-002, 1.49838105e-001,
          0., 0., -5.81742078e-003, 2.24364810e-002, 1.96319185e-002, 0.,
          0., 1.08777964e-003, 1.31527224e-006, 3.02639812e-001,
          8.72612651e-003, 5.81745245e-003, -2.09184475e-002,
          -3.38712148e-002, -7.36046433e-002, 1.34106159e-001,
          5.81016671e-003, 1.33852940e-002, 0., -5.67595661e-002 ]
      - [ 2.77611762e-002, 2.23920848e-002, 9.94122238e-004,
          -1.43812567e-001, 5.35548031e-002, -2.79754758e-001,
          -1.23413047e-002, -1.96614340e-001, -4.10865918e-002,
          -8.63195956e-002, 1.57477468e-001, -2.23109856e-001,
          1.14544302e-001, -4.47886027e-002, -1.42507896e-001,
          -7.94204604e-003, -1.97242990e-001, -7.07103252e-001,
          -4.33180064e-001, 1.71993792e-001, -3.95608880e-002,
          -1.56795718e-002, -1.55427456e-001, -1.88456196e-002,
          -7.56977946e-002, 3.25618178e-001 ]
      - [ 4.38099243e-002, 0., 0., 0., 0., 0., 0., 0., 0., 0., 0.,
          -9.57260281e-002, 5.68967983e-002, 3.92478853e-002,
          -7.82967582e-002, -7.66682178e-002, -1.20440219e-002, 0.,
          -5.22296317e-002, -5.45233078e-002, -3.67837101e-002, 0.,
          -3.81721467e-001, 0., 0., 5.87779403e-001 ]
      - [ 2.47323643e-002, 0., 1.90508276e-001, 0., -6.88115299e-001,
          2.43590787e-001, -3.89362313e-002, 0., -3.43397766e-001,
          -1.13960169e-001, -3.90727252e-001, 0., 0., 0.,
          -3.97129267e-001, 7.07103252e-001, 0., 0., 0., 9.66721654e-001,
          5.60237408e-001, 0., 0., -9.69923854e-001, 2.25693628e-001,
          4.52067316e-001 ]
      - [ 6.55020401e-002, 0., 0., -8.28805029e-001, 0., 0., 0.,
          -6.38975978e-001, 6.81285143e-001, -9.19438899e-001, 0., 0.,
          -2.87313730e-001, 0., 1.20465226e-001, 0., -6.24260306e-001,
          6.96163237e-001, -4.24263209e-001, 0., 7.19202638e-001,
          8.52863848e-001, -6.39590025e-001, -7.07104981e-001,
          7.13842273e-001, 3.09211820e-001 ]
      - [ -2.72634346e-003, 0., 7.15186715e-001, -2.71541953e-001, 0.,
          0., 0., -4.66547847e-001, 8.67132962e-001, 2.16047361e-001,
          -1.51788145e-001, 0., 0., 1.68463334e-001, -1.99235585e-002,
          0., 0., -2.30268911e-001, 3.27528864e-001, -1.91694006e-001,
          0., 0., 0., -5.49299598e-001, 0., 0. ]
      - [ -1.95531622e-002, 0., 0., 0., 0., 0., 0., 0., 0., 0., 0., 0.,
          4.65148017e-002, -4.35999334e-002, 0., -2.61718836e-002,
          1.99298635e-001, 0., 0., 0., 2.32626945e-002, 2.37441491e-002,
          -3.05270068e-002, 2.26700418e-002, -1.99349299e-002,
          -5.92625849e-002 ]
      - [ 3.33386622e-002, 0., 8.72528926e-003, -3.48692723e-002, 0.,
          7.78257370e-001, 0., -2.05292068e-002, 3.42573017e-001,
          -1.76639184e-001, 0., -7.07099676e-001, 3.48748863e-002,
          3.00312668e-001, -1.75485909e-002, 2.19935309e-002, 0.,
          4.79209349e-002, 0., 8.71290341e-002, 0., 0., 0., 0.,
          2.47370154e-002, -1.91641543e-002 ]
      - [ 3.25675705e-003, -8.58863294e-002, 1.97450556e-002,
          -9.99784395e-002, -7.08708465e-002, -1.80224270e-001,
          3.60851258e-001, 1.66466296e-001, -1.81112990e-001,
          6.75069988e-002, 8.24002996e-002, 1.36520490e-001,
          -7.94244185e-002, 3.66510116e-002, -1.63984686e-001,
          -9.89609063e-002, -1.87029704e-001, 2.99866617e-001,
          -8.87017418e-003, 2.83227444e-001, -3.37398142e-001,
          -8.57979711e-003, 1.00007303e-001, 0., -5.35005748e-001,
          1.76578507e-001 ]
      - [ 5.87332062e-004, 0., -6.43868864e-001, 0., 0., 6.69607639e-001,
          -8.66106823e-002, -3.26483130e-001, 1.15248099e-001,
          3.92529905e-001, 3.28869790e-001, -5.31489700e-002,
          2.78548636e-002, 1.66772932e-001, -5.03033213e-002,
          -1.09399319e-001, -7.93902501e-002, 3.79749268e-001,
          7.39400744e-001, -7.65410483e-001, -4.12611574e-001,
          1.20658062e-001, 6.10947311e-001, 9.33571041e-001, 0.,
          -7.12009549e-001 ]
      - [ 2.60848813e-002, -3.49087685e-001, -4.26066458e-001,
          -5.84081709e-001, -5.56918919e-001, -4.12792653e-001,
          -9.33929607e-002, -3.56720120e-001, -3.81745994e-001,
          -3.43536705e-001, -2.21684366e-001, -2.80569375e-001,
          -4.39200372e-001, -1.05124809e-001, -5.35597086e-001,
          -1.85649261e-001, -2.97761619e-001, -2.75473773e-001, 0.,
          -1.73993260e-001, -5.63815951e-001, -2.19454527e-001,
          -2.85656869e-001, -2.96339631e-001, 1.53805548e-002,
          -3.66816163e-001 ]
      - [ 2.73205657e-002, 4.78951260e-002, 2.73037627e-002,
          -5.23354188e-002, 0., -4.37109513e-008, 0., 0.,
          -6.01809084e-001, 3.22318017e-001, 0., -2.26583462e-002,
          -1.11310638e-001, -2.61718836e-002, -2.61718836e-002,
          4.38366771e-001, 0., -3.48847881e-002, -2.76006572e-002,
          -1.64553877e-002, -2.75581386e-002, 0., 0., 0., 0., 0. ]
      - [ 1.40507566e-002, 0., 6.40981123e-002, 1.66510016e-001,
          3.35637480e-001, 3.25104266e-001, 9.98019814e-001,
          9.74360347e-001, -9.12827373e-001, -5.32619715e-001,
          -7.78583288e-001, 7.29401767e-001, 9.98437643e-001,
          3.07790167e-003, -7.17502236e-001, -4.28078949e-001,
          -9.99007702e-001, 7.08639503e-001, -7.90859342e-001, 0.,
          9.98284936e-001, 6.74815536e-001, 9.96184766e-001,
          8.82025480e-001, 7.07099676e-001, 6.65275037e-001 ]
      - [ 4.67987508e-002, 0., 0., 1.00153208e-001, 7.55400509e-002,
          4.88294512e-002, 1.39576411e-002, -1.74505617e-002,
          -1.74521767e-002, -1.74521767e-002, 0., 0., 0., 0.,
          3.34105968e-001, 0., 9.40420479e-002, -1.16295600e-002,
          -2.46536866e-001, -2.03414246e-001, -4.98108044e-002, 0., 0.,
          7.85838949e-009, 1.42212929e-002, -5.23024350e-002 ]
      - [ 5.01608960e-002, 1.86527565e-001, -1.49496971e-002,
          -4.03881550e-001, -1.12152081e-002, -3.00297420e-002,
          4.99251008e-001, -1.74521767e-002, -1.57835960e-001,
          3.16935033e-001, -1.39608225e-002, 5.99223495e-001,
          4.89066154e-001, -4.42803860e-001, -4.31668870e-002,
          -2.06163436e-001, -4.80893180e-002, -4.71487969e-001,
          -2.03242227e-001, -1.23971090e-001, 7.84879267e-001,
          8.75729203e-001, -9.95264947e-001, 4.39610392e-001,
          3.48056518e-002, 4.24263209e-001 ]
      - [ 2.06713472e-002, -4.37109513e-008, 0., 0., 0., 0.,
          -2.96294838e-002, -1.86913889e-002, -9.40028392e-003,
          -6.21781172e-003, -6.34148857e-003, 0., 0., 0., 0., 0., 0., 0.,
          0., 0., 0., 1.04527377e-001, 2.61758082e-002, -1.04130171e-001,
          -1.56432882e-001, -1.67876199e-001 ]
      - [ 8.06218013e-003, 0., 0., 0., 0., 0., -4.37109513e-008,
          -4.01546041e-009, 1.74522083e-002, -1.74505617e-002,
          -8.71548951e-002, -4.28755470e-002, -1.52416164e-002,
          -5.88691570e-002, -5.18290661e-002, -2.11801920e-002,
          -3.48991118e-002, 0., 0., -4.37109513e-008, 0.,
          -9.56664756e-002, -2.90783849e-002, 3.48991454e-002,
          1.13561034e-001, -5.23354188e-002 ]
      - [ 1.76143721e-002, -7.62654096e-002, 4.09319162e-001,
          -4.72287536e-001, 3.73656571e-001, 1.20814353e-001,
          -4.45472032e-001, -1.44382164e-001, 1.18949987e-001,
          -1.49132803e-001, -1.16427220e-001, -8.61329585e-003,
          9.44511145e-002, -1.33250812e-002, 0., -2.03095883e-001,
          -2.61718836e-002, 6.17514290e-002, -5.37105389e-002,
          2.01560304e-001, 3.48991454e-002, -9.97551158e-002,
          2.92445067e-002, 7.11742491e-002, 0., 0. ]
      - [ 3.29974964e-002, 0., -2.24694073e-001, -2.92157859e-001,
          -2.40736082e-001, 0., 0., -9.58416611e-002, 1.45259067e-001,
          1.47780910e-001, -3.36286090e-002, -2.24299341e-001,
          -4.13294695e-002, -8.83759186e-002, 1.21868104e-001,
          1.34695232e-001, 1.84602570e-002, 3.19584049e-002,
          2.26780120e-002, -1.99372079e-002, 8.72484874e-003,
          -1.04448549e-001, 0., -9.28419754e-002, -1.03927098e-001,
          -4.35378440e-002 ]
      - [ 2.54436228e-002, 0., 0., 0., 0., 0., -2.01144796e-002,
          2.61652842e-002, -3.77541445e-002, -2.61718836e-002,
          -2.18087882e-002, -2.03486923e-002, -2.32574251e-002,
          -5.57785183e-002, -6.97458070e-003, -1.65295843e-002, 0., 0.,
          0., 0., 0., 0., 0., 0., 0., 0. ]
      - [ 4.74168845e-002, 0., 0., 5.59187293e-001, 1.99634254e-001,
          4.53985989e-001, 0., 9.79882479e-001, 9.94511962e-001,
          4.28092301e-001, 3.90727282e-001, 9.80232418e-001,
          9.84797895e-001, 0., 3.32032621e-001, -2.87427753e-001,
          9.62919176e-001, 0., 0., -1.22483462e-001, -7.58440375e-001,
          0., 0., -4.21074212e-001, 9.99338567e-001, 0. ]
      - [ 3.76573429e-002, 0., 0., 0., 0., 0., -1.39576327e-002,
          2.61718873e-002, 5.99396899e-002, -2.32512262e-002,
          -1.74136795e-002, -2.61520110e-002, -4.40289918e-003,
          -2.17759777e-002, 1.57007705e-002, 9.67687275e-003, 0., 0., 0.,
          0., 0., -6.10459037e-002, 0., -7.40131661e-002,
          -3.48991118e-002, -1.39162123e-001 ]
      - [ 4.21705917e-002, 4.53272611e-002, 4.83018272e-002,
          -5.23354188e-002, 0., 0., 0., 0., 2.75334775e-001,
          5.52825630e-001, 0., 6.97989762e-003, -3.03591881e-002,
          -1.17446855e-001, -1.16313575e-002, 8.87769312e-002, 0., 0.,
          -2.03354452e-002, -2.26392355e-002, -2.06833915e-003, 0., 0.,
          0., 0., 0. ]
      - [ 1.63252689e-002, 4.28592563e-001, 1.75825074e-001,
          4.53686893e-001, -8.15228149e-002, -5.49885668e-002, 0.,
          -4.22902524e-001, -1.22194186e-001, 1.89762358e-002,
          2.02926636e-001, 1.40278801e-001, -5.85213006e-001,
          7.41714299e-001, -8.63977015e-001, 3.79719466e-001,
          7.84506500e-002, 6.97491989e-002, 5.28543293e-001,
          -3.73154432e-001, -3.98301542e-001, 9.87372175e-002,
          8.71549323e-002, 6.97558075e-002, 7.84557611e-002,
          4.55139786e-001 ]
      - [ 3.04180328e-002, 0., 1.99877769e-001, 0., 0., 0., 0.,
          5.48954569e-002, -3.25468332e-001, 9.99084413e-001, 0., 0.,
          -5.14990129e-002, 2.49371752e-001, 7.49256790e-001, 0., 0.,
          1.18054025e-001, 6.08629722e-004, 9.96261001e-001, 0., 0.,
          3.33332211e-001, 4.99947548e-001, 0., 0. ]
      - [ -1.96252093e-002, 0., 0., 1.82227731e-001, 0., 0., 0.,
          9.45509076e-001, 0., 0., 0., 0., 9.45509076e-001,
          1.21850155e-001, -9.99380827e-001, 0., 2.47965157e-001, 0., 0.,
          2.33435303e-001, 2.12361112e-001, 4.16213512e-001,
          1.33123994e-001, 4.65148017e-002, -2.91948736e-001,
          -3.50861102e-002 ]
      - [ 4.69271801e-002, -2.55812019e-001, -9.79882479e-001,
          -1.94102675e-002, 0., 0., -2.40436584e-001, -3.09061468e-001,
          5.10777712e-001, 0., 9.99989986e-001, 4.51209098e-001, 0.,
          1.65140539e-001, -4.03602868e-002, 1.16699226e-001,
          9.99989986e-001, -4.45378609e-002, -1.27611673e-002,
          -2.98828294e-004, -3.64274420e-002, 0., -6.47438645e-001,
          -5.68101048e-001, 8.33108649e-002, -9.15716868e-003 ]
      - [ 3.29154953e-002, -7.07099676e-001, -7.77138114e-001,
          6.94549084e-001, 0., -7.07099676e-001, 0., -1.48412392e-001,
          -2.84908742e-001, -1.36005998e-001, -2.83823490e-001,
          -6.51035488e-001, 3.37441742e-001, 7.13219702e-001,
          -6.76116288e-001, -1.60094604e-001, 1.03215270e-001,
          -1.72818959e-001, 0., -1.95970058e-001, -1.92318827e-001, 0.,
          1.15106866e-001, 3.95874120e-002, 3.80887359e-001,
          2.41961375e-001 ]
      - [ 2.38653235e-002, 3.87473285e-001, 2.64687128e-002,
          -7.07104385e-001, 0., 7.06297206e-003, 3.56848508e-001,
          7.83482566e-002, 2.44196296e-001, 2.05125347e-001,
          -2.66378880e-001, 5.11809826e-001, 1.70980431e-002,
          -1.53878346e-001, 3.50427292e-002, -2.59663135e-001,
          3.49415958e-001, 7.07099676e-001, 6.92540258e-002, 0., 0., 0.,
          0., 7.07099676e-001, 7.07099676e-001, 3.53552490e-001 ]
      - [ 2.29476597e-002, 0., 0., 0., 0., 0., -3.87140065e-002,
          -5.80770755e-003, -4.35999334e-002, -1.74239893e-002,
          -4.94226925e-002, -4.37109513e-008, -2.61718836e-002,
          -3.48781571e-002, -2.90660337e-002, -2.96933036e-002, 0., 0.,
          0., 0., 0., -2.92259634e-001, 0., 0., 0., 0. ]
      - [ 1.33321004e-003, -3.92478816e-002, -6.97297454e-002,
          1.30461290e-001, 4.35327031e-002, -6.48541345e-007,
          -2.32477039e-002, 1.03501491e-001, -2.39770953e-002,
          -4.63032238e-002, 1.03493184e-002, 1.74522083e-002,
          -2.91432813e-002, -4.24415991e-002, -1.24031261e-001,
          -8.68174993e-003, 0., 0., 0., 0., 0., 0., 0., 0., 0., 0. ]
      - [ 3.39136869e-002, 0., 0., 0., 0., 0., 7.71312714e-002,
          -8.71290192e-002, 4.13770415e-002, 2.03301106e-002,
          -4.35999334e-002, -3.09066921e-002, 5.81510272e-003,
          -1.54949394e-005, -4.48274426e-002, -4.64865305e-002,
          -1.74521767e-002, 0., 0., 0., -1.74521767e-002,
          -6.38325512e-002, 0., -4.35776860e-002, 2.41508305e-001,
          -3.48817073e-002 ]
      - [ 3.37843262e-002, 7.38576353e-002, 2.16451269e-002,
          8.33992288e-002, -5.38754612e-002, 2.69052744e-001,
          -4.92291227e-002, 1.21934608e-001, -1.87177360e-001,
          8.58706981e-003, -2.48249382e-001, -1.24252111e-001,
          -1.17448747e-001, -1.26485914e-001, -3.72627564e-003,
          1.41964644e-001, 4.75561917e-002, -2.17406467e-001,
          2.99896654e-002, -3.23635668e-001, 1.29340276e-001,
          -4.01488245e-002, 1.34899262e-002, 2.45369505e-002,
          2.90767066e-002, 2.96100318e-001 ]
      - [ 3.50468084e-002, 0., 0., -4.37109513e-008, 0., 0.,
          1.57988574e-002, -1.73986852e-002, 1.56911965e-002,
          -2.90064029e-002, -1.15835760e-002, 0., 0., 0., 0., 0., 0.,
          1.04527377e-001, 1.39171720e-001, -5.23354188e-002,
          -3.48991118e-002, -1.15445675e-002, -9.57834572e-002,
          -1.31780908e-001, -6.33331155e-003, -1.31560266e-001 ]
      - [ 7.73531618e-003, -1.79118112e-001, 2.81805079e-002,
          -2.83886522e-001, 8.05177987e-002, 1.33659719e-002,
          9.70909670e-002, -9.97520313e-002, -1.11124076e-001,
          1.90814838e-001, 4.05603230e-001, 3.00416470e-001,
          3.05365056e-001, -1.72517188e-002, 1.92327917e-001,
          -1.80165917e-001, -3.21408659e-001, 1.35264937e-002,
          3.73555243e-001, -1.53740019e-001, 1.35210633e-001,
          2.01540709e-001, 2.82332557e-003, 3.64189297e-001,
          4.56233397e-002, 7.16700256e-002 ]
      - [ 6.37496412e-002, -9.39163938e-002, -5.17271280e-001,
          7.07099676e-001, 0., 0., -1.45256370e-001, 8.94865990e-002, 0.,
          0., 0., -4.92678471e-002, 1.00977302e-001, 1.96027216e-002,
          -8.10452476e-002, 2.59220898e-002, -3.41304913e-002,
          8.30814019e-002, 2.78646469e-001, 1.05728567e-001,
          -1.25649065e-001, 1.30274296e-001, -8.67279693e-002, 0.,
          -2.76578963e-001, 2.58501291e-001 ]
      - [ 2.31260993e-002, 1.17653430e-001, -2.99751133e-001,
          -1.17671847e-001, -3.56604934e-001, 1.79413736e-001,
          1.80429444e-002, 3.54302198e-001, 2.89353788e-001,
          -4.55789752e-002, -5.53009212e-002, -3.44731496e-003,
          1.10271182e-002, -2.32077032e-001, 1.51964858e-001,
          1.62126143e-002, -7.74669694e-004, -8.21903162e-003,
          1.51220843e-001, -3.31884660e-002, -3.33278142e-002,
          2.88806763e-002, -3.47021371e-002, 7.13115185e-002,
          3.56805697e-002, 1.04751952e-001 ]
      - [ 1.71973687e-002, 0., -4.37109513e-008, 0., 4.74942595e-001,
          5.07193506e-001, 0., -2.13446692e-002, 1.56472877e-001,
          3.37667763e-001, 4.07465100e-001, 0., 1.38396854e-002,
          2.33051367e-002, 2.73781389e-001, 0., 0., -1.08610071e-001,
          8.34991410e-002, 0., -3.48427109e-002, 0., 0.,
          -3.45368236e-001, -1.81940123e-001, -7.97213614e-002 ]
      - [ 1.13073653e-002, 0., 3.89403194e-001, 2.54893273e-001,
          -7.94589147e-002, -9.96184707e-001, -4.37372297e-001,
          5.68267405e-001, 9.51047003e-001, -6.57970756e-002,
          9.89203990e-001, 8.82854998e-001, 9.48657155e-001, 0., 0.,
          -9.92306471e-001, 0., 8.01680803e-001, 0., 0.,
          -6.59119070e-001, 7.38112688e-001, 2.49923542e-001, 0., 0.,
          4.38460916e-001 ]
      - [ 1.43904041e-003, 1.61073968e-001, -9.45816785e-002,
          1.29351243e-002, 1.21875584e-001, 1.33178264e-001,
          8.06176364e-002, 9.63035077e-002, 1.45806193e-001,
          -1.22441396e-001, 1.16514005e-001, -1.98948264e-001,
          -7.61608601e-001, -1.11573778e-001, 9.76281837e-002,
          -2.56254058e-002, 1.44399002e-001, 9.98855531e-001,
          3.97516251e-001, 8.23447883e-001, 2.18869764e-002,
          -6.60939962e-002, -4.52635288e-002, 3.61476064e-001,
          5.22341669e-001, -9.91002798e-001 ]
      - [ 3.99152339e-002, -1.74505617e-002, 4.36308235e-003,
          8.72612651e-003, 0., 0., 0., 0., -9.60745811e-001, 0., 0.,
          -9.50956762e-001, -9.89964485e-001, -1.09453954e-001,
          -3.42427552e-001, -2.35701472e-001, -4.23923612e-001,
          -4.38482612e-001, 0., -8.09247568e-002, 6.97279051e-002,
          -9.54333186e-001, -7.07099676e-001, 0., -2.78228968e-001,
          2.32621148e-001 ]
      - [ 3.20808752e-003, -1.74505617e-002, 0., 0., 0., 0.,
          -2.95084536e-001, -9.66678336e-002, 0., -2.71478325e-001,
          9.09922063e-001, 6.92172050e-001, 0., 0., 0., 0.,
          9.06298697e-001, -9.80265081e-001, 0., 5.53699613e-001,
          -5.74603498e-001, 0., 0., 0., 8.10097098e-001, 5.06380439e-001 ]
      - [ 2.10958086e-002, -9.66293663e-002, -1.06612310e-001,
          9.10249501e-002, 7.33993128e-002, 1.73178494e-001,
          -8.05571824e-002, 1.68248832e-001, -1.37674898e-001,
          3.47434916e-002, -2.61776924e-001, -1.46450758e-001,
          -3.01300108e-001, -1.48665398e-001, 2.27089375e-001,
          2.45008081e-001, -2.73468215e-002, -3.41649167e-002,
          2.06218548e-002, -1.82530299e-001, -3.48452628e-002,
          -2.49925807e-001, 1.03223607e-001, 2.67963838e-002,
          -3.37244570e-002, 1.96533680e-001 ]
      - [ 3.02111227e-002, 1.63047630e-002, -1.30898029e-001,
          9.68464762e-002, 7.10174739e-002, -1.65269867e-001,
          -4.87182215e-002, 2.36373022e-002, 1.54860929e-001,
          -1.04267970e-001, -1.73983555e-002, 5.52048869e-002,
          -4.00180221e-002, 1.93802774e-001, -9.67499614e-002,
          -1.17349647e-001, 6.15901612e-002, 1.19827196e-001,
          7.63047952e-003, 1.54577881e-001, -2.29273871e-001,
          6.05941415e-002, -3.46092768e-002, -1.73542406e-002,
          7.75002986e-002, 7.25537762e-002 ]
      - [ 5.19732162e-002, 9.99837697e-001, 2.34796703e-001,
          2.24308938e-001, 2.07889885e-001, 1.51114479e-001,
          -1.64974004e-001, -1.50308728e-001, -1.80852991e-002,
          1.03110142e-001, 0., -9.94167197e-003, -1.74521767e-002,
          1.61530580e-002, 4.00840163e-001, 5.80940284e-002, 0.,
          8.71466175e-002, 5.91825135e-002, -5.64459972e-002,
          -1.44636631e-001, 1.65040538e-001, 7.41733015e-002,
          -2.66142711e-002, 1.66489735e-001, 2.06422452e-002 ]
      - [ 3.75349936e-003, 4.07108851e-002, 1.59391969e-001,
          1.88652366e-001, 1.79926753e-001, 1.50591314e-001,
          2.22102121e-001, 1.61341548e-001, 2.11162508e-001,
          -1.56003371e-001, 6.77522123e-002, -1.93066582e-001,
          1.04107566e-001, 1.30134046e-001, -1.66801348e-001,
          1.04121137e-002, 3.44358116e-001, 4.99237478e-001,
          -2.90822357e-001, 5.40916860e-001, 2.02619940e-001,
          4.00316566e-001, -1.59410192e-004, 4.98871803e-001,
          4.20020372e-001, 3.04215774e-003 ]
      - [ 2.76689976e-002, 0., 1.47803053e-001, 5.51675707e-002,
          1.07901052e-001, 1.30415022e-001, -3.73973511e-002,
          2.58425027e-001, -3.51554990e-001, 0., 0., -9.54917252e-001,
          2.37934828e-001, -4.07789886e-001, -6.49123490e-001, 0.,
          -9.97485578e-001, 1.90807149e-001, 1.39130428e-001,
          -6.36744142e-001, 1.69291452e-001, -1.45227924e-001, 0., 0.,
          0., -7.07099676e-001 ]
      - [ -4.09630639e-003, -2.32393250e-001, -2.94987023e-001,
          -3.14407498e-001, 1.33325264e-001, 0., -4.64953855e-002,
          3.43326867e-001, 6.65280372e-002, -9.98845845e-002,
          -1.93970099e-001, 1.05883315e-001, -3.47966626e-002,
          -3.13623041e-001, -3.48958001e-002, -1.01341426e-001,
          2.24948794e-001, 0., 0., 0., -5.23354188e-002,
          -7.84557313e-002, 0., 6.29314125e-001, -4.36174832e-002, 0. ]
      - [ 6.01060055e-002, 0., 6.66310251e-001, 0., 0., 0., 0.,
          2.85528251e-004, -7.08381057e-001, 4.99846458e-001, 0.,
          3.23232892e-003, 1.44901887e-001, -6.98347623e-003,
          1.30973339e-001, -1.15005456e-001, 1.11949062e-002,
          1.46055177e-001, 5.75222224e-002, -8.10765252e-002,
          1.30496388e-002, -1.74488276e-002, -5.17295003e-002,
          5.88218905e-002, -1.45591889e-002, -8.28882866e-003 ]
      - [ 7.13443011e-003, 0., 0., 0., 0., 0., 0., 0., 0., 0., 0.,
          -3.48887853e-002, -4.88294400e-002, -3.48451398e-002,
          1.92706168e-001, 8.72089248e-003, -2.32574251e-002,
          -3.13983075e-002, -3.92100662e-002, -2.39870436e-002,
          -5.39409965e-002, 0., 0., 0., 0., 0. ]
      - [ 1.57718603e-002, 1.00720316e-001, -2.33390301e-001,
          3.83520164e-002, 2.33221710e-001, 1.32444482e-002,
          -8.51441696e-002, 2.84962319e-002, -8.64024311e-002,
          -5.52854277e-002, -2.53538489e-001, 1.03410222e-001,
          -9.83093604e-002, 2.37405777e-001, 6.88839704e-002,
          -2.29519218e-001, -1.04115352e-001, 6.09185137e-002,
          -7.92384967e-002, -3.60381752e-001, 7.07099676e-001,
          -7.85434619e-002, -1.56855375e-001, 1.52341155e-002,
          3.12646595e-003, -1.58060059e-001 ]
      - [ -4.62442711e-002, 0., 0., 4.64215904e-001, 4.64208513e-001,
          4.18059111e-001, 0., 4.30492550e-001, 4.43368584e-001,
          7.68509448e-001, 1.13514932e-002, 4.69127715e-001,
          5.25697172e-001, -1.58187002e-001, 2.26919964e-001,
          2.29856029e-001, 8.42550576e-001, 1.79216981e-001,
          1.46121189e-001, 5.10581732e-001, 6.69955909e-002,
          3.55237663e-001, 5.63762307e-001, 9.95431662e-001,
          6.81709647e-001, 3.13992381e-001 ]
      - [ 2.24269554e-002, -3.11427057e-001, -1.10799968e-002,
          7.07099676e-001, 0., -2.07324535e-001, 1.68919358e-002,
          6.77791163e-002, 2.24339440e-001, 1.07349679e-002,
          5.98609038e-002, 1.71427622e-001, 3.57610136e-001,
          1.09970368e-001, -1.57437965e-001, -1.18871458e-001,
          -2.66183138e-001, 1.22142695e-001, 1.52753651e-001,
          5.96930496e-002, 2.37334389e-002, 1.68104410e-001,
          1.38049975e-001, 1.29146054e-002, 4.49741520e-002,
          -1.33764520e-001 ]
      - [ -1.03369383e-002, -8.43228757e-001, -3.33078414e-001, 0.,
          -6.23935759e-001, 9.99489069e-001, -5.08059323e-001,
          -7.36615062e-001, 9.45509076e-001, 7.85834074e-001,
          4.88858521e-001, 9.90258157e-001, 9.56525981e-001,
          -3.44511658e-001, -6.13368213e-001, 9.92536187e-001, 0., 0.,
          0., 0., -7.07099676e-001, 0., 0., 0., 0., 6.18509948e-001 ]
      - [ -4.41502444e-002, 0., 0., 0., 0., 0., 0., -7.72239983e-001, 0.,
          4.38366771e-001, 0., 0., 0., -1.29591629e-001, 0., 0., 0., 0.,
          9.82988775e-001, 0., 0., 0., 9.93529081e-001, 8.95830214e-001,
          0., 0. ]
      - [ 8.02485496e-002, 0., 0., 2.16978922e-001, 2.03659013e-001,
          1.40108064e-001, 0., 0., 0., -1.34059682e-001, 0., 0., 0., 0.,
          0., 0., 0., 0., 0., 0., 0., -1.97974876e-001, -7.66874254e-002,
          -8.00420120e-002, -7.55276605e-002, 0. ]
      - [ 4.31711636e-002, -5.10136448e-002, -2.78365333e-003, 0.,
          8.24631602e-002, 1.09210804e-001, -5.08954525e-002,
          -2.64338087e-002, 0., 1.31509647e-001, 5.76737672e-002,
          -5.10038771e-002, 6.26478046e-002, -2.56783485e-001,
          9.59467590e-002, 5.54699004e-002, 4.37203869e-002,
          2.36459821e-002, 3.11950687e-003, -4.73692007e-002,
          1.42576406e-002, -2.61571646e-001, 7.67029002e-002,
          -1.10943690e-002, 5.22406911e-003, -4.35903631e-002 ]
      - [ 4.02651355e-002, 2.49999359e-001, 8.72612651e-003,
          8.72612651e-003, -4.01546041e-009, -1.92867428e-001,
          3.33332211e-001, 0., 0., 0., 7.61445554e-005, 7.61445554e-005,
          0., -4.96996671e-001, 0., -3.33078414e-001, -2.89419815e-002,
          0., 5.90464413e-001, -8.76804173e-001, 0., 8.70209333e-005,
          -5.12197495e-001, -1.05321720e-001, 4.47390527e-001,
          3.41919959e-001 ]
      - [ 4.70452011e-002, 0., 0., 0., 0., -7.31346428e-001, 0.,
          4.36042286e-002, 0., 0., 0., 3.61413509e-001, 1.00937448e-001,
          -5.55069279e-003, -2.78483219e-002, -2.56184101e-001,
          -3.38612683e-002, -5.79472631e-002, -5.73243536e-002,
          -4.58502285e-002, -7.29046613e-002, 0., -2.28270203e-001,
          -2.74736196e-001, -6.95257308e-003, 3.33464950e-001 ]
      - [ 5.17104380e-002, -2.41076663e-001, 1.04512043e-001, 0.,
          -9.79882479e-001, 0., -2.70459205e-001, 1.02785155e-001,
          -2.59513352e-002, -2.70465553e-001, -1.47494882e-001,
          1.12629466e-001, 7.07099676e-001, -3.27501446e-003,
          8.11397377e-003, -4.12118323e-002, 5.87779403e-001,
          -7.07103252e-001, -1.12072919e-002, 5.26131466e-002,
          2.66029149e-001, -2.58347660e-001, 0., 3.23736332e-002,
          3.60791534e-001, 5.95656037e-001 ]
      - [ 1.47093972e-002, 0., 5.30785203e-001, -1.33955285e-001,
          -4.12424117e-001, 0., 0., 9.24081057e-002, -6.61005303e-002,
          -1.02142707e-001, -9.17020619e-001, 0., 3.53551596e-001,
          3.55031677e-002, 3.48991454e-002, -9.99005198e-001, 0., 0.,
          -5.22956885e-002, 5.23039661e-002, 9.50906932e-001, 0.,
          -7.19119251e-001, -2.61559878e-002, 3.71833146e-001, 0. ]
      - [ 2.65327301e-002, -9.25106928e-002, 1.51736259e-001,
          -1.16690889e-001, -4.44149792e-001, 5.12075007e-001,
          -9.92192887e-003, 0., 4.00602743e-002, -4.30455387e-001,
          -5.98476470e-001, -4.64340374e-002, 7.07099676e-001,
          1.13198310e-001, -1.89442903e-001, 1.82597786e-001,
          9.86824930e-002, 9.99614298e-001, 0., 1.80524793e-002,
          -5.09099253e-002, -7.88288414e-002, 2.38874793e-001,
          1.46115035e-001, 2.00291812e-001, -2.67096102e-001 ]
      - [ 9.64171737e-002, 0., 9.43165243e-001, -6.48780584e-001,
          -9.53297675e-001, 0., 0., -3.68977278e-001, -4.59596634e-001,
          0., 0., 0., -5.37339509e-001, -2.34828740e-001, 0., 0., 0.,
          -9.92870092e-001, -2.48921722e-001, 0., -1.13181375e-001,
          -9.45509136e-001, -9.70561206e-001, -9.97988820e-001,
          -1.27736643e-001, -7.07104385e-001 ]
      - [ 2.52921358e-002, 1.96564928e-001, 4.30069603e-002,
          9.85942662e-001, -9.53593105e-002, -8.14683363e-003,
          1.53769910e-001, 1.76081434e-001, 0., -8.69658366e-002,
          -2.31171295e-001, -1.15572602e-001, -1.65254660e-002,
          -2.07527820e-002, 1.11846074e-001, -6.15247898e-002,
          2.18581527e-001, -2.35543802e-001, -2.25771964e-001,
          -5.04429340e-002, -1.14396615e-002, 0., -3.24565381e-001,
          -3.45969260e-001, -2.40857944e-001, 8.23233202e-002 ]
      - [ 1.10263536e-002, 2.32715428e-001, 0., 0., 0., 8.68965313e-002,
          -3.71836007e-001, 1.56432927e-001, -3.48688476e-002,
          6.43503785e-001, 1.95885077e-002, -1.00488380e-001,
          2.14087730e-003, -6.22183494e-002, -6.64748624e-002,
          -8.27480182e-002, -3.49538773e-002, -2.22861357e-002,
          -1.99664503e-001, -7.51349851e-002, -9.56178755e-002,
          -2.36834642e-002, 0., -1.30809039e-001, 2.51129307e-002,
          7.11006299e-002 ]
      - [ 7.60518806e-003, 0., 0., 1.82200402e-001, 1.16042569e-002, 0.,
          -4.02282327e-001, 0., -5.10895289e-002, -7.46834576e-001,
          -4.11329746e-001, -1.26592815e-001, 6.52151648e-003,
          9.95703861e-002, -7.11762726e-001, -4.65287305e-002,
          1.67209178e-001, -2.44323879e-001, -4.09951627e-001,
          3.38134736e-001, 3.42774875e-002, 1.13366626e-001,
          -4.63710129e-002, 0., 0., -1.47803023e-001 ]
      - [ -2.85951118e-003, 0., 0., 0., 0., 0., 0., 0., 0., 0., 0., 0.,
          0., 0., 0., 0., 0., 0., 0., 0., 0., 0., 0., 0., 0., 0. ]
      - [ 1.56607926e-002, 6.38518631e-002, -7.97317084e-003,
          -1.56522647e-001, 2.36600563e-002, -4.40375268e-001,
          -1.36798725e-001, 1.15766078e-001, 7.14049265e-002,
          1.77684486e-001, 0., 3.02027129e-002, 9.85160545e-002,
          7.46913850e-002, 0., 3.90249074e-001, -1.29041728e-002,
          -4.42317203e-002, 1.20891273e-001, 0., 6.94463775e-002,
          2.18521766e-002, 4.39601578e-002, 1.60406083e-001,
          5.72799981e-001, -4.99995053e-001 ]
      - [ 2.51293508e-003, 0., 0., 0., 0., 0., 0., 0., 0.,
          2.41644934e-001, 8.82808685e-001, 0., 0., 0., -1.98520750e-001,
          0., 0., 2.56367028e-001, 1.31585196e-001, 7.54714310e-002,
          -2.13506594e-001, 2.05443859e-001, -5.96233904e-002,
          8.75020027e-002, -5.98865114e-002, 1.05788484e-001 ]
      - [ 2.54885405e-002, 0., 0., 0., 0., 0., 3.29840124e-001,
          -6.32174253e-001, -6.97491616e-002, 6.01646245e-001,
          -4.26010787e-001, 5.51529452e-002, -3.02461267e-001,
          -5.06321117e-002, 2.50305444e-001, -1.71010956e-001,
          -3.59769493e-001, -6.19708598e-002, -1.34873670e-002,
          5.52877784e-002, 3.13047528e-001, 0., 0., -3.13993692e-002, 0.,
          0. ]
      - [ 3.17394100e-002, 0., -7.70318210e-001, -5.53069711e-001, 0.,
          0., 0., 0., 0., -6.31944001e-001, 0., 0., 5.87087929e-001,
          -2.32172489e-001, -7.07099676e-001, 0., 0., -7.07099676e-001,
          -3.90929610e-001, 7.78422654e-001, 0., 0., -6.73077285e-001,
          1.21787630e-001, 0., -8.49939734e-002 ]
      - [ 2.79533528e-002, 0., 0., 0., 0., 0., 0., 0., -7.07099676e-001,
          0., 0., 0., 0., 0., 0., 0., 0., 0., -5.84019423e-001,
          9.70286012e-001, 0., 0., 0., -8.72615445e-003, 5.82542717e-001,
          -1.34286776e-001 ]
      - [ 4.26630005e-002, 0., 0., 0., 0., 0., 0., -1.72730520e-001, 0.,
          0., 3.48799266e-002, 2.58816481e-001, 1.74522083e-002,
          -3.05270068e-002, 2.27549329e-001, 4.70321998e-002,
          -1.38691232e-001, -1.01839580e-001, 1.99177206e-001,
          4.34982823e-003, -9.83820111e-002, 0., -4.62643914e-002, 0.,
          -1.38258170e-002, 8.71420279e-002 ]
      - [ 3.73878255e-002, -6.75254464e-001, -8.43355060e-001,
          9.52804446e-001, 0., 5.22519469e-001, -2.55679160e-001,
          -7.16535389e-001, 9.39683199e-001, 5.61625719e-001,
          1.08257383e-001, 1.03092998e-001, -9.45939049e-002,
          -1.18009381e-001, 8.92362073e-002, 8.20046291e-004,
          1.61622852e-001, 4.01822269e-001, -7.37748623e-001,
          -1.00027509e-001, -1.29465520e-001, 5.31476140e-001,
          -1.36178553e-001, -2.51566857e-001, 4.06732559e-001,
          -1.00397579e-001 ]
      - [ 3.10145668e-003, 0., 2.35701472e-001, 3.30089599e-001,
          -6.06271215e-002, -4.11208160e-002, -7.07099676e-001,
          1.07651696e-001, -2.34873388e-002, 2.57086698e-002,
          -8.41997191e-003, 1.67205393e-001, -1.43870832e-002,
          1.25620123e-002, 8.32803268e-003, 4.02936450e-004,
          1.22821808e-001, -4.85742539e-002, -8.33264068e-002,
          1.03096753e-001, -1.38263419e-001, 1.51042461e-001,
          1.22355133e-001, -4.19697426e-002, -2.52726406e-001,
          6.92311525e-002 ]
      - [ -4.54696193e-002, 0., 0., 0., 0., 0., 0., 8.72612651e-003, 0.,
          0., 0., 0., -4.75013107e-002, 0., 4.99921322e-001, 0., 0., 0.,
          0., 2.01587483e-001, 0., 0., 0., 0., 0., 0. ]
      - [ 3.01472768e-002, 0., 0., 0., 0., 0., 0., 0., 0., 0., 0., 0.,
          8.31810474e-001, 0., 0., 0., -7.42536709e-002,
          -5.05059510e-002, 4.75230291e-002, 1.62276059e-001, 0.,
          -2.11288393e-001, 3.69563662e-002, -1.93243362e-002,
          7.00404823e-001, 5.44633627e-001 ]
      - [ 1.79511551e-002, -6.96006417e-002, 2.25732177e-001,
          1.69611886e-001, -1.41403243e-001, 8.47503692e-002,
          5.27186394e-001, 0., -8.38382915e-003, 0., 0., 5.22037208e-001,
          4.24426973e-001, 4.83702481e-001, 0., -7.25234449e-001,
          5.77827513e-001, 5.29521406e-001, 5.81640422e-001,
          -3.33078414e-001, 0., 6.49593949e-001, 6.87899172e-001,
          5.94192803e-001, 9.92139757e-001, 2.65164703e-001 ]
      - [ 4.85421829e-002, -5.86704984e-002, 0., 0., -1.34675447e-002,
          -1.62525490e-001, 6.31582066e-002, -1.81027144e-001, 0.,
          2.35556066e-003, -3.38362232e-002, -2.21145391e-001,
          -3.32774162e-001, 1.37691572e-001, -5.45176677e-002,
          7.22656697e-002, -2.01494977e-001, -7.07099676e-001,
          -4.03402776e-001, -6.86242208e-002, -8.67558047e-002,
          -1.78834852e-002, -3.66205007e-001, -3.27383757e-001,
          5.40853977e-001, -1.47396237e-001 ]
      - [ 2.95924582e-002, 0., 0., 0., 0., 0., 3.12234182e-002,
          7.24576821e-004, -1.55768707e-001, -2.87683934e-001,
          -1.42158106e-001, -4.11715060e-002, 5.43061122e-002,
          9.09111649e-002, -3.03400517e-001, -1.61418885e-001,
          3.96738261e-001, 4.78369057e-001, -9.00383666e-002,
          -5.79462480e-003, -2.59168655e-001, -5.72592497e-001,
          3.06956351e-001, -1.56432882e-001, -6.29405975e-002,
          -2.26163104e-001 ]
      - [ -6.53889868e-003, -3.19685675e-002, -2.44147554e-002,
          -4.37637977e-003, 1.93030993e-003, -2.61652712e-002,
          -4.99465764e-001, 0., 0., 0., -4.99465764e-001,
          -3.43460441e-001, 0., 0., 0., -1.99847311e-001,
          -3.81090879e-001, -2.12032676e-001, -9.25626978e-002,
          5.47497720e-002, 4.09245305e-002, 1.99144520e-002,
          -2.26277962e-001, 5.16750515e-002, -6.53478205e-002,
          -8.95487815e-002 ]
      - [ -7.31508201e-003, 0., 0., 1.73646480e-001, -7.07099676e-001,
          -1.99331254e-001, 0., 0., 0., 0., 7.34952539e-002,
          -1.59058586e-001, 0., 3.28927487e-001, -4.87529457e-001,
          -4.32989120e-001, -1.18987650e-001, -8.64791591e-003,
          -4.61027846e-002, 9.68357995e-002, 1.33358002e-001,
          -2.07933430e-002, -7.33434707e-002, 9.58416313e-002, 0.,
          5.71642399e-001 ]
      - [ -1.34780645e-001, 0., 0., 0., 0., 0., 0., 0., 0.,
          -2.24927410e-001, 0., 0., -2.21834034e-001, 0., 0.,
          -2.50369191e-001, 0., 0., 0., 0., 0., 0., 0., 0., 0., 0. ]
      - [ 3.23206820e-002, 0., 0., 0., 0., 0., 0., 0., 0., 0., 0., 0.,
          0., 0., 0., 0., -2.83960551e-001, 0., 0., 0., 4.04019922e-001,
          -4.98290174e-002, -9.11615938e-002, 8.30988809e-002,
          -1.56085089e-001, -9.48598906e-002 ]
      - [ 2.09126361e-002, 5.15032947e-001, 0., 0., 0., 4.92951013e-002,
          5.67392334e-002, -1.33043364e-001, -2.00964123e-001,
          2.20531076e-001, -2.23282740e-001, -1.19018525e-001,
          4.96404525e-003, 1.60532538e-002, 7.96590596e-002,
          -1.36612244e-002, 2.01272115e-001, 5.97498938e-002,
          -7.34714642e-002, -1.46683484e-001, -1.68430001e-001,
          5.86522520e-002, 2.21331120e-001, -2.97131557e-002,
          -2.25896657e-001, -1.79648384e-001 ]
      - [ 3.78778130e-002, 0., 0., 0., 0., 0., 0., 1.74452774e-002,
          1.98672980e-001, -2.09279582e-002, 0., 7.21012279e-002,
          -3.28510907e-003, -3.55628394e-002, -4.40979982e-003,
          -2.07996607e-001, 2.45637864e-001, -1.41510759e-002,
          -1.11008003e-001, 1.25588417e-001, 1.40762299e-001,
          -4.72909838e-001, -7.56413788e-002, 9.39139128e-002,
          -2.76575178e-001, 8.27581167e-001 ]
      - [ 3.87414061e-002, -1.18480138e-001, -3.85689884e-001,
          -1.40328899e-001, 2.68196046e-001, 2.43687108e-001,
          -1.41131818e-001, 3.18459421e-001, 9.24071483e-003,
          -1.66684445e-002, 1.16755113e-001, 5.61234206e-002,
          -1.81458756e-001, 2.73076177e-001, 9.58433654e-003,
          -1.54648751e-001, -3.79905850e-002, -5.92589527e-002,
          -1.27721310e-001, -1.40329957e-001, -1.74497202e-001,
          -4.72522765e-001, 2.01875065e-002, 4.99865524e-002,
          -1.37692809e-001, 3.25278863e-002 ]
      - [ 1.33004198e-002, 0., 5.75392842e-001, 5.90414926e-002,
          -1.22033551e-001, 1.56809352e-002, -6.98734939e-001,
          2.06421897e-001, 5.12892120e-002, -2.33097732e-001,
          -2.27384254e-001, 6.62594438e-001, 1.91218272e-001,
          3.55208851e-002, -1.74359769e-001, -2.65417367e-001,
          5.06998599e-001, 9.48193762e-003, 9.48262513e-002,
          1.30243689e-001, -2.94814825e-001, 1.03393517e-001,
          1.03007406e-001, 4.43210185e-001, 9.99997929e-002,
          8.23364183e-002 ]
      - [ 5.81892580e-003, 0., 0., 0., -1.70488134e-001, 0.,
          -6.78492129e-001, 0., 0., -5.17774262e-002, -1.17953427e-001,
          -9.78000164e-002, 1.43209025e-001, 4.44139540e-001,
          -3.18035185e-001, -1.39754832e-001, -1.80282474e-001,
          -3.94993089e-002, 2.65181041e-003, -3.29190157e-002,
          9.39753279e-002, 1.21624611e-001, 6.46723092e-001,
          -6.07182495e-002, -1.88615113e-001, -3.51664245e-001 ]
      - [ 4.05411795e-002, 4.04616781e-002, 4.67962772e-002,
          -3.37412655e-002, -4.15175796e-001, -7.07099676e-001,
          3.58608291e-002, 3.96812893e-003, -1.11936778e-003,
          -1.29300684e-001, -2.34945696e-002, 5.54344505e-002,
          6.54562712e-002, 4.27995659e-002, -5.60881477e-003,
          -5.65179251e-003, -4.45012487e-002, -1.08392484e-001,
          8.56010467e-002, 3.09224464e-002, -7.99222908e-005,
          -7.38869682e-002, -7.65508637e-002, 2.60580145e-002,
          4.48544249e-002, 1.02556199e-001 ]
      - [ 1.07597537e-001, 0., 0., 0., 0., 0., 0., 0., 0., 0., 0., 0.,
          0., 0., 0., 0., 0., 0., 0., 1.83855504e-001, 0.,
          -2.81105787e-001, -8.36430043e-002, 1.46329656e-001, 0., 0. ]
      - [ 5.16160056e-002, -1.25141859e-001, -5.38434446e-001,
          -7.46271670e-001, 0., 0., -2.74784546e-002, -1.06777422e-001,
          -1.13831080e-001, 0., 4.99419123e-001, -4.36109491e-002,
          -5.23304529e-002, 2.78460145e-001, -8.34854618e-002,
          1.84474796e-001, 4.01538536e-002, -4.60772216e-002,
          -4.69391853e-001, -1.95092484e-002, 2.42982253e-001,
          -1.26743883e-001, 1.23678960e-001, -3.48645002e-002,
          -1.97111607e-001, -9.16887522e-002 ]
      - [ 2.40824055e-002, 0., 1.74384415e-002, -1.11341663e-001,
          -2.14591011e-001, 0., 0., 3.23627554e-002, -6.64892942e-002,
          -2.16650218e-001, -2.48791575e-001, 1.90261409e-001,
          2.83074821e-003, -3.88479419e-003, -2.95057986e-002,
          -2.77148224e-002, -1.82632759e-001, -2.77984768e-001,
          7.87202939e-002, 1.12199157e-001, 2.07598060e-001, 0.,
          -1.91896304e-001, 6.52634427e-002, -2.18733117e-001,
          -1.34834871e-001 ]
      - [ 1.25005711e-002, -3.73752624e-001, -1.58774137e-001,
          5.49510181e-001, 4.64882068e-002, 6.14224374e-002,
          -1.94989175e-001, -1.62753806e-001, -7.09747747e-002,
          -2.17879936e-002, 1.15942501e-001, 6.61983043e-002,
          -2.68611033e-002, -1.94786787e-001, -1.93617195e-002,
          -3.61027300e-001, 1.66566208e-001, 2.28705004e-001,
          -1.39605254e-001, -2.93943465e-001, -4.38497096e-001,
          2.57489800e-001, 7.07099676e-001, 7.07099676e-001, 0.,
          -5.51913202e-001 ]
      - [ 2.08792780e-002, -1.27211228e-001, -3.79925549e-001,
          4.70930696e-001, 0., 2.90040765e-002, -1.20785847e-001,
          6.81381404e-001, 2.34030038e-001, 2.16338232e-001,
          -1.40830383e-001, -4.76383977e-002, 3.17135185e-001,
          -7.37238675e-003, 1.66711316e-001, -9.63085890e-002,
          1.88324153e-002, -1.81883439e-001, -6.28053173e-002,
          2.01296061e-002, 1.45983249e-001, 0., 0., -1.49886250e-001,
          -4.96264733e-002, 1.75181612e-001 ]
      - [ 6.56297952e-002, 8.70821849e-002, -2.66488999e-001,
          -1.56190842e-001, -1.73262015e-001, 0., -2.35879123e-001,
          -2.95709938e-001, 8.86037648e-002, -5.97504303e-002,
          -3.85982513e-001, -4.26593661e-001, -3.51674229e-001,
          -1.34247631e-001, -1.70526415e-001, -1.50390849e-001,
          -3.23508382e-001, 2.07358330e-001, 1.60282165e-001,
          -9.31539980e-004, -1.57851338e-001, -2.14122944e-002,
          2.57685874e-002, 1.78527296e-001, -3.63106169e-002,
          1.14823245e-001 ]
      - [ 9.24321532e-004, 0., 0., 0., 0., 2.30408996e-001,
          -9.90250856e-002, -4.37109513e-008, 0., 0., 1.54965639e-001,
          2.46080058e-003, 8.39676410e-002, -2.39370570e-001,
          2.86424719e-002, 1.81900263e-001, 2.75304578e-002,
          1.98704407e-001, 1.22015484e-001, 3.42516303e-001,
          1.82050779e-001, 3.03223461e-001, 2.20445439e-001,
          2.30904017e-002, 7.00879246e-002, 9.38868150e-002 ]
      - [ 4.99915369e-002, 0., 0., 0., 0., 0., 0., 0., 0., 0., 0.,
          -2.36413740e-002, -2.50511635e-002, -9.82847763e-004,
          2.60883272e-002, -1.94394290e-002, -3.00748020e-001,
          -1.21856548e-001, 1.58324038e-008, 1.08752146e-001, 0., 0., 0.,
          -6.97557777e-002, 0., 0. ]
      - [ -3.31802331e-002, -4.37109513e-008, 0., 0., -7.07099676e-001,
          0., 0., 0., 0., 7.07099676e-001, 0., 0., 0., 0., 0., 0.,
          1.51402131e-002, 1.60851166e-001, 1.91625178e-001,
          4.74768490e-001, -7.07099676e-001, 2.91307515e-004,
          3.07453632e-001, 2.98899531e-001, 3.42338771e-001, 0. ]
      - [ 1.45370597e-002, 5.87692797e-001, -4.56565470e-001, 0.,
          -9.89737213e-001, -6.91441536e-001, 5.66555917e-001,
          5.02453268e-001, 1.65291145e-001, 2.02560335e-001,
          -7.07099676e-001, -3.04737389e-001, 3.36205095e-001,
          2.61649162e-001, -3.71380080e-003, -5.81213385e-002,
          -4.41387266e-001, 6.33146644e-001, -3.56020220e-002,
          -1.91133946e-001, 9.65916157e-001, -6.86047494e-001,
          -3.04059803e-001, -2.37922408e-002, 1.21672273e-001,
          3.27411324e-001 ]
      - [ 4.82350774e-002, 0., 9.80455875e-001, -8.50810111e-001, 0., 0.,
          0., -9.61573943e-002, 2.94809677e-002, 0., 0., 0.,
          -1.52259687e-004, -1.99390590e-001, 0., 0., -6.97557777e-002,
          3.32926154e-001, -3.32672983e-001, 0., 0., -3.67760926e-001,
          -9.97988820e-001, -9.08946544e-002, -9.40767229e-002,
          1.97287470e-001 ]
      - [ 2.30515990e-002, -3.73670489e-001, 0., 0., -7.07099676e-001,
          2.02485487e-001, -1.60632893e-001, 6.97253942e-002,
          -2.90619135e-001, 4.00178343e-001, -9.48042870e-002,
          -1.01951182e-001, 3.30406465e-002, -8.54504853e-002,
          9.66234803e-002, -2.49090847e-002, -1.06597943e-002,
          -3.47110182e-002, 8.31329380e-004, -8.32602102e-003,
          -2.80420613e-002, 7.98683241e-002, -3.23138461e-002,
          5.17177507e-002, -3.91694531e-002, -1.19824484e-002 ]
      - [ -6.99092727e-003, -8.69114697e-001, -4.76173252e-001,
          4.96071391e-002, 7.44406164e-001, 4.22963321e-001,
          -5.98989666e-001, 2.80342568e-002, 8.26577365e-001,
          3.97541404e-001, 4.14211527e-002, -4.03350592e-003,
          -4.68005352e-002, 3.53914917e-001, 1.16166502e-001,
          1.48562774e-001, 5.09694591e-002, 4.19200845e-002,
          -8.81524161e-002, -1.47153050e-001, -4.52153161e-002,
          3.28074694e-002, 1.73646480e-001, 1.39158517e-001,
          3.50192308e-001, -1.70156598e-001 ]
      - [ 5.90792559e-002, 0., 0., -7.07099676e-001, -7.07099676e-001,
          -5.70061266e-001, 0., 0., 0., 0., -9.06212747e-001,
          -4.58103955e-001, -7.07099676e-001, -1.86894745e-001,
          -7.07099676e-001, 0., 0., -4.92402345e-001, -5.51495075e-001,
          0., 0., 0., 0., 0., -2.31966212e-001, -4.65768039e-001 ]
      - [ 2.61393096e-002, -5.19621134e-001, -2.62602150e-001,
          -5.25612772e-001, -7.85949156e-002, 0., -4.49332237e-001,
          -3.76289487e-001, 1.93709254e-001, -3.98610473e-001,
          -1.25219554e-001, -3.47671449e-001, 2.71025032e-001,
          -6.11069322e-001, -3.87313396e-001, -1.65394008e-001,
          -1.66640803e-001, -2.17464015e-001, -4.68187600e-001,
          4.11938667e-001, -1.86647952e-001, -1.23650037e-001,
          -1.01281449e-001, -5.89150749e-002, 2.80304015e-001,
          5.87621868e-001 ]
      - [ 3.09270639e-002, -6.27868235e-001, 3.70924711e-001, 0., 0.,
          -3.66430551e-001, 6.13059223e-001, -4.38366741e-001, 0., 0.,
          -9.06282842e-001, -3.98751527e-001, -4.99009073e-001, 0.,
          4.45880502e-001, 4.68076944e-001, -9.77069139e-001,
          -2.23552704e-001, -1.58919469e-001, -4.19492543e-001,
          -2.71360815e-001, -7.07099676e-001, -8.09289455e-001,
          -7.21011221e-001, -3.71046126e-001, 8.05366993e-001 ]
      - [ 3.35358009e-002, 0., 0., -8.89797956e-002, 0., 0., 0.,
          7.07099676e-001, 1.91191509e-001, 0., 0., 0., 0.,
          -7.07099676e-001, -9.27086592e-001, 0., 0., 0.,
          -1.55882479e-003, 0., 0., 0., 0., 0., 6.55183136e-001,
          -1.22656934e-001 ]
      - [ 2.23791525e-002, 0., 0., 1.89310580e-001, 3.54990095e-001, 0.,
          -4.36174832e-002, 8.30012262e-002, 9.12923589e-002,
          4.08998169e-002, -4.85528149e-002, 1.80489451e-001, 0.,
          1.41350478e-001, 2.34607711e-001, -1.35496855e-001, 0.,
          2.27860108e-001, -3.08983177e-001, -6.26709387e-002,
          -1.07508555e-001, 0., 0., 4.23137814e-001, 0.,
          -1.66764781e-002 ]
      - [ 3.10934801e-002, -2.99728751e-001, 0., 0., -7.07099676e-001,
          -6.99116141e-002, -2.84459025e-001, -9.88245085e-002,
          -1.10282697e-001, -9.90822792e-001, -3.70433807e-001,
          -2.49425888e-001, -2.81548709e-001, -1.99428797e-001, 0.,
          2.35831469e-001, -1.13540277e-001, -9.59474966e-002,
          -1.53287118e-002, 0., -3.79974425e-001, -6.06505387e-002,
          -2.67433435e-001, -2.65572537e-002, 1.18036725e-001,
          7.92949647e-002 ]
      - [ 4.35646996e-002, 4.35911529e-002, -1.74374267e-001,
          -3.73946596e-003, -2.24739924e-001, 0., 1.67957768e-002,
          1.10724427e-001, -7.18578920e-002, -2.45077386e-001,
          -3.57484043e-001, -3.51425298e-002, -1.05539076e-002,
          2.59875171e-002, 5.72361834e-002, 2.12136492e-001,
          -8.93483534e-002, -9.65694338e-002, -6.20856062e-002,
          1.23613216e-001, -1.84549093e-001, 3.59820366e-001,
          -1.47711098e-001, 1.35340184e-001, -2.89857209e-001,
          -6.84038848e-002 ]
      - [ 9.11469292e-003, -7.00127721e-001, -9.37955439e-001,
          5.43927848e-002, 2.04954445e-002, 5.04894182e-002,
          -2.62831390e-001, -4.32016641e-001, 2.15337664e-001,
          9.90124270e-002, -2.75532931e-001, 2.81205177e-001,
          -1.21380754e-001, 4.23291653e-001, 9.14966941e-001,
          9.96445417e-001, 6.31843925e-001, -1.85583040e-001,
          -1.81828722e-001, -2.90035993e-001, 0., 4.47791576e-001,
          -1.12058453e-001, 1.53674260e-001, 6.53865859e-002,
          -5.56918919e-001 ]
      - [ 3.15408334e-002, 9.52071175e-002, 1.80420112e-002,
          2.04492025e-002, -1.10068545e-001, -3.03011686e-001,
          -8.68261158e-002, 1.59528535e-002, -2.79779136e-001,
          -6.91095218e-002, -1.45274907e-001, -6.46557733e-002,
          -6.91407621e-002, 2.12409481e-001, -9.04830918e-002,
          -5.39698452e-002, -8.55813399e-002, -3.85095626e-002,
          -4.39844728e-002, 6.02607839e-002, -1.97271928e-002,
          -1.82155266e-001, -4.39989790e-002, 4.19769622e-002,
          2.04263255e-001, 4.46174294e-001 ]
      - [ 5.40679954e-002, 0., -5.14064908e-001, 3.51246029e-001,
          3.27146858e-001, 5.36864281e-001, -8.54298919e-002,
          -2.00591683e-001, 1.74293648e-002, 1.00278623e-001,
          -7.07104385e-001, -1.27141804e-001, -9.70666483e-002,
          2.66224116e-001, 8.62618629e-003, -1.37365684e-001,
          -3.69748771e-001, -3.66717838e-002, -5.13774939e-002,
          -8.23640823e-002, -3.09858799e-001, 0., -1.93533182e-001,
          -4.91085619e-001, 1.93104092e-002, 0. ]
      - [ 6.24404252e-002, 9.62840378e-001, 9.96831238e-001,
          -9.68572915e-001, -3.14518631e-001, 0., 1.78965524e-001,
          3.33180904e-001, -9.90894794e-001, 0., 0., -8.17466319e-001,
          -9.95228291e-001, -9.87792552e-001, 0., 0., -7.79689014e-001,
          -9.85946834e-001, -9.88252640e-001, -2.41919458e-001,
          -1.08953454e-001, -9.16650951e-001, -9.66390967e-001,
          9.13536310e-001, 4.73930389e-001, 4.34565663e-001 ]
      - [ -8.66510570e-002, -4.37109513e-008, 3.33179921e-001, 0., 0.,
          0., 0., 0., 0., 0., 0., 0., 0., 0., 0., 0., 1.98346982e-003,
          9.83123258e-002, 0., 0., 0., -4.35511917e-002, 0.,
          2.65111983e-001, 9.61252093e-001, 0. ]
      - [ 6.42615417e-003, -1.55546173e-001, 3.61248180e-002,
          -1.43604586e-002, -5.83759770e-002, 4.02541496e-002,
          3.51808339e-001, 1.33676767e-001, -1.90573949e-002,
          -1.26284987e-001, -1.16221547e-001, 4.48287725e-001,
          2.45869532e-002, 1.77087203e-001, -1.04952104e-001,
          -5.69142163e-001, 1.89806730e-001, -1.35130391e-001,
          8.01998675e-002, 1.33871511e-001, -7.27773905e-001,
          3.77648026e-001, 1.09762706e-001, 1.97518673e-002,
          -6.33589089e-001, -3.14050689e-002 ]
      - [ 1.91249140e-002, -7.34984636e-001, 0., 0., 0., 8.57077420e-001,
          -5.90336800e-001, 0., 0., 0., 7.19064116e-001,
          -2.72991478e-001, -4.44071829e-001, 1.74479447e-002,
          6.54996932e-001, 1.51065260e-001, -1.00503922e-001,
          -5.18674478e-002, 6.23222766e-003, 2.46036395e-001,
          -9.99380827e-001, -1.74521767e-002, 0., 0., 0., 0. ]
      - [ 1.42764365e-002, 0., 0., 0., 0., 0., 0., 0., 0., 0., 0., 0.,
          0., 0., 0., 0., -1.84252560e-001, -9.95000526e-002,
          -1.04703447e-002, 1.42854437e-001, 2.29539305e-001,
          2.35701472e-001, 1.87490985e-001, -1.77542552e-001,
          -8.66736770e-002, 7.75918141e-002 ]
      - [ 1.78003795e-002, 0., 0., 0., -1.74257942e-002, 0.,
          -4.10701394e-001, -8.38662148e-001, -5.08444369e-001,
          9.79105234e-001, 0., 1.73551172e-001, 0., 1.30879451e-002, 0.,
          0., 1.36415198e-001, 0., -4.37109513e-008, 3.13824192e-002, 0.,
          -5.15032887e-001, 0., 0., 0., 0. ]
      - [ 3.07552386e-002, 0., 0., 0., 0., -5.62698305e-001, 0.,
          -2.03354470e-002, -2.45600455e-002, 0., 0., -1.58980712e-001,
          1.70061484e-001, -3.11013926e-002, -8.57039541e-002,
          3.46956670e-001, 2.68653601e-001, -8.49157497e-002,
          -4.42516096e-002, -1.43868610e-001, -1.19561546e-001,
          2.73978375e-002, 6.96403980e-002, 1.16296187e-002,
          -5.65967299e-002, 6.38945103e-002 ]
      - [ 1.87752228e-002, 3.73509675e-002, 4.77896184e-001,
          1.20483555e-001, -6.71482086e-001, 2.57425576e-001,
          6.68246865e-001, 6.47332489e-001, -1.34612918e-001,
          -5.92305541e-001, 4.60990965e-002, 4.20368165e-001,
          2.10344195e-001, -1.20722950e-002, -4.66171056e-001,
          7.27297291e-002, -4.37109513e-008, -6.79553971e-002,
          6.13075271e-002, 1.21868104e-001, -1.58298269e-001,
          -4.46178526e-001, -1.75277725e-001, 4.44394834e-002,
          2.33763769e-001, 4.84804720e-001 ]
      - [ -2.56054080e-003, 0., 0., 0., 6.60257161e-001, 1.73998386e-001,
          -5.58799326e-001, 0., 0., 6.16074681e-001, 4.02529150e-001,
          -4.52587828e-002, -3.96831721e-001, 1.38981730e-001,
          2.80840963e-001, -1.86068248e-002, -1.36316434e-001,
          -1.21361665e-001, 1.75369367e-001, 1.16911940e-002,
          1.21058486e-002, 1.10155411e-001, -3.86871845e-002,
          3.38216908e-002, 1.89470369e-002, -6.47131130e-002 ]
      - [ 4.26278450e-002, 0., 0., 0., 0., 0., -3.70914876e-001, 0., 0.,
          2.07784027e-001, 0., -2.61307329e-001, -6.91954270e-002,
          -3.17712240e-002, 7.83840194e-002, 2.15878949e-001,
          3.38242762e-002, 2.30963081e-002, 8.25476199e-002,
          7.25989565e-002, -2.41670859e-004, 3.84118944e-001, 0., 0., 0.,
          -3.08586657e-001 ]
      - [ 4.36094701e-002, 0., 0., 0., 0., -5.38861156e-001, 0., 0., 0.,
          0., 2.11797789e-001, 0., 0., 0., 0., 0., -5.40945530e-001,
          -2.56045043e-001, -3.21352303e-001, 0., -7.07104385e-001, 0.,
          -5.23354188e-002, -4.37109513e-008, 0., 0. ]
      - [ 2.86547821e-002, 1.26726419e-001, 2.79674586e-002,
          3.00229751e-002, 1.06782325e-001, -1.25540614e-001,
          -1.59032136e-001, 1.75333936e-002, -4.04959880e-002,
          -1.13368660e-001, 2.06423867e-002, 1.51957823e-002,
          -5.73549941e-002, 1.44956246e-001, -1.94891263e-002,
          -7.93397874e-002, 9.60926414e-002, -1.01775840e-001,
          1.59898475e-002, -3.07050526e-001, -1.73201129e-001,
          -3.34171243e-002, 1.91142157e-001, 3.67932953e-002,
          1.02984868e-001, -6.23211032e-003 ]
      - [ -5.37080050e-004, 0., 0., 0., 7.31883794e-002, 0., 0., 0.,
          3.79033744e-001, 7.62187839e-002, 0., 0., 3.94706696e-001,
          -1.68363117e-002, 1.72239512e-001, 0., 0., 9.65661034e-002,
          1.83066484e-002, -3.06316704e-001, 0., 0., -5.59893608e-001,
          4.03647870e-002, -1.58469200e-001, 0. ]
      - [ 4.05944772e-002, 0., 0., 0., 0., 0., 0., 0., 0., 0., 0.,
          -7.07099676e-001, -6.20493181e-002, 3.70371751e-002,
          2.61718873e-002, 1.90097559e-002, 4.18117680e-002,
          2.76012182e-001, -6.85363263e-003, 6.68940619e-002,
          -3.45256552e-002, 1.69365510e-001, 1.19647093e-001,
          4.77583446e-002, -7.38649130e-001, -4.43296880e-002 ]
      - [ -3.60497199e-002, 0., 0., 0., 0., 0., 0., 0., 0., 0., 0.,
          -3.21330398e-001, 0., 0., 0., 2.75634646e-001, 0.,
          -2.16364369e-001, 5.80816120e-002, 1.30520567e-001, 0., 0., 0.,
          0., 0., 0. ]
      - [ 7.08842184e-003, 0., 2.02602912e-002, 5.01949713e-003,
          -3.85799646e-001, 3.71730685e-001, 6.46359921e-001,
          -6.45866990e-002, -4.98411478e-003, -2.35701472e-001,
          -4.03798342e-001, 1.54730111e-001, 1.45935461e-001,
          4.80028018e-002, -7.07103252e-001, 9.89739001e-001,
          -1.07655481e-001, 1.01047531e-001, -7.08905682e-002,
          -2.41697412e-002, -2.09865391e-001, -7.07099676e-001,
          -7.48621225e-002, 8.11245218e-002, -1.52056336e-001,
          -9.95287150e-002 ]
      - [ -1.23331500e-002, 0., 0., 0., 0., 0., 0., 0., -5.83274007e-001,
          0., 0., 0., 7.22702324e-001, -9.78500962e-001,
          -5.95766902e-001, 0., -7.66639933e-002, -3.54526967e-001,
          -6.80219010e-002, 1.74154997e-001, 9.43438709e-002,
          -1.27555504e-001, 0., -5.22257984e-001, -7.47288689e-002,
          1.20581023e-001 ]
      - [ 1.71394590e-002, 4.10801202e-001, -3.04630995e-001,
          -6.37606144e-001, -5.69417536e-001, 9.90258157e-001,
          3.36345047e-001, -1.84672013e-001, -3.32666099e-001,
          -2.16237411e-001, -9.88029957e-001, -2.21632794e-002,
          4.01516743e-002, 1.68853357e-001, -3.09872534e-003,
          1.83327440e-002, 1.17572241e-001, -1.55049730e-002,
          1.13231786e-001, 2.75942478e-002, -4.27497208e-001,
          4.28517722e-002, -2.98143439e-002, -7.64035881e-002,
          -1.30520523e-001, 5.23304865e-002 ]
      - [ 2.76403110e-002, 3.49143356e-001, 6.15400188e-002,
          4.75459779e-003, -2.20823884e-001, -5.32148719e-001,
          3.79293063e-003, 8.89311358e-002, 2.17956747e-003,
          -1.35168344e-001, -2.18486916e-002, 1.82864353e-001,
          3.58523685e-003, 4.25734259e-002, -3.68860736e-002,
          -1.86225370e-001, 3.98731917e-001, 8.28528404e-001,
          -2.29901716e-001, 0., -4.37500268e-001, 0., 0.,
          -2.91929431e-002, 0., 0. ]
      - [ 6.26122877e-002, 2.69867569e-001, 2.18631044e-001,
          8.27526897e-002, -2.73070097e-001, 0., 1.81830540e-001,
          1.93608940e-001, 1.20137118e-001, -7.22613633e-002,
          -6.11683309e-001, -6.57150103e-003, 5.58383651e-002,
          -1.54217295e-002, 9.96316820e-002, 4.77728248e-003,
          -1.25530707e-002, -3.34944837e-002, 1.36937751e-002,
          4.80520837e-002, 1.28626870e-002, 1.07397228e-001,
          -2.51297224e-002, -3.73728089e-002, -1.09227180e-001,
          -1.36509359e-001 ]
      - [ 1.75921395e-001, 0., 0., 0., 0., 0., 0., 0., 0., 0., 0., 0.,
          0., 0., 0., 0., 0., 0., 0., 0., 0., 1.16331363e-002, 0., 0.,
          -2.61718836e-002, -9.97164659e-003 ]
      - [ -1.23494798e-002, -6.29314005e-001, 0., 0., 0., 0., 0., 0., 0.,
          0., 0., -4.56221461e-001, -4.89705622e-001, 0., 0., 0.,
          9.68639255e-001, 0., -4.33888793e-001, -7.07099676e-001,
          7.07103252e-001, 0., 0., -1.74470488e-002, 9.77993831e-002, 0. ]
      - [ 3.43130156e-002, -4.37109513e-008, 3.68708313e-001, 0.,
          -1.85268819e-001, -5.03775299e-001, 0., 0., 0., 0.,
          -7.07099676e-001, 0., 0., 0., -9.92999613e-001, 0., 0.,
          -3.48991118e-002, 2.24342030e-002, 1.67876229e-001,
          2.71348149e-001, 0., 0., 0., 0., 0. ]
      - [ 4.07314338e-002, 0., 0., 0., 0., 0., -1.10045083e-001, 0.,
          1.12394370e-001, 1.04527377e-001, 0., 1.04092747e-001,
          -1.99108854e-001, 0., -1.97691858e-001, -2.86542833e-001,
          1.97297782e-001, 1.37936786e-001, 0., 2.13388085e-001,
          -1.03429906e-001, 1.85629681e-001, 1.90768376e-001,
          2.09679641e-003, 1.38226956e-001, -6.64199814e-002 ]
      - [ 1.33623732e-002, 0., 0., 0., 0., 0., -3.66347313e-001,
          1.64720014e-001, -9.74714234e-002, -7.07905367e-002,
          -1.27973825e-001, 6.48051053e-002, -5.21396212e-002,
          -8.40680450e-002, 4.22101393e-002, 2.49144416e-002,
          1.22652590e-001, 1.05906092e-002, 2.73144692e-002,
          8.50781333e-003, 1.75756484e-001, 1.05508849e-001,
          3.13817561e-002, 1.21007822e-001, 2.09148955e-002,
          -1.51096098e-003 ]
      - [ 5.90047613e-002, 0., 3.78262103e-001, 0., 0., -7.68936723e-002,
          -1.65360104e-002, -1.10188372e-001, -2.74729997e-001, 0.,
          -4.12866801e-001, 1.71653852e-002, 3.28253210e-003,
          -1.11322545e-001, -4.60088290e-002, 8.08404293e-003, 0.,
          -1.38409972e-001, 0., 0., 5.37879691e-002, 0., 0., 0.,
          -7.07103252e-001, -4.12299633e-001 ]
      - [ 1.34251099e-002, 2.96795011e-001, 1.17883205e-001,
          1.24190323e-001, 7.57852495e-002, -7.07099676e-001,
          -1.38702933e-002, -1.49612769e-001, 8.34878683e-002,
          5.07632030e-005, 0., 4.36546877e-002, -4.15324867e-002,
          3.43764126e-001, -2.04720378e-001, 7.07099676e-001,
          2.40649641e-001, 4.67854977e-001, -2.06736565e-001,
          -1.22199774e-001, 0., -1.15640625e-001, -2.09375359e-002,
          1.06760249e-001, 3.02667826e-001, 0. ]
      - [ 5.07644154e-002, 8.34752679e-001, -6.09567642e-001,
          7.30501831e-001, 0., 0., -6.44463301e-002, -7.68068314e-001,
          -3.61244231e-002, -2.12353274e-001, 0., 9.70286012e-001,
          7.67491102e-001, -2.94979781e-001, 1.19497992e-001, 0.,
          6.11759841e-001, 4.24430519e-001, 5.30141711e-001,
          2.92330831e-001, -3.31101775e-001, -1.60332158e-001,
          5.16369283e-001, -9.06678736e-002, -7.47424588e-002,
          6.77108347e-001 ]
      - [ 3.65701653e-002, -7.07099676e-001, -1.82096153e-001,
          7.57026374e-002, -6.72782212e-002, -6.47002086e-002,
          -1.47920936e-001, -1.48897603e-001, -9.00932625e-002,
          -2.14971416e-002, 1.99535772e-001, -2.49580499e-002,
          -7.07591921e-002, -1.95656702e-001, 8.12482089e-002,
          5.29288799e-002, 1.69831857e-001, -8.18846077e-002, 0.,
          1.57134414e-001, -8.77956022e-003, 2.41919488e-001,
          -4.48823720e-001, 7.07099676e-001, 4.26450580e-001,
          -1.83142737e-001 ]
      - [ 2.22021621e-003, 0., 0., 2.16417313e-001, -7.82468766e-002, 0.,
          0., 0., 7.07099676e-001, 0., 0., 1.75339524e-002,
          1.06114438e-002, -8.14729035e-002, 5.84719814e-002,
          -4.63655517e-002, -9.32568088e-002, 1.49806365e-001,
          -9.22336951e-002, 7.40356371e-002, -7.43307397e-002,
          -4.46098149e-002, 1.92106906e-002, -5.83244823e-002,
          6.37927726e-002, -1.43415317e-001 ]
      - [ -2.37495732e-002, 4.69481163e-002, -6.39258444e-001, 0.,
          -7.07099676e-001, -4.39718962e-002, -1.89857837e-002,
          6.41317904e-001, 0., 4.84486580e-001, 4.65148017e-002,
          -5.60003053e-003, 0., 0., 0., 0., 0., 0., 0., 0., 0., 0., 0.,
          0., 0., -5.31457784e-003 ]
      - [ 4.61570062e-002, -1.98686182e-001, -2.99747854e-001,
          3.25026929e-001, -4.37109513e-008, 0., -1.80168793e-001,
          1.82730719e-001, -3.61773334e-002, -1.38712138e-001,
          2.79176742e-001, 4.57503349e-001, 6.40338421e-001,
          1.70007080e-001, 2.46038780e-001, 2.64355868e-001, 0.,
          4.08849686e-001, -1.08344063e-001, -3.65063727e-001,
          -9.93319973e-002, 6.08735204e-001, -1.22266583e-001,
          9.89785194e-002, -4.13424253e-001, 7.63125598e-001 ]
      - [ 6.21819720e-002, 0., 0., 0., 0., 0., -2.24948749e-001, 0., 0.,
          0., 0., -1.21949822e-001, -1.01912245e-002, 9.68507770e-003,
          1.87137667e-002, 2.16615237e-002, -1.73629969e-001,
          -2.79173963e-002, 2.36037150e-002, -3.48780863e-002,
          -8.70493278e-002, 0., 0., 1.71325833e-001, 4.65142019e-002,
          7.55026698e-001 ]
      - [ 6.68276772e-002, 0., 1.41206428e-001, -1.14206430e-002,
          2.07909569e-001, 0., 1.86979845e-001, -2.39329189e-002,
          1.03387177e-001, 3.58995087e-002, -1.26239732e-001,
          -5.75322658e-003, 4.86974791e-002, -8.73917621e-003,
          -5.77596985e-002, 8.60701111e-005, 1.08292006e-001,
          -2.45165117e-002, -2.49965135e-002, -3.44082452e-002,
          -9.89986584e-002, -1.64884087e-002, -3.77432071e-002,
          3.22119072e-002, 3.91210392e-002, -5.68752363e-002 ]
      - [ 8.98231342e-002, 4.89988029e-001, -7.00879037e-001, 0., 0., 0.,
          -3.34331751e-001, -6.83625638e-001, 2.21393079e-001, 0., 0.,
          -2.03505561e-001, -2.82537222e-001, 2.49204095e-002,
          -9.94417608e-001, 0., -4.86218333e-002, -2.83001870e-001,
          7.07099676e-001, -4.34476696e-002, 2.83676326e-001,
          -6.97557777e-002, -3.84925246e-001, 0., -1.90322194e-002,
          7.40641952e-002 ]
      - [ 1.85801908e-002, 0., -2.10268140e-001, -8.93873423e-002,
          -7.51574114e-002, -2.18976885e-001, 3.62562001e-001,
          4.81350601e-001, 1.46084428e-001, -3.83594744e-002,
          -2.69676745e-002, 4.23054188e-001, -9.58272740e-002,
          7.68767148e-002, -2.28022352e-001, 1.32631451e-001,
          7.07104385e-001, 3.12260166e-002, 0., -6.01287000e-002,
          -6.59243390e-002, 0., -1.38363481e-001, 6.40338421e-001,
          -2.07387716e-001, -5.36632650e-002 ]
      - [ 1.16175590e-002, 0., 0., 0., 0., 0., 0., 6.74365535e-002, 0.,
          0., -2.46184561e-002, 0., 2.95801103e-001, -3.28165740e-001,
          3.48991454e-002, 3.88429701e-001, -2.81389982e-001,
          -1.47650942e-001, -3.99083868e-002, 6.75974041e-002,
          1.47667348e-001, 0., 0., 9.92999673e-001, 3.48940045e-002, 0. ]
      - [ 5.35061918e-002, 7.07099676e-001, 0., -1.82227701e-001, 0., 0.,
          8.19584846e-001, 0., 0., -3.50192279e-001, 0.,
          -6.15650713e-001, 9.70170021e-001, 9.53679442e-001, 0.,
          -9.10228252e-001, -2.58661002e-001, -1.82200596e-001,
          -8.70671645e-002, 5.61858751e-002, 3.33372355e-001,
          7.85838949e-009, 4.84611094e-001, 1.66112129e-002,
          2.28618339e-001, 6.32001340e-001 ]
      - [ 1.35295633e-002, 0., 0., 0., 0., 4.69397694e-001,
          -2.41919458e-001, -5.79974800e-003, -4.34172034e-001, 0.,
          3.11863452e-001, 4.36042286e-002, -2.41919458e-001,
          -1.04527466e-001, -1.36260152e-001, 4.54919189e-002, 0., 0.,
          -3.33593607e-001, -6.90385327e-002, 2.18008477e-002, 0., 0.,
          0., 1.97159067e-001, -2.31236909e-002 ]
      - [ 4.05951850e-002, 0., 0., 0., 0., 0., 0., 7.07103252e-001, 0.,
          0., 0., 0., 0., 0., 0., 0., -5.37276506e-001, 0.,
          -3.48640345e-002, 2.12982297e-002, 1.51797786e-001,
          -4.90775168e-001, -1.53601076e-002, -5.95204122e-002,
          -2.18004227e-001, 1.33290291e-001 ]
      - [ 5.56022786e-002, 0., -7.61070997e-002, -3.33078414e-001, 0.,
          0., 9.39544797e-001, 9.92390037e-001, -3.98075670e-001,
          4.61499035e-001, 0., 9.99690413e-001, 1.13950089e-001,
          -9.67323929e-002, -4.33254149e-003, -9.98619497e-001,
          -9.45419431e-001, -2.61757765e-002, -1.36266634e-001, 0.,
          9.43382025e-001, 0., -6.90296292e-001, 3.76783937e-001, 0., 0. ]
      - [ 2.04352830e-002, 0., -8.47592130e-002, 0., -4.36691105e-001,
          0., 1.75057530e-001, 6.39134496e-002, -9.26426202e-002,
          -1.33636355e-001, 0., 0., 1.74522083e-002, -1.42044052e-001,
          -2.26645976e-001, -2.41166323e-001, 0., -9.93267074e-002, 0.,
          4.60050821e-001, 0., 0., -5.72736084e-001, 2.89595462e-002,
          -3.74602854e-001, 0. ]
      - [ 5.40145300e-002, -3.50058883e-001, 5.46386361e-001,
          1.55377656e-001, -2.00973019e-001, 1.41421065e-001,
          -6.39313519e-001, -9.53386605e-001, 0., 0., 2.49499129e-003,
          -7.20093846e-001, -9.31819618e-001, 0., 4.03375685e-001,
          6.57589138e-001, -8.83442461e-001, -8.48775685e-001,
          -8.15290689e-001, -2.90728420e-001, 6.43391013e-001,
          1.44505024e-001, -3.88183683e-001, 9.13263783e-002,
          -5.15124023e-001, -1.95579469e-001 ]
      - [ 9.67013463e-003, 0., 7.07103252e-001, -3.19710672e-001,
          -4.55261558e-001, 3.53552490e-001, 1.69609278e-001,
          2.87872970e-001, 3.23670059e-001, 3.90400551e-002,
          -3.26564312e-001, -7.07103252e-001, -7.07104385e-001,
          7.07103252e-001, 0., 0., 0., 0., 1.04527377e-001, 0., 0., 0.,
          0., 0., 0., 0. ]
      - [ -4.92804646e-002, -4.37109513e-008, -7.13219702e-001,
          -2.35701859e-001, 0., 2.41919488e-001, 0., 0.,
          -7.03992903e-001, -4.54545096e-002, 0., 0., 0.,
          3.30730140e-001, 2.49168843e-001, 0., 1.36153042e-001,
          1.66869789e-001, 2.91025817e-001, 6.11381471e-001, 0.,
          -3.34300427e-003, 1.57973334e-001, 2.10741594e-001,
          6.61179245e-001, 0. ]
      - [ 3.93946990e-002, 4.99994963e-001, 0., 0., 2.67226905e-001,
          2.30544992e-002, -2.15483174e-001, 0., 2.84003884e-001,
          2.58802772e-001, 0., 0., -1.74521767e-002, 0., 0.,
          3.05270087e-002, -7.46516790e-003, 2.22483829e-001,
          8.55937786e-003, 4.81013060e-002, -7.48118609e-002,
          1.02118425e-001, -6.71353638e-002, -2.15758964e-001,
          -3.14298458e-002, -1.28546041e-002 ]
      - [ -8.01175088e-003, 0., 0., 0., 0., 0., 0., 0., 0., 0.,
          9.71117616e-002, 0., 0., 0., 1.49450913e-001, 2.95262467e-002,
          -6.46645427e-002, -1.97058320e-001, 3.92524928e-001,
          -7.30313137e-002, 3.07012722e-003, -4.00676206e-002,
          8.06872994e-002, -4.37898636e-002, -4.01406884e-002,
          7.13391276e-003 ]
      - [ 2.90630367e-002, 7.61445554e-005, -4.37109513e-008,
          -4.37109513e-008, -4.37109513e-008, 9.99918878e-001,
          3.33332211e-001, 7.07099676e-001, 0., 0., 7.61445554e-005,
          -1.00819327e-001, -9.00125086e-001, 0., 8.53194416e-001,
          3.33104372e-001, 1.99999601e-001, 8.32460105e-001,
          -1.72364444e-001, -5.16435564e-001, 3.33332211e-001, 0.,
          9.13536310e-001, -1.39394176e-008, -8.86972606e-001,
          7.61445554e-005 ]
      - [ 4.85047214e-002, -4.37109513e-008, 0., 0., 0., 0., 0., 0.,
          -3.88991505e-001, 0., 0., 0., -5.79333365e-001,
          -7.07099676e-001, 0., 0., -4.92402345e-001, 0.,
          -6.59611881e-001, -7.07099676e-001, 0., 0., -3.46152008e-001,
          -5.10131657e-001, -1.80342555e-001, -3.94571096e-001 ]
      - [ -2.22536877e-001, 0., 0., 0., 0., 0., 0., 0., -6.30612850e-001,
          9.99918878e-001, 0., 0., 0., 0., 0., 0., 0., 0., 0., 0., 0.,
          0., 0., -9.59411442e-001, 0., 0. ]
      - [ 5.06773107e-002, 1.73065782e-001, -7.30261952e-002,
          -1.94927275e-001, 0., 4.76020038e-001, 9.31792557e-002,
          -5.72872944e-002, -6.47628531e-002, 1.11306816e-001,
          2.22457200e-001, -2.21393369e-002, 2.12264135e-001,
          2.52921879e-001, -1.21160597e-001, 6.25660300e-001,
          1.75530072e-002, 3.40485901e-001, -6.50830865e-002,
          -3.40876691e-002, -2.31633596e-002, 5.29243238e-002,
          -1.18211396e-001, -4.01690975e-002, 1.11212470e-001,
          6.91998780e-001 ]
   decision_functions:
      -
         sv_count: 198
         rho: 1.0918305526161642e+000
         alpha: [ 1.2572356244098088e+001, 2.1368116431793891e+000,
             7.0095455797883721e+000, 1.1558528425907491e+000,
             1.6569152433495062e+000, 2.2823496695169748e+001,
             2.1320845513700886e+000, 1.0006178708383299e+001,
             2.1059660684523474e+000, 9.5135265792064363e+000,
             9.9972633870122507e-001, 3.7563529864991518e+000,
             2.6659095064175204e+000, 1.9761625054812178e+001,
             2.4201553828106595e+000, 6.2224180956170336e+000,
             2.7456077115565676e+000, 1.2003426364679535e+000,
             1.0847108832615082e+002, 2.5390075787731480e+001,
             2.0079367579149396e+000, 6.2371070657550796e+001,
             4.5890042049323547e+001, 2.8718049779511654e+000,
             2.3521741521830677e+001, 2.1574839986466539e+000,
             1.1523951967942127e+001, 2.0171318659676221e+001,
             3.7797690175379990e+000, 9.3406857488230244e+001,
             1.7549601994876016e+000, 1.2719670423488688e+001,
             4.1986557364396706e+000, 4.5105420123701458e+000,
             1.1417352671892797e+001, 9.8811449460240102e+000,
             1.6625958441979154e+001, 4.0885944959100655e+000,
             2.2979341919300387e+000, 2.7130045376728251e+000,
             4.2139364480998331e-001, 2.2016676077327912e+000,
             1.6258618948825085e+000, 6.7805392458576885e-001,
             1.9019151308658409e+000, 9.0729994664456477e+000,
             2.0689314107910319e+000, 1.8888490001609153e+001,
             2.1562034848143532e+000, 1.7903282329833765e+001,
             1.7229742097723526e+000, 9.7495423626275244e+000,
             3.2550138893202227e+000, 2.9654948494675847e+002,
             2.0375038630635447e+000, 6.6261624798327944e+001,
             3.2338056322091262e+001, 2.2729308192683515e+000,
             3.7483674697154559e+000, 1.0510915778623109e+000,
             2.0228829612441546e+000, 9.4673545740159737e-001,
             2.4138281961652632e+000, 4.1347325976090637e+001,
             4.9716425719745153e+001, 2.4626289961466476e+001,
             4.3798435089449637e+000, 5.1169761571645278e+000,
             8.0038092421524016e+000, 3.4927418287666168e+000,
             1.0440964073713905e+001, 1.7633151535886707e+001,
             2.2265464031905928e+000, 2.3243947007683246e+000,
             2.1359686845695092e+000, 2.5665143188368420e+000,
             8.6217593367617318e-001, 4.8079498728708536e+001,
             1.3096138459145745e+001, 5.9691943156321594e+000,
             2.2257491026440070e+000, 4.3484815522205009e+000,
             2.1428498813878796e+000, 1.0476263631438316e+002,
             1.2326550894045022e+001, 1.6904024033388716e+000,
             1.2313908688819479e+000, 2.1594577269299502e+000,
             5.4178300808909885e-001, -1.5427752728372555e+001,
             -8.5498828817879385e+001, -1.1495280901636589e+000,
             -2.1333453769787893e+000, -6.0797642388798034e-002,
             -3.4357690194731433e-001, -3.8770473909075442e+000,
             -4.4016723570956817e-002, -3.5633362987176747e+000,
             -1.2702578110707407e+001, -1.9025443199972989e+000,
             -3.1250000000000000e+002, -2.7609991148463289e+000,
             -3.9576724414232141e+000, -4.0413365718207679e+000,
             -7.3117519970228462e-001, -4.2093829372916997e-001,
             -2.3980521649388692e+001, -1.5610667619152363e-001,
             -1.2923123872480886e+000, -3.0479223090102110e+001,
             -1.4155532515184519e+000, -8.5256764436778987e-001,
             -3.4006951317041079e+000, -5.1526070264729231e+000,
             -2.3205681622062433e+000, -2.1124799423019835e+000,
             -1.3975090125623410e+002, -1.7441263018654361e+001,
             -1.8693129369682588e+001, -4.1954174438717047e+000,
             -7.6180268936882012e+000, -5.9530936480055974e-002,
             -1.9091325136742860e+000, -2.1135447997539081e-002,
             -3.1616348205873855e+001, -4.0782659301205095e+000,
             -4.8448375180749892e-001, -1.6132460180040988e+000,
             -3.0184893825762749e+000, -6.8507843902380223e+000,
             -1.3829705687803580e+000, -3.2783740784121441e+001,
             -4.0969523041187736e+000, -1.6647437262269260e-001,
             -2.0417438722089400e+000, -1.1459917514734599e+001,
             -3.3277208714978146e-001, -6.7994398183379290e-001,
             -3.5008619075691811e+000, -2.4129188819851644e-001,
             -1.9634647826888080e-001, -1.4875727627997989e+001,
             -1.3129527254601521e+000, -1.1411295053183235e+001,
             -3.0464216627056162e-001, -1.7899081227243602e+001,
             -3.2621809187402984e+000, -1.7377331682748709e-001,
             -8.1251818485665037e+000, -2.1590828866818856e-001,
             -2.2466177625740080e-001, -1.0693302468342956e+000,
             -7.7152876894522371e-001, -8.7851690656592147e+000,
             -7.1431069859724106e-001, -1.9528512769065154e+000,
             -5.3807233105530861e+000, -7.0348445503768406e+000,
             -2.0664725992030743e+001, -1.1645696743439313e+001,
             -1.1232037312630763e+000, -4.9110931097309525e+001,
             -1.0897616853321255e+000, -1.0847134087131929e+000,
             -2.8148510521509962e-002, -1.9875328467521689e+000,
             -1.9772709890809335e+000, -2.3866631488524172e+002,
             -1.0426930545329072e+000, -1.1029821321689970e+000,
             -2.2484035655094658e+001, -2.7062678707706809e+001,
             -6.8310446143076931e+000, -2.4966865369561431e-001,
             -3.6880275350909653e-002, -2.0121617374177196e+000,
             -1.6374169455944219e+001, -4.4456588668609553e+000,
             -1.4761409022718666e+000, -2.1574113614938506e+000,
             -7.3598155523780576e+001, -6.4270670718155209e-001,
             -1.9856240229800992e+000, -7.8856615197713598e-001,
             -1.7930440117885360e-001, -1.0938659172310338e+001,
             -5.0015631127660498e-002, -3.4701793167628825e-001,
             -2.4698804102845022e+000, -2.3285438981903694e-001,
             -1.0327902028829605e+000, -1.7964189055253472e+000,
             -5.9103730062236473e+000, -1.3184392029800319e+001,
             -4.7787663919634360e-001, -3.8387448966748812e+000,
             -3.1827916372763578e+000, -4.0564886698417748e+000 ]
         index: [ 0, 1, 2, 3, 4, 5, 6, 7, 8, 9, 10, 11, 12, 13, 14, 15,
             16, 17, 18, 19, 20, 21, 22, 23, 24, 25, 26, 27, 28, 29, 30,
             31, 32, 33, 34, 35, 36, 37, 38, 39, 40, 41, 42, 43, 44, 45,
             46, 47, 48, 49, 50, 51, 52, 53, 54, 55, 56, 57, 58, 59, 60,
             61, 62, 63, 64, 65, 66, 67, 68, 69, 70, 71, 72, 73, 74, 75,
             76, 77, 78, 79, 80, 81, 82, 83, 84, 85, 86, 87, 88, 89, 90,
             91, 92, 93, 94, 95, 96, 97, 98, 99, 100, 101, 102, 103, 104,
             105, 106, 107, 108, 109, 110, 111, 112, 113, 114, 115, 116,
             117, 118, 119, 120, 121, 122, 123, 124, 125, 126, 127, 128,
             129, 130, 131, 132, 133, 134, 135, 136, 137, 138, 139, 140,
             141, 142, 143, 144, 145, 146, 147, 148, 149, 150, 151, 152,
             153, 154, 155, 156, 157, 158, 159, 160, 161, 162, 163, 164,
             165, 166, 167, 168, 169, 170, 171, 172, 173, 174, 175, 176,
             177, 178, 179, 180, 181, 182, 183, 184, 185, 186, 187, 188,
             189, 190, 191, 192, 193, 194, 195, 196, 197 ]
