%YAML:1.0
my_svm: !!opencv-ml-svm
   svm_type: C_SVC
   kernel: { type:RBF, gamma:3.3750000000000002e-02 }
   C: 1.2500000000000000e+01
   term_criteria: { epsilon:1.1920928955078125e-07, iterations:1000 }
   var_all: 694
   var_count: 694
   class_count: 2
   class_labels: !!opencv-matrix
      rows: 1
      cols: 2
      dt: i
      data: [ 0, 1 ]
   sv_total: 244
   support_vectors:
      - [ 0., 2.04366520e-02, 7.56044462e-02, 1.69523701e-01,
          3.71824235e-01, 6.78318143e-01, 9.71578538e-01, 1.,
          8.64984095e-01, 6.60338402e-01, 3.19950849e-01, 3.89189795e-02,
          1.66955162e-02, 1.71589702e-01, 2.21899599e-01, 0.,
          1.96078438e-02, 1.10826939e-01, 2.08013639e-01, 4.69735712e-01,
          8.12446713e-01, 9.81244683e-01, 1., 9.14748490e-01,
          7.37425387e-01, 4.95311171e-01, 1.06564365e-01, 9.71866995e-02,
          2.49786869e-01, 5.06393850e-01, 2.80851066e-01, 5.53191490e-02,
          1.44680858e-01, 1.31914899e-01, 2.51063824e-01, 2.89361715e-01,
          3.95744681e-01, 4.63829786e-01, 3.06382984e-01, 3.19148928e-01,
          0., 2.97872350e-02, 2.25531921e-01, 2.55319148e-01, 1.,
          2.06876956e-02, 5.75163402e-02, 1.53054848e-01, 3.94316554e-01,
          8.02330196e-01, 1., 8.75760138e-01, 7.57999420e-01,
          5.58567762e-01, 3.51520330e-01, 2.54845113e-01, 1.18556410e-01,
          0., 9.22421142e-02, 3.49928945e-01, 4.28816443e-03,
          6.43224716e-02, 1.71526581e-01, 4.89708394e-01, 9.34819877e-01,
          1., 8.67066920e-01, 8.07032585e-01, 5.83190382e-01,
          3.65351617e-01, 2.77873069e-01, 1.54373929e-01, 0.,
          1.94682673e-01, 6.33790731e-01, 1.96172252e-01, 6.22009560e-02,
          2.05741629e-01, 2.48803824e-01, 5.40669858e-01, 4.97607648e-01,
          2.05741629e-01, 3.87559801e-01, 9.56937820e-02, 2.15311006e-01,
          1.62679419e-01, 9.56937820e-02, 0., 2.87081331e-01, 1., 0., 0.,
          0., 0., 0., 2.55826453e-05, 6.90731395e-04, 2.73043573e-01, 1.,
          9.57609534e-01, 7.30768263e-01, 4.31323387e-02, 6.90731395e-04,
          0., 0., 0., 0., 0., 0., 0., 2.25886601e-04, 2.71063927e-03,
          4.70521808e-01, 1., 6.78111613e-01, 6.51682854e-01,
          7.97379687e-02, 2.48475256e-03, 0., 0., 3.06278723e-03,
          3.06278723e-03, 3.06278723e-03, 3.06278723e-03, 3.06278723e-03,
          3.82848387e-03, 9.95405857e-03, 5.05359888e-01, 1.,
          4.31087285e-01, 4.60183769e-01, 0., 5.35987737e-03,
          3.06278723e-03, 3.06278723e-03, 0., 9.91866691e-05,
          1.60682406e-02, 2.29121193e-01, 8.58956516e-01, 1.,
          7.58381248e-01, 7.44346321e-01, 9.09740090e-01, 8.01725745e-01,
          3.87274325e-01, 1.20958142e-01, 5.45526680e-04, 0., 0., 0.,
          3.84172105e-04, 2.26661544e-02, 2.30887443e-01, 7.84479439e-01,
          1., 6.78063750e-01, 7.34537065e-01, 9.32385683e-01,
          7.53745675e-01, 5.47829449e-01, 2.16673076e-01, 1.15251634e-03,
          0., 0., 0., 8.96860962e-04, 2.69058291e-02, 3.57847542e-01,
          9.21076238e-01, 9.21973109e-01, 7.09417045e-01, 9.48878944e-01,
          9.51569498e-01, 1., 8.56502235e-01, 1.65022418e-01,
          1.79372192e-03, 0., 0., 3.46309058e-02, 1.27321379e-02,
          1.79034639e-02, 2.63152469e-04, 1.28400730e-04, 2.16068685e-04,
          2.14191692e-04, 2.03621996e-04, 2.79129774e-04, 3.06570029e-04,
          3.05149471e-04, 5.80565538e-04, 9.71164700e-05, 2.30998988e-03,
          1.33311506e-02, 4.61104000e-03, 8.28444120e-03, 2.20800261e-03,
          5.29173948e-03, 1.39710922e-02, 1.48843756e-04, 2.95278587e-04,
          3.89452849e-04, 3.99794953e-04, 8.78183870e-04, 7.42894830e-04,
          6.29072369e-04, 3.07417271e-04, 3.81836575e-03, 1.01167047e-02,
          7.62291346e-03, 1.36781549e-02, 2.06527263e-02, 1.36989343e-03,
          3.68870073e-03, 5.31043531e-03, 1.09634269e-02, 5.06668258e-03,
          1.36936447e-04, 3.32285627e-03, 4.03739465e-03, 7.01792212e-03,
          6.25752425e-03, 6.33793836e-03, 4.62436071e-03, 4.13770461e-03,
          1.20793926e-02, 1.08882338e-02, 1.40227312e-02, 2.34670076e-03,
          1.31068157e-03, 2.03247881e-03, 3.35045299e-03, 4.55496786e-03,
          3.64170573e-03, 1.27535302e-03, 3.33872886e-04, 5.39813307e-04,
          1.03106874e-03, 1.17579661e-03, 1.00345612e-02, 1.15127647e-02,
          8.86562001e-03, 9.80882905e-03, 6.90142205e-03, 3.63988918e-03,
          2.82328902e-03, 4.96031716e-03, 1.00314496e-02, 3.22870282e-03,
          2.63483683e-03, 1.01814605e-03, 3.75971606e-04, 1.96333462e-03,
          2.06164387e-03, 5.79524413e-03, 8.15427024e-03, 1.19201532e-02,
          8.12539738e-03, 1.72815062e-02, 1.04972031e-02, 3.84608400e-03,
          2.33138213e-03, 2.95422645e-03, 1.15481056e-02, 1.06256381e-02,
          1.32262462e-03, 1.53286033e-03, 3.60180112e-03, 3.80378147e-03,
          3.59103526e-03, 8.31627287e-03, 1.25530995e-02, 1.20513560e-02,
          1.05705457e-02, 1.48796439e-02, 5.21452352e-03, 3.93515173e-03,
          2.39522010e-03, 8.35642777e-03, 1.89288543e-03, 7.58308452e-03,
          6.47632219e-03, 4.04684432e-03, 5.26365591e-03, 7.31312390e-03,
          1.51473545e-02, 9.19629820e-03, 1.07078999e-02, 1.00637227e-02,
          1.26522519e-02, 1.76840536e-02, 1.39873028e-02, 4.34144773e-03,
          2.95200385e-03, 4.47669718e-03, 5.57280891e-03, 4.86402260e-03,
          5.17790858e-03, 6.48295507e-03, 2.66840798e-03, 1.33362077e-02,
          1.21212471e-02, 6.13516429e-03, 8.08922108e-03, 7.91930966e-03,
          1.29896151e-02, 7.39155244e-03, 1.13747865e-02, 3.65762948e-03,
          4.18292824e-03, 5.51491510e-03, 5.55979041e-03, 8.88829306e-03,
          7.12657301e-03, 3.75562720e-03, 2.83322902e-03, 5.50261745e-03,
          9.49214678e-03, 1.20343417e-02, 6.02301164e-03, 7.56014045e-03,
          9.02225450e-03, 1.13187870e-02, 1.59070212e-02, 2.76217307e-03,
          3.06372880e-03, 3.89734027e-03, 1.05194319e-02, 6.78117713e-03,
          4.41099983e-03, 4.67914622e-03, 4.99858195e-03, 1.04695400e-02,
          2.29342747e-02, 1.94195937e-02, 8.34604632e-03, 9.31674615e-03,
          8.57315119e-03, 1.07355006e-02, 1.10895997e-02, 6.94100326e-03,
          1.10137956e-02, 8.99463613e-03, 1.93315221e-03, 2.77793384e-03,
          8.63466412e-03, 8.68333783e-03, 6.21114811e-03, 1.50596369e-02,
          1.62351355e-02, 2.40134094e-02, 1.50101008e-02, 1.27561539e-02,
          8.46941210e-03, 9.95081943e-03, 5.19975414e-03, 1.37369223e-02,
          1.12888152e-02, 1.12851094e-02, 5.12005202e-03, 1.12904198e-02,
          8.21147393e-03, 5.06823184e-03, 8.41306895e-03, 9.48673487e-03,
          9.17508360e-03, 1.89901665e-02, 1.60652697e-02, 1.50517542e-02,
          1.24287168e-02, 1.03912884e-02, 1.40902502e-02, 6.41183928e-03,
          1.21351406e-02, 1.39461597e-02, 7.15046423e-03, 1.44432457e-02,
          6.92994706e-03, 8.89400486e-03, 4.49237088e-03, 8.06484465e-03,
          4.34549106e-03, 2.30478905e-02, 1.46624139e-02, 1.48518272e-02,
          1.26901045e-02, 1.72300953e-02, 2.60837357e-02, 1.32970037e-02,
          2.05540974e-02, 1.13780377e-02, 2.03070883e-02, 2.25793570e-02,
          6.67139562e-03, 8.72258190e-03, 1.22866165e-02, 1.39245819e-02,
          1.39799584e-02, 1.28764668e-02, 2.12885421e-02, 1.63923316e-02,
          2.15210281e-02, 2.11768933e-02, 2.07235124e-02, 1.23637542e-02,
          6.33538375e-03, 1.20308474e-02, 1.20675396e-02, 7.41695566e-03,
          5.67542808e-03, 5.22430008e-03, 1.85428392e-02, 5.48911747e-03,
          4.34788270e-03, 7.19864666e-03, 9.01087001e-03, 1.54362693e-02,
          2.21507009e-02, 6.70203147e-03, 2.56880708e-02, 4.11988562e-03,
          5.13390359e-03, 9.89352074e-03, 1.34416427e-02, 6.24875119e-03,
          9.94094834e-03, 1.25755677e-02, 1.28174815e-02, 1.03467330e-02,
          7.50942109e-03, 6.71612239e-03, 1.75685994e-02, 6.32557133e-03,
          4.77442378e-03, 1.66502260e-02, 1.92093309e-02, 9.82034028e-01,
          9.81566846e-01, 9.14746523e-01, 8.82488489e-01, 8.77880156e-01,
          8.43317986e-01, 8.82488489e-01, 9.00921643e-01, 8.50230396e-01,
          8.75576019e-01, 9.05529976e-01, 8.70967746e-01, 8.54838729e-01,
          8.94009233e-01, 9.79262650e-01, 9.83870983e-01, 9.95391726e-01,
          9.76958513e-01, 9.90783393e-01, 9.60829496e-01, 9.05529976e-01,
          9.19354856e-01, 9.12442386e-01, 8.59447002e-01, 8.64055276e-01,
          8.89400899e-01, 9.21658993e-01, 9.07834113e-01, 9.17050719e-01,
          9.70046103e-01, 9.88479257e-01, 9.95391726e-01, 1.,
          9.72350240e-01, 9.86175120e-01, 9.95391726e-01, 9.70046103e-01,
          9.58525360e-01, 9.40092146e-01, 9.56221223e-01, 9.44700480e-01,
          9.44700480e-01, 9.81566846e-01, 9.74654377e-01, 9.83870983e-01,
          9.86175120e-01, 9.93087530e-01, 9.93087530e-01, 9.88479257e-01,
          9.90783393e-01, 9.81566846e-01, 9.86175120e-01, 9.88479257e-01,
          9.81566846e-01, 9.60829496e-01, 9.23963130e-01, 8.94009233e-01,
          9.21658993e-01, 9.67741907e-01, 9.90783393e-01, 9.86175120e-01,
          9.97695863e-01, 9.93087530e-01, 9.95391726e-01, 9.93087530e-01,
          9.88479257e-01, 9.95391726e-01, 9.97695863e-01, 9.90783393e-01,
          9.90783393e-01, 9.74654377e-01, 9.21658993e-01, 9.51612890e-01,
          9.67741907e-01, 9.79262650e-01, 9.88479257e-01, 9.95391726e-01,
          9.93087530e-01, 9.93087530e-01, 9.93087530e-01, 9.93087530e-01,
          9.93087530e-01, 9.93087530e-01, 9.95391726e-01, 9.95391726e-01,
          9.90783393e-01, 9.67741907e-01, 9.81566846e-01, 9.95391726e-01,
          9.79262650e-01, 9.95391726e-01, 9.95391726e-01, 9.90783393e-01,
          9.90783393e-01, 9.93087530e-01, 9.95391726e-01, 9.93087530e-01,
          9.95391726e-01, 9.83870983e-01, 9.97695863e-01, 9.90783393e-01,
          9.95391726e-01, 9.88479257e-01, 9.88479257e-01, 9.88479257e-01,
          9.88479257e-01, 9.97695863e-01, 9.97695863e-01, 9.97695863e-01,
          9.93087530e-01, 9.93087530e-01, 9.93087530e-01, 1.,
          9.90783393e-01, 9.88479257e-01, 9.86175120e-01, 9.90783393e-01,
          1., 9.90783393e-01, 9.93087530e-01, 9.86175120e-01, 1.,
          9.97695863e-01, 1., 9.93087530e-01, 9.97695863e-01,
          9.90783393e-01, 9.97695863e-01, 9.93087530e-01, 9.97695863e-01,
          9.97695863e-01, 9.93087530e-01, 9.95391726e-01, 9.93087530e-01,
          1., 9.86175120e-01, 9.95391726e-01, 9.93087530e-01,
          9.97695863e-01, 9.88479257e-01, 9.90783393e-01, 9.88479257e-01,
          1., 9.95391726e-01, 9.90783393e-01, 9.90783393e-01,
          9.95391726e-01, 9.90783393e-01, 9.83870983e-01, 9.90783393e-01,
          9.95391726e-01, 9.93087530e-01, 9.95391726e-01, 9.93087530e-01,
          9.93087530e-01, 9.97695863e-01, 9.97695863e-01, 9.88479257e-01,
          9.86175120e-01, 9.97695863e-01, 9.95391726e-01, 9.97695863e-01,
          9.95391726e-01, 9.95391726e-01, 9.88479257e-01, 9.90783393e-01,
          9.86175120e-01, 9.97695863e-01, 9.90783393e-01, 9.90783393e-01,
          9.95391726e-01, 9.97695863e-01, 9.97695863e-01, 9.88479257e-01,
          9.93087530e-01, 9.95391726e-01, 9.97695863e-01, 9.93087530e-01,
          9.93087530e-01, 9.97695863e-01, 9.97695863e-01, 9.95391726e-01,
          9.97695863e-01, 9.90783393e-01, 9.90783393e-01, 9.95391726e-01,
          9.95391726e-01, 9.90783393e-01, 1., 9.90783393e-01,
          9.95391726e-01, 9.95391726e-01, 9.93087530e-01, 9.86175120e-01,
          9.97695863e-01, 9.95391726e-01, 9.93087530e-01, 9.97695863e-01,
          9.97695863e-01, 9.97695863e-01, 9.97695863e-01, 9.95391726e-01,
          9.93087530e-01, 9.95391726e-01, 9.97695863e-01, 9.97695863e-01,
          9.95391726e-01, 9.97695863e-01, 9.97695863e-01, 9.95391726e-01,
          1., 9.95391726e-01, 9.97695863e-01, 9.90783393e-01,
          9.97695863e-01, 9.93087530e-01, 9.97695863e-01, 9.97695863e-01,
          9.93087530e-01, 9.95391726e-01, 9.90783393e-01, 9.95391726e-01,
          9.90783393e-01, 9.95391726e-01, 9.97695863e-01, 9.95391726e-01,
          9.97695863e-01, 9.95391726e-01, 9.97695863e-01, 1.,
          9.97695863e-01, 9.93087530e-01, 9.97695863e-01, 9.95391726e-01,
          9.95391726e-01, 9.93087530e-01, 9.88479257e-01, 9.95391726e-01,
          9.90783393e-01, 9.97695863e-01, 1., 9.86175120e-01,
          9.86175120e-01, 9.95391726e-01, 9.93087530e-01, 9.95391726e-01,
          9.90783393e-01, 9.97695863e-01, 9.88479257e-01, 9.93087530e-01,
          9.93087530e-01, 9.95391726e-01, 9.95391726e-01, 9.88479257e-01,
          9.95391726e-01, 1., 9.90783393e-01 ]
      - [ 3.69745076e-01, 4.19128805e-01, 6.61953390e-01, 8.74472380e-01,
          8.82871866e-01, 9.25291240e-01, 1., 5.63439131e-01,
          2.56078005e-01, 1.17423601e-01, 4.14063819e-02, 1.34644601e-02,
          3.46108386e-03, 1.60391699e-03, 0., 5.06016850e-01,
          4.57280397e-01, 7.06377864e-01, 8.16486180e-01, 8.25511456e-01,
          9.73525882e-01, 1., 6.97352588e-01, 3.17087859e-01,
          1.62454873e-01, 6.97954297e-02, 2.10589655e-02, 6.01684721e-03,
          3.00842361e-03, 0., 1., 1.73423424e-01, 1.95945948e-01,
          2.79279292e-01, 1.10360362e-01, 3.15315306e-01, 4.50450443e-02,
          4.05405387e-02, 1.23873875e-01, 5.40540554e-02, 1.80180185e-02,
          2.25225221e-02, 9.00900923e-03, 4.50450461e-03, 0.,
          4.53977406e-01, 5.16702712e-01, 7.98990607e-01, 1.,
          9.49387193e-01, 8.00913215e-01, 5.39149225e-01, 4.37442929e-01,
          6.87382817e-01, 5.01033425e-01, 1.91252097e-01, 7.82023519e-02,
          1.76880565e-02, 3.65296798e-03, 0., 6.99854672e-01,
          6.18459284e-01, 9.12063956e-01, 1., 9.99273241e-01,
          8.75726759e-01, 6.11191869e-01, 4.52761620e-01, 7.74709284e-01,
          6.17732584e-01, 2.58720934e-01, 1.06831394e-01, 3.77906971e-02,
          4.36046533e-03, 0., 1., 1.68181822e-01, 1.70454547e-01,
          1.90909088e-01, 2.20454544e-01, 2.29545459e-01, 7.72727281e-02,
          2.00000003e-01, 2.52272725e-01, 7.50000030e-02, 1.34090915e-01,
          2.95454543e-02, 9.09090880e-03, 9.09090880e-03, 0., 0., 0., 0.,
          3.16216407e-04, 3.05423796e-01, 7.43521005e-02, 1.88354999e-02,
          7.64281303e-02, 1., 4.83357400e-01, 1.86017733e-02,
          8.97779595e-03, 1.31298555e-02, 9.76146257e-04, 1.37485404e-05,
          0., 0., 0., 5.94934565e-04, 4.09314990e-01, 1.27995923e-01,
          1.04538500e-02, 8.09110999e-02, 1., 5.42070389e-01,
          1.82729904e-02, 5.86435478e-03, 8.15910287e-03, 1.69981306e-03,
          8.49906501e-05, 0., 0., 0., 5.89796517e-04, 4.45148915e-01,
          6.04541413e-03, 6.34031277e-03, 3.33235040e-02, 1.,
          1.01297550e-01, 3.83367739e-03, 2.94898264e-03, 5.60306711e-03,
          1.17959303e-03, 1.47449129e-04, 0., 0., 0., 0., 4.83077660e-04,
          5.05035743e-03, 2.10797526e-02, 3.73638600e-01, 1.,
          1.98442444e-01, 7.63409063e-02, 4.69170883e-02, 5.84670343e-02,
          3.07764381e-01, 4.17496189e-02, 0., 0., 0., 0., 7.91295723e-04,
          5.93471806e-03, 2.76953503e-02, 5.80712140e-01, 1.,
          2.56083071e-01, 6.42927811e-02, 5.37091978e-02, 4.04549949e-02,
          3.03956479e-01, 2.25914940e-01, 0., 0., 0., 0., 1.25313282e-03,
          4.11743624e-03, 2.79269610e-02, 7.57071257e-01, 1.,
          1.76154673e-01, 5.42427488e-02, 4.42176871e-02, 3.77730057e-02,
          2.86609381e-01, 0., 2.07844917e-02, 1.28671716e-04,
          1.21429293e-04, 1.12831462e-04, 1.14911265e-04, 1.40265052e-04,
          8.96246202e-05, 1.39403084e-04, 2.14024782e-04, 2.95393693e-04,
          2.00876515e-04, 1.85782395e-04, 2.37892396e-04, 1.46009435e-04,
          1.17603835e-04, 1.54339039e-04, 1.60299183e-04, 1.61935634e-04,
          1.43863275e-04, 2.07087840e-04, 1.82306176e-04, 2.06271303e-04,
          2.17434528e-04, 3.10205040e-03, 1.34609640e-02, 5.61762275e-03,
          5.40382636e-04, 3.45231238e-04, 3.30578536e-04, 2.90901284e-04,
          2.75264552e-04, 3.04261775e-04, 2.97342835e-04, 6.59957645e-04,
          6.10771065e-04, 5.58051921e-04, 5.13594947e-04, 5.09158010e-04,
          5.52732032e-04, 1.38799958e-02, 6.35082135e-03, 1.61146000e-02,
          2.18765233e-02, 3.59971635e-03, 2.40653683e-03, 2.31471076e-03,
          1.88849075e-03, 1.38969684e-03, 2.90469453e-03, 9.22278222e-03,
          5.66571858e-03, 3.21372342e-03, 2.53740279e-03, 2.66317325e-03,
          2.69321762e-02, 1.06647033e-02, 6.92697940e-03, 9.40044597e-03,
          2.14025844e-02, 1.81475747e-02, 6.60895510e-03, 1.02802459e-02,
          1.22155137e-02, 8.47057346e-03, 1.23563120e-02, 1.23049980e-02,
          3.56303453e-02, 1.85660459e-02, 1.65223405e-02, 3.73413935e-02,
          3.83152664e-02, 5.06560244e-02, 1.88518912e-02, 7.23435879e-02,
          1.18472725e-02, 2.25099735e-02, 4.35591675e-03, 4.63977829e-03,
          1.06320223e-02, 7.26938248e-03, 1.59143824e-02, 7.62010226e-03,
          6.65817037e-03, 8.47556535e-03, 2.06269007e-02, 7.59167504e-03,
          3.21379267e-02, 1.35514354e-02, 1.12434151e-02, 4.41725552e-02,
          8.85115005e-03, 8.51784647e-03, 1.83203500e-02, 1.04625719e-02,
          2.74726897e-02, 7.13216187e-03, 6.27593976e-03, 9.22376011e-03,
          7.29757128e-03, 2.03175079e-02, 1.08585730e-02, 1.66135449e-02,
          8.46006069e-03, 6.26457110e-03, 6.28276961e-03, 6.12892071e-03,
          9.01672430e-03, 7.88692571e-03, 1.22824153e-02, 1.09692616e-02,
          1.71235856e-02, 1.90346632e-02, 1.73086487e-02, 1.54990684e-02,
          1.23355053e-02, 1.37565946e-02, 7.36725191e-03, 1.44120222e-02,
          1.26493443e-02, 8.52855947e-03, 3.55805806e-03, 6.40298799e-03,
          1.01317568e-02, 8.72128922e-03, 9.59601626e-03, 6.64584944e-03,
          1.01496633e-02, 9.73485317e-03, 1.26654906e-02, 1.32939573e-02,
          1.24663217e-02, 1.54642174e-02, 8.72748345e-03, 9.47244372e-03,
          3.97532666e-03, 3.86045617e-03, 4.72455425e-03, 5.31603396e-03,
          8.36624764e-03, 7.92242866e-03, 7.23672612e-03, 9.02619027e-03,
          1.23017197e-02, 3.42982053e-03, 1.08376285e-02, 9.26161464e-03,
          1.02848141e-02, 8.65480863e-03, 5.89747587e-03, 7.50477752e-03,
          5.74074872e-03, 4.94234730e-03, 6.33810926e-03, 5.87796560e-03,
          9.84065980e-03, 1.21628288e-02, 6.93190936e-03, 4.27121250e-03,
          9.84470081e-03, 5.32768108e-03, 1.13430861e-02, 9.95793380e-03,
          8.81791860e-03, 8.53846595e-03, 6.26077782e-03, 1.00389207e-02,
          5.32832555e-03, 6.36920473e-03, 7.73229310e-03, 7.17450725e-03,
          6.63618464e-03, 9.33266245e-03, 1.33497529e-02, 1.25263128e-02,
          1.86223108e-02, 1.38717573e-02, 6.83332747e-03, 1.57041289e-02,
          8.57147295e-03, 1.24015240e-02, 2.15341672e-02, 9.30178352e-03,
          1.20881004e-02, 1.03756450e-02, 1.14006223e-02, 9.27669276e-03,
          7.34300353e-03, 1.01483837e-02, 1.20784771e-02, 1.74320973e-02,
          1.12070953e-02, 1.42223267e-02, 8.42145365e-03, 1.31196612e-02,
          1.40543785e-02, 1.41498046e-02, 1.22173028e-02, 1.17360540e-02,
          1.13053080e-02, 1.70521270e-02, 1.26380986e-02, 1.24675045e-02,
          7.74230063e-03, 1.25406049e-02, 1.91265531e-02, 1.34135000e-02,
          6.25842530e-03, 9.19639040e-03, 6.95111090e-03, 1.20679047e-02,
          1.09350961e-02, 1.12477429e-02, 1.50545109e-02, 1.30603015e-02,
          1.91246793e-02, 1.55430622e-02, 1.14126885e-02, 2.26034895e-02,
          1.24381725e-02, 9.55925602e-03, 1.76640246e-02, 1.86201483e-02,
          5.14371600e-03, 6.02871180e-03, 1.54653434e-02, 1.65814888e-02,
          1.59951858e-02, 1.42638525e-02, 1.27634536e-02, 1.95175763e-02,
          1.67997051e-02, 1.28472587e-02, 1.52487494e-02, 1.19412392e-02,
          1.33629860e-02, 1.58798918e-02, 1.53178778e-02, 1.41582489e-02,
          5.91127761e-03, 6.09322218e-03, 1.42772701e-02, 1.48080774e-02,
          1.43853733e-02, 1.41805569e-02, 1.85110308e-02, 1.89132206e-02,
          1.90803315e-02, 1.65080894e-02, 1.84651762e-02, 1.64270457e-02,
          1.35860620e-02, 1.28413578e-02, 1.06490524e-02, 9.59842186e-03,
          8.10016785e-03, 5.65763516e-03, 6.27462566e-03, 9.66371119e-01,
          8.15412164e-01, 8.81720424e-01, 8.54838729e-01, 8.44086051e-01,
          8.27956975e-01, 8.63799274e-01, 8.40501785e-01, 8.17204297e-01,
          8.04659486e-01, 8.18996429e-01, 8.35125446e-01, 8.90681028e-01,
          8.11827958e-01, 7.84946263e-01, 8.06451619e-01, 8.11827958e-01,
          8.04659486e-01, 8.33333313e-01, 8.17204297e-01, 8.40501785e-01,
          8.42293918e-01, 8.17204297e-01, 8.87096763e-01, 9.26523268e-01,
          8.97849441e-01, 8.31541240e-01, 8.60215068e-01, 8.85304630e-01,
          8.17204297e-01, 8.35125446e-01, 8.36917579e-01, 8.10035825e-01,
          7.77777791e-01, 8.58422935e-01, 8.58422935e-01, 8.35125446e-01,
          8.17204297e-01, 8.26164901e-01, 9.71326172e-01, 9.98207867e-01,
          9.89247322e-01, 8.97849441e-01, 9.21146929e-01, 9.26523268e-01,
          9.22939062e-01, 8.81720424e-01, 9.03225780e-01, 8.54838729e-01,
          9.65949833e-01, 9.42652345e-01, 9.58781362e-01, 9.21146929e-01,
          9.10394251e-01, 9.33691740e-01, 9.92831528e-01, 9.94623661e-01,
          9.91039455e-01, 9.87455189e-01, 9.67741907e-01, 9.83870983e-01,
          9.91039455e-01, 9.89247322e-01, 9.92831528e-01, 9.94623661e-01,
          9.89247322e-01, 9.60573494e-01, 9.85663056e-01, 9.91039455e-01,
          9.96415794e-01, 9.91039455e-01, 9.92831528e-01, 9.83870983e-01,
          9.51612890e-01, 9.85663056e-01, 9.96415794e-01, 9.80286717e-01,
          9.74910378e-01, 9.89247322e-01, 9.87455189e-01, 9.91039455e-01,
          9.96415794e-01, 9.96415794e-01, 9.92831528e-01, 9.94623661e-01,
          9.89247322e-01, 9.96415794e-01, 9.98207867e-01, 9.89247322e-01,
          9.82078850e-01, 9.83870983e-01, 9.98207867e-01, 9.98207867e-01,
          9.92831528e-01, 9.82078850e-01, 9.91039455e-01, 9.87455189e-01,
          9.98207867e-01, 9.98207867e-01, 9.91039455e-01, 9.91039455e-01,
          9.94623661e-01, 9.92831528e-01, 9.89247322e-01, 9.98207867e-01,
          9.94623661e-01, 9.91039455e-01, 9.91039455e-01, 9.92831528e-01,
          9.89247322e-01, 9.92831528e-01, 9.91039455e-01, 9.92831528e-01,
          9.98207867e-01, 9.98207867e-01, 9.91039455e-01, 9.94623661e-01,
          9.80286717e-01, 9.87455189e-01, 9.94623661e-01, 9.89247322e-01,
          9.94623661e-01, 9.94623661e-01, 9.92831528e-01, 9.94623661e-01,
          9.96415794e-01, 9.89247322e-01, 9.92831528e-01, 9.91039455e-01,
          9.89247322e-01, 9.98207867e-01, 9.92831528e-01, 9.94623661e-01,
          9.96415794e-01, 9.92831528e-01, 9.96415794e-01, 9.94623661e-01,
          9.91039455e-01, 9.89247322e-01, 9.91039455e-01, 9.91039455e-01,
          9.92831528e-01, 9.96415794e-01, 9.92831528e-01, 9.94623661e-01,
          9.94623661e-01, 9.96415794e-01, 9.94623661e-01, 9.94623661e-01,
          9.92831528e-01, 9.94623661e-01, 9.96415794e-01, 9.96415794e-01,
          9.94623661e-01, 9.94623661e-01, 9.94623661e-01, 9.94623661e-01,
          9.92831528e-01, 9.92831528e-01, 9.94623661e-01, 9.92831528e-01,
          9.94623661e-01, 9.91039455e-01, 9.96415794e-01, 9.96415794e-01,
          9.94623661e-01, 9.98207867e-01, 9.98207867e-01, 9.98207867e-01,
          1., 9.96415794e-01, 9.96415794e-01, 9.94623661e-01,
          9.89247322e-01, 9.94623661e-01, 9.96415794e-01, 9.94623661e-01,
          1., 9.92831528e-01, 9.91039455e-01, 9.94623661e-01,
          9.96415794e-01, 9.92831528e-01, 9.96415794e-01, 9.98207867e-01,
          9.92831528e-01, 9.98207867e-01, 9.98207867e-01, 9.91039455e-01,
          9.98207867e-01, 9.94623661e-01, 9.94623661e-01, 9.91039455e-01,
          9.98207867e-01, 9.94623661e-01, 9.98207867e-01, 9.96415794e-01,
          9.98207867e-01, 9.96415794e-01, 9.94623661e-01, 9.94623661e-01,
          9.89247322e-01, 9.92831528e-01, 9.89247322e-01, 9.85663056e-01,
          9.96415794e-01, 9.91039455e-01, 1., 9.83870983e-01,
          9.96415794e-01, 9.94623661e-01, 9.94623661e-01, 9.94623661e-01,
          9.94623661e-01, 9.94623661e-01, 9.94623661e-01, 9.96415794e-01,
          9.96415794e-01, 9.89247322e-01, 9.94623661e-01, 9.94623661e-01,
          9.96415794e-01, 9.89247322e-01, 9.98207867e-01, 9.87455189e-01,
          9.98207867e-01, 9.98207867e-01, 1., 1., 9.94623661e-01,
          9.96415794e-01, 9.98207867e-01, 9.94623661e-01, 9.98207867e-01,
          9.98207867e-01, 9.94623661e-01, 9.92831528e-01, 9.92831528e-01,
          9.92831528e-01, 9.96415794e-01, 9.96415794e-01, 9.98207867e-01,
          9.92831528e-01, 9.89247322e-01, 9.92831528e-01, 1.,
          9.98207867e-01, 9.94623661e-01, 1., 9.98207867e-01,
          9.96415794e-01, 9.92831528e-01, 9.94623661e-01, 9.94623661e-01,
          9.91039455e-01, 9.96415794e-01, 9.96415794e-01 ]
      - [ 0., 4.06967290e-02, 1.99251175e-01, 2.03223184e-01,
          2.89695591e-01, 5.56861460e-01, 8.08237016e-01, 1.,
          7.21276224e-01, 5.02295315e-01, 3.84828269e-01, 2.81002760e-01,
          1.83884099e-01, 8.60817209e-02, 2.30506267e-02, 0.,
          6.98427409e-02, 2.26641998e-01, 1.97502315e-01, 3.05735439e-01,
          5.90194285e-01, 8.57539296e-01, 1., 8.14986110e-01,
          4.87511575e-01, 3.84366333e-01, 2.75208145e-01, 1.93339497e-01,
          1.02220170e-01, 3.51526365e-02, 0., 1.48698881e-01,
          3.64312261e-01, 1.33828998e-01, 1.82156131e-01, 1.,
          6.35687709e-01, 6.28252804e-01, 2.67657995e-01, 1.11524165e-01,
          1.26394048e-01, 1.30111530e-01, 3.71747203e-02, 7.43494416e-03,
          7.43494416e-03, 0., 3.85729298e-02, 1.90318570e-01,
          2.10114256e-01, 2.74593413e-01, 3.80668968e-01, 5.25444746e-01,
          8.16014767e-01, 1., 7.60001302e-01, 5.31523526e-01,
          2.40762547e-01, 1.23834379e-01, 4.98711057e-02, 9.67505854e-03,
          0., 7.95730203e-02, 2.48908296e-01, 2.14944199e-01,
          3.06647271e-01, 4.00776327e-01, 6.64240658e-01, 8.98592889e-01,
          1., 8.99563313e-01, 5.95827281e-01, 3.33333343e-01,
          1.50897622e-01, 7.18097985e-02, 1.40708396e-02, 2.94117648e-02,
          1.66666672e-01, 3.43137264e-01, 2.64705896e-01, 1.86274514e-01,
          5.53921580e-01, 1., 6.76470578e-01, 9.80392158e-01,
          3.03921580e-01, 4.31372553e-01, 2.89215684e-01, 2.05882356e-01,
          3.43137272e-02, 0., 0., 0., 0., 0., 1.92311389e-04,
          1.15348369e-01, 7.65956998e-01, 3.35102588e-01, 5.58491468e-01,
          1., 4.24373537e-01, 2.51927925e-03, 0., 0., 0., 0., 0., 0., 0.,
          1.50250422e-03, 2.81636059e-01, 1., 3.44574302e-01,
          4.77128536e-01, 7.24540889e-01, 6.68280482e-01, 7.34557584e-03,
          0., 0., 0., 0., 0., 0., 0., 2.54048896e-03, 2.40711331e-01, 1.,
          1.12099081e-01, 3.19466501e-01, 3.72499198e-01, 3.12480152e-01,
          1.27024448e-03, 0., 0., 0., 0., 0., 0., 2.00694412e-05,
          3.81319347e-04, 7.08451215e-03, 8.84259567e-02, 1.,
          8.04021895e-01, 2.07036346e-01, 4.27479059e-01, 7.98041224e-01,
          9.07138642e-03, 0., 0., 0., 0., 0., 1.51515153e-04,
          7.57575734e-04, 1.48484847e-02, 1.58939391e-01, 1.,
          8.03787887e-01, 2.67575771e-01, 4.53939408e-01, 7.80151486e-01,
          3.12121212e-02, 0., 0., 0., 0., 0., 2.33972853e-04,
          7.01918558e-04, 1.70800183e-02, 1.50912493e-01, 1.,
          4.76134777e-01, 1.43659338e-01, 3.17033231e-01, 3.67571354e-01,
          3.22882533e-02, 0., 0., 2.71724146e-02, 3.38265345e-05,
          1.33104113e-04, 1.78919203e-04, 1.02976628e-04, 9.60272446e-05,
          7.02601756e-05, 7.76856323e-05, 2.54820567e-04, 5.06856770e-04,
          5.70265285e-04, 1.42168999e-03, 2.95719341e-03, 1.02655636e-03,
          4.06714901e-03, 7.21288333e-03, 2.12610490e-03, 7.39521784e-05,
          1.88768492e-04, 1.61557793e-04, 1.33789930e-04, 8.42193767e-05,
          8.41610090e-05, 8.20327550e-05, 1.19030330e-04, 5.67297539e-05,
          3.35922523e-05, 9.79520264e-05, 1.09298888e-03, 2.83148373e-03,
          4.10917867e-03, 2.13307515e-03, 5.59706287e-03, 1.39628464e-04,
          2.11476145e-04, 1.61076707e-04, 1.27734849e-04, 6.89746666e-05,
          8.96235651e-05, 7.12526671e-05, 1.63181598e-04, 2.88160110e-04,
          1.62361452e-04, 1.36693788e-03, 1.35707960e-03, 3.16162757e-03,
          3.80925974e-03, 2.01576645e-03, 1.54835277e-03, 4.79412032e-04,
          1.91355357e-04, 1.29465072e-04, 1.54169509e-04, 1.48390202e-04,
          8.06485114e-05, 9.38793164e-05, 1.16453200e-04, 1.21607896e-04,
          4.19320742e-04, 7.96134758e-04, 1.73569459e-03, 1.24301144e-03,
          5.03673777e-03, 2.80579319e-03, 1.54265808e-03, 1.89418793e-02,
          1.35966977e-02, 4.01406927e-04, 3.13273421e-03, 1.42760080e-04,
          1.22425408e-04, 9.56764270e-05, 7.68336467e-05, 1.02957696e-04,
          1.27012536e-04, 1.44544721e-03, 8.70191376e-04, 9.58196179e-04,
          1.20820780e-03, 1.17953296e-03, 1.25854521e-03, 7.30200671e-03,
          5.48569160e-03, 1.86413396e-02, 1.44548537e-02, 9.51677468e-03,
          1.44823833e-04, 1.71859079e-04, 1.90011764e-04, 2.00426512e-04,
          2.18678528e-04, 2.70438817e-04, 2.42945549e-04, 1.60771969e-03,
          1.75551660e-02, 2.23918539e-02, 1.36255706e-02, 1.13400258e-02,
          1.18664792e-02, 1.56212822e-02, 1.07758241e-02, 7.77957076e-03,
          9.16367769e-03, 5.05718729e-03, 3.84775200e-03, 2.20182934e-03,
          1.82788877e-03, 1.00258738e-03, 7.19731534e-03, 1.61251128e-02,
          1.78461075e-02, 1.61226261e-02, 1.40891010e-02, 2.76112407e-02,
          1.08770123e-02, 4.40232363e-03, 4.08282317e-03, 1.39512829e-02,
          1.18406760e-02, 1.20176272e-02, 1.11980392e-02, 1.23579819e-02,
          9.62170027e-03, 7.36894133e-03, 4.60377103e-03, 7.24252732e-03,
          7.67736742e-03, 9.27073136e-03, 7.48123275e-03, 4.03621905e-02,
          3.22520956e-02, 1.28377145e-02, 1.01455692e-02, 2.63134163e-04,
          1.53070204e-02, 7.91511126e-03, 1.14367437e-02, 7.59913865e-03,
          8.30540713e-03, 9.59764794e-03, 9.98736825e-03, 3.04967002e-03,
          5.48836822e-03, 8.13387427e-03, 8.68775137e-03, 3.35057788e-02,
          3.45915072e-02, 3.18586789e-02, 2.05982085e-02, 1.08697207e-03,
          3.85112409e-03, 2.14605015e-02, 1.85294431e-02, 8.31059180e-03,
          1.12064192e-02, 1.44316638e-02, 6.58320216e-03, 5.17607853e-03,
          4.23174677e-03, 1.17367841e-02, 9.80002154e-03, 4.69820015e-02,
          3.96246016e-02, 2.11302917e-02, 3.60458568e-02, 3.53426374e-02,
          3.34128924e-02, 2.16857549e-02, 9.69967898e-03, 1.53332576e-02,
          1.58270616e-02, 1.82047281e-02, 9.10724793e-03, 5.29382005e-03,
          1.28474580e-02, 4.98645008e-03, 1.04655344e-02, 5.21633215e-02,
          2.28636302e-02, 3.52275707e-02, 3.44367810e-02, 3.81784625e-02,
          2.30647065e-02, 1.54550923e-02, 1.81199622e-03, 8.58599320e-03,
          8.54599103e-03, 2.60382239e-03, 1.78111009e-02, 1.19219469e-02,
          6.90900907e-03, 8.88554007e-03, 8.58788379e-03, 5.18634804e-02,
          4.91434410e-02, 4.29173149e-02, 4.83359657e-02, 4.15163822e-02,
          5.21557033e-02, 5.87603785e-02, 2.63872296e-02, 3.16861260e-04,
          1.81262176e-02, 1.61438491e-02, 8.70005041e-03, 8.87089875e-03,
          1.03484336e-02, 2.12916005e-02, 4.08652285e-03, 4.16673720e-02,
          5.22598214e-02, 4.38909940e-02, 4.53320704e-02, 4.41997573e-02,
          4.24935855e-02, 4.62290198e-02, 5.22224680e-02, 1.97899304e-02,
          9.11241118e-03, 1.56926792e-02, 1.40637951e-02, 1.31117702e-02,
          3.81050631e-02, 1.11698015e-02, 1.68977100e-02, 4.10909951e-02,
          4.51756790e-02, 3.69727463e-02, 4.85111251e-02, 4.38998081e-02,
          4.31225821e-02, 3.30454521e-02, 1.57221612e-02, 3.35492976e-02,
          3.81652266e-02, 1.58292595e-02, 2.17445698e-02, 2.28524022e-02,
          1.79683417e-02, 1.49408616e-02, 1.10155195e-02, 2.44475212e-02,
          3.75603773e-02, 4.58453707e-02, 4.89904918e-02, 5.17852530e-02,
          3.91231403e-02, 2.61664949e-02, 1.31377708e-02, 3.76357473e-02,
          5.48242442e-02, 4.02419046e-02, 3.40668671e-02, 2.81778090e-02,
          5.54579543e-03, 1.88518073e-02, 2.01482344e-02, 9.41165149e-01,
          7.61290312e-01, 7.67741919e-01, 7.83870995e-01, 7.32258081e-01,
          6.98387086e-01, 6.77419364e-01, 6.56451643e-01, 7.51612902e-01,
          8.08064520e-01, 8.77419353e-01, 9.59677398e-01, 9.58064497e-01,
          9.75806475e-01, 9.48387086e-01, 9.59677398e-01, 9.19354856e-01,
          7.77419329e-01, 8.17741930e-01, 8.01612914e-01, 8.19354832e-01,
          7.59677410e-01, 6.90322578e-01, 7.09677398e-01, 8.06451619e-01,
          7.79032230e-01, 8.16129029e-01, 8.66129041e-01, 9.43548381e-01,
          9.74193573e-01, 9.75806475e-01, 9.64516103e-01, 9.69354868e-01,
          7.53225803e-01, 8.20967734e-01, 8.09677422e-01, 7.69354820e-01,
          7.50000000e-01, 7.82258093e-01, 7.96774209e-01, 8.50000024e-01,
          8.43548357e-01, 8.85483861e-01, 9.51612890e-01, 9.12903249e-01,
          9.22580659e-01, 9.75806475e-01, 9.41935480e-01, 9.59677398e-01,
          8.22580636e-01, 8.17741930e-01, 7.59677410e-01, 7.50000000e-01,
          7.35483885e-01, 7.85483897e-01, 8.40322554e-01, 9.08064544e-01,
          8.87096763e-01, 9.06451643e-01, 9.17741954e-01, 8.93548369e-01,
          8.70967746e-01, 9.67741907e-01, 9.61290300e-01, 9.75806475e-01,
          9.88709688e-01, 9.08064544e-01, 8.12903225e-01, 8.67741942e-01,
          7.88709700e-01, 8.00000012e-01, 7.93548405e-01, 8.06451619e-01,
          8.06451619e-01, 8.32258046e-01, 9.33870971e-01, 8.93548369e-01,
          8.91935468e-01, 8.75806451e-01, 8.48387122e-01, 8.17741930e-01,
          9.75806475e-01, 9.88709688e-01, 9.93548393e-01, 9.88709688e-01,
          9.12903249e-01, 8.38709652e-01, 8.43548357e-01, 8.14516127e-01,
          7.75806427e-01, 7.82258093e-01, 7.17741907e-01, 7.79032230e-01,
          8.20967734e-01, 9.67741907e-01, 9.96774197e-01, 9.85483885e-01,
          1., 9.96774197e-01, 9.96774197e-01, 9.96774197e-01,
          9.88709688e-01, 9.75806475e-01, 9.80645180e-01, 9.37096775e-01,
          9.25806463e-01, 8.61290336e-01, 7.85483897e-01, 8.79032254e-01,
          9.74193573e-01, 9.95161295e-01, 9.95161295e-01, 9.95161295e-01,
          9.95161295e-01, 9.93548393e-01, 9.85483885e-01, 1.,
          9.85483885e-01, 9.91935492e-01, 9.93548393e-01, 9.90322590e-01,
          9.98387098e-01, 9.90322590e-01, 9.93548393e-01, 9.87096786e-01,
          9.93548393e-01, 9.93548393e-01, 9.93548393e-01, 9.95161295e-01,
          9.93548393e-01, 9.96774197e-01, 9.91935492e-01, 9.90322590e-01,
          9.35483873e-01, 9.80645180e-01, 9.96774197e-01, 9.95161295e-01,
          9.95161295e-01, 9.95161295e-01, 9.98387098e-01, 9.91935492e-01,
          9.90322590e-01, 9.91935492e-01, 9.95161295e-01, 9.93548393e-01,
          9.98387098e-01, 9.98387098e-01, 9.95161295e-01, 9.98387098e-01,
          9.41935480e-01, 9.45161283e-01, 9.96774197e-01, 9.79032278e-01,
          9.91935492e-01, 9.95161295e-01, 9.95161295e-01, 9.91935492e-01,
          9.90322590e-01, 9.93548393e-01, 9.95161295e-01, 9.95161295e-01,
          9.96774197e-01, 9.95161295e-01, 9.95161295e-01, 1.,
          9.96774197e-01, 9.95161295e-01, 1., 9.80645180e-01,
          9.93548393e-01, 9.90322590e-01, 9.98387098e-01, 9.88709688e-01,
          9.93548393e-01, 9.88709688e-01, 9.95161295e-01, 9.98387098e-01,
          9.96774197e-01, 9.98387098e-01, 1., 1., 9.98387098e-01,
          9.98387098e-01, 9.98387098e-01, 9.58064497e-01, 9.85483885e-01,
          9.95161295e-01, 9.93548393e-01, 9.93548393e-01, 9.95161295e-01,
          9.88709688e-01, 9.96774197e-01, 9.88709688e-01, 9.96774197e-01,
          1., 1., 1., 9.96774197e-01, 9.96774197e-01, 9.95161295e-01,
          9.91935492e-01, 9.40322578e-01, 9.87096786e-01, 9.93548393e-01,
          9.96774197e-01, 9.95161295e-01, 9.98387098e-01, 9.93548393e-01,
          9.88709688e-01, 9.96774197e-01, 9.96774197e-01, 9.96774197e-01,
          9.95161295e-01, 9.98387098e-01, 9.98387098e-01, 9.96774197e-01,
          9.98387098e-01, 9.95161295e-01, 9.70967770e-01, 9.95161295e-01,
          9.98387098e-01, 9.91935492e-01, 9.95161295e-01, 9.87096786e-01,
          9.95161295e-01, 9.93548393e-01, 9.98387098e-01, 9.95161295e-01,
          9.98387098e-01, 9.90322590e-01, 9.96774197e-01, 9.93548393e-01,
          9.95161295e-01, 1., 9.93548393e-01, 9.82258081e-01,
          9.98387098e-01, 9.95161295e-01, 9.95161295e-01, 9.96774197e-01,
          9.98387098e-01, 9.90322590e-01, 9.91935492e-01, 9.95161295e-01,
          1., 9.96774197e-01, 9.96774197e-01, 9.96774197e-01,
          9.96774197e-01, 9.98387098e-01, 9.98387098e-01, 9.93548393e-01,
          9.98387098e-01, 9.96774197e-01, 9.93548393e-01, 1.,
          9.98387098e-01 ]
      - [ 2.53883563e-02, 5.30048646e-02, 1.51388675e-01, 4.44531620e-01,
          5.64349592e-01, 7.37580419e-01, 9.03248072e-01, 1.,
          6.36717379e-01, 3.22077513e-01, 2.21622467e-01, 1.27255604e-01,
          3.93535234e-02, 1.88294367e-03, 0., 6.65408224e-02,
          7.78669193e-02, 2.43039176e-01, 5.21472394e-01, 6.17744207e-01,
          7.58376598e-01, 9.59886730e-01, 1., 8.82019818e-01,
          3.49693239e-01, 2.64275610e-01, 1.85936764e-01, 6.41812161e-02,
          5.66304848e-03, 0., 5.30054629e-01, 2.84153014e-01,
          3.22404385e-01, 1., 7.26775944e-01, 9.28961754e-01,
          8.68852437e-01, 5.02732217e-01, 0., 3.93442631e-01,
          3.16939890e-01, 1.20218582e-01, 2.02185795e-01, 6.01092912e-02,
          3.82513665e-02, 2.46496014e-02, 5.59283495e-02, 1.29498348e-01,
          3.55619907e-01, 4.81194884e-01, 8.38492334e-01, 1.,
          6.83153868e-01, 3.55728120e-01, 3.07781816e-01, 2.21088797e-01,
          5.04626855e-02, 5.92564512e-03, 1.21759833e-03, 0.,
          5.85858598e-02, 7.39393905e-02, 1.96363643e-01, 3.89090896e-01,
          5.53939402e-01, 9.21212137e-01, 1., 8.61010075e-01,
          3.91515166e-01, 3.08282822e-01, 2.42828280e-01, 1.17575757e-01,
          1.09090907e-02, 3.23232333e-03, 0., 4.94117647e-01,
          1.41176477e-01, 2.88235307e-01, 6.05882347e-01, 4.88235295e-01,
          1., 9.82352912e-01, 2.17647061e-01, 4.17647064e-01,
          3.29411775e-01, 2.35294119e-01, 2.35294122e-02, 2.94117648e-02,
          1.76470596e-02, 0., 0., 0., 0., 0., 0., 0., 0., 5.76002523e-03,
          1., 8.76763761e-01, 7.17586160e-01, 2.09369864e-02, 0., 0., 0.,
          0., 0., 0., 0., 0., 0., 0., 1.25515666e-02, 7.29746342e-01,
          6.60493314e-01, 1., 2.65952777e-02, 0., 0., 0., 0., 0., 0., 0.,
          0., 0., 0., 1.46768894e-02, 1., 7.66045988e-01, 5.37568450e-01,
          4.38116112e-04, 0., 0., 0., 0., 0., 0., 0., 0., 1.20141944e-02,
          8.07901084e-01, 7.70661354e-01, 8.49031568e-01, 1.,
          1.27902001e-01, 2.54393090e-03, 0., 0., 0., 0., 0., 0., 0., 0.,
          1.21001983e-02, 1., 3.09156537e-01, 3.69091421e-01,
          3.48570615e-01, 1.89428255e-01, 2.26436462e-03, 0., 0., 0., 0.,
          0., 0., 0., 0., 1.86453015e-02, 1., 2.87254184e-01,
          4.33794618e-01, 4.41369265e-01, 3.90386023e-02, 2.03932985e-03,
          0., 0., 0., 1.96088087e-02, 1.60444906e-04, 1.03453363e-04,
          3.44461441e-04, 1.18980868e-04, 2.21773764e-04, 1.84088945e-04,
          1.84319506e-04, 1.39672935e-04, 1.36189468e-04, 1.22087018e-04,
          1.28748026e-04, 9.85580918e-05, 1.03601065e-04, 1.49731146e-04,
          1.21380341e-04, 1.87646685e-04, 9.98792893e-05, 1.47244093e-04,
          3.70471418e-04, 1.47442042e-04, 2.22191433e-04, 2.67295341e-04,
          2.73298967e-04, 2.03882810e-04, 1.95580680e-04, 1.62295852e-04,
          1.88646867e-04, 2.72627803e-04, 1.90664810e-04, 1.66783895e-04,
          1.81711817e-04, 1.40150150e-04, 8.05334930e-05, 3.17759783e-04,
          7.15463888e-04, 4.03923652e-04, 4.44944308e-04, 4.47421364e-04,
          3.29938688e-04, 1.97062735e-04, 2.61981360e-04, 2.50388344e-04,
          2.64248723e-04, 2.62769114e-04, 2.67295865e-04, 2.15236942e-04,
          2.46152893e-04, 1.59197371e-04, 3.38188256e-04, 4.99976275e-04,
          8.22236470e-04, 8.80195934e-04, 6.78090961e-04, 6.41278399e-04,
          3.68107430e-04, 2.45815143e-04, 4.31655586e-04, 2.90924654e-04,
          4.07033192e-04, 4.26987681e-04, 2.97247345e-04, 2.97625840e-04,
          2.04651296e-04, 2.89590680e-04, 3.90842994e-04, 9.72325099e-04,
          1.40683574e-03, 1.73250143e-03, 7.03383703e-04, 7.64376542e-04,
          5.39864530e-04, 7.74048560e-04, 4.02946054e-04, 5.70718839e-04,
          5.43971546e-04, 5.14747517e-04, 6.20038307e-04, 1.59708652e-04,
          2.87611940e-04, 3.84716084e-04, 6.84820581e-04, 7.31412962e-04,
          1.65609468e-03, 2.03888095e-03, 1.35338074e-03, 8.02827766e-04,
          1.26210507e-03, 4.11544024e-04, 1.45510642e-03, 8.27346870e-04,
          4.56670707e-04, 7.92692590e-04, 1.72589463e-03, 5.78009582e-04,
          5.03609830e-04, 4.71359526e-04, 1.02499593e-03, 1.33051048e-03,
          3.01513006e-03, 5.08560846e-03, 6.21629320e-03, 8.85192305e-04,
          1.34316611e-03, 9.99684911e-04, 1.24860695e-03, 1.42454833e-03,
          1.43410335e-03, 4.50874708e-04, 8.50970799e-04, 1.03844830e-03,
          2.11941195e-03, 1.16024446e-03, 4.34731483e-04, 1.69535377e-03,
          1.59985607e-03, 3.79495881e-03, 2.02300306e-03, 3.39973136e-03,
          2.89292511e-04, 1.10639748e-03, 2.11588410e-03, 3.07258801e-03,
          7.24645033e-02, 7.46183321e-02, 6.88136667e-02, 3.60422470e-02,
          1.01531355e-03, 8.48183525e-04, 7.46064528e-04, 8.36364867e-04,
          2.29489454e-03, 2.32576299e-02, 1.97496405e-03, 4.49420093e-03,
          2.72487872e-03, 1.56982185e-03, 1.20365445e-03, 3.93166542e-02,
          7.17605129e-02, 5.64425427e-04, 6.42539561e-02, 2.16077734e-02,
          6.98895147e-03, 6.35737611e-04, 1.12269083e-02, 1.14269238e-02,
          2.55583059e-02, 4.27994393e-02, 2.01346148e-02, 2.11236738e-02,
          3.10529955e-02, 5.08081242e-02, 5.74944206e-02, 2.93392204e-02,
          3.52698267e-02, 5.39447926e-02, 1.60486829e-02, 1.31830655e-03,
          2.31591891e-02, 2.70931497e-02, 5.00926143e-03, 5.16361790e-03,
          5.83326491e-03, 5.07446239e-03, 5.83653850e-03, 9.27712489e-03,
          2.03554761e-02, 2.68524289e-02, 1.71353426e-02, 1.15107447e-02,
          3.49306613e-02, 3.48515362e-02, 1.14523377e-02, 4.44481988e-03,
          3.69664468e-03, 1.21736350e-02, 4.65260725e-03, 3.83169646e-03,
          8.15597456e-03, 2.91799847e-03, 2.22991846e-04, 6.94932824e-04,
          1.07586978e-03, 1.59782097e-02, 9.13377013e-03, 7.29487184e-03,
          1.55806774e-02, 1.27266003e-02, 8.53196997e-03, 9.33677796e-03,
          8.02120566e-03, 1.09756468e-02, 3.71402974e-04, 3.17921716e-04,
          2.83775356e-04, 4.44521487e-04, 5.27646102e-04, 4.72158717e-04,
          5.48301323e-04, 3.78578552e-03, 2.05327966e-03, 1.19606080e-03,
          1.12740975e-02, 6.86863950e-03, 2.80929264e-03, 1.79702952e-03,
          2.38500652e-03, 1.83366693e-03, 5.10820653e-04, 8.08685843e-04,
          6.93103357e-04, 9.46970133e-04, 6.65829808e-04, 4.59636794e-04,
          6.96884294e-04, 8.21795966e-03, 4.97579947e-03, 2.36347507e-04,
          5.11168828e-03, 5.14710415e-03, 4.04495426e-04, 6.16900099e-04,
          5.15939854e-03, 2.18330650e-03, 4.32358962e-03, 3.27073061e-03,
          5.22049796e-03, 5.07777731e-04, 5.01634786e-04, 5.13728941e-04,
          1.34040916e-03, 1.43686328e-02, 6.70209411e-04, 3.80094047e-04,
          1.28835700e-02, 7.13951653e-03, 6.20249426e-04, 5.95367281e-04,
          5.01720875e-04, 5.38985105e-03, 6.02062000e-03, 9.05200280e-03,
          1.34597654e-02, 4.98090638e-04, 4.79489216e-04, 4.45268757e-04,
          2.92964675e-03, 1.24601666e-02, 2.09505204e-03, 2.91754346e-04,
          3.73704155e-04, 6.42218103e-04, 5.96326834e-04, 4.05170082e-04,
          3.48009227e-04, 6.97793846e-04, 9.47113752e-01, 8.58064532e-01,
          8.87096763e-01, 8.85483861e-01, 8.50000024e-01, 8.77419353e-01,
          8.43548357e-01, 8.37096751e-01, 8.79032254e-01, 8.90322566e-01,
          8.51612926e-01, 8.61290336e-01, 8.48387122e-01, 8.46774220e-01,
          8.45161319e-01, 8.67741942e-01, 8.69354844e-01, 8.87096763e-01,
          8.66129041e-01, 8.91935468e-01, 9.03225780e-01, 8.85483861e-01,
          8.77419353e-01, 8.91935468e-01, 8.72580647e-01, 8.75806451e-01,
          8.64516139e-01, 8.77419353e-01, 8.90322566e-01, 8.72580647e-01,
          8.58064532e-01, 8.56451631e-01, 8.69354844e-01, 8.70967746e-01,
          9.35483873e-01, 9.19354856e-01, 8.96774173e-01, 8.75806451e-01,
          8.69354844e-01, 8.70967746e-01, 8.91935468e-01, 8.75806451e-01,
          9.03225780e-01, 8.66129041e-01, 8.80645156e-01, 8.83870959e-01,
          8.72580647e-01, 8.79032254e-01, 9.04838681e-01, 9.11290348e-01,
          9.27419364e-01, 9.37096775e-01, 9.22580659e-01, 9.16129053e-01,
          8.75806451e-01, 9.14516151e-01, 9.11290348e-01, 8.62903237e-01,
          8.98387074e-01, 9.09677446e-01, 8.64516139e-01, 8.99999976e-01,
          8.59677434e-01, 8.72580647e-01, 8.90322566e-01, 8.93548369e-01,
          9.25806463e-01, 9.35483873e-01, 9.46774185e-01, 9.59677398e-01,
          8.87096763e-01, 9.01612878e-01, 9.17741954e-01, 9.14516151e-01,
          9.32258070e-01, 8.91935468e-01, 8.95161271e-01, 8.88709664e-01,
          9.08064544e-01, 9.01612878e-01, 9.04838681e-01, 9.30645168e-01,
          8.95161271e-01, 9.35483873e-01, 9.40322578e-01, 9.41935480e-01,
          9.35483873e-01, 9.40322578e-01, 9.49999988e-01, 9.45161283e-01,
          9.49999988e-01, 9.43548381e-01, 9.37096775e-01, 9.29032266e-01,
          9.33870971e-01, 9.27419364e-01, 9.24193561e-01, 9.70967770e-01,
          9.56451595e-01, 9.46774185e-01, 9.69354868e-01, 9.49999988e-01,
          9.40322578e-01, 9.58064497e-01, 9.54838693e-01, 9.66129005e-01,
          9.70967770e-01, 9.74193573e-01, 9.35483873e-01, 9.46774185e-01,
          9.58064497e-01, 9.48387086e-01, 9.38709676e-01, 9.72580671e-01,
          9.69354868e-01, 9.88709688e-01, 9.79032278e-01, 9.75806475e-01,
          9.61290300e-01, 9.46774185e-01, 9.70967770e-01, 9.85483885e-01,
          9.77419376e-01, 9.83870983e-01, 9.90322590e-01, 9.61290300e-01,
          9.62903202e-01, 9.51612890e-01, 9.59677398e-01, 9.20967758e-01,
          9.24193561e-01, 9.08064544e-01, 9.77419376e-01, 9.33870971e-01,
          9.29032266e-01, 9.19354856e-01, 9.77419376e-01, 9.82258081e-01,
          9.62903202e-01, 9.88709688e-01, 9.40322578e-01, 9.82258081e-01,
          9.74193573e-01, 9.54838693e-01, 9.24193561e-01, 9.70967770e-01,
          9.41935480e-01, 9.70967770e-01, 9.93548393e-01, 9.72580671e-01,
          9.67741907e-01, 9.67741907e-01, 9.77419376e-01, 9.74193573e-01,
          9.90322590e-01, 9.96774197e-01, 9.80645180e-01, 9.93548393e-01,
          9.87096786e-01, 9.91935492e-01, 9.91935492e-01, 9.93548393e-01,
          9.79032278e-01, 9.83870983e-01, 9.75806475e-01, 9.83870983e-01,
          9.93548393e-01, 9.90322590e-01, 9.95161295e-01, 9.91935492e-01,
          9.91935492e-01, 9.91935492e-01, 9.98387098e-01, 9.95161295e-01,
          9.83870983e-01, 9.95161295e-01, 9.95161295e-01, 9.88709688e-01,
          9.90322590e-01, 9.80645180e-01, 9.62903202e-01, 9.72580671e-01,
          9.83870983e-01, 9.87096786e-01, 9.88709688e-01, 9.95161295e-01,
          9.91935492e-01, 9.93548393e-01, 9.80645180e-01, 9.96774197e-01,
          9.83870983e-01, 9.90322590e-01, 9.96774197e-01, 9.79032278e-01,
          9.79032278e-01, 9.75806475e-01, 9.82258081e-01, 9.87096786e-01,
          9.82258081e-01, 9.80645180e-01, 9.82258081e-01, 9.72580671e-01,
          9.82258081e-01, 9.95161295e-01, 9.88709688e-01, 9.83870983e-01,
          9.72580671e-01, 9.66129005e-01, 9.74193573e-01, 9.70967770e-01,
          9.83870983e-01, 9.83870983e-01, 9.96774197e-01, 9.90322590e-01,
          9.82258081e-01, 9.90322590e-01, 9.82258081e-01, 9.83870983e-01,
          9.58064497e-01, 9.85483885e-01, 9.69354868e-01, 9.74193573e-01,
          9.74193573e-01, 9.88709688e-01, 9.83870983e-01, 9.88709688e-01,
          9.87096786e-01, 9.80645180e-01, 9.90322590e-01, 9.82258081e-01,
          9.87096786e-01, 9.87096786e-01, 9.90322590e-01, 9.66129005e-01,
          9.66129005e-01, 9.90322590e-01, 9.82258081e-01, 9.91935492e-01,
          9.85483885e-01, 9.80645180e-01, 9.90322590e-01, 9.93548393e-01,
          9.90322590e-01, 9.82258081e-01, 9.83870983e-01, 9.90322590e-01,
          9.82258081e-01, 9.72580671e-01, 9.93548393e-01, 9.77419376e-01,
          9.83870983e-01, 9.82258081e-01, 9.66129005e-01, 9.87096786e-01,
          9.79032278e-01, 9.88709688e-01, 9.88709688e-01 ]
      - [ 2.02929944e-01, 5.38587511e-01, 6.17540658e-01, 1.,
          7.80467868e-01, 2.60797411e-01, 1.18256569e-01, 4.81043383e-02,
          1.19566703e-02, 0., 3.80118610e-03, 1.72022507e-02,
          1.38492268e-02, 1.86617728e-02, 3.83673646e-02, 2.80806392e-01,
          5.20225167e-01, 6.61641955e-01, 1., 9.58921790e-01,
          3.63720775e-01, 1.41497537e-01, 6.58444166e-02, 1.91913527e-02,
          0., 7.79046025e-03, 1.74601395e-02, 1.34639964e-02,
          1.94739085e-02, 4.26075831e-02, 1., 6.38885617e-01,
          4.54111993e-01, 5.64802766e-01, 0., 1.36186317e-01,
          1.85719356e-01, 1.95728421e-01, 2.00732946e-01, 2.13066950e-01,
          2.16377035e-01, 2.27095395e-01, 2.22563744e-01, 2.20948100e-01,
          2.40138710e-01, 2.58344024e-01, 5.95864773e-01, 7.32238472e-01,
          1., 4.43717927e-01, 1.69398054e-01, 8.78771171e-02,
          3.62904556e-02, 1.80011634e-02, 0., 1.52340555e-03,
          6.26469683e-03, 1.12787196e-02, 1.67214461e-02, 3.52285728e-02,
          4.55319911e-01, 5.66184342e-01, 8.74029219e-01, 1.,
          6.91905558e-01, 2.12228775e-01, 1.02861643e-01, 4.84857075e-02,
          2.15731077e-02, 0., 8.39001965e-04, 4.44455910e-03,
          1.20170899e-02, 1.70252863e-02, 4.21308056e-02, 1.,
          1.93373054e-01, 2.24333644e-01, 2.04452813e-01, 0.,
          3.44517604e-02, 4.73293625e-02, 5.01515642e-02, 5.76356240e-02,
          5.59632070e-02, 5.68621308e-02, 5.70502765e-02, 6.31545931e-02,
          5.89526482e-02, 7.07849935e-02, 0., 0., 0., 0., 0.,
          2.37671074e-07, 2.71737263e-05, 1.77318463e-03, 1.,
          5.12660444e-02, 2.19718996e-03, 2.68687145e-03, 2.46536219e-03,
          0., 0., 0., 0., 0., 0., 0., 3.57341065e-07, 3.43047395e-05,
          1.83065818e-03, 1., 6.26576096e-02, 1.33181014e-03,
          1.58051949e-03, 2.02219305e-03, 0., 0., 2.67836673e-04,
          2.67836673e-04, 2.67836673e-04, 2.67836673e-04, 2.67836673e-04,
          2.68344913e-04, 2.85116461e-04, 1.12216966e-03, 1., 0.,
          6.89666718e-04, 7.87754951e-04, 9.97145311e-04, 2.67836673e-04,
          2.67836673e-04, 3.83764319e-03, 2.29126681e-03, 9.84088168e-04,
          1.05293992e-03, 1.57055270e-03, 1.02498699e-02, 1.51128352e-01,
          1., 3.15913826e-01, 4.20908583e-03, 6.68462519e-07, 0., 0., 0.,
          0., 6.52383082e-03, 3.43990605e-03, 1.04639842e-03,
          1.07918622e-03, 1.44359889e-03, 2.00080369e-02, 4.46603239e-01,
          1., 4.20375824e-01, 8.06017220e-03, 1.87358717e-06, 0., 0., 0.,
          0., 6.36037951e-03, 2.70163594e-03, 1.22402993e-03,
          1.28313410e-03, 1.42231514e-03, 2.39715390e-02, 6.68493807e-01,
          1., 4.49670821e-01, 5.50050801e-03, 3.81317727e-06, 0., 0., 0.,
          0., 3.36736515e-02, 4.01870697e-04, 9.85418214e-04,
          6.03587891e-04, 8.16762273e-04, 1.99651089e-03, 9.42362123e-04,
          1.39718119e-04, 2.75934319e-04, 2.62428615e-02, 1.34150252e-01,
          2.49920902e-03, 3.15753114e-03, 1.03215571e-03, 3.37728881e-03,
          5.75885817e-04, 5.07126446e-04, 8.74836463e-04, 5.01978793e-04,
          3.82278056e-04, 3.52197792e-04, 3.89073568e-04, 2.10120823e-04,
          7.02285990e-02, 7.38900062e-03, 5.89541867e-02, 1.25184819e-01,
          3.00630578e-03, 1.26422103e-03, 1.56337756e-03, 3.59339081e-03,
          2.02294061e-04, 2.39072629e-04, 2.78683176e-04, 1.29012420e-04,
          3.26884066e-04, 6.99596887e-04, 6.72176364e-04, 1.55087200e-03,
          1.18828215e-01, 4.59799692e-02, 8.16018283e-02, 7.18592331e-02,
          4.39132040e-04, 8.84100329e-04, 7.82887917e-04, 1.24199758e-03,
          1.03118317e-03, 2.61943694e-03, 1.66776264e-03, 1.55291520e-03,
          3.90047021e-03, 5.39910560e-03, 1.76156231e-03, 2.29224330e-03,
          4.38021682e-03, 6.12484291e-03, 2.04110909e-02, 1.20923836e-02,
          1.84239110e-03, 1.85728783e-03, 1.44301436e-03, 2.02162890e-03,
          1.44288561e-03, 1.34734134e-03, 9.31993127e-04, 7.86696561e-04,
          1.55324372e-03, 3.58527410e-03, 5.14881278e-04, 2.82562873e-03,
          6.52057631e-03, 4.48401412e-03, 5.14887366e-03, 3.98343289e-03,
          1.66598556e-03, 1.96835957e-03, 2.14732415e-03, 6.21493869e-02,
          9.04092914e-04, 1.36841170e-03, 4.32942668e-03, 8.79512448e-03,
          6.91623986e-03, 3.77772376e-03, 1.49201346e-03, 9.03650001e-03,
          6.30682707e-02, 8.13921634e-03, 4.57130466e-03, 4.58935881e-03,
          1.13612914e-03, 8.73829355e-04, 3.98049578e-02, 5.79604656e-02,
          7.56494002e-04, 1.94826582e-03, 7.38976989e-03, 6.93385350e-03,
          7.47522935e-02, 1.43627180e-02, 7.52450619e-03, 1.29245836e-02,
          4.41612564e-02, 1.66500360e-02, 3.59406173e-02, 4.43983683e-03,
          4.52360548e-02, 1.13428896e-02, 1.68955065e-02, 5.29519133e-02,
          3.61577841e-03, 2.66276929e-03, 4.12552850e-03, 1.12647573e-02,
          2.35480294e-02, 5.94680347e-02, 7.62621313e-02, 6.55817054e-03,
          8.82422179e-03, 8.61437693e-02, 9.07031372e-02, 5.85026527e-03,
          6.51196241e-02, 4.10458297e-02, 7.87408575e-02, 1.41258789e-02,
          5.54702012e-03, 6.37442945e-03, 1.00234859e-02, 1.26169818e-02,
          1.42757054e-02, 2.87579484e-02, 3.49278785e-02, 6.13587350e-03,
          2.19041053e-02, 9.59805772e-03, 9.15666018e-03, 4.99250786e-03,
          2.14410406e-02, 8.44000559e-03, 4.14927714e-02, 5.36719039e-02,
          2.43891496e-02, 1.36698894e-02, 7.13769160e-03, 8.79165903e-03,
          9.64690559e-03, 1.47403739e-02, 4.76715676e-02, 1.88610256e-02,
          6.17194660e-02, 8.66945758e-02, 1.44738164e-02, 1.91883128e-02,
          8.90710950e-02, 2.31389496e-02, 1.28455302e-02, 6.73733978e-03,
          6.59681158e-03, 1.81233492e-02, 6.47789938e-03, 9.34331212e-03,
          6.19086483e-03, 2.80812588e-02, 4.40737121e-02, 8.02672431e-02,
          3.17106247e-02, 8.76414925e-02, 7.08476976e-02, 6.15313044e-03,
          1.95330903e-02, 3.14892791e-02, 8.60119238e-02, 6.14538742e-03,
          3.60311242e-03, 1.05811907e-02, 4.53262124e-03, 8.83749966e-03,
          3.04935817e-02, 5.50929941e-02, 1.02238871e-01, 4.55868728e-02,
          6.80964068e-02, 3.73455882e-02, 6.21258318e-02, 1.87558290e-02,
          1.51174804e-02, 8.28236993e-03, 1.51947085e-02, 8.40970874e-02,
          8.29208642e-02, 1.41089112e-02, 1.06124980e-02, 5.34409508e-02,
          7.35424832e-02, 4.55327742e-02, 6.04642406e-02, 4.92723286e-02,
          2.34460980e-02, 3.92194130e-02, 1.14423811e-01, 6.72356784e-02,
          5.68278246e-02, 1.54262483e-02, 3.32146813e-03, 5.87428398e-02,
          8.02151207e-03, 8.60421583e-02, 2.46158745e-02, 4.04155366e-02,
          2.76444349e-02, 9.27305873e-03, 1.24872262e-02, 5.74896820e-02,
          3.75405103e-02, 1.50193814e-02, 1.68217234e-02, 1.00949379e-02,
          1.71744972e-02, 1.35423606e-02, 1.25467200e-02, 1.15744798e-02,
          2.43608765e-02, 3.78563628e-02, 6.21185312e-03, 3.11131012e-02,
          4.49641934e-03, 1.30846435e-02, 5.77872619e-02, 2.87685376e-02,
          3.31123173e-02, 9.22118220e-03, 2.48085731e-03, 2.11014226e-02,
          8.64193402e-03, 1.59798767e-02, 1.39245465e-02, 5.20537188e-03,
          3.42548527e-02, 3.63419242e-02, 4.65399167e-03, 1.33882808e-02,
          7.29106506e-03, 1.19018778e-02, 5.20634092e-02, 2.41407119e-02,
          1.33864237e-02, 9.98738594e-03, 6.60105795e-03, 1.29507240e-02,
          1.07563911e-02, 1.21770035e-02, 6.75240979e-02, 1.09656136e-02,
          8.13454203e-03, 1.07086999e-02, 9.57694471e-01, 9.60892558e-01,
          9.49102819e-01, 9.49122012e-01, 9.46859896e-01, 7.93363214e-01,
          9.02672350e-01, 9.20481563e-01, 9.16206598e-01, 8.88793051e-01,
          9.24986601e-01, 9.25369978e-01, 9.42949176e-01, 9.41511393e-01,
          9.43236709e-01, 9.64534938e-01, 9.61429358e-01, 9.54968929e-01,
          9.40706253e-01, 9.42565739e-01, 9.31542814e-01, 8.93892348e-01,
          9.19292986e-01, 9.27708745e-01, 9.32769716e-01, 9.16283250e-01,
          9.41281319e-01, 9.59263086e-01, 9.64841664e-01, 9.60451663e-01,
          9.59589005e-01, 9.61640239e-01, 9.59934056e-01, 9.44808662e-01,
          9.33268130e-01, 9.38022375e-01, 9.29261565e-01, 9.16129887e-01,
          9.27076161e-01, 9.36201215e-01, 9.54451323e-01, 9.48681056e-01,
          9.47243333e-01, 9.64975834e-01, 9.66260254e-01, 9.64688301e-01,
          9.64975834e-01, 9.65646803e-01, 9.58189547e-01, 9.53876257e-01,
          9.44463611e-01, 9.52572644e-01, 9.62483704e-01, 9.61410165e-01,
          9.64189887e-01, 9.55774069e-01, 9.62924600e-01, 9.65090871e-01,
          9.62407053e-01, 9.59282279e-01, 9.58611310e-01, 9.64304864e-01,
          9.64822471e-01, 9.64630783e-01, 9.65359271e-01, 9.64017332e-01,
          9.63365555e-01, 9.63576436e-01, 9.64879990e-01, 9.64439094e-01,
          9.65512633e-01, 9.64400709e-01, 9.61429358e-01, 9.66126084e-01,
          9.67506349e-01, 9.61870253e-01, 9.57058489e-01, 9.60202456e-01,
          9.58342910e-01, 9.67448831e-01, 9.64496613e-01, 9.63959813e-01,
          9.68867421e-01, 9.63595569e-01, 9.67621326e-01, 9.64860797e-01,
          9.66873705e-01, 9.55275655e-01, 9.66720343e-01, 9.64860797e-01,
          9.65474248e-01, 9.63058829e-01, 9.65148389e-01, 9.63269711e-01,
          9.69538391e-01, 9.65550959e-01, 9.64669108e-01, 9.70650256e-01,
          9.70305204e-01, 9.63192999e-01, 9.68004763e-01, 9.66490328e-01,
          9.70516086e-01, 9.63097155e-01, 9.65646803e-01, 9.64266539e-01,
          9.64458227e-01, 9.61256802e-01, 9.67947245e-01, 9.69595909e-01,
          9.69730079e-01, 9.63998139e-01, 9.63308036e-01, 9.68694866e-01,
          9.65876877e-01, 9.67698038e-01, 9.65646803e-01, 9.51441586e-01,
          9.68637347e-01, 9.66394424e-01, 9.56330061e-01, 9.41549718e-01,
          9.66624498e-01, 9.36661303e-01, 9.63979006e-01, 9.50195551e-01,
          9.65972722e-01, 9.63557243e-01, 9.64189887e-01, 9.63442206e-01,
          9.66586173e-01, 9.66471136e-01, 9.68694866e-01, 9.66260254e-01,
          9.66394424e-01, 9.68349814e-01, 9.63308036e-01, 9.62637067e-01,
          9.64573264e-01, 9.63902295e-01, 9.62138653e-01, 9.66739535e-01,
          9.59013879e-01, 9.64937508e-01, 9.67678845e-01, 9.65416789e-01,
          9.64151502e-01, 9.66279447e-01, 9.62905467e-01, 9.60815907e-01,
          9.66432810e-01, 9.65589285e-01, 9.56617594e-01, 9.68234777e-01,
          9.61410165e-01, 9.49486256e-01, 9.67199624e-01, 9.67276275e-01,
          9.64554071e-01, 9.63499725e-01, 9.65397596e-01, 9.66471136e-01,
          9.68618214e-01, 9.64918315e-01, 9.68771577e-01, 9.71589625e-01,
          9.57556963e-01, 9.68733251e-01, 9.58592117e-01, 9.59684849e-01,
          9.51173246e-01, 9.60643351e-01, 9.66202736e-01, 9.60221589e-01,
          9.66126084e-01, 9.61640239e-01, 9.64093983e-01, 9.66298580e-01,
          9.65416789e-01, 9.66892898e-01, 9.71417069e-01, 9.49467063e-01,
          9.39766884e-01, 9.60125744e-01, 9.65819359e-01, 9.59723175e-01,
          9.62847948e-01, 9.56943512e-01, 9.62982118e-01, 9.65340078e-01,
          9.53224421e-01, 9.59799886e-01, 9.61122632e-01, 9.63998139e-01,
          9.56195831e-01, 9.52016711e-01, 9.58630502e-01, 9.61467683e-01,
          9.58515465e-01, 9.61141765e-01, 9.69825923e-01, 9.55563247e-01,
          9.57096875e-01, 9.63154674e-01, 9.52745199e-01, 9.63308036e-01,
          9.61678565e-01, 9.58956361e-01, 9.56617594e-01, 9.63212192e-01,
          9.60643351e-01, 9.63346362e-01, 9.61237609e-01, 9.57269371e-01,
          9.67487156e-01, 9.63097155e-01, 9.68829095e-01, 9.49831307e-01,
          9.54029620e-01, 9.62962985e-01, 9.56713438e-01, 9.62752104e-01,
          9.56138313e-01, 9.61026788e-01, 9.57058489e-01, 9.63902295e-01,
          9.55563247e-01, 9.62004423e-01, 9.65052545e-01, 9.58534598e-01,
          9.62081134e-01, 9.64726627e-01, 9.67333794e-01, 9.44406092e-01,
          9.60911751e-01, 9.59780693e-01, 9.51940060e-01, 9.62752104e-01,
          9.54221308e-01, 9.61160958e-01, 9.64362383e-01, 9.57882822e-01,
          9.56310868e-01, 9.60202456e-01, 9.63806450e-01, 9.60566700e-01,
          9.64343250e-01, 9.66471136e-01, 9.66892898e-01, 9.51077342e-01,
          9.63269711e-01, 9.57537770e-01, 9.51882541e-01, 9.63614762e-01,
          9.53339458e-01, 9.57518578e-01, 9.60930884e-01 ]
      - [ 3.05866182e-01, 7.24526346e-02, 5.99154755e-02, 3.72879282e-02,
          1.99259907e-01, 3.23094666e-01, 7.74674952e-01, 1.,
          2.45647386e-01, 2.59438250e-02, 3.43760737e-04, 0.,
          1.65814010e-03, 2.87141325e-03, 5.45972958e-03, 7.20618010e-01,
          6.83890581e-02, 5.82573451e-02, 3.82472128e-02, 2.52786219e-01,
          2.96099305e-01, 9.86828744e-01, 1., 4.11854118e-01,
          4.96453904e-02, 0., 0., 3.03951371e-03, 7.34549155e-03,
          6.33232016e-03, 1., 3.03687640e-02, 6.39913231e-02,
          5.42299338e-02, 1.62689805e-01, 1.75704986e-01, 4.50108469e-01,
          7.80911073e-02, 0., 1.95227768e-02, 1.51843820e-02,
          1.08459871e-02, 2.16919743e-02, 3.03687640e-02, 3.47071588e-02,
          2.65702486e-01, 7.34546483e-02, 4.81397696e-02, 3.96530628e-02,
          1.42966826e-02, 1.10410228e-01, 2.09345758e-01, 2.77363926e-01,
          6.02639377e-01, 1., 3.79889190e-01, 3.74535732e-02,
          9.12995660e-04, 2.07499019e-04, 0., 5.06984413e-01,
          9.99726132e-02, 4.62886877e-02, 3.72500680e-02, 1.75294448e-02,
          1.34757593e-01, 2.22130924e-01, 2.84853458e-01, 7.38701701e-01,
          1., 6.40646398e-01, 9.09339935e-02, 2.73897575e-04,
          2.73897575e-04, 0., 1., 4.26638909e-02, 2.49739848e-02,
          2.60145683e-02, 6.24349620e-03, 7.49219581e-02, 1.18626431e-01,
          1.20707594e-01, 3.11134249e-01, 5.40062428e-01, 1.21748179e-01,
          8.32466222e-03, 1.04058273e-02, 0., 0., 0., 0., 4.00531553e-02,
          1., 5.84576726e-01, 1.82831883e-01, 8.55083540e-02,
          1.37463361e-01, 3.66053760e-01, 8.31973273e-03, 1.15551840e-04,
          0., 0., 0., 0., 0., 0., 1.20820872e-01, 1., 6.69067681e-01,
          2.23430276e-01, 7.02636614e-02, 1.45284042e-01, 8.97934198e-01,
          2.60940474e-02, 2.71812984e-04, 0., 0., 0., 0., 0., 0.,
          8.46366137e-02, 7.23704398e-01, 1.95952162e-01, 3.25053670e-02,
          5.21312468e-02, 9.38362479e-02, 1., 2.14658072e-03,
          3.06654401e-04, 0., 0., 0., 0., 0., 0., 0., 0., 0., 0.,
          2.70180055e-04, 1.43354367e-02, 2.28079647e-01, 2.31242344e-01,
          1.37680575e-01, 2.04844162e-01, 7.76576996e-01, 1.,
          5.30506521e-02, 0., 0., 0., 0., 0., 0., 7.58889830e-04,
          2.64527313e-02, 2.42953166e-01, 2.09236771e-01, 1.07762359e-01,
          1.80290550e-01, 7.07393765e-01, 1., 2.29618385e-01, 0., 0., 0.,
          0., 0., 0., 1.27361494e-03, 3.03544886e-02, 2.93568254e-01,
          2.43472725e-01, 1.05073236e-01, 2.23519430e-01, 6.38081074e-01,
          1., 1.06134580e-03, 2.94828359e-02, 1.19411834e-02,
          1.31170554e-02, 1.58330426e-02, 6.67105941e-03, 2.24466505e-03,
          2.29990901e-03, 2.57457653e-03, 2.85234372e-03, 2.68920814e-03,
          1.41733920e-03, 1.67190447e-03, 1.45771680e-03, 1.79839379e-03,
          1.52970897e-03, 2.63186079e-03, 1.36463367e-03, 2.91713793e-03,
          4.70360508e-03, 4.86194529e-03, 4.06686356e-03, 5.14159305e-03,
          4.63130046e-03, 1.53373918e-02, 2.59441752e-02, 2.70371535e-03,
          2.38519651e-03, 3.29369656e-03, 4.01558587e-03, 1.95303233e-03,
          2.34250794e-03, 3.94164911e-03, 3.44931660e-03, 1.42811250e-03,
          1.74773647e-03, 2.40528421e-03, 2.75706383e-03, 1.82273600e-03,
          2.35675857e-03, 2.99633369e-02, 7.04508945e-02, 2.63984650e-02,
          2.85911607e-03, 3.99023201e-03, 2.42938660e-03, 2.53540161e-03,
          2.85302661e-03, 3.69397132e-03, 1.35058595e-03, 1.07905897e-03,
          1.42225483e-03, 1.93712499e-03, 2.13598507e-03, 1.31858909e-03,
          1.06601615e-03, 1.21902889e-02, 1.31022900e-01, 9.09194443e-03,
          1.73024815e-02, 2.60012737e-03, 1.56389119e-03, 1.49910955e-03,
          2.40189885e-03, 1.20180554e-03, 1.40945578e-03, 1.72832934e-03,
          1.58193242e-03, 1.20906776e-03, 1.38118619e-03, 1.50687224e-03,
          1.26142544e-03, 7.66227301e-03, 6.00493997e-02, 1.68875620e-01,
          2.28182431e-02, 1.51564577e-03, 1.68171665e-03, 1.67074508e-03,
          1.19582773e-03, 2.01209052e-03, 4.64498810e-03, 1.09545700e-03,
          9.61374841e-04, 1.01519772e-03, 8.28508695e-04, 1.48376101e-03,
          9.83842998e-04, 6.91739982e-03, 2.75432747e-02, 8.46296027e-02,
          1.40658647e-01, 3.77242044e-02, 1.00775308e-03, 7.13831745e-04,
          1.87547586e-03, 6.91664545e-03, 7.02341087e-03, 9.50730697e-04,
          9.45898413e-04, 1.53793418e-03, 2.11680774e-03, 2.87498813e-03,
          2.11053924e-03, 7.85590429e-03, 3.75542702e-04, 3.83995101e-02,
          1.68742910e-01, 1.31993756e-01, 1.11692427e-02, 1.49106758e-03,
          4.75620758e-03, 4.16476652e-02, 3.01606022e-02, 2.17276812e-03,
          3.28445830e-03, 2.45217863e-03, 3.27240420e-03, 3.93711729e-03,
          4.36131191e-03, 8.91468301e-03, 8.60926739e-05, 2.07225252e-02,
          1.28319904e-01, 1.21515080e-01, 2.89821588e-02, 1.13999052e-02,
          3.10154334e-02, 1.25259291e-02, 1.59499511e-01, 3.24381981e-03,
          1.62314333e-03, 3.57440161e-03, 3.38622066e-03, 6.25937665e-03,
          8.09205230e-03, 6.89060008e-03, 4.13648195e-05, 2.81701027e-03,
          6.72203526e-02, 1.22214437e-01, 6.55690134e-02, 2.20196731e-02,
          2.76528206e-02, 1.87652395e-03, 1.54496893e-01, 1.24737702e-03,
          1.08158123e-03, 2.51835980e-03, 3.75082344e-03, 1.81623793e-03,
          4.36618133e-03, 6.27891347e-03, 3.14314995e-04, 3.78317572e-03,
          2.67559513e-02, 1.38547001e-02, 8.43902677e-03, 3.24394205e-03,
          3.88704659e-03, 4.66267299e-03, 7.79515877e-02, 3.53610562e-03,
          2.56923074e-03, 1.55422767e-03, 1.11225713e-03, 1.39088556e-03,
          1.47063506e-03, 3.81442951e-03, 7.41705808e-05, 5.18416381e-03,
          1.89199299e-02, 3.71020846e-02, 1.14833482e-03, 3.00814793e-03,
          5.32150781e-03, 2.12008180e-03, 3.21818888e-02, 1.35194953e-03,
          9.03254957e-04, 9.96736111e-04, 1.11672678e-03, 1.47407013e-03,
          1.14121835e-03, 3.49390320e-02, 2.11927388e-02, 4.94300760e-03,
          2.69752163e-02, 3.29770632e-02, 1.10921299e-03, 3.46738985e-03,
          5.52657014e-03, 5.79346856e-03, 1.21288057e-02, 1.31146016e-03,
          1.68560049e-03, 1.11056049e-03, 1.39787293e-03, 2.31780182e-03,
          1.58047061e-02, 3.58728729e-02, 5.00862114e-03, 5.97137539e-03,
          2.29486208e-02, 6.54136203e-03, 7.51092285e-03, 4.68327431e-03,
          7.17291748e-03, 2.01664660e-02, 2.32968610e-02, 2.07247166e-03,
          2.79575260e-03, 2.70522037e-03, 9.82363825e-04, 5.27856522e-04,
          7.16821058e-04, 1.01942150e-03, 6.67453976e-04, 4.11114481e-04,
          3.21000181e-02, 1.55971944e-02, 2.86162682e-02, 9.81641281e-03,
          2.42107548e-03, 6.36098150e-04, 8.35701649e-04, 3.02600302e-03,
          2.30845972e-03, 1.99107849e-03, 1.31608802e-03, 1.23629626e-03,
          1.61762012e-03, 6.46598521e-04, 7.31844571e-04, 8.49382894e-04,
          4.57151933e-03, 3.99696194e-02, 1.39207058e-02, 8.35475512e-03,
          7.12490582e-04, 5.94128156e-04, 7.22829660e-04, 4.04907158e-03,
          1.62465917e-03, 6.34216238e-04, 4.40029020e-04, 2.05342681e-03,
          2.00012419e-03, 8.35174927e-04, 6.54089148e-04, 2.44276226e-03,
          1.27837271e-03, 1.38117746e-02, 3.42961885e-02, 1.06757553e-03,
          4.05682251e-04, 7.63743592e-04, 6.55201788e-04, 9.74090099e-01,
          9.90322590e-01, 9.87096786e-01, 1., 9.95161295e-01,
          9.90322590e-01, 9.87096786e-01, 9.82258081e-01, 9.90322590e-01,
          9.87096786e-01, 9.82258081e-01, 9.77419376e-01, 9.79032278e-01,
          9.85483885e-01, 9.80645180e-01, 9.85483885e-01, 9.80645180e-01,
          9.90322590e-01, 9.95161295e-01, 9.88709688e-01, 9.90322590e-01,
          9.91935492e-01, 9.91935492e-01, 9.87096786e-01, 9.93548393e-01,
          9.77419376e-01, 9.88709688e-01, 9.93548393e-01, 9.88709688e-01,
          9.87096786e-01, 9.90322590e-01, 9.85483885e-01, 9.85483885e-01,
          9.87096786e-01, 9.80645180e-01, 9.87096786e-01, 9.87096786e-01,
          9.91935492e-01, 9.93548393e-01, 9.79032278e-01, 9.88709688e-01,
          9.91935492e-01, 9.80645180e-01, 9.87096786e-01, 9.93548393e-01,
          9.82258081e-01, 9.88709688e-01, 9.95161295e-01, 9.98387098e-01,
          9.85483885e-01, 9.88709688e-01, 9.83870983e-01, 9.90322590e-01,
          9.75806475e-01, 9.74193573e-01, 9.66129005e-01, 9.79032278e-01,
          9.43548381e-01, 9.91935492e-01, 9.75806475e-01, 9.80645180e-01,
          9.85483885e-01, 9.85483885e-01, 9.72580671e-01, 9.85483885e-01,
          9.90322590e-01, 9.90322590e-01, 9.82258081e-01, 9.90322590e-01,
          9.83870983e-01, 9.85483885e-01, 9.33870971e-01, 9.46774185e-01,
          9.70967770e-01, 9.88709688e-01, 9.88709688e-01, 9.90322590e-01,
          9.91935492e-01, 9.85483885e-01, 9.88709688e-01, 9.83870983e-01,
          9.61290300e-01, 9.90322590e-01, 9.83870983e-01, 9.82258081e-01,
          9.85483885e-01, 9.83870983e-01, 9.46774185e-01, 9.16129053e-01,
          9.45161283e-01, 9.91935492e-01, 9.83870983e-01, 9.67741907e-01,
          9.74193573e-01, 9.85483885e-01, 9.91935492e-01, 9.93548393e-01,
          9.85483885e-01, 9.66129005e-01, 9.82258081e-01, 9.90322590e-01,
          9.88709688e-01, 9.85483885e-01, 8.98387074e-01, 8.16129029e-01,
          9.54838693e-01, 9.75806475e-01, 9.93548393e-01, 9.74193573e-01,
          9.79032278e-01, 9.91935492e-01, 9.96774197e-01, 9.98387098e-01,
          9.85483885e-01, 9.88709688e-01, 9.82258081e-01, 9.88709688e-01,
          9.93548393e-01, 9.90322590e-01, 8.85483861e-01, 7.45161295e-01,
          9.12903249e-01, 9.83870983e-01, 9.88709688e-01, 9.95161295e-01,
          9.87096786e-01, 9.87096786e-01, 9.87096786e-01, 9.93548393e-01,
          9.87096786e-01, 9.85483885e-01, 9.90322590e-01, 9.88709688e-01,
          9.90322590e-01, 9.90322590e-01, 9.77419376e-01, 8.41935456e-01,
          9.46774185e-01, 9.95161295e-01, 9.70967770e-01, 9.95161295e-01,
          9.95161295e-01, 9.87096786e-01, 9.83870983e-01, 9.59677398e-01,
          9.69354868e-01, 9.79032278e-01, 9.85483885e-01, 9.93548393e-01,
          9.83870983e-01, 9.85483885e-01, 9.83870983e-01, 8.98387074e-01,
          9.38709676e-01, 1., 9.59677398e-01, 9.87096786e-01,
          9.58064497e-01, 9.43548381e-01, 9.85483885e-01, 9.93548393e-01,
          9.79032278e-01, 9.87096786e-01, 9.83870983e-01, 9.83870983e-01,
          9.83870983e-01, 9.88709688e-01, 9.75806475e-01, 8.54838729e-01,
          9.90322590e-01, 9.90322590e-01, 7.40322590e-01, 9.12903249e-01,
          9.61290300e-01, 9.79032278e-01, 9.88709688e-01, 9.95161295e-01,
          9.80645180e-01, 9.64516103e-01, 9.87096786e-01, 9.85483885e-01,
          9.75806475e-01, 9.83870983e-01, 9.88709688e-01, 9.25806463e-01,
          9.64516103e-01, 9.56451595e-01, 9.54838693e-01, 9.32258070e-01,
          9.77419376e-01, 9.90322590e-01, 9.61290300e-01, 9.87096786e-01,
          9.79032278e-01, 9.82258081e-01, 9.83870983e-01, 9.83870983e-01,
          9.77419376e-01, 9.77419376e-01, 9.82258081e-01, 9.64516103e-01,
          9.53225791e-01, 9.87096786e-01, 9.88709688e-01, 9.96774197e-01,
          9.83870983e-01, 9.87096786e-01, 9.96774197e-01, 9.91935492e-01,
          9.90322590e-01, 9.79032278e-01, 9.91935492e-01, 9.67741907e-01,
          9.46774185e-01, 9.79032278e-01, 9.67741907e-01, 9.45161283e-01,
          9.38709676e-01, 9.82258081e-01, 9.80645180e-01, 9.75806475e-01,
          9.83870983e-01, 9.70967770e-01, 9.69354868e-01, 9.87096786e-01,
          9.87096786e-01, 9.88709688e-01, 9.75806475e-01, 9.70967770e-01,
          9.83870983e-01, 9.77419376e-01, 9.40322578e-01, 9.32258070e-01,
          9.38709676e-01, 9.74193573e-01, 9.95161295e-01, 9.87096786e-01,
          9.74193573e-01, 9.74193573e-01, 9.61290300e-01, 9.75806475e-01,
          9.91935492e-01, 9.82258081e-01, 9.12903249e-01, 9.51612890e-01,
          9.80645180e-01, 9.77419376e-01, 9.54838693e-01, 9.32258070e-01,
          9.72580671e-01, 9.74193573e-01, 9.80645180e-01, 9.88709688e-01,
          9.80645180e-01, 9.72580671e-01, 9.70967770e-01, 9.49999988e-01 ]
      - [ 1.17882594e-01, 8.38223100e-01, 1., 5.66949546e-01,
          1.93381846e-01, 1.85977995e-01, 1.99602112e-01, 1.98141485e-01,
          2.00886443e-01, 2.31081113e-01, 1.53970137e-01, 1.18209980e-01,
          7.70858005e-02, 4.96864691e-02, 0., 1.28515050e-01, 1.,
          8.76418352e-01, 6.19881570e-01, 1.26541689e-01, 1.18648246e-01,
          1.23581648e-01, 1.27281696e-01, 1.54662058e-01, 2.55550086e-01,
          9.37345847e-02, 7.96743929e-02, 4.66206223e-02, 3.55204754e-02,
          0., 6.34277984e-02, 1., 2.98920363e-01, 2.12550610e-01,
          2.69905534e-02, 5.06072864e-02, 3.23886648e-02, 4.92577590e-02,
          8.77192989e-02, 1.95681509e-02, 2.15924419e-02, 3.71120125e-02,
          2.09176783e-02, 2.09176783e-02, 0., 1.59649611e-01, 1.,
          8.80905449e-01, 4.94097680e-01, 1.89448208e-01, 1.67835489e-01,
          1.86802760e-01, 1.85829446e-01, 1.85405180e-01, 2.48546258e-01,
          1.79365590e-01, 1.15001619e-01, 7.09276497e-02, 4.36497033e-02,
          0., 1.64091095e-01, 1., 5.61203718e-01, 6.01057351e-01,
          1.10410735e-01, 8.64172429e-02, 9.69906449e-02, 9.33306217e-02,
          9.78039876e-02, 2.53761679e-01, 2.13704765e-01, 6.42537624e-02,
          3.94469313e-02, 2.60268394e-02, 0., 1.03546098e-01, 1.,
          2.50354618e-01, 1.98581554e-02, 1.98581554e-02, 2.83687934e-02,
          2.69503538e-02, 2.34042555e-02, 3.68794315e-02, 2.02836886e-01,
          2.55319141e-02, 1.56028373e-02, 1.77304968e-02, 1.63120572e-02,
          0., 0., 0., 0., 0., 0., 0., 0., 1.02797851e-01, 1.,
          1.60545737e-01, 8.53958540e-03, 2.15219072e-04, 0., 0., 0., 0.,
          0., 0., 0., 0., 0., 0., 8.07838738e-02, 1., 2.40126655e-01,
          7.65906461e-03, 5.56244922e-04, 0., 0., 0., 0., 0., 0., 0., 0.,
          0., 0., 1.40115336e-01, 1., 1.66246176e-01, 2.16255174e-03,
          9.01063249e-05, 0., 0., 0., 0., 0., 2.45691190e-04,
          2.70260312e-03, 9.16428119e-03, 2.44954117e-02, 7.70487562e-02,
          5.94032168e-01, 1., 1.80091634e-01, 1.45289481e-01,
          2.45691208e-05, 0., 0., 0., 0., 0., 3.99653625e-04,
          1.79844140e-03, 5.92819555e-03, 2.43788715e-02, 7.28701800e-02,
          6.25324726e-01, 1., 2.44854465e-01, 1.95097581e-01,
          6.66089400e-05, 0., 0., 0., 0., 0., 1.80586911e-04,
          1.26410834e-03, 2.61851004e-03, 2.03160271e-02, 6.16704300e-02,
          4.22121882e-01, 1., 2.29345366e-01, 1.71196386e-01, 0., 0., 0.,
          0., 4.38697785e-02, 1.40877688e-04, 8.40971625e-05,
          3.97908188e-05, 1.15000024e-04, 6.36452096e-05, 2.67282274e-04,
          1.16011570e-03, 5.43245906e-03, 2.96476521e-02, 4.74105515e-02,
          3.54120345e-03, 4.69291932e-04, 4.18932131e-03, 2.38160603e-02,
          1.46510778e-03, 6.50931001e-02, 4.60362389e-05, 1.45477490e-04,
          1.59359814e-04, 2.34178314e-03, 6.89210137e-03, 4.16948041e-03,
          8.71480163e-03, 2.08829227e-03, 1.35146384e-03, 1.18180513e-02,
          2.00199597e-02, 1.46465255e-02, 3.29696969e-03, 9.83852670e-02,
          7.85345659e-02, 2.94428430e-02, 2.85048391e-05, 1.83435550e-04,
          6.02113316e-03, 3.83817554e-02, 8.84207338e-03, 1.70362741e-02,
          1.33198984e-02, 6.28379174e-03, 6.20703679e-04, 3.92523252e-05,
          2.15473992e-04, 3.53871123e-03, 3.35401222e-02, 9.71795246e-02,
          2.18781903e-02, 1.18917646e-02, 4.30339096e-05, 5.05053019e-03,
          1.09032635e-02, 2.08859872e-02, 2.48754434e-02, 4.06051287e-03,
          5.95595594e-03, 9.22568422e-03, 1.12930117e-02, 2.26120255e-03,
          1.54493283e-03, 1.97539642e-03, 3.47629227e-02, 3.18678990e-02,
          7.81679004e-02, 1.25736207e-01, 1.04019337e-03, 1.10265175e-02,
          1.12609090e-02, 5.80298156e-02, 6.07032143e-02, 1.40247438e-02,
          5.79669606e-03, 1.06769251e-02, 1.36903981e-02, 3.01287808e-02,
          1.98662244e-02, 1.26345987e-02, 3.29723284e-02, 7.59668043e-03,
          1.28411260e-02, 1.17349206e-02, 3.03998950e-05, 2.53856961e-05,
          4.21569310e-03, 6.76587399e-04, 1.72410661e-03, 2.33984276e-04,
          5.95219200e-03, 5.68848941e-03, 4.80105681e-03, 1.13831367e-02,
          8.81712418e-03, 1.50183477e-02, 5.73901348e-02, 5.01054227e-02,
          1.15647577e-02, 9.61138308e-03, 1.21900441e-04, 1.57927367e-04,
          1.05674714e-02, 3.17071341e-02, 3.07308380e-02, 1.56251024e-02,
          7.94959255e-03, 3.99011746e-03, 1.04094576e-03, 4.26845532e-03,
          1.40047288e-02, 2.68907268e-02, 2.49291416e-02, 2.97705382e-02,
          2.23003812e-02, 2.08959989e-02, 9.39394813e-05, 8.24482267e-05,
          5.60637855e-04, 3.99168022e-02, 1.80673357e-02, 4.55244817e-02,
          1.09232618e-02, 1.14205098e-02, 5.94386226e-03, 1.26996953e-02,
          5.15010729e-02, 4.17622551e-02, 3.03003564e-02, 3.04012112e-02,
          1.21239340e-02, 2.57991049e-02, 6.76404670e-05, 1.30268410e-04,
          1.99726447e-02, 4.96732295e-02, 5.77969961e-02, 2.25501396e-02,
          2.58184336e-02, 2.49881037e-02, 2.70493068e-02, 3.06937397e-02,
          4.69386810e-03, 1.84884784e-03, 6.01868238e-03, 1.54778836e-02,
          3.94146964e-02, 4.36262600e-02, 1.61846867e-04, 1.01982601e-04,
          7.25645870e-02, 4.12145518e-02, 4.01892178e-02, 1.42916404e-02,
          1.85444131e-02, 5.04703373e-02, 2.76946630e-02, 3.69470306e-02,
          4.03465849e-04, 5.46289189e-03, 3.26819718e-03, 6.81926031e-03,
          2.25474685e-03, 1.72332511e-04, 7.54820503e-05, 3.51299095e-04,
          8.51487666e-02, 4.15213630e-02, 3.70536633e-02, 7.93087184e-02,
          6.78331181e-02, 4.54616807e-02, 3.23257707e-02, 2.62882747e-02,
          3.33097838e-02, 7.41175236e-03, 4.39006463e-03, 5.19757904e-03,
          1.37027906e-04, 1.29135427e-04, 1.72508662e-05, 1.68575756e-02,
          6.85532987e-02, 5.54381199e-02, 1.10862017e-01, 9.60112810e-02,
          1.32413581e-03, 9.00806021e-03, 4.59270030e-02, 2.72413325e-02,
          1.59042552e-02, 2.32116692e-02, 1.90993454e-02, 4.28870739e-03,
          3.58666643e-04, 4.66616737e-04, 6.35035531e-06, 8.55526105e-06,
          6.84502423e-02, 1.50364647e-02, 5.14006848e-03, 3.08314897e-03,
          7.93311093e-03, 4.05998714e-03, 6.04107566e-02, 6.75068647e-02,
          3.66549417e-02, 3.42493504e-02, 2.33693907e-04, 3.48969246e-04,
          2.35539104e-04, 9.01807871e-05, 6.14491819e-06, 1.12301313e-05,
          2.81498447e-04, 1.51366787e-02, 5.75794885e-03, 3.62355582e-04,
          2.13677340e-05, 4.31378046e-03, 1.34253548e-02, 4.30997554e-03,
          6.33110106e-02, 5.57006411e-02, 1.98446840e-04, 8.26143296e-05,
          2.44937364e-05, 1.00646066e-05, 1.69956220e-05, 2.24224950e-05,
          3.37625643e-05, 2.78959105e-05, 1.86312409e-05, 1.85032568e-05,
          8.93934612e-06, 4.15714567e-05, 1.24644265e-02, 3.20931301e-02,
          1.52751199e-05, 3.13771452e-05, 4.06144900e-05, 2.08250931e-05,
          8.50165179e-06, 2.94346064e-05, 1.47793535e-05, 2.15340187e-05,
          2.83817426e-05, 7.40335418e-06, 1.10349183e-05, 8.87421538e-06,
          3.49166544e-06, 1.87271544e-05, 2.60082288e-05, 5.15372049e-05,
          3.06916263e-05, 1.76541380e-05, 6.64857071e-05, 1.25142600e-04,
          2.18289948e-04, 1.92733787e-04, 8.37444127e-01, 7.24193573e-01,
          6.03225827e-01, 6.11290336e-01, 6.93548381e-01, 5.62903225e-01,
          6.41935468e-01, 7.17741907e-01, 7.85483897e-01, 9.27419364e-01,
          9.64516103e-01, 9.04838681e-01, 7.75806427e-01, 8.80645156e-01,
          9.09677446e-01, 8.38709652e-01, 9.54838693e-01, 6.41935468e-01,
          7.38709688e-01, 7.80645132e-01, 6.98387086e-01, 7.45161295e-01,
          8.22580636e-01, 8.29032242e-01, 7.37096786e-01, 7.58064508e-01,
          8.85483861e-01, 9.59677398e-01, 9.24193561e-01, 9.16129053e-01,
          9.43548381e-01, 9.70967770e-01, 9.69354868e-01, 5.69354832e-01,
          7.20967770e-01, 7.25806475e-01, 9.43548381e-01, 9.45161283e-01,
          9.56451595e-01, 9.61290300e-01, 9.33870971e-01, 7.17741907e-01,
          5.35483897e-01, 5.77419341e-01, 7.62903214e-01, 9.12903249e-01,
          9.25806463e-01, 9.77419376e-01, 9.67741907e-01, 7.17741907e-01,
          8.11290324e-01, 9.74193573e-01, 9.51612890e-01, 9.32258070e-01,
          9.40322578e-01, 8.91935468e-01, 9.32258070e-01, 9.14516151e-01,
          8.95161271e-01, 6.09677434e-01, 6.58064544e-01, 9.30645168e-01,
          9.51612890e-01, 9.54838693e-01, 9.09677446e-01, 7.16129005e-01,
          8.54838729e-01, 7.87096798e-01, 9.20967758e-01, 9.38709676e-01,
          9.40322578e-01, 9.46774185e-01, 9.48387086e-01, 9.59677398e-01,
          9.64516103e-01, 9.64516103e-01, 9.38709676e-01, 9.51612890e-01,
          9.30645168e-01, 8.98387074e-01, 9.30645168e-01, 6.90322578e-01,
          6.70967758e-01, 7.75806427e-01, 8.32258046e-01, 8.91935468e-01,
          7.95161307e-01, 8.54838729e-01, 8.12903225e-01, 9.27419364e-01,
          9.88709688e-01, 9.75806475e-01, 9.91935492e-01, 9.74193573e-01,
          9.61290300e-01, 9.43548381e-01, 8.90322566e-01, 7.58064508e-01,
          7.48387098e-01, 8.50000024e-01, 9.22580659e-01, 9.61290300e-01,
          9.22580659e-01, 9.67741907e-01, 8.46774220e-01, 7.62903214e-01,
          9.08064544e-01, 9.77419376e-01, 9.91935492e-01, 9.98387098e-01,
          9.70967770e-01, 9.80645180e-01, 9.58064497e-01, 7.64516115e-01,
          7.40322590e-01, 7.62903214e-01, 8.77419353e-01, 9.30645168e-01,
          9.80645180e-01, 9.82258081e-01, 9.67741907e-01, 8.88709664e-01,
          9.49999988e-01, 9.32258070e-01, 9.77419376e-01, 9.87096786e-01,
          9.82258081e-01, 9.80645180e-01, 9.87096786e-01, 7.51612902e-01,
          7.74193525e-01, 8.22580636e-01, 8.82258058e-01, 9.64516103e-01,
          9.85483885e-01, 9.96774197e-01, 1., 9.93548393e-01,
          9.64516103e-01, 9.54838693e-01, 8.82258058e-01, 9.35483873e-01,
          9.72580671e-01, 9.74193573e-01, 9.74193573e-01, 7.58064508e-01,
          7.54838705e-01, 8.56451631e-01, 9.91935492e-01, 9.91935492e-01,
          9.72580671e-01, 9.87096786e-01, 9.82258081e-01, 9.74193573e-01,
          9.19354856e-01, 8.08064520e-01, 9.16129053e-01, 9.49999988e-01,
          9.66129005e-01, 9.38709676e-01, 5.41935503e-01, 7.61290312e-01,
          7.17741907e-01, 9.72580671e-01, 9.98387098e-01, 9.96774197e-01,
          9.88709688e-01, 9.79032278e-01, 9.83870983e-01, 9.74193573e-01,
          9.67741907e-01, 9.64516103e-01, 9.41935480e-01, 9.85483885e-01,
          9.38709676e-01, 7.93548405e-01, 7.14516103e-01, 5.93548357e-01,
          7.01612890e-01, 7.45161295e-01, 9.66129005e-01, 8.77419353e-01,
          9.08064544e-01, 9.61290300e-01, 9.66129005e-01, 9.74193573e-01,
          9.91935492e-01, 9.93548393e-01, 9.88709688e-01, 9.88709688e-01,
          9.33870971e-01, 7.32258081e-01, 7.83870995e-01, 5.43548405e-01,
          6.08064532e-01, 8.11290324e-01, 7.74193525e-01, 8.53225827e-01,
          9.61290300e-01, 8.93548369e-01, 9.59677398e-01, 9.32258070e-01,
          9.72580671e-01, 9.90322590e-01, 9.37096775e-01, 7.11290300e-01,
          7.16129005e-01, 7.14516103e-01, 6.43548369e-01, 7.19354868e-01,
          7.77419329e-01, 8.16129029e-01, 8.58064532e-01, 8.74193549e-01,
          8.27419341e-01, 7.54838705e-01, 8.29032242e-01, 9.30645168e-01,
          7.83870995e-01, 9.08064544e-01, 8.46774220e-01, 7.08064497e-01,
          7.12903202e-01, 5.25806427e-01, 4.40322578e-01, 7.22580671e-01,
          8.09677422e-01, 8.32258046e-01, 8.22580636e-01, 7.69354820e-01,
          7.48387098e-01, 7.04838693e-01, 8.04838717e-01, 9.12903249e-01,
          8.48387122e-01, 6.67741954e-01, 6.88709676e-01, 6.37096763e-01,
          6.88709676e-01, 4.54838723e-01, 4.51612890e-01, 5.98387122e-01,
          5.87096751e-01, 7.12903202e-01, 6.14516139e-01, 6.67741954e-01,
          5.53225815e-01, 4.74193543e-01, 5.17741919e-01, 5.19354820e-01,
          6.69354856e-01, 5.66129029e-01, 4.85483885e-01, 6.38709664e-01,
          7.14516103e-01, 7.69354820e-01, 7.45161295e-01 ]
      - [ 3.94859165e-01, 1., 3.79912049e-01, 9.18500796e-02,
          3.20976116e-02, 2.60410644e-02, 2.27856152e-02, 1.13451937e-02,
          4.81150113e-03, 1.75612944e-03, 1.00545632e-03, 2.00280827e-03,
          0., 8.37795844e-04, 1.21718459e-03, 7.65843928e-01, 1.,
          7.01145589e-01, 1.42369285e-01, 4.37898375e-02, 2.58180704e-02,
          2.35314332e-02, 1.50499549e-02, 5.84362680e-03, 2.57059815e-03,
          8.51884251e-04, 2.75741471e-03, 0., 2.16707401e-03,
          2.70510605e-03, 1., 7.39357054e-01, 0., 1.15788639e-01,
          1.39325485e-01, 1.58597261e-01, 1.44933254e-01, 1.35771260e-01,
          1.43353611e-01, 1.38535663e-01, 1.41931921e-01, 1.51172891e-01,
          1.38535663e-01, 1.44617334e-01, 1.42958686e-01, 4.06239182e-01,
          1., 2.73885429e-01, 6.64467588e-02, 3.26405056e-02,
          2.53709741e-02, 1.26437861e-02, 6.46316027e-03, 4.43715602e-03,
          1.24071690e-03, 4.54492198e-04, 2.22560615e-04, 4.59177681e-05,
          2.05318024e-03, 0., 7.13275492e-01, 1., 4.67332691e-01,
          1.00151353e-01, 2.87754685e-02, 2.53160540e-02, 1.30999926e-02,
          7.14140339e-03, 4.66766721e-03, 1.27820310e-03, 2.09854246e-04,
          5.72329773e-05, 0., 2.32111523e-03, 8.77572282e-04, 1.,
          7.18721271e-01, 0., 1.11162223e-01, 1.27798215e-01,
          1.20131858e-01, 1.15532048e-01, 1.16835326e-01, 1.28564864e-01,
          1.16835326e-01, 1.18598588e-01, 1.15148731e-01, 1.17755286e-01,
          1.23811714e-01, 1.20745167e-01, 0., 0., 0., 0., 0., 0.,
          3.12298325e-05, 1.45965518e-04, 1., 3.00862759e-01,
          4.65409346e-02, 1.73393462e-03, 2.04385677e-03, 1.16093506e-04,
          3.39454715e-07, 0., 0., 0., 0., 0., 0., 8.88451632e-06,
          4.36148985e-05, 1., 9.61280465e-02, 1.18802143e-02,
          5.79108950e-04, 8.15760170e-04, 1.11460300e-04, 8.07683307e-07,
          0., 0., 0., 0., 0., 0., 7.53547556e-06, 1.31870820e-05, 1.,
          1.65234134e-02, 2.71182926e-03, 4.05031824e-05, 3.44747998e-04,
          9.41934445e-07, 0., 1.08061952e-03, 4.35506954e-04,
          2.42835871e-04, 5.15387161e-04, 1.93885260e-03, 1.24533251e-02,
          3.36573720e-02, 2.21072018e-01, 1., 6.00699277e-04,
          7.25312348e-05, 3.03544839e-05, 1.27808353e-05, 0., 0.,
          1.53031352e-03, 3.61192011e-04, 1.95804096e-04, 4.16321331e-04,
          1.47518422e-03, 1.30409328e-02, 2.49621700e-02, 3.67676347e-01,
          1., 1.02464471e-03, 7.22383993e-05, 2.09111167e-05,
          1.90101055e-05, 0., 0., 1.03611243e-03, 1.62581462e-04,
          1.35025286e-04, 2.59028107e-04, 1.16011524e-03, 8.12631752e-03,
          1.64951291e-02, 3.94717485e-01, 1., 2.17693829e-04,
          6.61348313e-05, 1.65337078e-05, 1.37780899e-05, 0., 0.,
          1.16254613e-02, 3.15779675e-04, 1.80548479e-04, 2.01269504e-04,
          1.88256279e-04, 6.09803596e-04, 1.29663572e-03, 1.80496869e-03,
          5.65811177e-04, 3.73675226e-04, 1.05946790e-03, 1.76275941e-03,
          5.72306744e-04, 6.47116976e-04, 2.57377862e-04, 4.75018169e-04,
          4.17417497e-04, 5.51613979e-04, 2.66967254e-04, 2.25237076e-04,
          7.70021405e-04, 3.76522104e-04, 2.09660875e-03, 1.48280826e-03,
          1.23720081e-03, 7.28290470e-04, 1.32044719e-03, 5.61344612e-04,
          4.65620687e-04, 5.84901369e-04, 3.01817869e-04, 3.08328017e-04,
          2.82367982e-04, 2.16721068e-03, 2.70839245e-03, 9.02547128e-03,
          1.77443344e-02, 8.34727369e-04, 1.60689338e-03, 1.62649795e-03,
          9.44166735e-04, 4.68721351e-04, 9.69453307e-04, 4.39981406e-04,
          4.42536169e-04, 4.78357339e-04, 3.00943735e-04, 5.03473682e-04,
          4.81412950e-04, 2.02880823e-03, 2.25195521e-03, 2.51519866e-02,
          9.22725350e-03, 1.62460521e-04, 8.29214754e-04, 1.99192972e-03,
          5.94314595e-04, 8.61818145e-04, 6.16731937e-04, 4.96011518e-04,
          4.20260214e-04, 5.70034375e-04, 3.19937331e-04, 5.42925380e-04,
          6.21807179e-04, 4.99426201e-03, 4.36700444e-04, 1.32467912e-03,
          7.54112087e-04, 8.34405539e-04, 7.87615427e-04, 1.44246430e-03,
          9.08269198e-04, 1.02025748e-03, 4.81627299e-04, 5.49631659e-04,
          8.43539659e-04, 2.09466629e-02, 3.16875521e-04, 6.84302358e-04,
          6.10021118e-04, 8.60177819e-03, 1.22029455e-02, 5.31525991e-04,
          3.67814442e-04, 3.34194279e-04, 7.28794490e-04, 1.90072879e-03,
          1.10944477e-03, 1.58916099e-03, 6.59313460e-04, 7.98282505e-04,
          1.49115268e-03, 1.15958776e-03, 2.80063570e-04, 5.85238333e-04,
          5.11507969e-04, 3.58897401e-03, 4.73165000e-03, 4.75051958e-04,
          1.41235231e-03, 3.46464134e-04, 8.81720334e-04, 3.86748114e-04,
          1.45700434e-03, 2.46282085e-03, 2.54382635e-03, 2.39601475e-03,
          1.50654465e-03, 1.50621275e-03, 1.82383589e-03, 6.55305455e-04,
          6.78052136e-04, 3.58776338e-02, 7.76013583e-02, 5.65078631e-02,
          1.56879891e-02, 5.47077914e-04, 9.29460337e-04, 1.22617523e-03,
          2.30162335e-03, 4.14422061e-03, 2.44992529e-03, 2.69776140e-03,
          1.86275062e-03, 1.81765005e-03, 6.46897708e-04, 6.93136943e-04,
          6.76435535e-04, 1.19296826e-01, 9.43783522e-02, 9.14047752e-03,
          6.35420680e-02, 1.77286635e-03, 7.57859147e-04, 5.75939426e-04,
          1.02450489e-03, 2.18167575e-03, 2.81483657e-03, 1.45731261e-03,
          7.61100673e-04, 2.69526092e-04, 4.87523008e-04, 1.27725129e-03,
          8.26824806e-04, 5.72948493e-02, 5.03496602e-02, 3.60806696e-02,
          5.29193655e-02, 1.21632137e-03, 1.33899250e-03, 1.03486679e-03,
          8.85176996e-04, 5.89684292e-04, 4.03329992e-04, 4.88482416e-04,
          2.32520935e-04, 2.17651279e-04, 6.22213352e-04, 9.85295046e-04,
          8.33215890e-04, 6.36659786e-02, 1.61122717e-03, 9.39039863e-04,
          7.57565082e-04, 1.73638365e-03, 2.14606849e-03, 1.85657991e-03,
          2.53888895e-03, 4.95217449e-04, 9.51406721e-04, 2.67559174e-03,
          4.91472078e-04, 5.93194552e-03, 1.76366500e-03, 9.77475429e-04,
          1.19477755e-03, 5.08874597e-04, 3.26015579e-04, 5.95296035e-04,
          8.89068469e-04, 1.90312986e-03, 2.82033673e-03, 2.87566311e-03,
          1.42030930e-03, 6.74309325e-04, 1.20683014e-02, 8.38437583e-03,
          2.04376318e-03, 1.91278923e-02, 2.70279776e-02, 9.91474022e-04,
          1.56977435e-03, 3.04174551e-04, 4.32728732e-04, 6.11660304e-04,
          1.01458118e-03, 1.95712736e-03, 2.27559288e-03, 1.88042619e-03,
          4.17443836e-04, 8.64330388e-04, 9.93570127e-03, 1.05440328e-02,
          3.30798216e-02, 5.45875030e-03, 1.97142065e-02, 1.24843977e-03,
          1.58712163e-03, 6.08721632e-04, 6.46298460e-04, 4.22442885e-04,
          1.09801814e-03, 1.46421685e-03, 1.19213958e-03, 7.23170058e-04,
          3.44818633e-04, 6.63139974e-04, 1.89422872e-02, 7.64603214e-03,
          2.88787019e-02, 8.02650023e-03, 1.65015291e-02, 1.22852577e-03,
          8.48984520e-04, 1.95919420e-03, 9.75008879e-04, 3.51834809e-04,
          5.15341235e-04, 3.45702458e-04, 6.21797633e-04, 7.93608720e-04,
          2.99374398e-04, 1.04302606e-02, 5.72629571e-02, 4.21277760e-03,
          2.84697302e-02, 2.84643658e-02, 4.47698534e-02, 5.55061363e-02,
          1.28741644e-03, 5.78951044e-03, 4.09143016e-04, 2.63709051e-04,
          3.07369104e-04, 3.65515851e-04, 3.02278728e-04, 8.04089825e-04,
          9.41978884e-04, 1.16661200e-02, 6.93242848e-02, 5.05414093e-03,
          1.50936935e-02, 3.39307673e-02, 1.18735852e-02, 1.32448261e-03,
          1.49652991e-03, 9.50385213e-01, 9.50810194e-01, 9.46823537e-01,
          9.42129612e-01, 9.43865716e-01, 9.47659492e-01, 9.47852373e-01,
          9.48173881e-01, 9.47402239e-01, 9.45344627e-01, 9.50231493e-01,
          9.46952164e-01, 9.51774716e-01, 9.50167179e-01, 9.52610612e-01,
          9.52610612e-01, 9.57818925e-01, 9.56597209e-01, 9.49009776e-01,
          9.46502030e-01, 9.45923328e-01, 9.41550910e-01, 9.43287015e-01,
          9.49459851e-01, 9.46630657e-01, 9.47402239e-01, 9.53382194e-01,
          9.48881149e-01, 9.47080791e-01, 9.48173881e-01, 9.46823537e-01,
          9.53896582e-01, 9.56532896e-01, 9.63670254e-01, 9.53896582e-01,
          9.48431075e-01, 9.47595179e-01, 9.47080791e-01, 9.45794761e-01,
          9.44765925e-01, 9.48366761e-01, 9.46952164e-01, 9.49974298e-01,
          9.44701672e-01, 9.49845672e-01, 9.48238194e-01, 9.51710403e-01,
          9.54539597e-01, 9.57111597e-01, 9.62834358e-01, 9.55761313e-01,
          9.57818925e-01, 9.46759284e-01, 9.38786030e-01, 9.42708313e-01,
          9.50617313e-01, 9.48109567e-01, 9.49652791e-01, 9.48559642e-01,
          9.43094134e-01, 9.47595179e-01, 9.45023119e-01, 9.48238194e-01,
          9.52610612e-01, 9.56661522e-01, 9.57497418e-01, 9.51453209e-01,
          9.47273672e-01, 9.43737149e-01, 9.45408940e-01, 9.43029821e-01,
          9.46373463e-01, 9.46244836e-01, 9.47723746e-01, 9.43415642e-01,
          9.47337985e-01, 9.49781358e-01, 9.52546299e-01, 9.49524164e-01,
          9.55568433e-01, 9.54796791e-01, 9.57111597e-01, 9.49459851e-01,
          9.48559642e-01, 9.43865716e-01, 9.43029821e-01, 9.42901254e-01,
          9.47016478e-01, 9.50553000e-01, 9.44830239e-01, 9.42001045e-01,
          9.50038552e-01, 9.46180582e-01, 9.47273672e-01, 9.44894552e-01,
          9.53832328e-01, 9.51646090e-01, 9.58011806e-01, 9.51903284e-01,
          9.49202657e-01, 9.47209358e-01, 9.43994343e-01, 9.48173881e-01,
          9.40136313e-01, 9.44637358e-01, 9.52610612e-01, 9.52224791e-01,
          9.50167179e-01, 9.46566343e-01, 9.55311239e-01, 9.47209358e-01,
          9.52739179e-01, 9.52610612e-01, 9.57433105e-01, 9.57497418e-01,
          9.50681567e-01, 9.45987642e-01, 9.43801463e-01, 9.44058657e-01,
          9.43415642e-01, 9.44830239e-01, 9.48431075e-01, 9.49138403e-01,
          9.57175910e-01, 9.47466552e-01, 9.49202657e-01, 9.49717104e-01,
          9.53896582e-01, 9.55954194e-01, 9.56918716e-01, 9.49845672e-01,
          9.51774716e-01, 9.53639388e-01, 9.48623955e-01, 9.41615224e-01,
          9.38657403e-01, 9.44187224e-01, 9.46887851e-01, 9.48559642e-01,
          9.50102866e-01, 9.49138403e-01, 9.44701672e-01, 9.49074090e-01,
          9.52996373e-01, 9.55504119e-01, 9.57368851e-01, 9.56532896e-01,
          9.51903284e-01, 9.49588478e-01, 9.47980940e-01, 9.41100836e-01,
          9.40650702e-01, 9.46759284e-01, 9.42965508e-01, 9.44637358e-01,
          9.42515433e-01, 9.45344627e-01, 9.49202657e-01, 9.48238194e-01,
          9.52481985e-01, 9.56404328e-01, 9.58140433e-01, 9.51903284e-01,
          9.48238194e-01, 9.49845672e-01, 9.44251537e-01, 9.47852373e-01,
          9.41550910e-01, 9.46437776e-01, 9.45730448e-01, 9.47145045e-01,
          9.50360060e-01, 9.50167179e-01, 9.56082821e-01, 9.54796791e-01,
          9.52224791e-01, 9.57561731e-01, 9.49524164e-01, 9.43544209e-01,
          9.49009776e-01, 9.51581776e-01, 9.46309149e-01, 9.46373463e-01,
          9.50745881e-01, 9.44765925e-01, 9.40907896e-01, 9.60326672e-01,
          9.57433105e-01, 9.46759284e-01, 9.63734567e-01, 9.59426463e-01,
          9.53510821e-01, 9.60390925e-01, 9.50424373e-01, 9.49331284e-01,
          9.48752582e-01, 9.47402239e-01, 9.43415642e-01, 9.46887851e-01,
          9.50360060e-01, 9.45280373e-01, 9.42065358e-01, 9.58011806e-01,
          9.58783448e-01, 9.50295806e-01, 9.56725836e-01, 9.58912015e-01,
          9.54025209e-01, 9.56340015e-01, 9.50617313e-01, 9.52739179e-01,
          9.47980940e-01, 9.45537567e-01, 9.45344627e-01, 9.47530866e-01,
          9.46566343e-01, 9.47337985e-01, 9.46116269e-01, 9.59683657e-01,
          9.58204746e-01, 9.54796791e-01, 9.56725836e-01, 9.56790149e-01,
          9.55118299e-01, 9.57626045e-01, 9.51260269e-01, 9.54475284e-01,
          9.51388896e-01, 9.49074090e-01, 9.48238194e-01, 9.45344627e-01,
          9.44187224e-01, 9.49074090e-01, 9.45151746e-01, 9.67463970e-01,
          9.56854403e-01, 9.58204746e-01, 9.75565851e-01, 9.68235612e-01,
          9.71450627e-01, 9.60198045e-01, 9.59040642e-01, 9.54153836e-01,
          9.49266970e-01, 9.49781358e-01, 9.44894552e-01, 9.49138403e-01,
          9.52224791e-01, 9.48173881e-01, 9.51517463e-01, 9.62705791e-01,
          9.56211448e-01, 9.56597209e-01, 9.66178000e-01, 9.61098254e-01,
          9.55761313e-01, 9.60262358e-01 ]
      - [ 6.86051905e-01, 1., 9.90710616e-01, 3.62345010e-01,
          2.64274597e-01, 4.51044858e-01, 7.32812464e-01, 6.21589959e-01,
          3.44830096e-01, 2.27746621e-01, 2.36064285e-01, 9.17224735e-02,
          3.15246657e-02, 1.77627839e-02, 0., 1., 9.72974539e-01,
          9.68523622e-01, 4.88349080e-01, 2.51869082e-01, 4.72436368e-01,
          6.72640026e-01, 5.47985435e-01, 3.81701827e-01, 2.03723639e-01,
          2.15010911e-01, 1.19010910e-01, 2.45527271e-02, 7.06909085e-03,
          0., 1., 1.59815326e-01, 2.11577728e-01, 3.46266525e-03,
          3.64911668e-02, 9.49125439e-02, 8.66554230e-02, 2.28180774e-02,
          0., 3.60472351e-02, 1.21637220e-02, 9.58891958e-03,
          1.10095004e-02, 8.52348376e-03, 1.71357542e-02, 6.26169622e-01,
          1., 7.99450576e-01, 3.07433873e-01, 4.12110567e-01,
          6.61334217e-01, 5.63784361e-01, 4.00861621e-01, 2.86422104e-01,
          1.68780074e-01, 7.93414116e-02, 4.91400771e-02, 2.29687765e-02,
          0., 5.09640016e-03, 8.29708815e-01, 9.85687673e-01, 1.,
          2.78812170e-01, 4.07730371e-01, 5.80999732e-01, 4.77578044e-01,
          3.61579508e-01, 2.33518302e-01, 1.91074073e-01, 7.35114515e-02,
          4.23156843e-02, 2.74034236e-02, 0., 2.41038725e-02, 1.,
          2.68539906e-01, 9.76373255e-03, 5.81352003e-02, 8.50413665e-02,
          9.62957442e-02, 1.70678981e-02, 2.06454489e-02, 3.51047181e-02,
          0., 1.03599913e-02, 1.37139447e-02, 6.70790765e-03,
          2.26578228e-02, 7.52776340e-02, 0., 0., 0., 0., 0., 0., 0., 0.,
          7.19247758e-01, 1., 4.60595071e-01, 1.28842087e-03,
          4.85627097e-04, 9.20222199e-04, 2.13236944e-03, 0., 0., 0., 0.,
          0., 0., 0., 0., 1., 3.24000627e-01, 2.45604843e-01,
          1.43065723e-03, 1.23979407e-04, 3.31155548e-04, 1.08645111e-03,
          0., 0., 0., 0., 0., 0., 0., 0., 1., 1.28819287e-01,
          4.13828045e-02, 3.43086795e-05, 3.10411851e-05, 6.20823703e-05,
          5.19531430e-04, 0., 7.55759902e-05, 1.00198835e-02,
          1.76891670e-01, 5.11326611e-01, 5.75470090e-01, 5.32202423e-01,
          9.08724785e-01, 1., 0., 0., 0., 0., 0., 0., 0., 1.02312260e-04,
          6.61729276e-03, 1.13434590e-01, 2.26218998e-01, 3.37373018e-01,
          1.94452688e-01, 4.76676106e-01, 1., 0., 0., 0., 0., 0., 0., 0.,
          1.15194933e-04, 7.30047887e-03, 1.47636697e-01, 1.87645346e-01,
          4.16084081e-01, 2.44105265e-01, 6.27920389e-01, 1., 0., 0., 0.,
          0., 0., 0., 6.96515739e-02, 3.35649750e-03, 4.46462072e-03,
          3.20477691e-03, 4.81533632e-03, 3.71162733e-03, 3.35536082e-03,
          3.61150922e-03, 4.78348928e-03, 5.53443190e-03, 6.59932289e-03,
          4.59819846e-03, 5.31835668e-03, 2.08364427e-03, 1.71282724e-03,
